{"learner":{"attributes":{"scikit_learn":"{\"_estimator_type\": \"regressor\"}"},"feature_names":["IsHoliday","Temperature","Fuel_Price","CPI","Unemployment","Size","weekofyear","month","dow","lag_1","lag_2","lag_4","rollmean_4","rollmean_8","rollmean_12"],"feature_types":["int","float","float","float","float","int","int","int","int","float","float","float","float","float","float"],"gradient_booster":{"model":{"gbtree_model_param":{"num_parallel_tree":"1","num_trees":"600"},"iteration_indptr":[0,1,2,3,4,5,6,7,8,9,10,11,12,13,14,15,16,17,18,19,20,21,22,23,24,25,26,27,28,29,30,31,32,33,34,35,36,37,38,39,40,41,42,43,44,45,46,47,48,49,50,51,52,53,54,55,56,57,58,59,60,61,62,63,64,65,66,67,68,69,70,71,72,73,74,75,76,77,78,79,80,81,82,83,84,85,86,87,88,89,90,91,92,93,94,95,96,97,98,99,100,101,102,103,104,105,106,107,108,109,110,111,112,113,114,115,116,117,118,119,120,121,122,123,124,125,126,127,128,129,130,131,132,133,134,135,136,137,138,139,140,141,142,143,144,145,146,147,148,149,150,151,152,153,154,155,156,157,158,159,160,161,162,163,164,165,166,167,168,169,170,171,172,173,174,175,176,177,178,179,180,181,182,183,184,185,186,187,188,189,190,191,192,193,194,195,196,197,198,199,200,201,202,203,204,205,206,207,208,209,210,211,212,213,214,215,216,217,218,219,220,221,222,223,224,225,226,227,228,229,230,231,232,233,234,235,236,237,238,239,240,241,242,243,244,245,246,247,248,249,250,251,252,253,254,255,256,257,258,259,260,261,262,263,264,265,266,267,268,269,270,271,272,273,274,275,276,277,278,279,280,281,282,283,284,285,286,287,288,289,290,291,292,293,294,295,296,297,298,299,300,301,302,303,304,305,306,307,308,309,310,311,312,313,314,315,316,317,318,319,320,321,322,323,324,325,326,327,328,329,330,331,332,333,334,335,336,337,338,339,340,341,342,343,344,345,346,347,348,349,350,351,352,353,354,355,356,357,358,359,360,361,362,363,364,365,366,367,368,369,370,371,372,373,374,375,376,377,378,379,380,381,382,383,384,385,386,387,388,389,390,391,392,393,394,395,396,397,398,399,400,401,402,403,404,405,406,407,408,409,410,411,412,413,414,415,416,417,418,419,420,421,422,423,424,425,426,427,428,429,430,431,432,433,434,435,436,437,438,439,440,441,442,443,444,445,446,447,448,449,450,451,452,453,454,455,456,457,458,459,460,461,462,463,464,465,466,467,468,469,470,471,472,473,474,475,476,477,478,479,480,481,482,483,484,485,486,487,488,489,490,491,492,493,494,495,496,497,498,499,500,501,502,503,504,505,506,507,508,509,510,511,512,513,514,515,516,517,518,519,520,521,522,523,524,525,526,527,528,529,530,531,532,533,534,535,536,537,538,539,540,541,542,543,544,545,546,547,548,549,550,551,552,553,554,555,556,557,558,559,560,561,562,563,564,565,566,567,568,569,570,571,572,573,574,575,576,577,578,579,580,581,582,583,584,585,586,587,588,589,590,591,592,593,594,595,596,597,598,599,600],"tree_info":[0,0,0,0,0,0,0,0,0,0,0,0,0,0,0,0,0,0,0,0,0,0,0,0,0,0,0,0,0,0,0,0,0,0,0,0,0,0,0,0,0,0,0,0,0,0,0,0,0,0,0,0,0,0,0,0,0,0,0,0,0,0,0,0,0,0,0,0,0,0,0,0,0,0,0,0,0,0,0,0,0,0,0,0,0,0,0,0,0,0,0,0,0,0,0,0,0,0,0,0,0,0,0,0,0,0,0,0,0,0,0,0,0,0,0,0,0,0,0,0,0,0,0,0,0,0,0,0,0,0,0,0,0,0,0,0,0,0,0,0,0,0,0,0,0,0,0,0,0,0,0,0,0,0,0,0,0,0,0,0,0,0,0,0,0,0,0,0,0,0,0,0,0,0,0,0,0,0,0,0,0,0,0,0,0,0,0,0,0,0,0,0,0,0,0,0,0,0,0,0,0,0,0,0,0,0,0,0,0,0,0,0,0,0,0,0,0,0,0,0,0,0,0,0,0,0,0,0,0,0,0,0,0,0,0,0,0,0,0,0,0,0,0,0,0,0,0,0,0,0,0,0,0,0,0,0,0,0,0,0,0,0,0,0,0,0,0,0,0,0,0,0,0,0,0,0,0,0,0,0,0,0,0,0,0,0,0,0,0,0,0,0,0,0,0,0,0,0,0,0,0,0,0,0,0,0,0,0,0,0,0,0,0,0,0,0,0,0,0,0,0,0,0,0,0,0,0,0,0,0,0,0,0,0,0,0,0,0,0,0,0,0,0,0,0,0,0,0,0,0,0,0,0,0,0,0,0,0,0,0,0,0,0,0,0,0,0,0,0,0,0,0,0,0,0,0,0,0,0,0,0,0,0,0,0,0,0,0,0,0,0,0,0,0,0,0,0,0,0,0,0,0,0,0,0,0,0,0,0,0,0,0,0,0,0,0,0,0,0,0,0,0,0,0,0,0,0,0,0,0,0,0,0,0,0,0,0,0,0,0,0,0,0,0,0,0,0,0,0,0,0,0,0,0,0,0,0,0,0,0,0,0,0,0,0,0,0,0,0,0,0,0,0,0,0,0,0,0,0,0,0,0,0,0,0,0,0,0,0,0,0,0,0,0,0,0,0,0,0,0,0,0,0,0,0,0,0,0,0,0,0,0,0,0,0,0,0,0,0,0,0,0,0,0,0,0,0,0,0,0,0,0,0,0,0,0,0,0,0,0,0,0,0,0,0,0,0,0,0,0,0,0,0,0,0,0,0,0,0,0,0,0,0,0,0,0,0,0,0,0,0,0,0,0,0,0,0,0,0,0,0,0,0,0,0,0,0,0,0,0,0,0,0,0,0,0,0,0,0,0],"trees":[{"base_weights":[4.079346E2,-7.36677E2,4.3022407E3,-1.1327238E2,-3.480608E3,7.4238794E3,-5.9231235E3,1.4731424E2,-2.2961748E2,-3.3187073E2,-2.775442E2,1.9542654E3,1.0853148E4,-3.4917673E2,-4.2037045E1,-3.6612262E2,2.3403613E3,6.0206245E1,-1.1110367E3,-6.0094995E2,3.0965415E3,7.0780914E2,2.6897424E2,-3.2679028E3,1.0168801E2,3.3478816E3,6.632648E2,-1.5514861E1,-7.707154E1,-5.3927364E1,8.856114E0,4.1420296E1,1.728237E2,-2.3833733E2,-9.007173E0,-1.3697383E1,5.9043133E1,1.8336557E2,4.3768353E1,4.3809067E1,1.1462999E1],"categories":[],"categories_nodes":[],"categories_segments":[],"categories_sizes":[],"default_left":[1,0,1,1,1,0,0,0,0,0,0,0,0,0,0,0,0,0,0,0,0,0,0,0,0,0,0,0,0,0,0,0,0,0,0,0,0,0,0,0,0],"id":0,"left_children":[1,3,5,7,9,11,13,15,-1,-1,17,19,21,-1,-1,23,25,-1,27,29,31,-1,-1,33,35,37,39,-1,-1,-1,-1,-1,-1,-1,-1,-1,-1,-1,-1,-1,-1],"loss_changes":[3.731392E8,1.1079339E8,6.5045056E8,6.370465E7,1.1949526E8,2.6014176E8,2.1075728E7,5.940841E7,0E0,0E0,9.982549E6,2.2292198E7,8.656422E7,0E0,0E0,5.8704104E7,1.4676556E7,0E0,1.244866E6,1.3058501E6,1.218512E6,0E0,0E0,2.6909712E7,1.5727801E7,1.52852E6,2.6116075E5,0E0,0E0,0E0,0E0,0E0,0E0,0E0,0E0,0E0,0E0,0E0,0E0,0E0,0E0],"parents":[2147483647,0,0,1,1,2,2,3,3,4,4,5,5,6,6,7,7,10,10,11,11,12,12,15,15,16,16,18,18,19,19,20,20,23,23,24,24,25,25,26,26],"right_children":[2,4,6,8,10,12,14,16,-1,-1,18,20,22,-1,-1,24,26,-1,28,30,32,-1,-1,34,36,38,40,-1,-1,-1,-1,-1,-1,-1,-1,-1,-1,-1,-1,-1,-1],"split_conditions":[2.49245E4,2.033423E4,3.864093E4,2.906604E4,2.1371803E4,2.5006783E4,3.158E0,2.3097086E4,-2.2961748E2,-3.3187073E2,5.145E1,5.141E1,2.9473828E4,-3.4917673E2,-4.2037045E1,4.984E1,6.225E1,6.0206245E1,2.032761E4,4.404E1,2.692E0,7.0780914E2,2.6897424E2,3.01E0,1.734147E4,2.1871474E2,1.955284E4,-1.5514861E1,-7.707154E1,-5.3927364E1,8.856114E0,4.1420296E1,1.728237E2,-2.3833733E2,-9.007173E0,-1.3697383E1,5.9043133E1,1.8336557E2,4.3768353E1,4.3809067E1,1.1462999E1],"split_indices":[9,10,10,14,12,14,2,12,0,0,1,1,12,0,0,1,1,0,9,1,2,0,0,2,11,3,10,0,0,0,0,0,0,0,0,0,0,0,0,0,0],"split_type":[0,0,0,0,0,0,0,0,0,0,0,0,0,0,0,0,0,0,0,0,0,0,0,0,0,0,0,0,0,0,0,0,0,0,0,0,0,0,0,0,0],"sum_hessian":[8.2E1,6.4E1,1.8E1,5.3E1,1.1E1,1.4E1,4E0,5.1E1,2E0,5E0,6E0,6E0,8E0,3E0,1E0,4.2E1,9E0,2E0,4E0,2E0,4E0,4E0,4E0,5E0,3.7E1,5E0,4E0,2E0,2E0,1E0,1E0,1E0,3E0,3E0,2E0,2.8E1,9E0,4E0,1E0,2E0,2E0],"tree_param":{"num_deleted":"0","num_feature":"15","num_nodes":"41","size_leaf_vector":"1"}},{"base_weights":[-3.7177426E2,3.0024347E2,-7.129482E3,-1.1650237E3,3.629043E3,-4.5777344E2,-3.5050747E1,-3.4471225E2,-4.5640796E3,6.041252E3,-1.3305791E3,-4.2016245E3,1.3750497E1,-3.3036523E2,-1.7601746E3,2.4026816E3,9.834309E3,-3.4848613E3,1.1167445E2,-2.564033E2,-3.5557526E1,3.6089627E2,-2.766166E3,-1.09064354E2,8.634711E0,2.9202454E3,1.1080898E1,5.90366E1,5.450929E2,2.7645035E2,-2.717315E2,1.5143152E0,1.6644072E2,-1.8177547E2,1.778018E1,1.5467856E2,4.2674145E1,3.164032E1,-1.0906543E1],"categories":[],"categories_nodes":[],"categories_segments":[],"categories_sizes":[],"default_left":[1,1,0,1,0,0,0,0,1,0,0,0,1,0,0,0,0,0,0,0,0,0,0,0,0,0,0,0,0,0,0,0,0,0,0,0,0,0,0],"id":1,"left_children":[1,3,5,7,9,-1,-1,11,13,15,17,19,21,-1,23,25,27,29,-1,-1,-1,31,33,-1,-1,35,-1,-1,-1,37,-1,-1,-1,-1,-1,-1,-1,-1,-1],"loss_changes":[4.017749E8,3.9931194E8,9.777376E7,1.5735893E8,3.071295E8,0E0,0E0,6.5038056E7,5.1389104E7,2.109934E8,7.688548E7,9.288048E6,4.3459892E7,0E0,5.260428E6,1.0641216E7,6.1032704E7,4.550453E7,0E0,0E0,0E0,3.914812E7,1.4862248E7,0E0,0E0,2.25472E5,0E0,0E0,0E0,6.667756E5,0E0,0E0,0E0,0E0,0E0,0E0,0E0,0E0,0E0],"parents":[2147483647,0,0,1,1,2,2,3,3,4,4,7,7,8,8,9,9,10,10,11,11,12,12,14,14,15,15,16,16,17,17,21,21,22,22,25,25,29,29],"right_children":[2,4,6,8,10,-1,-1,12,14,16,18,20,22,-1,24,26,28,30,-1,-1,-1,32,34,-1,-1,36,-1,-1,-1,38,-1,-1,-1,-1,-1,-1,-1,-1,-1],"split_conditions":[3.3490414E4,2.3478838E4,3.158E0,2.033423E4,3.15799E4,-4.5777344E2,-3.5050747E1,6E0,2.0986234E4,2.622921E4,4.6E1,4.383E1,1.954939E4,-3.3036523E2,5E1,3.467E0,5.233E1,1.954939E4,1.1167445E2,-2.564033E2,-3.5557526E1,1.894142E4,7.299E1,-1.09064354E2,8.634711E0,2.1871474E2,1.1080898E1,5.90366E1,5.450929E2,4.663E1,-2.717315E2,1.5143152E0,1.6644072E2,-1.8177547E2,1.778018E1,1.5467856E2,4.2674145E1,3.164032E1,-1.0906543E1],"split_indices":[12,12,2,10,10,0,0,6,12,9,6,1,11,0,6,2,1,9,0,0,0,12,1,0,0,3,0,0,0,1,0,0,0,0,0,0,0,0,0],"split_type":[0,0,0,0,0,0,0,0,0,0,0,0,0,0,0,0,0,0,0,0,0,0,0,0,0,0,0,0,0,0,0,0,0,0,0,0,0,0,0],"sum_hessian":[8.7E1,8E1,7E0,5.6E1,2.4E1,5E0,2E0,4.6E1,1E1,1.6E1,8E0,3E0,4.3E1,5E0,5E0,9E0,7E0,5E0,3E0,2E0,1E0,3.9E1,4E0,4E0,1E0,7E0,2E0,1E0,6E0,2E0,3E0,3.6E1,3E0,3E0,1E0,6E0,1E0,1E0,1E0],"tree_param":{"num_deleted":"0","num_feature":"15","num_nodes":"39","size_leaf_vector":"1"}},{"base_weights":[-2.2718228E2,5.749966E2,-4.6229385E3,-4.3003256E2,6.644265E3,-2.2359995E3,-4.2361142E2,1.5622557E2,-4.225499E3,1.1022455E4,1.1586976E3,-3.2648694E3,6.264931E1,-2.7158079E3,5.326031E2,-2.9583334E2,-8.446158E1,7.2685065E2,2.8154614E2,-1.4547673E3,2.829122E3,-2.712381E2,-5.0068003E3,-2.4602751E2,1.678863E2,-6.1556202E1,3.4442214E3,8.418843E0,-1.1752639E2,1.7076982E2,2.6757465E1,3.084931E1,-7.729749E2,-2.9287012E2,-4.0109848E1,2.0445992E1,-1.3880358E1,4.0518966E0,-1.5839244E2,2.118968E2,2.2207375E1,-4.733924E1,-1.063388E1],"categories":[],"categories_nodes":[],"categories_segments":[],"categories_sizes":[],"default_left":[1,1,0,1,0,0,0,0,0,0,0,0,0,0,0,0,0,0,0,0,0,0,0,0,0,0,0,0,0,0,0,0,0,0,0,0,0,0,0,0,0,0,0],"id":2,"left_children":[1,3,5,7,9,11,-1,13,15,17,19,21,-1,23,25,-1,-1,-1,-1,27,29,31,33,-1,35,37,39,-1,-1,-1,-1,-1,41,-1,-1,-1,-1,-1,-1,-1,-1,-1,-1],"loss_changes":[3.2001462E8,4.7254122E8,1.0968838E8,1.4974338E8,2.5141373E8,3.998795E7,0E0,6.5223612E7,2.8608672E7,3.1836288E7,3.0309286E7,4.035955E7,0E0,4.533071E7,9.190016E7,0E0,0E0,0E0,0E0,4.75762E6,3.55184E6,2.259534E6,1.3183432E7,0E0,5.430345E5,2.0188976E7,1.9548552E7,0E0,0E0,0E0,0E0,0E0,9.079575E4,0E0,0E0,0E0,0E0,0E0,0E0,0E0,0E0,0E0,0E0],"parents":[2147483647,0,0,1,1,2,2,3,3,4,4,5,5,7,7,8,8,9,9,10,10,11,11,13,13,14,14,19,19,20,20,21,21,22,22,24,24,25,25,26,26,32,32],"right_children":[2,4,6,8,10,12,-1,14,16,18,20,22,-1,24,26,-1,-1,-1,-1,28,30,32,34,-1,36,38,40,-1,-1,-1,-1,-1,42,-1,-1,-1,-1,-1,-1,-1,-1,-1,-1],"split_conditions":[3.15799E4,2.554304E4,4.159555E4,2.033423E4,1.7E1,4.6E1,-4.2361142E2,2.1110039E2,2.0986234E4,3.149765E4,2.1188968E2,1E1,6.264931E1,7.299E1,2.7099938E4,-2.9583334E2,-8.446158E1,7.2685065E2,2.8154614E2,5.141E1,3.330592E4,4.663E1,4.151239E4,-2.4602751E2,1.750841E4,4.9E1,6.225E1,8.418843E0,-1.1752639E2,1.7076982E2,2.6757465E1,3.084931E1,4.843E1,-2.9287012E2,-4.0109848E1,2.0445992E1,-1.3880358E1,4.0518966E0,-1.5839244E2,2.118968E2,2.2207375E1,-4.733924E1,-1.063388E1],"split_indices":[10,9,9,10,6,6,0,3,12,9,3,6,0,1,12,0,0,0,0,1,9,1,9,0,9,6,1,0,0,0,0,0,1,0,0,0,0,0,0,0,0,0,0],"split_type":[0,0,0,0,0,0,0,0,0,0,0,0,0,0,0,0,0,0,0,0,0,0,0,0,0,0,0,0,0,0,0,0,0,0,0,0,0,0,0,0,0,0,0],"sum_hessian":[8.9E1,7.6E1,1.3E1,6.6E1,1E1,9E0,4E0,5.8E1,8E0,5E0,5E0,7E0,2E0,6E0,5.2E1,4E0,4E0,2E0,3E0,2E0,3E0,3E0,4E0,3E0,3E0,4.4E1,8E0,1E0,1E0,2E0,1E0,1E0,2E0,3E0,1E0,2E0,1E0,4.3E1,1E0,6E0,2E0,1E0,1E0],"tree_param":{"num_deleted":"0","num_feature":"15","num_nodes":"43","size_leaf_vector":"1"}},{"base_weights":[2.728557E2,1.0435884E3,-4.936878E3,-2.4853244E2,8.46651E3,-1.070584E3,-3.990179E2,-8.757029E2,2.5421814E3,7.1034827E2,1.1286277E4,3.8897104E2,-9.488022E1,-1.09167946E2,-4.160886E3,3.8988175E0,2.7591113E3,-1.14588234E2,2.474974E3,6.662897E2,1.7225768E2,-1.0368033E1,3.954086E1,-4.0050525E3,2.73581E2,-9.96272E1,-2.9653598E2,3.17812E3,5.82381E2,2.608853E1,1.5953453E2,-2.438236E2,-3.4769886E1,1.8643793E0,1.6271007E2,1.6839276E2,4.1505993E1,3.510028E1,8.578295E0],"categories":[],"categories_nodes":[],"categories_segments":[],"categories_sizes":[],"default_left":[1,1,0,1,0,0,0,1,0,0,0,0,0,0,1,0,0,0,0,0,0,0,0,0,0,0,0,0,0,0,0,0,0,0,0,0,0,0,0],"id":3,"left_children":[1,3,5,7,9,11,-1,13,15,17,19,21,-1,23,25,-1,27,-1,29,-1,-1,-1,-1,31,33,-1,-1,35,37,-1,-1,-1,-1,-1,-1,-1,-1,-1,-1],"loss_changes":[3.424382E8,7.118612E8,1.2089326E8,1.142424E8,2.325591E8,7.9806025E6,0E0,1.330108E8,6.199576E6,2.6862482E7,8.202733E7,8.828851E5,0E0,6.670611E7,2.6558832E7,0E0,8.181888E6,0E0,2.529014E6,0E0,0E0,0E0,0E0,8.1453E6,2.8754998E7,0E0,0E0,1.21376E6,2.69905E4,0E0,0E0,0E0,0E0,0E0,0E0,0E0,0E0,0E0,0E0],"parents":[2147483647,0,0,1,1,2,2,3,3,4,4,5,5,7,7,8,8,9,9,10,10,11,11,13,13,14,14,16,16,18,18,23,23,24,24,27,27,28,28],"right_children":[2,4,6,8,10,12,-1,14,16,18,20,22,-1,24,26,-1,28,-1,30,-1,-1,-1,-1,32,34,-1,-1,36,38,-1,-1,-1,-1,-1,-1,-1,-1,-1,-1],"split_conditions":[3.788717E4,2.622921E4,4.159555E4,2.3505627E4,2.1230447E4,2.4668043E4,-3.990179E2,2.0018027E4,2.1122353E2,2.1188968E2,7.866E0,3.297E0,-9.488022E1,6E0,2.5730158E4,3.8988175E0,3.467E0,-1.14588234E2,2.692E0,6.662897E2,1.7225768E2,-1.0368033E1,3.954086E1,3.01E0,1.894142E4,-9.96272E1,-2.9653598E2,2.1871474E2,3.807E0,2.608853E1,1.5953453E2,-2.438236E2,-3.4769886E1,1.8643793E0,1.6271007E2,1.6839276E2,4.1505993E1,3.510028E1,8.578295E0],"split_indices":[10,9,9,12,14,13,0,12,3,3,4,2,0,6,13,0,2,0,2,0,0,0,0,2,12,0,0,3,2,0,0,0,0,0,0,0,0,0,0],"split_type":[0,0,0,0,0,0,0,0,0,0,0,0,0,0,0,0,0,0,0,0,0,0,0,0,0,0,0,0,0,0,0,0,0,0,0,0,0,0,0],"sum_hessian":[8.3E1,7.3E1,1E1,6.3E1,1E1,5E0,5E0,5.2E1,1.1E1,3E0,7E0,2E0,3E0,4.3E1,9E0,1E0,1E1,1E0,2E0,5E0,2E0,1E0,1E0,3E0,4E1,5E0,4E0,8E0,2E0,1E0,1E0,2E0,1E0,3.8E1,2E0,7E0,1E0,1E0,1E0],"tree_param":{"num_deleted":"0","num_feature":"15","num_nodes":"39","size_leaf_vector":"1"}},{"base_weights":[-1.1192206E1,5.838509E2,-5.828148E3,-4.673576E2,4.1813276E3,-9.0627686E2,-4.0690186E2,8.7558304E1,-2.470892E3,-7.768065E2,8.308602E3,-1.0108832E1,-5.3679237E1,3.1526944E2,-1.9822623E2,-4.0058145E3,4.991272E2,1.8263213E3,-2.1533357E3,1.004271E4,-2.2581201E2,-3.145237E2,2.0921592E3,2.9390318E1,-5.2276953E3,6.6590096E1,-2.5016058E2,2.5436316E1,1.0479722E2,-3.3677615E3,5.884858E2,6.385276E2,2.3803789E2,-1.9069208E2,-6.35034E0,1.413662E2,3.203596E1,-2.8432587E2,-5.0398632E1,6.5042443E0,-3.4772427E1,-4.5250355E1,-1.8785992E2,-8.448871E0,5.2585304E1],"categories":[],"categories_nodes":[],"categories_segments":[],"categories_sizes":[],"default_left":[1,1,0,0,0,0,0,1,1,0,1,0,0,0,0,0,0,0,0,0,0,0,0,0,1,0,0,0,0,0,0,0,0,0,0,0,0,0,0,0,0,0,0,0,0],"id":4,"left_children":[1,3,5,7,9,11,-1,13,15,17,19,-1,-1,21,-1,23,25,27,29,31,-1,33,35,-1,37,-1,39,-1,-1,41,43,-1,-1,-1,-1,-1,-1,-1,-1,-1,-1,-1,-1,-1,-1],"loss_changes":[3.3569133E8,3.347436E8,9.494547E7,7.693008E7,4.1572576E8,2.5415225E5,0E0,5.199863E7,7.038066E7,3.97655E7,2.899916E8,0E0,0E0,5.9968904E7,0E0,5.920144E7,4.076642E6,3.54753E5,2.529005E7,8.328576E7,0E0,2.5762866E7,1.3127148E7,0E0,9.756944E6,0E0,7.677422E5,0E0,0E0,1.395148E6,1.2303315E6,0E0,0E0,0E0,0E0,0E0,0E0,0E0,0E0,0E0,0E0,0E0,0E0,0E0,0E0],"parents":[2147483647,0,0,1,1,2,2,3,3,4,4,5,5,7,7,8,8,9,9,10,10,13,13,15,15,16,16,17,17,18,18,19,19,21,21,22,22,24,24,26,26,29,29,30,30],"right_children":[2,4,6,8,10,12,-1,14,16,18,20,-1,-1,22,-1,24,26,28,30,32,-1,34,36,-1,38,-1,40,-1,-1,42,44,-1,-1,-1,-1,-1,-1,-1,-1,-1,-1,-1,-1,-1,-1],"split_conditions":[4.296091E4,2.338803E4,7.787E0,2.033423E4,2.5006783E4,5.051031E4,-4.0690186E2,2.906604E4,2.1391152E4,2.725E0,3.788717E4,-1.0108832E1,-5.3679237E1,1.8119785E4,-1.9822623E2,1.853548E4,1.954939E4,5.911E1,5E1,3.110612E4,-2.2581201E2,4.231E1,6.452E1,2.9390318E1,2.1102867E4,6.6590096E1,6.29E1,2.5436316E1,1.0479722E2,4.404E1,5.141E1,6.385276E2,2.3803789E2,-1.9069208E2,-6.35034E0,1.413662E2,3.203596E1,-2.8432587E2,-5.0398632E1,6.5042443E0,-3.4772427E1,-4.5250355E1,-1.8785992E2,-8.448871E0,5.2585304E1],"split_indices":[10,9,4,9,14,10,0,14,12,2,10,0,0,12,0,10,10,1,6,12,0,1,1,0,12,0,1,0,0,1,1,0,0,0,0,0,0,0,0,0,0,0,0,0,0],"split_type":[0,0,0,0,0,0,0,0,0,0,0,0,0,0,0,0,0,0,0,0,0,0,0,0,0,0,0,0,0,0,0,0,0,0,0,0,0,0,0,0,0,0,0,0,0],"sum_hessian":[9.5E1,8.7E1,8E0,6.8E1,1.9E1,3E0,5E0,5.4E1,1.4E1,9E0,1E1,1E0,2E0,5.2E1,2E0,9E0,5E0,3E0,6E0,9E0,1E0,3.9E1,1.3E1,2E0,7E0,2E0,3E0,1E0,2E0,4E0,2E0,5E0,4E0,1E0,3.8E1,8E0,5E0,6E0,1E0,2E0,1E0,1E0,3E0,1E0,1E0],"tree_param":{"num_deleted":"0","num_feature":"15","num_nodes":"45","size_leaf_vector":"1"}},{"base_weights":[-1.2800209E2,4.449902E2,-5.5890396E3,-5.7264594E2,4.0636357E3,-8.7691E2,-3.899476E2,-2.339984E3,1.6150093E1,-1.1407291E3,7.952331E3,-9.856112E0,-5.1889923E1,-1.2015116E2,-4.822277E3,-1.3991109E2,1.2620094E2,-1.1775657E1,-1.6973555E2,9.628231E3,-2.2016673E2,-3.754106E3,1.973559E3,-5.7179307E3,-7.1177216E1,-1.0677636E2,1.2252924E3,-1.5938376E3,7.8661514E1,6.119223E2,2.2851639E2,-2.2777916E2,-3.374188E1,1.8246012E1,1.27201515E2,-3.091623E2,-8.478385E1,4.5068645E0,-1.0246094E2,3.828041E0,7.712821E1,-8.237649E0,-1.00764084E2],"categories":[],"categories_nodes":[],"categories_segments":[],"categories_sizes":[],"default_left":[1,1,0,0,0,0,0,0,0,0,1,0,0,1,0,0,0,0,0,0,0,0,0,0,0,0,0,0,0,0,0,0,0,0,0,0,0,0,0,0,0,0,0],"id":5,"left_children":[1,3,5,7,9,11,-1,13,15,17,19,-1,-1,21,23,-1,25,27,-1,29,-1,31,33,35,-1,37,39,41,-1,-1,-1,-1,-1,-1,-1,-1,-1,-1,-1,-1,-1,-1,-1],"loss_changes":[2.966255E8,3.1901898E8,8.688157E7,7.079869E7,3.9359702E8,2.32907E5,0E0,9.309528E7,1.6458787E7,2.2861794E7,2.7017178E8,0E0,0E0,8.349343E7,1.6212976E7,0E0,1.3190064E7,2.0060518E7,0E0,7.608838E7,0E0,6.797576E6,5.495408E6,7.44912E5,0E0,1.6631929E7,3.16204E6,2.077093E6,0E0,0E0,0E0,0E0,0E0,0E0,0E0,0E0,0E0,0E0,0E0,0E0,0E0,0E0,0E0],"parents":[2147483647,0,0,1,1,2,2,3,3,4,4,5,5,7,7,8,8,9,9,10,10,13,13,14,14,16,16,17,17,19,19,21,21,22,22,23,23,25,25,26,26,27,27],"right_children":[2,4,6,8,10,12,-1,14,16,18,20,-1,-1,22,24,-1,26,28,-1,30,-1,32,34,36,-1,38,40,42,-1,-1,-1,-1,-1,-1,-1,-1,-1,-1,-1,-1,-1,-1,-1],"split_conditions":[4.296091E4,2.49245E4,7.787E0,1.9E1,2.5006783E4,5.051031E4,-3.899476E2,1.2E1,4.65E1,2.876237E4,3.788717E4,-9.856112E0,-5.1889923E1,1.846118E4,2.091125E4,-1.3991109E2,2.3097086E4,2.387379E4,-1.6973555E2,3.110612E4,-2.2016673E2,4.383E1,2.7099938E4,7.127E1,-7.1177216E1,4.2E1,2.1E1,2.1145377E2,7.8661514E1,6.119223E2,2.2851639E2,-2.2777916E2,-3.374188E1,1.8246012E1,1.27201515E2,-3.091623E2,-8.478385E1,4.5068645E0,-1.0246094E2,3.828041E0,7.712821E1,-8.237649E0,-1.00764084E2],"split_indices":[10,9,4,6,14,10,0,6,1,10,10,0,0,10,9,0,12,10,0,12,0,1,12,1,0,6,6,3,0,0,0,0,0,0,0,0,0,0,0,0,0,0,0],"split_type":[0,0,0,0,0,0,0,0,0,0,0,0,0,0,0,0,0,0,0,0,0,0,0,0,0,0,0,0,0,0,0,0,0,0,0,0,0,0,0,0,0,0,0],"sum_hessian":[9.3E1,8.5E1,8E0,6.7E1,1.8E1,3E0,5E0,1.6E1,5.1E1,8E0,1E1,1E0,2E0,9E0,7E0,1E0,5E1,6E0,2E0,9E0,1E0,3E0,6E0,5E0,2E0,4.2E1,8E0,3E0,3E0,5E0,4E0,2E0,1E0,2E0,4E0,4E0,1E0,3.9E1,3E0,2E0,6E0,1E0,2E0],"tree_param":{"num_deleted":"0","num_feature":"15","num_nodes":"43","size_leaf_vector":"1"}},{"base_weights":[1.4518752E1,6.743347E2,-4.440449E3,-4.933468E2,5.448875E3,-6.5980127E3,-1.002574E2,-1.9060287E1,-3.1474453E3,2.4357347E2,9.47038E3,-3.950908E2,-8.9553474E1,-4.5622153E2,3.3089977E1,1.8212251E2,-1.8505292E2,-2.7884955E2,-5.9825E2,1.8149445E3,-1.7815337E3,6.3295844E2,2.1937573E2,-2.9137053E1,-1.9165772E0,-1.0798938E2,1.5524197E2,5.974807E2,-6.727428E1,1.9736217E2,1.4137727E2,7.9285416E1,-1.7162585E2,-1.3136859E2,8.1163845E0,4.162846E1,3.1825905E0,-8.031707E0,2.283387E1],"categories":[],"categories_nodes":[],"categories_segments":[],"categories_sizes":[],"default_left":[1,1,0,0,0,1,0,1,1,0,0,0,0,0,0,0,0,0,0,0,0,0,0,0,0,0,0,0,0,0,0,0,0,0,0,0,0,0,0],"id":6,"left_children":[1,3,5,7,9,11,13,15,17,19,21,-1,-1,23,-1,25,-1,-1,27,29,31,-1,-1,-1,-1,33,-1,35,-1,37,-1,-1,-1,-1,-1,-1,-1,-1,-1],"loss_changes":[2.7342458E8,4.5427475E8,1.1170939E8,8.3021016E7,3.3262358E8,3.598576E7,1.658252E6,4.289706E7,5.859743E7,2.8690944E7,9.033126E7,0E0,0E0,1.891475E5,0E0,4.6970612E7,0E0,0E0,6.164856E6,7.631776E6,2.7680012E7,0E0,0E0,0E0,0E0,3.5159132E7,0E0,3.2349662E5,0E0,3.518597E5,0E0,0E0,0E0,0E0,0E0,0E0,0E0,0E0,0E0],"parents":[2147483647,0,0,1,1,2,2,3,3,4,4,5,5,6,6,7,7,8,8,9,9,10,10,13,13,15,15,18,18,19,19,20,20,25,25,27,27,29,29],"right_children":[2,4,6,8,10,12,14,16,18,20,22,-1,-1,24,-1,26,-1,-1,28,30,32,-1,-1,-1,-1,34,-1,36,-1,38,-1,-1,-1,-1,-1,-1,-1,-1,-1],"split_conditions":[3.788717E4,2.49245E4,2.1382333E2,2.033423E4,2.5006783E4,2.697834E4,2.1604105E2,2.906604E4,2.1102867E4,5.911E1,3.110612E4,-3.950908E2,-8.9553474E1,6.484E1,3.3089977E1,2.6791975E4,-1.8505292E2,-2.7884955E2,2.12804E4,2.1200394E2,2.622921E4,6.3295844E2,2.1937573E2,-2.9137053E1,-1.9165772E0,4.65E1,1.5524197E2,5.145E1,-6.727428E1,5.141E1,1.4137727E2,7.9285416E1,-1.7162585E2,-1.3136859E2,8.1163845E0,4.162846E1,3.1825905E0,-8.031707E0,2.283387E1],"split_indices":[10,9,3,10,14,11,3,14,12,1,12,0,0,1,0,14,0,0,9,3,9,0,0,0,0,1,0,1,0,1,0,0,0,0,0,0,0,0,0],"split_type":[0,0,0,0,0,0,0,0,0,0,0,0,0,0,0,0,0,0,0,0,0,0,0,0,0,0,0,0,0,0,0,0,0,0,0,0,0,0,0],"sum_hessian":[9.1E1,8E1,1.1E1,6.5E1,1.5E1,7E0,4E0,5.6E1,9E0,7E0,8E0,5E0,2E0,3E0,1E0,5.4E1,2E0,4E0,5E0,4E0,3E0,4E0,4E0,2E0,1E0,5E1,4E0,2E0,3E0,2E0,2E0,1E0,2E0,4E0,4.6E1,1E0,1E0,1E0,1E0],"tree_param":{"num_deleted":"0","num_feature":"15","num_nodes":"39","size_leaf_vector":"1"}},{"base_weights":[6.987694E1,6.0029474E2,-5.7734536E3,-3.4691785E2,3.14065E3,-4.8182087E1,-3.6080588E2,8.83208E1,-3.965798E3,5.280081E3,-1.0117441E3,-2.68089E3,3.943753E2,-2.6308032E2,-8.392702E1,1.0393753E4,2.0107977E3,-3.296877E3,1.4757375E3,-2.057025E2,1.23619484E2,-1.0154272E2,2.885248E3,1.5657506E2,1.1219903E4,-1.3770793E3,3.4533865E3,-2.2218616E2,3.226273E1,9.316793E1,-1.8686631E0,2.3008244E1,-1.3736781E1,-1.377068E2,4.0811853E0,1.9158165E2,3.7217922E1,1.6105644E2,6.2071576E2,-7.830915E0,-8.658468E1,2.2177043E2,1.69107E1],"categories":[],"categories_nodes":[],"categories_segments":[],"categories_sizes":[],"default_left":[1,1,0,1,0,0,0,0,0,0,0,0,0,0,0,0,0,0,0,0,0,0,1,0,0,0,1,0,0,0,0,0,0,0,0,0,0,0,0,0,0,0,0],"id":7,"left_children":[1,3,5,7,9,-1,-1,11,13,15,17,19,21,-1,-1,23,25,27,29,-1,31,33,35,-1,37,39,41,-1,-1,-1,-1,-1,-1,-1,-1,-1,-1,-1,-1,-1,-1,-1,-1],"loss_changes":[2.979094E8,2.1284011E8,4.855776E7,1.0273023E8,2.1855234E8,0E0,0E0,5.106152E7,1.191512E7,2.4658896E8,5.6023356E7,2.4624436E7,6.699749E7,0E0,0E0,8.63104E5,5.851604E7,2.5472432E7,3.002208E6,0E0,5.286174E5,2.2574638E7,1.5382848E7,0E0,7.781056E6,1.459957E6,2.2973224E7,0E0,0E0,0E0,0E0,0E0,0E0,0E0,0E0,0E0,0E0,0E0,0E0,0E0,0E0,0E0,0E0],"parents":[2147483647,0,0,1,1,2,2,3,3,4,4,7,7,8,8,9,9,10,10,11,11,12,12,15,15,16,16,17,17,18,18,20,20,21,21,22,22,24,24,25,25,26,26],"right_children":[2,4,6,8,10,-1,-1,12,14,16,18,20,22,-1,-1,24,26,28,30,-1,32,34,36,-1,38,40,42,-1,-1,-1,-1,-1,-1,-1,-1,-1,-1,-1,-1,-1,-1,-1,-1],"split_conditions":[4.296091E4,2.166576E4,7.787E0,2.033423E4,3.15799E4,-4.8182087E1,-3.6080588E2,2.1110039E2,7.787E0,7.838E0,2.5795988E4,7.299E1,2.7099938E4,-2.6308032E2,-8.392702E1,2.1082045E2,2.3314582E4,2.182205E2,5.145E1,-2.057025E2,7.564E1,6E0,1.940354E4,1.5657506E2,5.779E1,5.141E1,2.338803E4,-2.2218616E2,3.226273E1,9.316793E1,-1.8686631E0,2.3008244E1,-1.3736781E1,-1.377068E2,4.0811853E0,1.9158165E2,3.7217922E1,1.6105644E2,6.2071576E2,-7.830915E0,-8.658468E1,2.2177043E2,1.69107E1],"split_indices":[10,10,4,10,10,0,0,3,4,4,13,1,12,0,0,3,12,3,1,0,1,6,10,0,1,1,11,0,0,0,0,0,0,0,0,0,0,0,0,0,0,0,0],"split_type":[0,0,0,0,0,0,0,0,0,0,0,0,0,0,0,0,0,0,0,0,0,0,0,0,0,0,0,0,0,0,0,0,0,0,0,0,0,0,0,0,0,0,0],"sum_hessian":[9.4E1,8.7E1,7E0,6.4E1,2.3E1,2E0,5E0,5.8E1,6E0,1.5E1,8E0,5E0,5.3E1,3E0,3E0,5E0,1E1,4E0,4E0,3E0,2E0,4.5E1,8E0,1E0,4E0,3E0,7E0,3E0,1E0,3E0,1E0,1E0,1E0,2E0,4.3E1,5E0,3E0,1E0,3E0,1E0,2E0,5E0,2E0],"tree_param":{"num_deleted":"0","num_feature":"15","num_nodes":"43","size_leaf_vector":"1"}},{"base_weights":[-5.7030514E1,4.736555E2,-5.555769E3,-4.4934085E2,4.0834849E3,-5.269744E2,-3.5721024E2,6.0140877E1,-2.2195537E3,6.180541E3,-2.1385417E2,-3.7701138E1,-1.8219467E0,-3.1228473E2,1.510519E3,-2.5774612E2,-6.8351746E2,1.353351E3,9.631766E3,-2.8186206E3,-5.3844032E1,2.3854944E3,6.697482E2,5.486773E2,-1.4660112E3,-6.756185E2,2.3000625E3,1.0826882E4,2.0154713E2,-2.6171448E1,-1.704604E2,6.286012E1,-7.796538E0,1.3349904E2,3.1188734E1,-8.9523363E-1,4.7419518E1,4.0582058E1,5.141055E0,-1.258772E2,-2.3987901E0,-4.303625E1,-7.635142E0,1.5029474E2,4.1377132E1,1.5703004E2,5.8680096E2],"categories":[],"categories_nodes":[],"categories_segments":[],"categories_sizes":[],"default_left":[1,1,0,0,1,0,0,0,1,0,0,0,0,0,0,0,0,0,0,0,0,0,0,0,0,0,0,0,0,0,0,0,0,0,0,0,0,0,0,0,0,0,0,0,0,0,0],"id":8,"left_children":[1,3,5,7,9,11,-1,13,15,17,-1,-1,-1,19,21,-1,23,25,27,29,31,33,35,37,39,41,43,45,-1,-1,-1,-1,-1,-1,-1,-1,-1,-1,-1,-1,-1,-1,-1,-1,-1,-1,-1],"loss_changes":[2.6526083E8,2.7837917E8,6.013856E7,6.0560184E7,3.244886E8,3.0664994E5,0E0,2.9100086E7,6.410901E7,2.2020083E8,0E0,0E0,0E0,2.7701018E7,6.494508E6,0E0,1.1410398E7,1.4999907E7,9.90656E6,3.63757E6,5.549654E6,8.4046E5,1.3582438E6,5.0276638E5,1.0316992E7,1.5895E5,2.709252E6,5.069056E6,0E0,0E0,0E0,0E0,0E0,0E0,0E0,0E0,0E0,0E0,0E0,0E0,0E0,0E0,0E0,0E0,0E0,0E0,0E0],"parents":[2147483647,0,0,1,1,2,2,3,3,4,4,5,5,7,7,8,8,9,9,13,13,14,14,16,16,17,17,18,18,19,19,20,20,21,21,22,22,23,23,24,24,25,25,26,26,27,27],"right_children":[2,4,6,8,10,12,-1,14,16,18,-1,-1,-1,20,22,-1,24,26,28,30,32,34,36,38,40,42,44,46,-1,-1,-1,-1,-1,-1,-1,-1,-1,-1,-1,-1,-1,-1,-1,-1,-1,-1,-1],"split_conditions":[3.3490414E4,2.49245E4,7.787E0,2.033423E4,3.15799E4,4.843E1,-3.5721024E2,2.3478838E4,2.091125E4,2.5006783E4,-2.1385417E2,-3.7701138E1,-1.8219467E0,4.984E1,1.940354E4,-2.5774612E2,2.18279E4,5.141E1,3.110612E4,5E0,6.964E1,6.225E1,7.787E0,4.927E1,6.393E1,4.404E1,3.330592E4,8E0,2.0154713E2,-2.6171448E1,-1.704604E2,6.286012E1,-7.796538E0,1.3349904E2,3.1188734E1,-8.9523363E-1,4.7419518E1,4.0582058E1,5.141055E0,-1.258772E2,-2.3987901E0,-4.303625E1,-7.635142E0,1.5029474E2,4.1377132E1,1.5703004E2,5.8680096E2],"split_indices":[12,9,4,9,10,1,0,12,9,14,0,0,0,1,10,0,9,1,12,6,1,1,4,1,1,1,9,6,0,0,0,0,0,0,0,0,0,0,0,0,0,0,0,0,0,0,0],"split_type":[0,0,0,0,0,0,0,0,0,0,0,0,0,0,0,0,0,0,0,0,0,0,0,0,0,0,0,0,0,0,0,0,0,0,0,0,0,0,0,0,0,0,0,0,0,0,0],"sum_hessian":[8.9E1,8.2E1,7E0,6.6E1,1.6E1,2E0,5E0,5.2E1,1.4E1,1.3E1,3E0,1E0,1E0,4.2E1,1E1,4E0,1E1,6E0,7E0,3E0,3.9E1,4E0,6E0,4E0,6E0,2E0,4E0,5E0,2E0,1E0,2E0,2E0,3.7E1,3E0,1E0,2E0,4E0,2E0,2E0,3E0,3E0,1E0,1E0,2E0,2E0,1E0,4E0],"tree_param":{"num_deleted":"0","num_feature":"15","num_nodes":"47","size_leaf_vector":"1"}},{"base_weights":[-2.3503841E1,2.6809506E2,-3.685961E3,-2.7368344E2,4.0854248E3,-4.086172E3,-3.211734E1,3.1587866E1,-3.9422039E3,1.7999197E3,3.2340237E2,-3.675861E1,-2.3046687E2,5.9979014E3,-2.2095479E2,9.475926E1,-2.7443594E2,1.5089436E2,1.3197203E2,4.6304108E2,-1.3198448E1,3.2459293E2,-2.1165623E3,2.262795E1,-1.25743286E2,-7.8884463E0,1.0532002E2,-1.566175E2,3.7232044E1,-7.654349E0,-1.7763977E0],"categories":[],"categories_nodes":[],"categories_segments":[],"categories_sizes":[],"default_left":[1,1,0,0,0,0,0,0,0,0,0,0,0,0,1,0,0,0,0,0,0,0,0,0,0,0,0,0,0,0,0],"id":9,"left_children":[1,3,5,7,9,11,-1,13,15,17,-1,-1,-1,19,21,-1,-1,-1,23,-1,-1,25,27,-1,29,-1,-1,-1,-1,-1,-1],"loss_changes":[1.0137722E8,1.8311507E8,5.90188E6,8.747626E7,4.825848E7,7.13012E6,0E0,1.1131793E8,6.456779E7,1.382227E7,0E0,0E0,0E0,6.3740504E7,7.411126E7,0E0,0E0,0E0,3.8738694E5,0E0,0E0,4.846298E7,4.883447E7,0E0,1.9615938E3,0E0,0E0,0E0,0E0,0E0,0E0],"parents":[2147483647,0,0,1,1,2,2,3,3,4,4,5,5,7,7,8,8,9,9,13,13,14,14,18,18,21,21,22,22,24,24],"right_children":[2,4,6,8,10,12,-1,14,16,18,-1,-1,-1,20,22,-1,-1,-1,24,-1,-1,26,28,-1,30,-1,-1,-1,-1,-1,-1],"split_conditions":[2.9042127E4,2.6671205E4,3.158E0,3.988606E4,2.033423E4,2E0,-3.211734E1,2.1089676E2,4.227E1,5.458E1,3.2340237E2,-3.675861E1,-2.3046687E2,6.276E1,2.5730158E4,9.475926E1,-2.7443594E2,1.5089436E2,2.869E0,4.6304108E2,-1.3198448E1,2.2809285E4,2.150911E2,2.262795E1,5.961E1,-7.8884463E0,1.0532002E2,-1.566175E2,3.7232044E1,-7.654349E0,-1.7763977E0],"split_indices":[14,14,2,9,9,6,0,3,1,1,0,0,0,1,13,0,0,0,2,0,0,12,3,0,1,0,0,0,0,0,0],"split_type":[0,0,0,0,0,0,0,0,0,0,0,0,0,0,0,0,0,0,0,0,0,0,0,0,0,0,0,0,0,0,0],"sum_hessian":[9.3E1,8.7E1,6E0,7.7E1,1E1,5E0,1E0,7.2E1,5E0,6E0,4E0,1E0,4E0,2E0,7E1,1E0,4E0,3E0,3E0,1E0,1E0,5.5E1,1.5E1,1E0,2E0,4.4E1,1.1E1,1.1E1,4E0,1E0,1E0],"tree_param":{"num_deleted":"0","num_feature":"15","num_nodes":"31","size_leaf_vector":"1"}},{"base_weights":[6.6895905E1,6.3441296E2,-3.8167122E3,-3.62645E2,4.7699424E3,-5.6607095E3,-1.0297369E2,3.872456E1,-2.4095012E3,4.7602524E2,1.7450952E3,-3.583964E1,-6.2645845E3,-4.050938E2,2.763767E1,3.005012E3,-1.8171756E2,-4.375618E3,-6.6091754E2,3.5934333E3,-1.1915972E3,-7.61304E1,-3.4005728E2,-1.225997E2,-3.1314405E1,1.8219846E2,2.7203526E1,3.8282097E1,-1.9672362E2,-9.967581E1,-2.6495908E2,5.4542975E2,-6.2627125E1,4.6308508E2,2.3764778E2,5.5694317E1,-1.5499408E2,-7.46299E0,-1.7319878E0,-1.6532646E2,8.435027E0,4.0988503E1,-8.126869E-2,-3.5288262E0,3.826021E1],"categories":[],"categories_nodes":[],"categories_segments":[],"categories_sizes":[],"default_left":[1,1,0,1,0,0,0,0,0,0,0,0,0,0,0,0,0,0,0,0,0,0,0,0,0,0,0,0,0,0,0,0,0,0,0,0,0,0,0,0,0,0,0,0,0],"id":10,"left_children":[1,3,5,7,9,11,13,15,17,-1,19,-1,21,23,-1,25,27,29,31,33,35,-1,-1,37,-1,-1,-1,39,-1,-1,-1,41,-1,43,-1,-1,-1,-1,-1,-1,-1,-1,-1,-1,-1],"loss_changes":[2.0739466E8,3.398455E8,8.159459E7,5.513687E7,2.1330147E8,1.9393632E7,1.2144589E6,3.781806E7,3.4925204E7,0E0,6.3989924E7,0E0,7.455072E6,1.7316162E5,0E0,4.307164E6,4.473328E7,4.36104E5,5.67911E6,2.3206944E7,2.5450508E7,0E0,0E0,1.8647344E3,0E0,0E0,0E0,2.324152E7,0E0,0E0,0E0,4.5157006E5,0E0,5.3769356E5,0E0,0E0,0E0,0E0,0E0,0E0,0E0,0E0,0E0,0E0,0E0],"parents":[2147483647,0,0,1,1,2,2,3,3,4,4,5,5,6,6,7,7,8,8,10,10,12,12,13,13,15,15,16,16,17,17,18,18,19,19,20,20,23,23,27,27,31,31,33,33],"right_children":[2,4,6,8,10,12,14,16,18,-1,20,-1,22,24,-1,26,28,30,32,34,36,-1,-1,38,-1,-1,-1,40,-1,-1,-1,42,-1,44,-1,-1,-1,-1,-1,-1,-1,-1,-1,-1,-1],"split_conditions":[3.788717E4,2.554304E4,3.158E0,2.033423E4,7.838E0,2E0,2.1604105E2,3.993E1,2.0986234E4,4.7602524E2,5.736E1,-3.583964E1,2.732E0,3.906E0,2.763767E1,2.989E0,3.299077E4,3.48E0,2.12804E4,2.4701707E4,2.719E0,-7.61304E1,-3.4005728E2,5.961E1,-3.1314405E1,1.8219846E2,2.7203526E1,4.231E1,-1.9672362E2,-9.967581E1,-2.6495908E2,5.145E1,-6.2627125E1,5.141E1,2.3764778E2,5.5694317E1,-1.5499408E2,-7.46299E0,-1.7319878E0,-1.6532646E2,8.435027E0,4.0988503E1,-8.126869E-2,-3.5288262E0,3.826021E1],"split_indices":[10,9,2,10,4,6,3,1,12,0,1,0,2,2,0,2,12,2,9,12,2,0,0,1,0,0,0,1,0,0,0,1,0,1,0,0,0,0,0,0,0,0,0,0,0],"split_type":[0,0,0,0,0,0,0,0,0,0,0,0,0,0,0,0,0,0,0,0,0,0,0,0,0,0,0,0,0,0,0,0,0,0,0,0,0,0,0,0,0,0,0,0,0],"sum_hessian":[9.2E1,8.1E1,1.1E1,6.6E1,1.5E1,7E0,4E0,5.6E1,1E1,5E0,1E1,1E0,6E0,3E0,1E0,3E0,5.3E1,4E0,6E0,6E0,4E0,1E0,5E0,2E0,1E0,2E0,1E0,5.1E1,2E0,2E0,2E0,2E0,4E0,2E0,4E0,2E0,2E0,1E0,1E0,1E0,5E1,1E0,1E0,1E0,1E0],"tree_param":{"num_deleted":"0","num_feature":"15","num_nodes":"45","size_leaf_vector":"1"}},{"base_weights":[-3.343293E1,3.9343945E2,-4.8849272E3,-3.483655E2,3.222825E3,-5.629342E2,-3.1158847E2,1.750855E1,-1.891514E3,-9.979829E2,6.383229E3,-3.4943653E1,-7.2764153E0,1.785853E2,-1.5512392E2,-4.3228906E3,-6.042808E1,1.0767567E3,-1.7445881E3,7.7400366E3,-1.7962117E2,-1.3019933E2,2.4469019E3,-9.635329E1,-2.5195183E2,6.434088E2,-5.505382E1,1.678047E1,6.3976288E1,-2.7133281E3,4.5150797E2,9.796124E3,1.8623625E2,-1.1314485E2,4.733458E0,1.4099774E2,5.2145834E0,4.9139626E1,-1.1786166E0,-4.0197453E1,-1.4948428E2,-3.4406052E0,3.7303703E1,1.3311859E2,5.3451996E2],"categories":[],"categories_nodes":[],"categories_segments":[],"categories_sizes":[],"default_left":[1,1,0,0,0,0,0,1,1,0,1,0,0,0,0,0,0,0,0,0,0,0,0,0,0,0,0,0,0,0,0,0,0,0,0,0,0,0,0,0,0,0,0,0,0],"id":11,"left_children":[1,3,5,7,9,11,-1,13,15,17,19,-1,-1,21,-1,23,25,27,29,31,-1,33,35,-1,-1,37,-1,-1,-1,39,41,43,-1,-1,-1,-1,-1,-1,-1,-1,-1,-1,-1,-1,-1],"loss_changes":[2.0487688E8,1.9211827E8,4.3060256E7,4.1248776E7,2.5982006E8,6.851925E4,0E0,3.0707498E7,6.2067604E7,1.58196E7,1.7669094E8,0E0,0E0,4.0943016E7,0E0,5.84008E5,7.300463E6,2.142425E4,1.611721E7,4.6070464E7,0E0,2.5152204E7,5.823324E6,0E0,0E0,1.3813418E6,0E0,0E0,0E0,2.34804E5,5.111448E5,9.815424E6,0E0,0E0,0E0,0E0,0E0,0E0,0E0,0E0,0E0,0E0,0E0,0E0,0E0],"parents":[2147483647,0,0,1,1,2,2,3,3,4,4,5,5,7,7,8,8,9,9,10,10,13,13,15,15,16,16,17,17,18,18,19,19,21,21,22,22,25,25,29,29,30,30,31,31],"right_children":[2,4,6,8,10,12,-1,14,16,18,20,-1,-1,22,-1,24,26,28,30,32,-1,34,36,-1,-1,38,-1,-1,-1,40,42,44,-1,-1,-1,-1,-1,-1,-1,-1,-1,-1,-1,-1,-1],"split_conditions":[4.296091E4,2.49245E4,7.787E0,2.033423E4,2.5006783E4,4.843E1,-3.1158847E2,2.906604E4,2.1102867E4,2.719E0,3.788717E4,-3.4943653E1,-7.2764153E0,2.7099938E4,-1.5512392E2,1.940354E4,2.12804E4,5.911E1,5E1,3.110612E4,-1.7962117E2,4.65E1,6.225E1,-9.635329E1,-2.5195183E2,1.955284E4,-5.505382E1,1.678047E1,6.3976288E1,4.404E1,5.141E1,8E0,1.8623625E2,-1.1314485E2,4.733458E0,1.4099774E2,5.2145834E0,4.9139626E1,-1.1786166E0,-4.0197453E1,-1.4948428E2,-3.4406052E0,3.7303703E1,1.3311859E2,5.3451996E2],"split_indices":[10,9,4,10,14,1,0,14,12,2,10,0,0,12,0,11,9,1,6,12,0,1,1,0,0,9,0,0,0,1,1,6,0,0,0,0,0,0,0,0,0,0,0,0,0],"split_type":[0,0,0,0,0,0,0,0,0,0,0,0,0,0,0,0,0,0,0,0,0,0,0,0,0,0,0,0,0,0,0,0,0,0,0,0,0,0,0,0,0,0,0,0,0],"sum_hessian":[9.7E1,9E1,7E0,7.2E1,1.8E1,2E0,5E0,5.9E1,1.3E1,8E0,1E1,1E0,1E0,5.7E1,2E0,5E0,8E0,2E0,6E0,9E0,1E0,5.1E1,6E0,2E0,3E0,5E0,3E0,1E0,1E0,4E0,2E0,5E0,4E0,4E0,4.7E1,5E0,1E0,3E0,2E0,1E0,3E0,1E0,1E0,1E0,4E0],"tree_param":{"num_deleted":"0","num_feature":"15","num_nodes":"45","size_leaf_vector":"1"}},{"base_weights":[-2.064301E1,3.729135E2,-2.7082256E3,-3.9283835E2,3.5561921E3,-4.3902487E2,-2.8986508E2,2.3865519E1,-2.5164094E3,-3.0996814E2,6.597647E3,-9.5775635E2,3.7238987E1,1.8831857E2,-1.4995311E2,-3.532011E3,1.4389612E2,1.0351572E3,-1.4484482E2,4.1500143E2,1.7878679E2,-1.1360339E3,-1.6592225E0,-3.9968704E2,9.6447943E2,-2.2320813E2,-7.419094E1,3.87353E1,-3.2460913E2,1.4508862E2,8.1479675E1,-7.0945053E0,-6.7454865E1,-3.5452003E0,-1.0804673E2,6.1064236E1,-1.2355102E2,-4.97715E-2,-2.4295914E1,-2.8364737E1,3.5154713E1],"categories":[],"categories_nodes":[],"categories_segments":[],"categories_sizes":[],"default_left":[1,1,0,0,0,0,0,1,1,0,0,0,0,0,0,1,0,0,0,0,0,0,0,0,0,0,0,0,0,0,0,0,0,0,0,0,0,0,0,0,0],"id":12,"left_children":[1,3,5,7,9,11,-1,13,15,17,19,21,-1,23,-1,25,27,29,-1,-1,-1,31,-1,33,35,-1,-1,-1,37,-1,39,-1,-1,-1,-1,-1,-1,-1,-1,-1,-1],"loss_changes":[9.937749E7,2.0128034E8,8.157164E7,5.9348372E7,1.901851E8,5.625931E6,0E0,2.890117E7,3.022816E7,3.0836682E7,1.6621312E7,9.51284E5,0E0,2.548677E7,0E0,8.649792E6,1.4336275E6,1.0444458E7,0E0,0E0,0E0,8.676545E5,0E0,1.8376968E7,2.4191922E7,0E0,0E0,0E0,1.5612181E5,0E0,2.4152998E6,0E0,0E0,0E0,0E0,0E0,0E0,0E0,0E0,0E0,0E0],"parents":[2147483647,0,0,1,1,2,2,3,3,4,4,5,5,7,7,8,8,9,9,10,10,11,11,13,13,15,15,16,16,17,17,21,21,23,23,24,24,28,28,30,30],"right_children":[2,4,6,8,10,12,-1,14,16,18,20,22,-1,24,-1,26,28,30,-1,-1,-1,32,-1,34,36,-1,-1,-1,38,-1,40,-1,-1,-1,-1,-1,-1,-1,-1,-1,-1],"split_conditions":[3.788717E4,2.49245E4,4.159555E4,2.033423E4,2.5006783E4,7.866E0,-2.8986508E2,2.906604E4,2.18279E4,5.911E1,2.89883E4,6.484E1,3.7238987E1,1.734147E4,-1.4995311E2,2.213664E4,5.145E1,2.1902678E4,-1.4484482E2,4.1500143E2,1.7878679E2,2.18279E4,-1.6592225E0,1.833768E4,4.9E1,-2.2320813E2,-7.419094E1,3.87353E1,5.498E1,1.4508862E2,5.141E1,-7.0945053E0,-6.7454865E1,-3.5452003E0,-1.0804673E2,6.1064236E1,-1.2355102E2,-4.97715E-2,-2.4295914E1,-2.8364737E1,3.5154713E1],"split_indices":[10,9,9,10,14,4,0,14,10,1,13,1,0,11,0,9,1,13,0,0,0,11,0,9,6,0,0,0,1,0,1,0,0,0,0,0,0,0,0,0,0],"split_type":[0,0,0,0,0,0,0,0,0,0,0,0,0,0,0,0,0,0,0,0,0,0,0,0,0,0,0,0,0,0,0,0,0,0,0,0,0,0,0,0,0],"sum_hessian":[9.2E1,8.1E1,1.1E1,6.6E1,1.5E1,7E0,4E0,5.6E1,1E1,7E0,8E0,5E0,2E0,5.4E1,2E0,7E0,3E0,5E0,2E0,4E0,4E0,4E0,1E0,3.1E1,2.3E1,4E0,3E0,1E0,2E0,1E0,4E0,1E0,3E0,2.7E1,4E0,2.2E1,1E0,1E0,1E0,2E0,2E0],"tree_param":{"num_deleted":"0","num_feature":"15","num_nodes":"41","size_leaf_vector":"1"}},{"base_weights":[-2.3692464E2,-5.189212E2,4.6044023E3,-2.1053574E2,-3.9251401E3,4.0388754E2,-4.0374673E2,-5.049186E2,2.4652273E3,-3.238369E1,-4.363439E3,-2.8663263E1,-1.6177422E0,-3.1556482E2,-2.3774341E2,1.5991872E2,1.7719054E2,-2.3799724E2,-5.9522736E1,2.8009897E2,-1.3343843E3,-6.9171424E0,2.0206434E1,-1.4728142E1,5.7922817E1,-1.5468726E2,-2.61685E1],"categories":[],"categories_nodes":[],"categories_segments":[],"categories_sizes":[],"default_left":[0,1,0,1,0,0,0,1,0,0,0,0,0,1,0,0,0,0,0,0,0,0,0,0,0,0,0],"id":13,"left_children":[1,3,5,7,9,-1,11,13,15,-1,17,-1,-1,19,-1,-1,21,-1,-1,23,25,-1,-1,-1,-1,-1,-1],"loss_changes":[1.2389547E8,8.8460024E7,9.0236584E7,6.347294E7,7.229488E6,0E0,1.7032553E5,5.644111E7,1.2853016E7,0E0,1.882136E6,0E0,0E0,4.285493E7,0E0,0E0,2.7072797E5,0E0,0E0,2.3055366E7,3.547937E7,0E0,0E0,0E0,0E0,0E0,0E0],"parents":[2147483647,0,0,1,1,2,2,3,3,4,4,6,6,7,7,8,8,10,10,13,13,16,16,19,19,20,20],"right_children":[2,4,6,8,10,-1,12,14,16,-1,18,-1,-1,20,-1,-1,22,-1,-1,24,26,-1,-1,-1,-1,-1,-1],"split_conditions":[3.807E0,2.9042127E4,3.899E0,2.6671205E4,2E0,4.0388754E2,6.484E1,4.296091E4,5.779E1,-3.238369E1,6.763E1,-2.8663263E1,-1.6177422E0,2.2694223E4,-2.3774341E2,1.5991872E2,5.961E1,-2.3799724E2,-5.9522736E1,1.819474E4,5E0,-6.9171424E0,2.0206434E1,-1.4728142E1,5.7922817E1,-1.5468726E2,-2.61685E1],"split_indices":[2,14,2,14,7,0,1,10,1,0,1,0,0,14,0,0,1,0,0,11,7,0,0,0,0,0,0],"split_type":[0,0,0,0,0,0,0,0,0,0,0,0,0,0,0,0,0,0,0,0,0,0,0,0,0,0,0],"sum_hessian":[8.8E1,8.4E1,4E0,7.8E1,6E0,2E0,2E0,7.1E1,7E0,1E0,5E0,1E0,1E0,6.9E1,2E0,5E0,2E0,4E0,1E0,4.4E1,2.5E1,1E0,1E0,2.7E1,1.7E1,7E0,1.8E1],"tree_param":{"num_deleted":"0","num_feature":"15","num_nodes":"27","size_leaf_vector":"1"}},{"base_weights":[2.7229027E1,4.6518997E2,-4.0147698E3,-3.3491565E2,3.373067E3,-6.626499E2,-2.7901938E2,1.3593718E2,-1.5980753E3,-1.3948575E3,4.8349634E3,-6.744214E0,-3.968052E1,-4.0701266E2,7.184688E2,9.959832E1,-2.1713284E3,1.1541762E2,-2.897748E3,9.05619E3,2.2408538E3,-1.0932249E2,-1.008489E2,1.0674227E3,-2.8147977E2,-4.4873154E3,-7.106692E2,-3.7829185E1,-1.6796375E2,1.3200862E2,5.0000763E2,3.3363635E3,-1.4274569E3,-1.2560355E1,4.6015537E1,9.130826E1,2.0928585E1,2.1553982E1,-6.876261E1,-1.6643402E1,-2.6258157E2,-1.3001324E2,-9.20361E-2,4.9352562E1,2.2742703E2,1.40340185E1,-1.21093285E2],"categories":[],"categories_nodes":[],"categories_segments":[],"categories_sizes":[],"default_left":[1,1,0,1,0,0,0,1,0,0,0,0,0,0,0,0,0,0,0,0,1,0,0,0,0,0,0,0,0,0,0,0,0,0,0,0,0,0,0,0,0,0,0,0,0,0,0],"id":14,"left_children":[1,3,5,7,9,11,-1,13,15,17,19,-1,-1,21,23,-1,25,-1,27,29,31,33,-1,35,37,39,41,-1,-1,-1,-1,43,45,-1,-1,-1,-1,-1,-1,-1,-1,-1,-1,-1,-1,-1,-1],"loss_changes":[1.6295926E8,1.942382E8,4.353539E7,3.9471548E7,1.3220792E8,1.6942E5,0E0,1.5790412E7,4.1369264E7,3.4516616E7,1.3301094E8,0E0,0E0,1.2240542E7,8.674923E6,0E0,5.093689E7,0E0,1.411244E6,3.880256E6,4.4949216E7,3.5912388E6,0E0,8.097212E6,6.048488E6,1.730376E7,1.4728602E7,0E0,0E0,0E0,0E0,1.8292616E7,5.77553E6,0E0,0E0,0E0,0E0,0E0,0E0,0E0,0E0,0E0,0E0,0E0,0E0,0E0,0E0],"parents":[2147483647,0,0,1,1,2,2,3,3,4,4,5,5,7,7,8,8,9,9,10,10,13,13,14,14,16,16,18,18,19,19,20,20,21,21,23,23,24,24,25,25,26,26,31,31,32,32],"right_children":[2,4,6,8,10,12,-1,14,16,18,20,-1,-1,22,24,-1,26,-1,28,30,32,34,-1,36,38,40,42,-1,-1,-1,-1,44,46,-1,-1,-1,-1,-1,-1,-1,-1,-1,-1,-1,-1,-1,-1],"split_conditions":[4.296091E4,2.49245E4,7.787E0,2.5683867E4,1.882029E4,5.051031E4,-2.7901938E2,1.643415E4,3.851E1,8E0,7.838E0,-6.744214E0,-3.968052E1,1.833768E4,2.013819E4,9.959832E1,1.8E1,1.1541762E2,4.404E1,2.1082045E2,2.307755E4,1E0,-1.008489E2,6.964E1,6.29E1,5E0,4.984E1,-3.7829185E1,-1.6796375E2,1.3200862E2,5.0000763E2,2.4701707E4,5.911E1,-1.2560355E1,4.6015537E1,9.130826E1,2.0928585E1,2.1553982E1,-6.876261E1,-1.6643402E1,-2.6258157E2,-1.3001324E2,-9.20361E-2,4.9352562E1,2.2742703E2,1.40340185E1,-1.21093285E2],"split_indices":[10,9,4,13,11,10,0,11,1,6,4,0,0,9,10,0,6,0,1,3,11,0,0,1,1,6,1,0,0,0,0,12,1,0,0,0,0,0,0,0,0,0,0,0,0,0,0],"split_type":[0,0,0,0,0,0,0,0,0,0,0,0,0,0,0,0,0,0,0,0,0,0,0,0,0,0,0,0,0,0,0,0,0,0,0,0,0,0,0,0,0,0,0,0,0,0,0],"sum_hessian":[9E1,8.2E1,8E0,6.5E1,1.7E1,3E0,5E0,4.8E1,1.7E1,4E0,1.3E1,1E0,2E0,2.5E1,2.3E1,2E0,1.5E1,1E0,3E0,4E0,9E0,2.2E1,3E0,1.7E1,6E0,5E0,1E1,1E0,2E0,1E0,3E0,7E0,2E0,2E1,2E0,7E0,1E1,4E0,2E0,1E0,4E0,2E0,8E0,3E0,4E0,1E0,1E0],"tree_param":{"num_deleted":"0","num_feature":"15","num_nodes":"47","size_leaf_vector":"1"}},{"base_weights":[2.5416908E1,5.565527E2,-3.2859229E3,-3.6772867E2,4.0578313E3,-4.691644E3,-9.8439445E1,2.1769222E1,-2.281788E3,1.9568045E2,6.7417686E3,-2.7426166E2,-6.3802803E1,-3.5105276E2,2.2800344E1,-1.6191992E2,1.2021429E2,-3.7739226E3,-4.0935577E2,8.982975E2,-1.1806597E2,8.567022E3,1.6015555E2,-1.0867475E2,-2.695467E1,1.2833194E2,-2.4085728E3,-7.983887E1,-2.2316504E2,4.8517303E2,-4.889567E1,-1.187167E3,1.9699166E3,1.1253218E2,4.6900845E2,-6.5756087E0,-1.5749978E0,-9.154128E0,3.4432827E1,-1.7432948E2,-8.417973E0,-2.0354474E0,3.8423428E1,-8.5812454E1,-3.2250733E0,1.3176251E2,3.2397205E1],"categories":[],"categories_nodes":[],"categories_segments":[],"categories_sizes":[],"default_left":[1,1,0,0,0,1,0,0,1,0,0,0,0,0,0,0,0,0,0,0,0,0,0,0,0,0,0,0,0,0,0,0,0,0,0,0,0,0,0,0,0,0,0,0,0,0,0],"id":15,"left_children":[1,3,5,7,9,11,13,15,17,19,21,-1,-1,23,-1,25,-1,27,29,31,-1,33,-1,35,-1,37,39,-1,-1,41,-1,43,45,-1,-1,-1,-1,-1,-1,-1,-1,-1,-1,-1,-1,-1,-1],"loss_changes":[1.653945E8,2.6362166E8,5.778744E7,4.850861E7,1.7489885E8,1.7395664E7,8.603851E5,2.4459636E7,2.9188256E7,1.6493899E7,3.7148384E7,0E0,0E0,1.2372184E5,0E0,3.421805E7,0E0,1.87836E6,3.5260048E6,1.7982386E7,0E0,9.705408E6,0E0,1.1447969E3,0E0,8.327261E6,1.3902924E7,0E0,0E0,4.7822344E5,0E0,1.671246E6,2.69027E6,0E0,0E0,0E0,0E0,0E0,0E0,0E0,0E0,0E0,0E0,0E0,0E0,0E0,0E0],"parents":[2147483647,0,0,1,1,2,2,3,3,4,4,5,5,6,6,7,7,8,8,9,9,10,10,13,13,15,15,17,17,18,18,19,19,21,21,23,23,25,25,26,26,29,29,31,31,32,32],"right_children":[2,4,6,8,10,12,14,16,18,20,22,-1,-1,24,-1,26,-1,28,30,32,-1,34,-1,36,-1,38,40,-1,-1,42,-1,44,46,-1,-1,-1,-1,-1,-1,-1,-1,-1,-1,-1,-1,-1,-1],"split_conditions":[3.788717E4,2.49245E4,3.158E0,2.033423E4,2.5006783E4,2.697834E4,2.1604105E2,2.8268514E4,2.1102867E4,3.988606E4,3.110612E4,-2.7426166E2,-6.3802803E1,3.906E0,2.2800344E1,2.749075E4,1.2021429E2,1.940354E4,2.12804E4,2.1188968E2,-1.1806597E2,8E0,1.6015555E2,3.297E0,-2.695467E1,1.734147E4,3.01E0,-7.983887E1,-2.2316504E2,2.725E0,-4.889567E1,2.728E0,3.330592E4,1.1253218E2,4.6900845E2,-6.5756087E0,-1.5749978E0,-9.154128E0,3.4432827E1,-1.7432948E2,-8.417973E0,-2.0354474E0,3.8423428E1,-8.5812454E1,-3.2250733E0,1.3176251E2,3.2397205E1],"split_indices":[10,9,2,10,14,11,3,13,12,9,12,0,0,2,0,13,0,11,9,3,0,6,0,2,0,11,2,0,0,2,0,2,9,0,0,0,0,0,0,0,0,0,0,0,0,0,0],"split_type":[0,0,0,0,0,0,0,0,0,0,0,0,0,0,0,0,0,0,0,0,0,0,0,0,0,0,0,0,0,0,0,0,0,0,0,0,0,0,0,0,0,0,0,0,0,0,0],"sum_hessian":[9.2E1,8E1,1.2E1,6.4E1,1.6E1,8E0,4E0,5.4E1,1E1,7E0,9E0,6E0,2E0,3E0,1E0,5.1E1,3E0,5E0,5E0,6E0,1E0,5E0,4E0,2E0,1E0,4.6E1,5E0,2E0,3E0,2E0,3E0,2E0,4E0,1E0,4E0,1E0,1E0,3E1,1.6E1,3E0,2E0,1E0,1E0,1E0,1E0,2E0,2E0],"tree_param":{"num_deleted":"0","num_feature":"15","num_nodes":"47","size_leaf_vector":"1"}},{"base_weights":[-8.833847E1,-4.0814683E3,1.8185387E2,-2.8869443E2,-4.6441833E2,5.0524624E3,-4.6800648E1,-5.367413E1,1.8842752E1,3.4323825E2,-9.611164E0,-3.0311203E2,3.4212031E3,-7.293073E1,-2.7260386E3,3.5812405E2,-2.4005618E2,-3.7557407E2,1.7220463E3,-1.8763376E2,-1.0629801E2,-2.6280802E1,3.0335785E1,3.9944215E0,-9.495541E1,1.551534E2,4.0813984E1,7.6312744E1,-8.4285095E1,3.8108063E0,-1.5356225E0],"categories":[],"categories_nodes":[],"categories_segments":[],"categories_sizes":[],"default_left":[0,0,0,0,0,0,0,0,0,0,0,0,0,0,0,0,0,1,0,0,0,0,0,0,0,0,0,0,0,0,0],"id":16,"left_children":[1,3,5,-1,7,9,11,-1,-1,-1,-1,13,15,17,19,-1,21,23,25,-1,27,-1,29,-1,-1,-1,-1,-1,-1,-1,-1],"loss_changes":[1.0216006E8,3.404791E7,9.935457E7,0E0,1.9417158E6,3.933941E7,7.748145E7,0E0,0E0,0E0,0E0,4.4975892E7,8.3906136E7,4.1389588E7,1.842774E7,0E0,3.247973E5,4.525604E7,1.1226746E7,0E0,1.0308192E7,0E0,1.0743525E4,0E0,0E0,0E0,0E0,0E0,0E0,0E0,0E0],"parents":[2147483647,0,0,1,1,2,2,4,4,5,5,6,6,11,11,12,12,13,13,14,14,16,16,17,17,18,18,20,20,22,22],"right_children":[2,4,6,-1,8,10,12,-1,-1,-1,-1,14,16,18,20,-1,22,24,26,-1,28,-1,30,-1,-1,-1,-1,-1,-1,-1,-1],"split_conditions":[2.106171E2,6.763E1,2.1089676E2,-2.8869443E2,7.299E1,6.632E1,3.807E0,-5.367413E1,1.8842752E1,3.4323825E2,-9.611164E0,3.988606E4,3.899E0,3.788717E4,2.182205E2,3.5812405E2,6.484E1,2.5730158E4,4.455E1,-1.8763376E2,1E0,-2.6280802E1,6.784E1,3.9944215E0,-9.495541E1,1.551534E2,4.0813984E1,7.6312744E1,-8.4285095E1,3.8108063E0,-1.5356225E0],"split_indices":[3,1,3,0,1,1,2,0,0,0,0,9,2,11,3,0,1,13,1,0,0,0,1,0,0,0,0,0,0,0,0],"split_type":[0,0,0,0,0,0,0,0,0,0,0,0,0,0,0,0,0,0,0,0,0,0,0,0,0,0,0,0,0,0,0],"sum_hessian":[9.3E1,5E0,8.8E1,3E0,2E0,3E0,8.5E1,1E0,1E0,2E0,1E0,8E1,5E0,7.4E1,6E0,2E0,3E0,6.4E1,1E1,4E0,2E0,1E0,2E0,5E1,1.4E1,3E0,7E0,1E0,1E0,1E0,1E0],"tree_param":{"num_deleted":"0","num_feature":"15","num_nodes":"31","size_leaf_vector":"1"}},{"base_weights":[1.8710725E2,4.3915573E2,-3.3307476E3,-4.0535895E2,2.0256782E3,-2.6613127E1,-3.7839922E3,6.2176376E1,-1.5488623E3,4.7540894E3,9.419983E1,-5.2332275E1,-2.1033337E2,1.227787E2,-1.284123E2,-2.4817043E1,-2.7314734E3,1.8124957E3,5.9983237E3,-2.162696E2,9.1698584E2,1.234525E2,-1.150063E2,3.124306E2,-3.4552E1,-1.36429825E1,-3.0046926E3,-7.705612E-1,1.1366626E2,7.5451396E3,9.052513E2,1.03191605E2,2.0807101E2,-6.0714397E0,5.6016235E1,-9.370885E0,2.249419E1,-1.7494502E2,-5.0735657E1,1.0961901E2,4.0886078E2,7.440493E1,-6.511079E0,-7.044845E1,2.5533596E1],"categories":[],"categories_nodes":[],"categories_segments":[],"categories_sizes":[],"default_left":[1,1,0,1,0,0,0,0,0,0,0,0,0,0,0,0,0,0,0,0,0,0,0,0,0,0,0,0,0,0,0,0,0,0,0,0,0,0,0,0,0,0,0,0,0],"id":17,"left_children":[1,3,5,7,9,-1,11,13,15,17,19,-1,-1,-1,21,23,25,27,29,-1,31,33,-1,35,-1,-1,37,-1,-1,39,41,-1,43,-1,-1,-1,-1,-1,-1,-1,-1,-1,-1,-1,-1],"loss_changes":[7.948967E7,1.1202797E8,5.596312E6,2.9500854E7,1.5237827E8,0E0,1.38216E6,1.8561504E7,2.8769856E7,3.3048448E7,6.942114E7,0E0,0E0,0E0,2.1069128E7,2.0133591E6,5.225808E6,4.246804E6,5.619411E7,0E0,1.2578837E7,8.680077E6,0E0,4.9655056E5,0E0,0E0,4.317328E6,0E0,0E0,2.372544E6,2.0043502E6,0E0,6.102015E6,0E0,0E0,0E0,0E0,0E0,0E0,0E0,0E0,0E0,0E0,0E0,0E0],"parents":[2147483647,0,0,1,1,2,2,3,3,4,4,6,6,7,7,8,8,9,9,10,10,14,14,15,15,16,16,17,17,18,18,20,20,21,21,23,23,26,26,29,29,30,30,32,32],"right_children":[2,4,6,8,10,-1,12,14,16,18,20,-1,-1,-1,22,24,26,28,30,-1,32,34,-1,36,-1,-1,38,-1,-1,40,42,-1,44,-1,-1,-1,-1,-1,-1,-1,-1,-1,-1,-1,-1],"split_conditions":[2.906604E4,2.2809285E4,2E0,1.9770963E4,2.213664E4,-2.6613127E1,2.1038954E2,2.561E0,1.7286648E4,2.5006783E4,2.33518E4,-5.2332275E1,-2.1033337E2,1.227787E2,8.106E0,2.3E1,5E0,2.1145377E2,3.15799E4,-2.162696E2,1.1E1,1.759696E4,-1.150063E2,1.614887E4,-3.4552E1,-1.36429825E1,2.150911E2,-7.705612E-1,1.1366626E2,8E0,3.129E0,1.03191605E2,2.3097086E4,-6.0714397E0,5.6016235E1,-9.370885E0,2.249419E1,-1.7494502E2,-5.0735657E1,1.0961901E2,4.0886078E2,7.440493E1,-6.511079E0,-7.044845E1,2.5533596E1],"split_indices":[14,12,6,13,11,0,3,2,12,14,11,0,0,0,4,6,6,3,10,0,6,11,0,11,0,0,3,0,0,6,2,0,12,0,0,0,0,0,0,0,0,0,0,0,0],"split_type":[0,0,0,0,0,0,0,0,0,0,0,0,0,0,0,0,0,0,0,0,0,0,0,0,0,0,0,0,0,0,0,0,0,0,0,0,0,0,0,0,0,0,0,0,0],"sum_hessian":[8.7E1,8.2E1,5E0,5.4E1,2.8E1,1E0,4E0,3.9E1,1.5E1,1.1E1,1.7E1,1E0,3E0,2E0,3.7E1,7E0,8E0,4E0,7E0,2E0,1.5E1,3.4E1,3E0,5E0,2E0,1E0,7E0,1E0,3E0,5E0,2E0,5E0,1E1,2.8E1,6E0,1E0,4E0,5E0,2E0,1E0,4E0,1E0,1E0,1E0,9E0],"tree_param":{"num_deleted":"0","num_feature":"15","num_nodes":"45","size_leaf_vector":"1"}},{"base_weights":[-3.033692E1,4.6147012E2,-2.9410142E3,-4.2731415E2,2.2212898E3,-3.7079211E3,-2.884932E2,-2.4093538E3,-1.2185273E1,4.743979E3,6.066907E2,-1.37367E3,-5.0351436E3,-1.7809166E1,-2.1355722E0,-3.5364302E3,-1.1640039E2,1.7250035E2,-7.4361664E1,7.16315E3,1.9373403E3,1.4189001E2,-7.410424E1,3.139924E1,-2.0310798E3,-6.179151E1,-2.7739203E2,-2.1459708E2,-6.751362E1,-3.1152937E1,3.5089367E1,1.1039415E3,-5.8530838E1,4.5507544E2,1.4185371E2,-7.51297E-1,2.3308188E3,5.756533E2,-1.3242166E2,-1.18106804E2,-2.5947798E1,1.1155542E1,6.801833E1,1.1423508E1,-3.707401E1,3.363494E1,1.288587E2,-7.9807465E1,5.848144E1],"categories":[],"categories_nodes":[],"categories_segments":[],"categories_sizes":[],"default_left":[1,0,0,0,0,0,0,0,0,0,0,0,0,0,0,0,0,0,0,0,0,0,0,0,0,0,0,0,0,0,0,0,0,0,0,0,0,0,0,0,0,0,0,0,0,0,0,0,0],"id":18,"left_children":[1,3,5,7,9,11,13,15,17,19,21,23,25,-1,-1,27,29,31,-1,33,35,-1,37,-1,39,-1,-1,-1,-1,-1,-1,41,43,-1,-1,-1,45,47,-1,-1,-1,-1,-1,-1,-1,-1,-1,-1,-1],"loss_changes":[1.2875994E8,1.2138487E8,2.5375376E7,4.2756336E7,1.0302331E8,2.4064064E7,5.1334875E4,2.2847364E7,1.2243036E7,5.401992E7,2.6032068E7,7.855026E6,4.8312E6,0E0,0E0,4.114704E6,2.095421E6,8.672292E6,0E0,1.610576E7,4.644306E6,0E0,2.4942232E7,0E0,7.76548E5,0E0,0E0,0E0,0E0,0E0,0E0,1.503424E6,6.6376415E6,0E0,0E0,0E0,3.08774E5,1.7346872E7,0E0,0E0,0E0,0E0,0E0,0E0,0E0,0E0,0E0,0E0,0E0],"parents":[2147483647,0,0,1,1,2,2,3,3,4,4,5,5,6,6,7,7,8,8,9,9,10,10,11,11,12,12,15,15,16,16,17,17,19,19,20,20,22,22,24,24,31,31,32,32,36,36,37,37],"right_children":[2,4,6,8,10,12,14,16,18,20,22,24,26,-1,-1,28,30,32,-1,34,36,-1,38,-1,40,-1,-1,-1,-1,-1,-1,42,44,-1,-1,-1,46,48,-1,-1,-1,-1,-1,-1,-1,-1,-1,-1,-1],"split_conditions":[3.788717E4,2.2809285E4,3.158E0,6.393E1,2.213664E4,4.843E1,6.484E1,2.5264113E4,2.013819E4,7.838E0,4.227E1,4.296091E4,2.732E0,-1.7809166E1,-2.1355722E0,2.1499806E2,1E0,7.644E1,-7.4361664E1,3.149765E4,2.1145377E2,1.4189001E2,3.988606E4,3.139924E1,4.796E1,-6.179151E1,-2.7739203E2,-2.1459708E2,-6.751362E1,-3.1152937E1,3.5089367E1,2.1174675E2,1.643415E4,4.5507544E2,1.4185371E2,-7.51297E-1,1.912458E4,2.3478838E4,-1.3242166E2,-1.18106804E2,-2.5947798E1,1.1155542E1,6.801833E1,1.1423508E1,-3.707401E1,3.363494E1,1.288587E2,-7.9807465E1,5.848144E1],"split_indices":[10,12,2,1,11,1,1,14,10,4,1,10,2,0,0,3,0,1,0,9,3,0,9,0,1,0,0,0,0,0,0,3,9,0,0,0,11,12,0,0,0,0,0,0,0,0,0,0,0],"split_type":[0,0,0,0,0,0,0,0,0,0,0,0,0,0,0,0,0,0,0,0,0,0,0,0,0,0,0,0,0,0,0,0,0,0,0,0,0,0,0,0,0,0,0,0,0,0,0,0,0],"sum_hessian":[8.8E1,7.6E1,1.2E1,5.1E1,2.5E1,9E0,3E0,8E0,4.3E1,9E0,1.6E1,4E0,5E0,2E0,1E0,5E0,3E0,3.9E1,4E0,4E0,5E0,3E0,1.3E1,1E0,3E0,1E0,4E0,3E0,2E0,2E0,1E0,7E0,3.2E1,2E0,2E0,1E0,4E0,1.1E1,2E0,2E0,1E0,2E0,5E0,2.3E1,9E0,1E0,3E0,2E0,9E0],"tree_param":{"num_deleted":"0","num_feature":"15","num_nodes":"49","size_leaf_vector":"1"}},{"base_weights":[-1.7127039E2,1.2535627E2,-4.2460605E3,-2.2891805E2,2.7344507E3,-2.5299103E1,-2.44644E2,-6.542847E2,9.522863E2,-2.720624E2,5.795376E3,-1.19096794E2,-2.073513E3,1.2845002E3,-1.3399446E2,-1.3002292E2,7.137084E2,3.6849533E2,1.1445269E2,-1.4604422E2,9.947908E1,-2.970399E3,-6.241576E2,3.3258914E3,3.1786838E2,1.0220366E2,-1.2990106E2,-6.239582E0,8.2473915E1,-5.2698208E1,-1.6836928E2,4.0108612E1,-6.77562E1,1.8643585E2,3.2794067E1,4.5534473E1,-1.07968605E2,-1.2523084E1,-3.1134847E-1],"categories":[],"categories_nodes":[],"categories_segments":[],"categories_sizes":[],"default_left":[1,1,0,1,0,0,0,1,1,0,0,0,0,0,0,0,0,0,0,0,0,0,0,0,0,0,0,0,0,0,0,0,0,0,0,0,0,0,0],"id":19,"left_children":[1,3,5,7,9,-1,-1,11,13,15,17,19,21,23,-1,-1,25,-1,-1,-1,27,29,31,33,35,-1,37,-1,-1,-1,-1,-1,-1,-1,-1,-1,-1,-1,-1],"loss_changes":[1.0689711E8,7.734578E7,1.2039224E7,3.7804E7,9.360383E7,0E0,0E0,4.152851E7,2.7575502E7,1.5627556E7,1.073392E7,2.5399098E7,1.7644604E7,3.6435E7,0E0,0E0,5.8770685E6,0E0,0E0,0E0,1.3763E7,3.29808E6,8.385238E6,4.0077E6,2.2526364E7,0E0,5.808128E4,0E0,0E0,0E0,0E0,0E0,0E0,0E0,0E0,0E0,0E0,0E0,0E0],"parents":[2147483647,0,0,1,1,2,2,3,3,4,4,7,7,8,8,9,9,10,10,11,11,12,12,13,13,16,16,20,20,21,21,22,22,23,23,24,24,26,26],"right_children":[2,4,6,8,10,-1,-1,12,14,16,18,20,22,24,-1,-1,26,-1,-1,-1,28,30,32,34,36,-1,38,-1,-1,-1,-1,-1,-1,-1,-1,-1,-1,-1,-1],"split_conditions":[3.601138E4,2.7900027E4,7.787E0,2.3838895E4,2.032761E4,-2.5299103E1,-2.44644E2,2.0018027E4,2.912744E4,2.795E0,4.577303E4,6E0,2.33518E4,2.08811E4,-1.3399446E2,-1.3002292E2,2.989E0,3.6849533E2,1.1445269E2,-1.4604422E2,1E0,1.3E1,2.1182724E2,2.1799808E2,2.213664E4,1.0220366E2,3.016E0,-6.239582E0,8.2473915E1,-5.2698208E1,-1.6836928E2,4.0108612E1,-6.77562E1,1.8643585E2,3.2794067E1,4.5534473E1,-1.07968605E2,-1.2523084E1,-3.1134847E-1],"split_indices":[12,13,4,12,9,0,0,12,14,2,9,6,9,11,0,0,2,0,0,0,0,6,3,3,9,0,2,0,0,0,0,0,0,0,0,0,0,0,0],"split_type":[0,0,0,0,0,0,0,0,0,0,0,0,0,0,0,0,0,0,0,0,0,0,0,0,0,0,0,0,0,0,0,0,0,0,0,0,0,0,0],"sum_hessian":[8.7E1,8.2E1,5E0,7.3E1,9E0,1E0,4E0,5.4E1,1.9E1,5E0,4E0,4E1,1.4E1,1.8E1,1E0,1E0,4E0,2E0,2E0,2E0,3.8E1,8E0,6E0,5E0,1.3E1,1E0,3E0,3.4E1,4E0,2E0,6E0,2E0,4E0,4E0,1E0,1.1E1,2E0,1E0,2E0],"tree_param":{"num_deleted":"0","num_feature":"15","num_nodes":"39","size_leaf_vector":"1"}},{"base_weights":[-6.3564808E1,2.8602722E2,-3.2416738E3,-3.3162695E2,2.6671536E3,-5.09958E2,-2.2612695E2,7.387405E1,-1.3385966E3,4.1670073E3,-1.7658965E3,-7.041434E0,-2.9302912E1,-4.343486E2,6.451747E2,-5.886576E2,-2.0018517E2,4.7541635E2,6.4148247E3,-1.4359953E2,6.646202E1,-9.1595E1,-1.3515947E3,1.0895834E3,-3.242896E2,1.4397E3,-1.1674862E3,-7.4311775E1,1.827801E3,1.3385002E2,4.0610596E2,-1.2611574E1,2.2038036E1,-7.844339E1,-1.1989151E0,1.583541E1,7.608189E1,1.706146E1,-5.3755787E1,9.964857E1,2.9547617E1,-1.2366941E2,-1.5613219E1,1.3372217E1,1.129386E2],"categories":[],"categories_nodes":[],"categories_segments":[],"categories_sizes":[],"default_left":[1,1,0,1,1,0,0,1,0,0,0,0,0,0,0,0,0,0,0,0,0,0,0,0,0,0,0,0,0,0,0,0,0,0,0,0,0,0,0,0,0,0,0,0,0],"id":20,"left_children":[1,3,5,7,9,11,-1,13,15,17,19,-1,-1,21,23,25,-1,27,29,-1,-1,31,33,35,37,39,41,-1,43,-1,-1,-1,-1,-1,-1,-1,-1,-1,-1,-1,-1,-1,-1,-1,-1],"loss_changes":[1.0092095E8,1.2148294E8,2.9184344E7,2.7048482E7,1.2039025E8,2.9829438E4,0E0,1.4216931E7,3.5617876E7,1.0482459E8,2.0935132E7,0E0,0E0,8.050325E6,1.0262623E7,2.0465974E7,0E0,1.863399E7,2.9309568E7,0E0,0E0,1.8214886E6,1.981568E6,4.86087E6,4.3643725E6,7.006005E5,1.3746514E7,0E0,2.085778E6,0E0,0E0,0E0,0E0,0E0,0E0,0E0,0E0,0E0,0E0,0E0,0E0,0E0,0E0,0E0,0E0],"parents":[2147483647,0,0,1,1,2,2,3,3,4,4,5,5,7,7,8,8,9,9,10,10,13,13,14,14,15,15,17,17,18,18,21,21,22,22,23,23,24,24,25,25,26,26,28,28],"right_children":[2,4,6,8,10,12,-1,14,16,18,20,-1,-1,22,24,26,-1,28,30,-1,-1,32,34,36,38,40,42,-1,44,-1,-1,-1,-1,-1,-1,-1,-1,-1,-1,-1,-1,-1,-1,-1,-1],"split_conditions":[4.296091E4,2.49245E4,7.787E0,2.5683867E4,3.15799E4,5.051031E4,-2.2612695E2,1.643415E4,2.039809E4,2.3136318E4,2.182205E2,-7.041434E0,-2.9302912E1,1.759696E4,2.013819E4,1.614535E4,-2.0018517E2,1.882029E4,3E0,-1.4359953E2,6.646202E1,9E0,1E1,1.759696E4,2.166576E4,2.989E0,5E0,-7.4311775E1,2.692E0,1.3385002E2,4.0610596E2,-1.2611574E1,2.2038036E1,-7.844339E1,-1.1989151E0,1.583541E1,7.608189E1,1.706146E1,-5.3755787E1,9.964857E1,2.9547617E1,-1.2366941E2,-1.5613219E1,1.3372217E1,1.129386E2],"split_indices":[10,9,4,13,10,10,0,11,9,14,3,0,0,10,10,9,0,11,7,0,0,7,7,11,9,2,7,0,2,0,0,0,0,0,0,0,0,0,0,0,0,0,0,0,0],"split_type":[0,0,0,0,0,0,0,0,0,0,0,0,0,0,0,0,0,0,0,0,0,0,0,0,0,0,0,0,0,0,0,0,0,0,0,0,0,0,0,0,0,0,0,0,0],"sum_hessian":[8.9E1,8.1E1,8E0,6.5E1,1.6E1,3E0,5E0,4.7E1,1.8E1,1.2E1,4E0,1E0,2E0,2.5E1,2.2E1,1.5E1,3E0,5E0,7E0,3E0,1E0,1.9E1,6E0,1.5E1,7E0,3E0,1.2E1,2E0,3E0,3E0,4E0,1.5E1,4E0,5E0,1E0,6E0,9E0,4E0,3E0,1E0,2E0,4E0,8E0,1E0,2E0],"tree_param":{"num_deleted":"0","num_feature":"15","num_nodes":"45","size_leaf_vector":"1"}},{"base_weights":[-4.800525E1,3.776956E2,-2.3719695E3,-3.2397958E2,3.8089734E3,-2.3266153E2,-1.4138849E3,-3.5802834E1,-2.0206421E3,6.442854E2,6.1019536E3,3.707379E2,-2.7415781E3,1.1778939E2,-2.0300563E2,-3.090193E3,-7.9257587E2,-1.1449401E3,1.5889636E3,7.1331953E3,1.00274315E2,-2.0532969E1,4.3205074E1,-1.5374034E2,-1.8555168E1,-2.4953743E3,1.7085842E1,-6.467327E1,-1.9284282E2,-6.670186E0,-4.488648E1,-1.1887877E1,-7.398263E1,1.0917397E2,2.3239653E1,9.5325035E1,3.898617E2,-1.5140176E2,-9.118271E0,7.480336E0,-1.1207322E2],"categories":[],"categories_nodes":[],"categories_segments":[],"categories_sizes":[],"default_left":[1,1,0,1,0,0,0,0,0,0,0,0,0,0,0,0,0,0,0,0,0,0,0,0,0,0,1,0,0,0,0,0,0,0,0,0,0,0,0,0,0],"id":21,"left_children":[1,3,5,7,9,-1,11,13,15,17,19,21,23,-1,25,27,29,31,33,35,-1,-1,-1,-1,-1,37,39,-1,-1,-1,-1,-1,-1,-1,-1,-1,-1,-1,-1,-1,-1],"loss_changes":[9.5869976E7,1.986607E8,2.6205488E7,3.3664424E7,9.766054E7,0E0,2.9449586E7,2.447108E7,1.0685584E7,1.3650964E7,1.9490048E7,2.6679288E6,4.388296E6,0E0,2.8800888E7,1.898716E6,2.961255E5,5.5913775E5,2.326821E6,5.958976E6,0E0,0E0,0E0,0E0,0E0,5.60804E6,1.6198506E7,0E0,0E0,0E0,0E0,0E0,0E0,0E0,0E0,0E0,0E0,0E0,0E0,0E0,0E0],"parents":[2147483647,0,0,1,1,2,2,3,3,4,4,6,6,7,7,8,8,9,9,10,10,11,11,12,12,14,14,15,15,16,16,17,17,18,18,19,19,25,25,26,26],"right_children":[2,4,6,8,10,-1,12,14,16,18,20,22,24,-1,26,28,30,32,34,36,-1,-1,-1,-1,-1,38,40,-1,-1,-1,-1,-1,-1,-1,-1,-1,-1,-1,-1,-1,-1],"split_conditions":[3.15799E4,2.554304E4,2.1133865E2,2.033423E4,2.5006783E4,-2.3266153E2,1.955284E4,3.993E1,2.0986234E4,2.1188968E2,3.110612E4,7.787E0,6.371E1,1.1778939E2,4.65E1,3.48E0,2.725E0,5.141E1,3.330592E4,8E0,1.00274315E2,-2.0532969E1,4.3205074E1,-1.5374034E2,-1.8555168E1,3.01E0,2.906604E4,-6.467327E1,-1.9284282E2,-6.670186E0,-4.488648E1,-1.1887877E1,-7.398263E1,1.0917397E2,2.3239653E1,9.5325035E1,3.898617E2,-1.5140176E2,-9.118271E0,7.480336E0,-1.1207322E2],"split_indices":[10,9,3,10,14,0,9,1,12,3,12,4,1,0,1,2,2,1,9,6,0,0,0,0,0,2,14,0,0,0,0,0,0,0,0,0,0,0,0,0,0],"split_type":[0,0,0,0,0,0,0,0,0,0,0,0,0,0,0,0,0,0,0,0,0,0,0,0,0,0,0,0,0,0,0,0,0,0,0,0,0,0,0,0,0],"sum_hessian":[9.5E1,8.1E1,1.4E1,6.8E1,1.3E1,3E0,1.1E1,5.9E1,9E0,6E0,7E0,5E0,6E0,3E0,5.6E1,4E0,5E0,2E0,4E0,5E0,2E0,2E0,3E0,5E0,1E0,4E0,5.2E1,2E0,2E0,1E0,4E0,1E0,1E0,2E0,2E0,1E0,4E0,3E0,1E0,5E1,2E0],"tree_param":{"num_deleted":"0","num_feature":"15","num_nodes":"41","size_leaf_vector":"1"}},{"base_weights":[2.7462658E1,2.6991034E2,-2.5216707E3,-2.2756488E2,2.243934E3,-3.085481E3,-2.767468E1,-7.387756E1,-1.7664154E2,6.3385547E3,4.964696E2,-1.6847789E2,-4.1627388E1,-3.92639E2,1.2558914E3,4.0836172E2,1.1985119E2,-5.1804834E2,1.4543236E2,-2.0614092E3,-1.3075889E1,1.15441E2,5.313876E2,9.464477E1,-1.3573962E3,-1.3224406E2,9.0826025E0,-7.1237006E0,4.258788E1,-2.872999E0,4.17694E1,-9.370971E1,6.4332633E0],"categories":[],"categories_nodes":[],"categories_segments":[],"categories_sizes":[],"default_left":[1,1,0,0,0,0,0,0,0,0,0,0,0,0,0,0,0,0,0,0,0,0,0,0,0,0,0,0,0,0,0,0,0],"id":22,"left_children":[1,3,5,7,9,11,-1,13,-1,15,17,-1,-1,19,21,-1,-1,23,-1,25,27,-1,29,-1,31,-1,-1,-1,-1,-1,-1,-1,-1],"loss_changes":[5.6921484E7,8.300098E7,7.169632E6,3.428147E7,1.18491576E8,1.03472E6,0E0,2.8469132E7,0E0,1.6461936E7,3.3320384E7,0E0,0E0,3.4176844E7,8.690184E6,0E0,0E0,2.2805614E7,0E0,1.3568076E7,5.157205E6,0E0,1.6590908E6,0E0,6.385093E6,0E0,0E0,0E0,0E0,0E0,0E0,0E0,0E0],"parents":[2147483647,0,0,1,1,2,2,3,3,4,4,5,5,7,7,9,9,10,10,13,13,14,14,17,17,19,19,20,20,22,22,24,24],"right_children":[2,4,6,8,10,12,-1,14,-1,16,18,-1,-1,20,22,-1,-1,24,-1,26,28,-1,30,-1,32,-1,-1,-1,-1,-1,-1,-1,-1],"split_conditions":[2.9042127E4,2.49245E4,4.603949E4,3.601138E4,7.838E0,6.763E1,-2.767468E1,2.6954428E4,-1.7664154E2,3.149765E4,4.296091E4,-1.6847789E2,-4.1627388E1,6.393E1,1.940354E4,4.0836172E2,1.1985119E2,2.622921E4,1.4543236E2,3.788717E4,4E1,1.15441E2,7.787E0,9.464477E1,4.6E1,-1.3224406E2,9.0826025E0,-7.1237006E0,4.258788E1,-2.872999E0,4.17694E1,-9.370971E1,6.4332633E0],"split_indices":[14,9,10,12,4,1,0,12,0,9,9,0,0,1,10,0,0,9,0,11,6,0,4,0,6,0,0,0,0,0,0,0,0],"split_type":[0,0,0,0,0,0,0,0,0,0,0,0,0,0,0,0,0,0,0,0,0,0,0,0,0,0,0,0,0,0,0,0,0],"sum_hessian":[9E1,8.3E1,7E0,6.7E1,1.6E1,5E0,2E0,6.5E1,2E0,4E0,1.2E1,4E0,1E0,5.3E1,1.2E1,2E0,2E0,9E0,3E0,9E0,4.4E1,4E0,8E0,2E0,7E0,7E0,2E0,3.9E1,5E0,3E0,5E0,5E0,2E0],"tree_param":{"num_deleted":"0","num_feature":"15","num_nodes":"33","size_leaf_vector":"1"}},{"base_weights":[1.5274753E2,-3.5797302E2,1.7708243E3,5.991016E1,-1.4828126E3,3.6818088E3,-2.0336244E3,-9.45578E1,1.9371652E3,-5.5869086E2,-2.6836436E3,8.422479E2,5.481266E3,-3.2296762E2,-2.5500154E3,1.4393915E2,-2.222119E3,1.0984965E2,2.894205E1,-1.3682557E3,4.7891663E2,-2.278881E2,-6.4762024E2,1.05519264E2,-8.708405E1,6.6570903E3,1.1736067E2,6.500817E1,-8.9230736E1,-1.4604115E2,-1.7399422E1,2.2812056E2,-8.900106E1,-5.5842133E0,-2.7218064E3,-7.356789E1,-1.8741087E1,-5.4663777E0,4.001853E1,-5.446817E1,9.996338E0,-3.117661E1,2.3919607E1,8.994563E1,3.6344717E2,5.894459E1,-7.95448E-1,-1.5439597E2,-4.05867E1,1.8980904E0,-1.148365E0],"categories":[],"categories_nodes":[],"categories_segments":[],"categories_sizes":[],"default_left":[1,0,1,0,1,0,0,0,0,1,0,0,0,0,0,0,0,0,0,0,0,0,0,0,0,0,0,0,0,0,0,0,0,0,0,0,0,0,0,0,0,0,0,0,0,0,0,0,0,0,0],"id":23,"left_children":[1,3,5,7,9,11,13,15,17,19,21,23,25,27,29,31,33,-1,-1,35,37,-1,39,-1,41,43,-1,-1,-1,-1,-1,45,-1,-1,47,-1,-1,-1,-1,-1,49,-1,-1,-1,-1,-1,-1,-1,-1,-1,-1],"loss_changes":[7.583496E7,3.2992444E7,1.6743274E8,1.5261914E7,1.958524E7,7.202846E7,6.243368E6,2.5183274E7,1.40011E5,1.0735407E7,2.7574292E7,8.433424E6,1.7540224E7,9.437625E6,3.88276E6,7.6943345E6,4.968808E6,0E0,0E0,1.65479E5,1.222063E6,0E0,1.4633778E6,0E0,1.8150361E6,4.758752E6,0E0,0E0,0E0,0E0,0E0,1.022747E7,0E0,0E0,2.90638E5,0E0,0E0,0E0,0E0,0E0,3.6374111E3,0E0,0E0,0E0,0E0,0E0,0E0,0E0,0E0,0E0,0E0],"parents":[2147483647,0,0,1,1,2,2,3,3,4,4,5,5,6,6,7,7,8,8,9,9,10,10,11,11,12,12,13,13,14,14,15,15,16,16,19,19,20,20,22,22,24,24,25,25,31,31,34,34,40,40],"right_children":[2,4,6,8,10,12,14,16,18,20,22,24,26,28,30,32,34,-1,-1,36,38,-1,40,-1,42,44,-1,-1,-1,-1,-1,46,-1,-1,48,-1,-1,-1,-1,-1,50,-1,-1,-1,-1,-1,-1,-1,-1,-1,-1],"split_conditions":[2.49245E4,1.955284E4,3.15799E4,2.8268514E4,2.5838967E4,2.5006783E4,3.423888E4,2.7195883E4,4.455E1,2.166576E4,2.697834E4,2.1902678E4,3.110612E4,4.827E1,6.371E1,4.9E1,5E0,1.0984965E2,2.894205E1,4.3E1,7.787E0,-2.278881E2,4.984E1,1.05519264E2,5.141E1,8E0,1.1736067E2,6.500817E1,-8.9230736E1,-1.4604115E2,-1.7399422E1,7.189E1,-8.900106E1,-5.5842133E0,6.763E1,-7.356789E1,-1.8741087E1,-5.4663777E0,4.001853E1,-5.446817E1,6.784E1,-3.117661E1,2.3919607E1,8.994563E1,3.6344717E2,5.894459E1,-7.95448E-1,-1.5439597E2,-4.05867E1,1.8980904E0,-1.148365E0],"split_indices":[9,10,10,13,13,14,10,13,1,11,11,13,12,1,1,6,6,0,0,6,4,0,1,0,1,6,0,0,0,0,0,1,0,0,1,0,0,0,0,0,1,0,0,0,0,0,0,0,0,0,0],"split_type":[0,0,0,0,0,0,0,0,0,0,0,0,0,0,0,0,0,0,0,0,0,0,0,0,0,0,0,0,0,0,0,0,0,0,0,0,0,0,0,0,0,0,0,0,0,0,0,0,0,0,0],"sum_hessian":[9E1,6.9E1,2.1E1,5.1E1,1.8E1,1.4E1,7E0,4.8E1,3E0,1.1E1,7E0,6E0,8E0,2E0,5E0,4.4E1,4E0,2E0,1E0,6E0,5E0,3E0,4E0,2E0,4E0,5E0,3E0,1E0,1E0,4E0,1E0,4.3E1,1E0,1E0,3E0,5E0,1E0,2E0,3E0,2E0,2E0,2E0,2E0,1E0,4E0,8E0,3.5E1,2E0,1E0,1E0,1E0],"tree_param":{"num_deleted":"0","num_feature":"15","num_nodes":"51","size_leaf_vector":"1"}},{"base_weights":[-1.21789825E2,1.9520291E2,-2.9964138E3,-1.0148804E2,3.3885327E3,-2.3134158E2,-7.66713E2,-4.4924377E2,1.0440162E3,3.0833508E2,1.043925E3,-4.7359737E1,-1.1196556E0,2.2436999E-1,-1.7676986E3,1.7414135E3,-1.1174993E3,-4.7919598E1,8.938973E1,9.052869E1,-1.7219519E2,-2.5338074E2,-2.295325E3,2.7237793E3,8.930126E2,2.6374597E2,-1.0631225E2,-5.4446077E0,1.8506378E0,-1.2974585E2,4.0352182E0,-4.5125378E1,5.8578163E1,-1.3853722E2,-3.8532776E1,2.0481756E1,1.5523405E2,5.5164623E1,5.234429E0,2.5924536E1,-6.1435895E0],"categories":[],"categories_nodes":[],"categories_segments":[],"categories_sizes":[],"default_left":[1,1,0,1,0,0,0,1,0,0,0,0,0,0,1,0,0,0,0,0,0,0,0,0,0,0,0,0,0,0,0,0,0,0,0,0,0,0,0,0,0],"id":24,"left_children":[1,3,5,7,9,-1,11,13,15,-1,17,-1,-1,19,21,23,25,27,-1,-1,29,31,33,35,37,39,-1,-1,-1,-1,-1,-1,-1,-1,-1,-1,-1,-1,-1,-1,-1],"loss_changes":[8.259605E7,7.803333E7,2.9170648E7,3.0744048E7,3.9158424E7,0E0,6.5047E5,3.4964E7,2.907986E7,0E0,4.1466205E6,0E0,0E0,1.4358056E7,1.140332E7,9.235788E6,7.5274135E6,1.9566027E4,0E0,0E0,2.594304E7,5.682191E6,5.838136E6,4.016984E6,1.3764155E6,3.5917438E5,0E0,0E0,0E0,0E0,0E0,0E0,0E0,0E0,0E0,0E0,0E0,0E0,0E0,0E0,0E0],"parents":[2147483647,0,0,1,1,2,2,3,3,4,4,6,6,7,7,8,8,10,10,13,13,14,14,15,15,16,16,17,17,20,20,21,21,22,22,23,23,24,24,25,25],"right_children":[2,4,6,8,10,-1,12,14,16,-1,18,-1,-1,20,22,24,26,28,-1,-1,30,32,34,36,38,40,-1,-1,-1,-1,-1,-1,-1,-1,-1,-1,-1,-1,-1,-1,-1],"split_conditions":[3.3490414E4,2.7900027E4,2.976E0,2.3838895E4,2.943E0,-2.3134158E2,6.484E1,2.0018027E4,3.1214994E4,3.0833508E2,2.814985E4,-4.7359737E1,-1.1196556E0,4.227E1,1.9770963E4,2.08811E4,5.961E1,4.393E1,8.938973E1,9.052869E1,4.796E1,6.718E1,2.4055041E4,5.233E1,6.227E1,4.663E1,-1.0631225E2,-5.4446077E0,1.8506378E0,-1.2974585E2,4.0352182E0,-4.5125378E1,5.8578163E1,-1.3853722E2,-3.8532776E1,2.0481756E1,1.5523405E2,5.5164623E1,5.234429E0,2.5924536E1,-6.1435895E0],"split_indices":[12,13,2,12,2,0,1,12,12,0,13,0,0,1,13,11,1,1,0,0,1,1,14,1,1,1,0,0,0,0,0,0,0,0,0,0,0,0,0,0,0],"split_type":[0,0,0,0,0,0,0,0,0,0,0,0,0,0,0,0,0,0,0,0,0,0,0,0,0,0,0,0,0,0,0,0,0,0,0,0,0,0,0,0,0],"sum_hessian":[8.9E1,8.1E1,8E0,7.5E1,6E0,4E0,4E0,5.8E1,1.7E1,2E0,4E0,3E0,1E0,4.4E1,1.4E1,1.3E1,4E0,2E0,2E0,3E0,4.1E1,4E0,1E1,5E0,8E0,2E0,2E0,1E0,1E0,3E0,3.8E1,3E0,1E0,7E0,3E0,1E0,4E0,6E0,2E0,1E0,1E0],"tree_param":{"num_deleted":"0","num_feature":"15","num_nodes":"41","size_leaf_vector":"1"}},{"base_weights":[4.8828503E1,3.4675598E2,-2.7372534E3,-4.0844168E2,1.6510759E3,-2.0748979E2,-7.7725995E2,-4.1358097E1,-2.0194736E3,3.4295732E3,3.473105E2,-5.99E0,-4.5583748E1,-1.8454116E3,1.3144124E2,-6.1762947E1,-1.7187776E2,9.08998E2,5.4602095E3,1.3070215E3,-3.214394E2,-1.1948844E2,-5.308493E0,-9.858844E0,9.858143E1,1.8117665E3,-1.1269032E2,3.284769E2,8.956295E1,-3.8608715E1,1.7143601E3,-2.9282656E1,-8.837908E1,3.7668598E0,-8.3312614E1,2.236067E1,1.5136241E2,1.0183736E2,3.0279753E1,3.4580753E1,-2.7001318E1],"categories":[],"categories_nodes":[],"categories_segments":[],"categories_sizes":[],"default_left":[1,1,0,1,0,0,0,0,1,0,0,0,0,0,0,0,0,0,0,0,0,0,0,0,0,0,0,0,0,0,0,0,0,0,0,0,0,0,0,0,0],"id":25,"left_children":[1,3,5,7,9,-1,11,13,15,17,19,-1,-1,21,23,-1,-1,25,27,29,31,-1,-1,33,-1,35,-1,-1,-1,-1,37,39,-1,-1,-1,-1,-1,-1,-1,-1,-1],"loss_changes":[7.7313784E7,8.341599E7,2.1691696E7,3.1851184E7,7.068992E7,0E0,3.3264375E5,1.427083E7,6.874532E6,6.157552E7,1.2614454E7,0E0,0E0,3.533354E6,1.0940219E7,0E0,0E0,2.4070332E7,1.6722736E7,8.099278E6,5.0182425E6,0E0,0E0,5.770257E6,0E0,8.597712E6,0E0,0E0,0E0,0E0,1.268716E6,4.423624E6,0E0,0E0,0E0,0E0,0E0,0E0,0E0,0E0,0E0],"parents":[2147483647,0,0,1,1,2,2,3,3,4,4,6,6,7,7,8,8,9,9,10,10,13,13,14,14,17,17,18,18,19,19,20,20,23,23,25,25,30,30,31,31],"right_children":[2,4,6,8,10,-1,12,14,16,18,20,-1,-1,22,24,-1,-1,26,28,30,32,-1,-1,34,-1,36,-1,-1,-1,-1,38,40,-1,-1,-1,-1,-1,-1,-1,-1,-1],"split_conditions":[4.296091E4,2.2809285E4,2.976E0,2.033423E4,2.213664E4,-2.0748979E2,2.18279E4,6E0,2.5914787E4,2.013819E4,1.954939E4,-5.99E0,-4.5583748E1,4.383E1,2.307755E4,-6.1762947E1,-1.7187776E2,4.577303E4,3.110612E4,2.1038954E2,3.988606E4,-1.1948844E2,-5.308493E0,4.2E1,9.858143E1,3.423888E4,-1.1269032E2,3.284769E2,8.956295E1,-3.8608715E1,1.912458E4,2.622921E4,-8.837908E1,3.7668598E0,-8.3312614E1,2.236067E1,1.5136241E2,1.0183736E2,3.0279753E1,3.4580753E1,-2.7001318E1],"split_indices":[10,12,2,10,11,0,11,6,13,11,10,0,0,1,9,0,0,9,12,3,9,0,0,6,0,9,0,0,0,0,9,11,0,0,0,0,0,0,0,0,0],"split_type":[0,0,0,0,0,0,0,0,0,0,0,0,0,0,0,0,0,0,0,0,0,0,0,0,0,0,0,0,0,0,0,0,0,0,0,0,0,0,0,0,0],"sum_hessian":[9.1E1,8.3E1,8E0,5.3E1,3E1,4E0,4E0,4.4E1,9E0,1.2E1,1.8E1,1E0,3E0,3E0,4.1E1,7E0,2E0,6E0,6E0,7E0,1.1E1,2E0,1E0,3.9E1,2E0,5E0,1E0,4E0,2E0,1E0,6E0,1E1,1E0,3.8E1,1E0,3E0,2E0,4E0,2E0,4E0,6E0],"tree_param":{"num_deleted":"0","num_feature":"15","num_nodes":"41","size_leaf_vector":"1"}},{"base_weights":[1.9530269E2,-2.71531E2,1.5670153E3,-3.9255577E1,-1.7898639E3,2.9928696E3,-1.4805706E3,-3.088794E2,8.6871405E2,-3.02884E3,-1.9291495E2,4.0535864E2,4.9603384E3,5.890915E1,-2.0287042E3,4.3070892E1,-1.2326779E3,1.7136943E3,2.0766994E1,-1.7048076E2,-3.76435E1,2.4411901E1,-2.4263136E1,-6.443152E1,1.1847933E3,6.0370083E3,1.0526247E2,-1.1346081E2,-1.4640851E1,5.206041E2,-7.368095E1,-1.5580558E3,3.71267E2,1.8907064E3,1.6290546E1,-5.3473225E1,3.2929498E2,1.0461205E2,2.0800937E2,8.003208E1,3.3020767E2,3.9870922E1,5.6819367E0,6.5831065E0,-2.384995E1,-6.272495E0,-1.03980095E2,-5.8402495E0,3.3685276E1,1.0256597E2,2.719104E1,2.8401169E1,4.1214332E-1,-1.0567794E1,2.0912489E1],"categories":[],"categories_nodes":[],"categories_segments":[],"categories_sizes":[],"default_left":[1,0,1,0,1,0,0,0,0,0,0,0,0,0,0,0,0,0,0,0,0,0,0,0,0,0,0,0,0,0,0,0,0,0,0,0,0,0,0,0,0,0,0,0,0,0,0,0,0,0,0,0,0,0,0],"id":26,"left_children":[1,3,5,7,9,11,13,15,17,19,21,23,25,-1,27,29,31,33,35,-1,-1,-1,-1,-1,37,39,-1,-1,-1,41,43,45,47,49,-1,-1,51,-1,53,-1,-1,-1,-1,-1,-1,-1,-1,-1,-1,-1,-1,-1,-1,-1,-1],"loss_changes":[5.805804E7,2.3911396E7,1.0437568E8,1.4956941E7,1.7222926E7,7.944285E7,1.4049006E7,1.5334256E7,9.995391E6,1.766164E6,1.2325914E6,1.2089591E7,1.4956496E7,0E0,2.258044E6,1.9897095E6,7.363E6,1.103692E6,3.0431045E6,0E0,0E0,0E0,0E0,0E0,4.883076E6,4.525488E6,0E0,0E0,0E0,6.979594E5,2.4645412E6,7.957982E6,5.215274E5,1.82414E5,0E0,0E0,5.3182756E5,0E0,4.4106956E5,0E0,0E0,0E0,0E0,0E0,0E0,0E0,0E0,0E0,0E0,0E0,0E0,0E0,0E0,0E0,0E0],"parents":[2147483647,0,0,1,1,2,2,3,3,4,4,5,5,6,6,7,7,8,8,9,9,10,10,11,11,12,12,14,14,15,15,16,16,17,17,18,18,24,24,25,25,29,29,30,30,31,31,32,32,33,33,36,36,38,38],"right_children":[2,4,6,8,10,12,14,16,18,20,22,24,26,-1,28,30,32,34,36,-1,-1,-1,-1,-1,38,40,-1,-1,-1,42,44,46,48,50,-1,-1,52,-1,54,-1,-1,-1,-1,-1,-1,-1,-1,-1,-1,-1,-1,-1,-1,-1,-1],"split_conditions":[2.338803E4,2.9042127E4,3.15799E4,2.18279E4,1.912458E4,2.5006783E4,2.104339E4,1.846118E4,1.940354E4,6.763E1,4.663E1,1.882029E4,2.89883E4,5.890915E1,6.014E1,7.969E1,2.5264113E4,4.8E1,4.984E1,-1.7048076E2,-3.76435E1,2.4411901E1,-2.4263136E1,-6.443152E1,2.1902678E4,8E0,1.0526247E2,-1.1346081E2,-1.4640851E1,1.649605E4,1.643415E4,2.835E0,1E0,6.225E1,1.6290546E1,-5.3473225E1,3.332E0,1.0461205E2,5.141E1,8.003208E1,3.3020767E2,3.9870922E1,5.6819367E0,6.5831065E0,-2.384995E1,-6.272495E0,-1.03980095E2,-5.8402495E0,3.3685276E1,1.0256597E2,2.719104E1,2.8401169E1,4.1214332E-1,-1.0567794E1,2.0912489E1],"split_indices":[9,14,10,11,9,14,11,9,10,1,1,11,13,0,1,1,14,6,1,0,0,0,0,0,13,6,0,0,0,13,9,2,0,1,0,0,2,0,1,0,0,0,0,0,0,0,0,0,0,0,0,0,0,0,0],"split_type":[0,0,0,0,0,0,0,0,0,0,0,0,0,0,0,0,0,0,0,0,0,0,0,0,0,0,0,0,0,0,0,0,0,0,0,0,0,0,0,0,0,0,0,0,0,0,0,0,0,0,0,0,0,0,0],"sum_hessian":[8.9E1,6.7E1,2.2E1,5.9E1,8E0,1.5E1,7E0,4.6E1,1.3E1,4E0,4E0,7E0,8E0,1E0,6E0,3.4E1,1.2E1,6E0,7E0,3E0,1E0,1E0,3E0,2E0,5E0,5E0,3E0,5E0,1E0,6E0,2.8E1,1E1,2E0,5E0,1E0,1E0,6E0,2E0,3E0,1E0,4E0,3E0,3E0,1.9E1,9E0,3E0,7E0,1E0,1E0,4E0,1E0,3E0,3E0,1E0,2E0],"tree_param":{"num_deleted":"0","num_feature":"15","num_nodes":"55","size_leaf_vector":"1"}},{"base_weights":[3.2769086E0,2.4869472E2,-2.5740195E3,-2.5185486E2,2.236264E3,-2.1258507E2,-7.170706E2,-1.1847179E3,3.4516163E1,-2.3620842E2,4.460262E3,-5.6942434E0,-4.196979E1,-2.3024321E2,-2.7371353E3,-1.148834E3,1.2849385E2,-7.6400244E2,9.965359E1,5.947939E3,1.04026665E2,-1.10931145E2,4.581326E2,-1.7466551E2,-4.0826168E1,-8.717779E1,1.5883283E1,-2.3070217E1,9.27089E2,2.8680878E1,-1.3054786E3,7.803127E1,3.3273056E2,4.7635136E1,-1.9912785E1,1.13560705E1,-1.6107334E1,6.350111E1,1.3332515E1,-8.588387E1,1.8887882E1],"categories":[],"categories_nodes":[],"categories_segments":[],"categories_sizes":[],"default_left":[1,1,0,0,0,0,0,0,0,0,0,0,0,1,0,0,0,0,0,0,0,0,0,0,0,0,0,0,0,0,0,0,0,0,0,0,0,0,0,0,0],"id":27,"left_children":[1,3,5,7,9,-1,11,13,15,17,19,-1,-1,21,23,25,27,29,-1,31,-1,-1,33,-1,-1,-1,-1,35,37,-1,39,-1,-1,-1,-1,-1,-1,-1,-1,-1,-1],"loss_changes":[5.819896E7,8.413287E7,2.1874184E7,1.8206748E7,9.45327E7,0E0,2.733295E5,2.3077684E7,6.0416695E6,1.2112118E7,1.948752E7,0E0,0E0,1.6072701E7,5.861544E6,4.0425055E6,6.073305E6,6.5431605E6,0E0,5.116608E6,0E0,0E0,4.1913155E6,0E0,0E0,0E0,0E0,3.290703E6,1.4732385E6,0E0,4.811833E6,0E0,0E0,0E0,0E0,0E0,0E0,0E0,0E0,0E0,0E0],"parents":[2147483647,0,0,1,1,2,2,3,3,4,4,6,6,7,7,8,8,9,9,10,10,13,13,14,14,15,15,16,16,17,17,19,19,22,22,27,27,28,28,30,30],"right_children":[2,4,6,8,10,-1,12,14,16,18,20,-1,-1,22,24,26,28,30,-1,32,-1,-1,34,-1,-1,-1,-1,36,38,-1,40,-1,-1,-1,-1,-1,-1,-1,-1,-1,-1],"split_conditions":[4.296091E4,2.49245E4,2.976E0,1.9E1,2.4405635E4,-2.1258507E2,2.18279E4,1.3E1,4.984E1,3.308E0,2.89883E4,-5.6942434E0,-4.196979E1,1.73597E4,6.931E1,2.854E0,1.905066E4,2.719E0,9.965359E1,8E0,1.04026665E2,-1.10931145E2,1.1E1,-1.7466551E2,-4.0826168E1,-8.717779E1,1.5883283E1,1.643415E4,2.5838967E4,2.8680878E1,5E1,7.803127E1,3.3273056E2,4.7635136E1,-1.9912785E1,1.13560705E1,-1.6107334E1,6.350111E1,1.3332515E1,-8.588387E1,1.8887882E1],"split_indices":[10,9,2,6,14,0,11,6,1,2,13,0,0,11,1,2,11,2,0,6,0,0,6,0,0,0,0,9,13,0,6,0,0,0,0,0,0,0,0,0,0],"split_type":[0,0,0,0,0,0,0,0,0,0,0,0,0,0,0,0,0,0,0,0,0,0,0,0,0,0,0,0,0,0,0,0,0,0,0,0,0,0,0,0,0],"sum_hessian":[9E1,8.3E1,7E0,6.7E1,1.6E1,3E0,4E0,1.5E1,5.2E1,8E0,8E0,1E0,3E0,1E1,5E0,3E0,4.9E1,7E0,1E0,4E0,4E0,2E0,8E0,3E0,2E0,2E0,1E0,4.2E1,7E0,2E0,5E0,1E0,3E0,5E0,3E0,2.3E1,1.9E1,4E0,3E0,4E0,1E0],"tree_param":{"num_deleted":"0","num_feature":"15","num_nodes":"41","size_leaf_vector":"1"}},{"base_weights":[-2.1981242E2,-3.6798362E3,-1.369558E1,-2.1214888E2,-3.568176E1,-5.7007275E2,9.2561896E2,-1.6309958E2,-1.8410575E3,1.989686E3,-7.826089E2,-1.6735886E3,-3.9955828E0,-2.5638384E3,-1.0688396E3,3.3562122E3,9.9569415E2,5.455098E0,-1.27855835E2,-1.0723344E2,-6.5087066E0,-1.5400934E2,1.3471272E3,-4.855629E1,-1.5587065E2,-7.5746574E1,-3.338269E1,1.8415684E1,3.7304385E3,1.5484655E3,9.271673E1,-8.1186E1,3.6688785E2,-5.160459E1,2.800511E0,7.6475945E1,1.9998795E1,6.439597E1,2.2249312E2,2.7776098E1,8.934298E1,-5.387743E0,1.0994562E1,-1.4770186E1,4.7790096E1],"categories":[],"categories_nodes":[],"categories_segments":[],"categories_sizes":[],"default_left":[0,0,1,0,0,1,0,0,0,0,0,0,0,0,0,0,0,0,0,0,0,1,0,0,0,0,0,0,0,0,0,0,0,0,0,0,0,0,0,0,0,0,0,0,0],"id":28,"left_children":[1,3,5,-1,-1,7,9,11,13,15,17,19,21,23,25,27,29,31,-1,-1,-1,33,35,-1,-1,-1,-1,-1,37,39,41,-1,43,-1,-1,-1,-1,-1,-1,-1,-1,-1,-1,-1,-1],"loss_changes":[6.3421664E7,5.324016E6,4.4949788E7,0E0,0E0,2.7631584E7,5.9722556E7,1.0086957E7,4.515548E6,2.382456E7,1.8193484E7,2.629107E6,8.1122635E6,2.262712E6,4.20276E5,7.571232E6,6.345253E6,6.4840955E6,0E0,0E0,0E0,6.69673E6,7.92395E4,0E0,0E0,0E0,0E0,0E0,6.569384E6,9.01056E5,1.7666361E5,0E0,3.7926428E6,0E0,0E0,0E0,0E0,0E0,0E0,0E0,0E0,0E0,0E0,0E0,0E0],"parents":[2147483647,0,0,1,1,2,2,5,5,6,6,7,7,8,8,9,9,10,10,11,11,12,12,13,13,14,14,15,15,16,16,17,17,21,21,22,22,28,28,29,29,30,30,32,32],"right_children":[2,4,6,-1,-1,8,10,12,14,16,18,20,22,24,26,28,30,32,-1,-1,-1,34,36,-1,-1,-1,-1,-1,38,40,42,-1,44,-1,-1,-1,-1,-1,-1,-1,-1,-1,-1,-1,-1],"split_conditions":[2.106171E2,6.763E1,2.3478838E4,-2.1214888E2,-3.568176E1,2.0018027E4,3.15799E4,6E0,2.0986234E4,2.12804E4,4.603949E4,4.383E1,1E0,1.940354E4,2.728E0,5.233E1,1.954939E4,3.330592E4,-1.27855835E2,-1.0723344E2,-6.5087066E0,1.529555E4,3.993E1,-4.855629E1,-1.5587065E2,-7.5746574E1,-3.338269E1,1.8415684E1,2.771E0,2.464033E4,1.2E1,-8.1186E1,7.787E0,-5.160459E1,2.800511E0,7.6475945E1,1.9998795E1,6.439597E1,2.2249312E2,2.7776098E1,8.934298E1,-5.387743E0,1.0994562E1,-1.4770186E1,4.7790096E1],"split_indices":[3,1,12,0,0,12,10,6,12,11,9,1,0,11,2,1,10,10,0,0,0,11,1,0,0,0,0,0,2,12,6,0,4,0,0,0,0,0,0,0,0,0,0,0,0],"split_type":[0,0,0,0,0,0,0,0,0,0,0,0,0,0,0,0,0,0,0,0,0,0,0,0,0,0,0,0,0,0,0,0,0,0,0,0,0,0,0,0,0,0,0,0,0],"sum_hessian":[8.8E1,4E0,8.4E1,3E0,1E0,5.3E1,3.1E1,4.1E1,1.2E1,1.9E1,1.2E1,3E0,3.8E1,5E0,7E0,7E0,1.2E1,9E0,3E0,2E0,1E0,3.5E1,3E0,2E0,3E0,2E0,5E0,1E0,6E0,7E0,5E0,1E0,8E0,6E0,2.9E1,2E0,1E0,2E0,4E0,2E0,5E0,2E0,3E0,4E0,4E0],"tree_param":{"num_deleted":"0","num_feature":"15","num_nodes":"45","size_leaf_vector":"1"}},{"base_weights":[1.4409918E2,4.2540942E2,-1.8637462E3,-6.985949E1,2.5101963E3,-3.0565588E2,-3.1112122E3,1.6160419E2,-1.0863358E3,-2.2122473E2,4.355724E3,2.1415976E1,-5.3811487E2,-6.8587814E1,-1.8190005E2,-7.4703926E1,1.3251887E3,-3.9361517E2,-1.5166463E2,8.1769006E2,-9.395039E1,3.426451E2,1.3316293E2,-3.3436684E1,-3.909935E-1,-1.03659E2,6.646193E1,1.4168783E3,1.4791797E1,-7.789526E2,3.8257812E1,1.0611337E2,9.159992E1,-4.3360267E0,5.1277027E1,7.592456E1,1.7639708E1,-4.561032E1,-1.26397E1,-1.7787296E1,1.8932423E1],"categories":[],"categories_nodes":[],"categories_segments":[],"categories_sizes":[],"default_left":[1,1,0,1,0,0,0,1,1,0,0,0,0,0,0,0,0,0,0,0,0,0,0,0,0,0,0,0,0,0,0,0,0,0,0,0,0,0,0,0,0],"id":29,"left_children":[1,3,5,7,9,11,13,15,17,19,21,-1,23,-1,-1,25,27,29,-1,31,-1,-1,-1,-1,-1,-1,33,35,-1,37,-1,39,-1,-1,-1,-1,-1,-1,-1,-1,-1],"loss_changes":[5.049767E7,8.07127E7,2.0429348E7,1.5233306E7,7.65773E7,1.2542E6,5.07504E5,1.4672114E7,1.4990415E7,1.3592513E7,1.9786448E7,0E0,3.41103E5,0E0,0E0,1.2833033E7,4.30265E5,5.0612005E6,0E0,3.4143912E6,0E0,0E0,0E0,0E0,0E0,0E0,6.4062385E6,3.29282E5,0E0,3.30301E5,0E0,6.3819406E5,0E0,0E0,0E0,0E0,0E0,0E0,0E0,0E0,0E0],"parents":[2147483647,0,0,1,1,2,2,3,3,4,4,5,5,6,6,7,7,8,8,9,9,10,10,12,12,15,15,16,16,17,17,19,19,26,26,27,27,29,29,31,31],"right_children":[2,4,6,8,10,12,14,16,18,20,22,-1,24,-1,-1,26,28,30,-1,32,-1,-1,-1,-1,-1,-1,34,36,-1,38,-1,40,-1,-1,-1,-1,-1,-1,-1,-1,-1],"split_conditions":[3.788717E4,2.622921E4,4.159555E4,2.033423E4,2.5006783E4,4.663E1,4.796E1,2.009419E4,2.5914787E4,5.911E1,3.149765E4,2.1415976E1,6.484E1,-6.8587814E1,-1.8190005E2,4.383E1,4.2E1,2.33518E4,-1.5166463E2,3.172E0,-9.395039E1,3.426451E2,1.3316293E2,-3.3436684E1,-3.909935E-1,-1.03659E2,2.3478838E4,6.741E1,1.4791797E1,2.166576E4,3.8257812E1,5.141E1,9.159992E1,-4.3360267E0,5.1277027E1,7.592456E1,1.7639708E1,-4.561032E1,-1.26397E1,-1.7787296E1,1.8932423E1],"split_indices":[10,9,9,10,14,1,1,9,13,1,9,0,1,0,0,1,6,10,0,2,0,0,0,0,0,0,12,1,0,10,0,1,0,0,0,0,0,0,0,0,0],"split_type":[0,0,0,0,0,0,0,0,0,0,0,0,0,0,0,0,0,0,0,0,0,0,0,0,0,0,0,0,0,0,0,0,0,0,0,0,0,0,0,0,0],"sum_hessian":[8.7E1,7.7E1,1E1,6.3E1,1.4E1,5E0,5E0,5.2E1,1.1E1,6E0,8E0,1E0,4E0,2E0,3E0,4.4E1,8E0,9E0,2E0,4E0,2E0,2E0,6E0,3E0,1E0,2E0,4.2E1,7E0,1E0,7E0,2E0,3E0,1E0,3.7E1,5E0,6E0,1E0,5E0,2E0,1E0,2E0],"tree_param":{"num_deleted":"0","num_feature":"15","num_nodes":"41","size_leaf_vector":"1"}},{"base_weights":[-2.8257341E1,1.740752E2,-2.9573696E3,-2.9620895E2,1.0331759E3,-1.9315881E2,-7.6383777E2,1.9978643E1,-1.4835774E3,1.4917595E3,-2.4352031E3,-1.2020413E1,-4.526742E1,7.55483E1,-1.1918248E2,4.976214E1,-1.7994012E3,3.1354106E3,4.044305E2,-1.39226E2,-3.4681316E1,-1.6858241E3,8.4724976E1,-9.948653E2,-2.5658713E3,1.2986985E3,5.0797256E3,1.4585804E3,-3.989904E2,-1.0224522E2,-6.2375884E0,-5.000116E0,2.8201551E1,-6.64335E1,-2.978047E1,-1.4641881E2,-2.7896338E1,-2.1036725E0,1.157398E2,2.8302723E1,3.033315E2,8.479833E1,2.4880743E1,7.217429E-1,-7.531347E1],"categories":[],"categories_nodes":[],"categories_segments":[],"categories_sizes":[],"default_left":[1,1,0,1,1,0,0,0,0,0,0,0,0,0,0,0,1,0,0,0,0,0,0,0,0,0,0,0,0,0,0,0,0,0,0,0,0,0,0,0,0,0,0,0,0],"id":30,"left_children":[1,3,5,7,9,-1,11,13,15,17,19,-1,-1,-1,21,-1,23,25,27,-1,-1,29,31,33,35,37,39,41,43,-1,-1,-1,-1,-1,-1,-1,-1,-1,-1,-1,-1,-1,-1,-1,-1],"loss_changes":[5.503904E7,3.5455904E7,8.970652E6,2.1429216E7,5.2939536E7,0E0,4.55925E3,9.724505E6,1.1185286E7,4.8773252E7,5.02034E5,0E0,0E0,0E0,1.3879179E7,0E0,4.230488E6,3.2685584E7,1.5826629E7,0E0,0E0,2.547644E6,3.5094998E6,1.415465E5,2.005628E6,9.633875E6,1.8838752E7,9.8102E5,5.057291E6,0E0,0E0,0E0,0E0,0E0,0E0,0E0,0E0,0E0,0E0,0E0,0E0,0E0,0E0,0E0,0E0],"parents":[2147483647,0,0,1,1,2,2,3,3,4,4,6,6,7,7,8,8,9,9,10,10,14,14,16,16,17,17,18,18,21,21,22,22,23,23,24,24,25,25,26,26,27,27,28,28],"right_children":[2,4,6,8,10,-1,12,14,16,18,20,-1,-1,-1,22,-1,24,26,28,-1,-1,30,32,34,36,38,40,42,44,-1,-1,-1,-1,-1,-1,-1,-1,-1,-1,-1,-1,-1,-1,-1,-1],"split_conditions":[3.601138E4,2.2809285E4,2.976E0,2.0018027E4,2.906604E4,-1.9315881E2,1E0,4.227E1,2.725E0,2.213664E4,6.763E1,-1.2020413E1,-4.526742E1,7.55483E1,4.796E1,4.976214E1,2.5730158E4,5.961E1,1.954939E4,-1.39226E2,-3.4681316E1,3.01E0,1.734147E4,1.819474E4,6.931E1,3.423888E4,2.719E0,2.033423E4,2.166576E4,-1.0224522E2,-6.2375884E0,-5.000116E0,2.8201551E1,-6.64335E1,-2.978047E1,-1.4641881E2,-2.7896338E1,-2.1036725E0,1.157398E2,2.8302723E1,3.033315E2,8.479833E1,2.4880743E1,7.217429E-1,-7.531347E1],"split_indices":[12,12,2,12,14,0,0,1,2,11,1,0,0,0,1,0,13,1,10,0,0,2,11,11,1,9,2,9,9,0,0,0,0,0,0,0,0,0,0,0,0,0,0,0,0],"split_type":[0,0,0,0,0,0,0,0,0,0,0,0,0,0,0,0,0,0,0,0,0,0,0,0,0,0,0,0,0,0,0,0,0,0,0,0,0,0,0,0,0,0,0,0,0],"sum_hessian":[9.1E1,8.6E1,5E0,5.6E1,3E1,3E0,2E0,4.5E1,1.1E1,2.7E1,3E0,1E0,1E0,3E0,4.2E1,1E0,1E1,1E1,1.7E1,2E0,1E0,4E0,3.8E1,6E0,4E0,6E0,4E0,7E0,1E1,3E0,1E0,2.8E1,1E1,2E0,4E0,3E0,1E0,3E0,3E0,1E0,3E0,5E0,2E0,8E0,2E0],"tree_param":{"num_deleted":"0","num_feature":"15","num_nodes":"45","size_leaf_vector":"1"}},{"base_weights":[-5.482455E1,1.9003171E2,-2.3884705E3,-3.0154123E2,1.1176859E3,-1.8610757E2,-5.770957E2,-4.9528004E1,-1.6401086E3,2.6481723E2,7.909617E2,-3.9926225E-1,-3.586885E1,-1.9608717E2,6.397051E1,-8.938954E2,-1.417285E2,3.3380928E3,3.6867374E2,-1.5127493E3,-6.602205E1,-1.07030945E1,-4.85762E1,2.7595154E1,2.0414275E2,-1.2734545E3,7.251268E2,-9.679552E1,-6.08165E0,-1.5170481E1,1.5046245E1,1.6121626E1,-1.22242836E2,-4.9538616E1,5.2410206E1],"categories":[],"categories_nodes":[],"categories_segments":[],"categories_sizes":[],"default_left":[1,1,0,1,0,0,0,0,1,0,0,0,0,0,0,0,0,0,0,0,1,0,0,0,0,0,0,0,0,0,0,0,0,0,0],"id":31,"left_children":[1,3,5,7,9,-1,11,13,15,-1,17,-1,-1,19,-1,21,-1,23,25,27,29,-1,-1,-1,-1,31,33,-1,-1,-1,-1,-1,-1,-1,-1],"loss_changes":[5.416622E7,3.9553868E7,1.9594124E7,1.914696E7,3.676887E7,0E0,3.9344938E5,9.794512E6,5.488096E6,0E0,2.9962394E7,0E0,0E0,7.606457E6,0E0,1.614555E5,0E0,6.046856E6,1.6142298E7,2.119195E6,3.749866E6,0E0,0E0,0E0,0E0,1.0135429E7,1.3234629E7,0E0,0E0,0E0,0E0,0E0,0E0,0E0,0E0],"parents":[2147483647,0,0,1,1,2,2,3,3,4,4,6,6,7,7,8,8,10,10,13,13,15,15,17,17,18,18,19,19,20,20,25,25,26,26],"right_children":[2,4,6,8,10,-1,12,14,16,-1,18,-1,-1,20,-1,22,-1,24,26,28,30,-1,-1,-1,-1,32,34,-1,-1,-1,-1,-1,-1,-1,-1],"split_conditions":[3.3490414E4,2.2809285E4,2.976E0,2.0326518E4,2.304035E4,-1.8610757E2,4.159555E4,1E0,2.5914787E4,2.6481723E2,2.3789502E4,-3.9926225E-1,-3.586885E1,6E0,6.397051E1,1.9632484E4,-1.417285E2,2.719E0,2.4346346E4,3.01E0,1.643415E4,-1.07030945E1,-4.85762E1,2.7595154E1,2.0414275E2,3.988606E4,2.3478838E4,-9.679552E1,-6.08165E0,-1.5170481E1,1.5046245E1,1.6121626E1,-1.22242836E2,-4.9538616E1,5.2410206E1],"split_indices":[12,12,2,12,12,0,10,0,13,0,13,0,0,6,0,13,0,2,13,2,11,0,0,0,0,9,12,0,0,0,0,0,0,0,0],"split_type":[0,0,0,0,0,0,0,0,0,0,0,0,0,0,0,0,0,0,0,0,0,0,0,0,0,0,0,0,0,0,0,0,0,0,0],"sum_hessian":[9.3E1,8.5E1,8E0,5.6E1,2.9E1,4E0,4E0,4.8E1,8E0,1E0,2.8E1,1E0,3E0,4.4E1,4E0,6E0,2E0,3E0,2.5E1,3E0,4.1E1,1E0,5E0,1E0,2E0,4E0,2.1E1,2E0,1E0,2.5E1,1.6E1,2E0,2E0,3E0,1.8E1],"tree_param":{"num_deleted":"0","num_feature":"15","num_nodes":"35","size_leaf_vector":"1"}},{"base_weights":[1.0595514E2,3.3647498E2,-1.5165133E3,-9.073499E1,2.4790059E3,-1.9472761E3,-1.6816841E2,-3.2444278E2,8.839641E2,-1.0987209E2,3.9294792E3,-7.1937274E2,-2.7857244E3,-1.0951707E1,-3.892807E-1,-8.6082184E1,-1.8034363E3,-7.912867E2,1.2291132E3,1.1193309E3,-8.5609276E1,3.1329657E2,1.1833943E2,1.9552277E1,-1.0947388E3,-3.559004E1,-1.5631274E2,-8.416002E2,3.3355778E1,-1.2875215E2,-3.88069E2,-5.1138245E1,-8.208257E0,1.8251383E3,3.2889822E2,1.8449432E1,8.425895E1,-6.299235E1,-1.4985346E1,-6.628188E1,1.2283115E1,3.932337E1,-2.965033E0,-3.477218E1,1.3351364E1,1.0627081E2,3.5814793E1,8.2902604E-1,3.1784454E1],"categories":[],"categories_nodes":[],"categories_segments":[],"categories_sizes":[],"default_left":[1,1,0,0,0,0,0,0,0,0,0,0,0,0,0,0,0,0,0,0,0,0,0,0,0,0,0,1,0,0,0,0,0,1,0,0,0,0,0,0,0,0,0,0,0,0,0,0,0],"id":32,"left_children":[1,3,5,7,9,11,13,15,17,19,21,23,25,-1,-1,27,29,31,33,35,-1,-1,-1,-1,37,-1,-1,39,41,-1,43,-1,-1,45,47,-1,-1,-1,-1,-1,-1,-1,-1,-1,-1,-1,-1,-1,-1],"loss_changes":[3.604133E7,7.7111016E7,6.642334E6,1.6460224E7,5.300311E7,7.261824E6,3.092664E4,2.0291716E7,9.067538E6,1.3733913E7,1.803024E7,2.5121588E6,1.3059E6,0E0,0E0,4.6301865E6,7.73756E6,2.6759262E5,5.838324E6,1.076507E6,0E0,0E0,0E0,0E0,1.474805E5,0E0,0E0,4.0095895E6,3.1867668E6,0E0,9.9114194E5,0E0,0E0,8.083E5,5.6435725E5,0E0,0E0,0E0,0E0,0E0,0E0,0E0,0E0,0E0,0E0,0E0,0E0,0E0,0E0],"parents":[2147483647,0,0,1,1,2,2,3,3,4,4,5,5,6,6,7,7,8,8,9,9,10,10,11,11,12,12,15,15,16,16,17,17,18,18,19,19,24,24,27,27,28,28,30,30,33,33,34,34],"right_children":[2,4,6,8,10,12,14,16,18,20,22,24,26,-1,-1,28,30,32,34,36,-1,-1,-1,-1,38,-1,-1,40,42,-1,44,-1,-1,46,48,-1,-1,-1,-1,-1,-1,-1,-1,-1,-1,-1,-1,-1,-1],"split_conditions":[3.788717E4,2.622921E4,3.158E0,2.3478838E4,2.4405635E4,4.843E1,6.484E1,1.954939E4,2.1122353E2,5.911E1,3.149765E4,4.296091E4,2.732E0,-1.0951707E1,-3.892807E-1,6.393E1,6.931E1,4.383E1,6.225E1,3.172E0,-8.5609276E1,3.1329657E2,1.1833943E2,1.9552277E1,4.796E1,-3.559004E1,-1.5631274E2,2.5264113E4,6.964E1,-1.2875215E2,7.299E1,-5.1138245E1,-8.208257E0,1.936383E4,6.784E1,1.8449432E1,8.425895E1,-6.299235E1,-1.4985346E1,-6.628188E1,1.2283115E1,3.932337E1,-2.965033E0,-3.477218E1,1.3351364E1,1.0627081E2,3.5814793E1,8.2902604E-1,3.1784454E1],"split_indices":[10,9,2,12,14,1,1,11,3,1,9,10,2,0,0,1,1,1,1,2,0,0,0,0,1,0,0,14,1,0,1,0,0,10,1,0,0,0,0,0,0,0,0,0,0,0,0,0,0],"split_type":[0,0,0,0,0,0,0,0,0,0,0,0,0,0,0,0,0,0,0,0,0,0,0,0,0,0,0,0,0,0,0,0,0,0,0,0,0,0,0,0,0,0,0,0,0,0,0,0,0],"sum_hessian":[9.4E1,8.3E1,1.1E1,7E1,1.3E1,8E0,3E0,5.7E1,1.3E1,5E0,8E0,4E0,4E0,2E0,1E0,5E1,7E0,2E0,1.1E1,3E0,2E0,2E0,6E0,1E0,3E0,1E0,3E0,6E0,4.4E1,4E0,3E0,1E0,1E0,6E0,5E0,2E0,1E0,2E0,1E0,4E0,2E0,4E0,4E1,2E0,1E0,4E0,2E0,3E0,2E0],"tree_param":{"num_deleted":"0","num_feature":"15","num_nodes":"49","size_leaf_vector":"1"}},{"base_weights":[-2.459519E1,1.571466E2,-2.6557522E3,-1.8305026E2,1.3843275E3,-1.7307462E2,-6.9618134E2,8.774532E1,-2.6709235E2,3.5574648E3,3.541024E2,-1.054939E1,-4.166421E1,-9.9781586E2,1.3099759E0,3.0285336E2,7.9339734E2,-1.8730724E2,1.2008534E2,-3.4137985E2,-2.2537913E3,-1.0010346E3,8.658803E1,6.6145035E1,-1.9877811E1,-1.6021545E3,4.6232568E2,-9.161201E1,4.8126464E0,-1.4382451E2,-3.3613102E1,-7.329095E1,9.832959E0,-3.734993E0,3.454116E1,1.0988593E1,-1.1413604E2,-9.198365E0,6.58092E1],"categories":[],"categories_nodes":[],"categories_segments":[],"categories_sizes":[],"default_left":[1,1,0,0,0,0,0,0,0,0,0,0,0,0,0,0,0,0,0,1,0,0,0,0,0,0,0,0,0,0,0,0,0,0,0,0,0,0,0],"id":33,"left_children":[1,3,5,7,9,-1,11,-1,13,15,17,-1,-1,19,21,-1,23,25,-1,27,29,31,33,-1,-1,35,37,-1,-1,-1,-1,-1,-1,-1,-1,-1,-1,-1,-1],"loss_changes":[4.4410932E7,3.657443E7,7.0636E6,1.1706746E7,4.1277884E7,0E0,2.3751375E4,0E0,1.3141876E7,3.664875E7,1.5970155E7,0E0,0E0,1.4071014E7,4.360577E6,0E0,3.048383E6,1.1770294E7,0E0,8.658199E6,3.975146E6,2.5149438E6,4.6320275E6,0E0,0E0,5.461442E6,5.2087175E6,0E0,0E0,0E0,0E0,0E0,0E0,0E0,0E0,0E0,0E0,0E0,0E0],"parents":[2147483647,0,0,1,1,2,2,3,3,4,4,6,6,8,8,9,9,10,10,13,13,14,14,16,16,17,17,19,19,20,20,21,21,22,22,25,25,26,26],"right_children":[2,4,6,8,10,-1,12,-1,14,16,18,-1,-1,20,22,-1,24,26,-1,28,30,32,34,-1,-1,36,38,-1,-1,-1,-1,-1,-1,-1,-1,-1,-1,-1,-1],"split_conditions":[3.601138E4,2.49245E4,2.976E0,4E0,3.149765E4,-1.7307462E2,1E0,8.774532E1,1.9E1,7.838E0,3.308E0,-1.054939E1,-4.166421E1,1.3E1,4.984E1,3.0285336E2,2.719E0,2.4346346E4,1.2008534E2,1.73597E4,6.931E1,2.854E0,1.905066E4,6.6145035E1,-1.9877811E1,5.911E1,4.296091E4,-9.161201E1,4.8126464E0,-1.4382451E2,-3.3613102E1,-7.329095E1,9.832959E0,-3.734993E0,3.454116E1,1.0988593E1,-1.1413604E2,-9.198365E0,6.58092E1],"split_indices":[12,9,2,6,9,0,0,0,6,4,2,0,0,6,1,0,2,13,0,11,1,2,11,0,0,1,9,0,0,0,0,0,0,0,0,0,0,0,0],"split_type":[0,0,0,0,0,0,0,0,0,0,0,0,0,0,0,0,0,0,0,0,0,0,0,0,0,0,0,0,0,0,0,0,0,0,0,0,0,0,0],"sum_hessian":[9.1E1,8.6E1,5E0,6.8E1,1.8E1,3E0,2E0,2E0,6.6E1,5E0,1.3E1,1E0,1E0,1.7E1,4.9E1,2E0,3E0,1.1E1,2E0,1.2E1,5E0,3E0,4.6E1,2E0,1E0,3E0,8E0,2E0,1E1,3E0,2E0,2E0,1E0,3.7E1,9E0,1E0,2E0,5E0,3E0],"tree_param":{"num_deleted":"0","num_feature":"15","num_nodes":"39","size_leaf_vector":"1"}},{"base_weights":[3.1064663E1,3.3284885E2,-1.6956353E3,-8.952252E1,2.5165723E3,-8.4721893E2,-3.0533408E3,1.7224104E3,-1.9964882E2,2.2112749E2,3.9235842E3,3.2013504E2,-8.394054E1,-1.8569098E2,-1.0285654E1,9.887611E1,2.3926888E1,-1.0505538E3,7.6633766E1,-4.845876E1,1.0585726E3,2.9275824E2,1.1519318E2,-1.4346976E1,2.7181929E1,-2.0405864E3,-2.5247563E2,-1.3663617E2,4.3179187E2,7.9150345E1,1.7804613E1,-6.357001E0,-1.16915215E2,4.8592327E1,-4.580102E1,8.020039E0,-2.6499899E1,-4.07095E1,3.1313574E1],"categories":[],"categories_nodes":[],"categories_segments":[],"categories_sizes":[],"default_left":[1,1,0,0,0,0,0,0,0,0,0,0,0,0,0,0,0,1,0,0,0,0,0,0,0,0,0,0,0,0,0,0,0,0,0,0,0,0,0],"id":34,"left_children":[1,3,5,7,9,11,13,15,17,19,21,23,-1,-1,-1,-1,-1,25,27,-1,29,-1,-1,-1,-1,31,33,35,37,-1,-1,-1,-1,-1,-1,-1,-1,-1,-1],"loss_changes":[4.9025824E7,7.401266E7,1.3539752E7,1.3912697E7,4.111873E7,1.0245066E7,8.640004E6,3.22986E5,1.5361373E7,7.006822E6,1.153948E7,8.344078E5,0E0,0E0,0E0,0E0,0E0,1.2126778E7,3.8462258E6,0E0,9.099225E5,0E0,0E0,0E0,0E0,3.690378E6,9.014157E6,3.823988E6,5.1139475E6,0E0,0E0,0E0,0E0,0E0,0E0,0E0,0E0,0E0,0E0],"parents":[2147483647,0,0,1,1,2,2,3,3,4,4,5,5,6,6,7,7,8,8,9,9,10,10,11,11,17,17,18,18,20,20,25,25,26,26,27,27,28,28],"right_children":[2,4,6,8,10,12,14,16,18,20,22,24,-1,-1,-1,-1,-1,26,28,-1,30,-1,-1,-1,-1,32,34,36,38,-1,-1,-1,-1,-1,-1,-1,-1,-1,-1],"split_conditions":[3.15799E4,2.622921E4,6.227E1,3.993E1,2.5006783E4,1.955284E4,2.1382333E2,2.1146596E2,1.9E1,2.1188968E2,3.149765E4,2E0,-8.394054E1,-1.8569098E2,-1.0285654E1,9.887611E1,2.3926888E1,2.1102867E4,1.734147E4,-4.845876E1,3.330592E4,2.9275824E2,1.1519318E2,-1.4346976E1,2.7181929E1,5E0,1.1E1,1.633314E4,4.984E1,7.9150345E1,1.7804613E1,-6.357001E0,-1.16915215E2,4.8592327E1,-4.580102E1,8.020039E0,-2.6499899E1,-4.07095E1,3.1313574E1],"split_indices":[10,9,1,1,14,9,3,3,6,3,9,6,0,0,0,0,0,12,11,0,9,0,0,0,0,6,6,10,1,0,0,0,0,0,0,0,0,0,0],"split_type":[0,0,0,0,0,0,0,0,0,0,0,0,0,0,0,0,0,0,0,0,0,0,0,0,0,0,0,0,0,0,0,0,0,0,0,0,0,0,0],"sum_hessian":[9.2E1,7.9E1,1.3E1,6.7E1,1.2E1,9E0,4E0,3E0,6.4E1,5E0,7E0,4E0,5E0,3E0,1E0,2E0,1E0,1.5E1,4.9E1,2E0,3E0,2E0,5E0,1E0,3E0,6E0,9E0,3.1E1,1.8E1,1E0,2E0,1E0,5E0,3E0,6E0,1.8E1,1.3E1,2E0,1.6E1],"tree_param":{"num_deleted":"0","num_feature":"15","num_nodes":"39","size_leaf_vector":"1"}},{"base_weights":[3.7848705E1,-3.016288E3,2.149747E2,-1.7365742E2,-2.972116E1,-3.1971133E2,9.3171326E2,-5.0120495E1,-1.5422784E3,1.9787263E3,3.9764015E1,-1.0302812E3,8.0166985E1,-9.1989087E2,-1.2402117E2,2.8299963E2,1.110558E3,4.8861624E2,-7.506979E2,-9.72772E1,2.2840855E2,9.4617255E2,-4.954463E1,-5.2203884E1,-2.031413E1,4.74355E2,9.929016E1,-3.8822838E1,7.641665E2,6.7718506E1,-1.0347898E3,-6.1980743E0,2.3328716E1,5.7360847E1,2.1486866E1,1.2835609E1,-2.5269547E1,6.717169E1,-1.6446825E1,6.407269E1,1.7267052E1,4.3602985E1,-3.8524097E1,1.6016643E-1,-7.772936E1],"categories":[],"categories_nodes":[],"categories_segments":[],"categories_sizes":[],"default_left":[0,0,0,0,0,0,0,0,0,0,0,0,0,0,0,0,1,0,0,0,0,0,0,0,0,0,0,0,0,0,0,0,0,0,0,0,0,0,0,0,0,0,0,0,0],"id":35,"left_children":[1,3,5,-1,-1,7,9,11,13,15,17,19,21,23,-1,-1,25,27,29,-1,31,33,35,-1,-1,37,-1,-1,39,41,43,-1,-1,-1,-1,-1,-1,-1,-1,-1,-1,-1,-1,-1,-1],"loss_changes":[4.933546E7,3.467748E6,3.325567E7,0E0,0E0,1.6402345E7,3.4474972E7,5.446107E6,2.973288E6,4.8045556E7,7.8176155E6,6.204538E6,4.315455E6,2.22925E4,0E0,0E0,7.410528E6,5.473618E6,1.9301185E6,0E0,3.096047E5,2.613E4,4.876345E6,0E0,0E0,7.42314E6,0E0,0E0,2.1572995E6,2.6945035E6,3.2422565E6,0E0,0E0,0E0,0E0,0E0,0E0,0E0,0E0,0E0,0E0,0E0,0E0,0E0,0E0],"parents":[2147483647,0,0,1,1,2,2,5,5,6,6,7,7,8,8,9,9,10,10,11,11,12,12,13,13,16,16,17,17,18,18,20,20,21,21,22,22,25,25,28,28,29,29,30,30],"right_children":[2,4,6,-1,-1,8,10,12,14,16,18,20,22,24,-1,-1,26,28,30,-1,32,34,36,-1,-1,38,-1,-1,40,42,44,-1,-1,-1,-1,-1,-1,-1,-1,-1,-1,-1,-1,-1,-1],"split_conditions":[2.106171E2,6.763E1,2.2809285E4,-1.7365742E2,-2.972116E1,2.013819E4,1.8E1,4.65E1,2.579502E4,2.3505627E4,3.423888E4,3.01E0,7.189E1,2.1767668E2,-1.2402117E2,2.8299963E2,2.49245E4,2.1163942E2,4.827E1,-9.72772E1,1E0,6.741E1,1.632872E4,-5.2203884E1,-2.031413E1,1.954939E4,9.929016E1,-3.8822838E1,2.4363652E4,1E0,4.5E1,-6.1980743E0,2.3328716E1,5.7360847E1,2.1486866E1,1.2835609E1,-2.5269547E1,6.717169E1,-1.6446825E1,6.407269E1,1.7267052E1,4.3602985E1,-3.8524097E1,1.6016643E-1,-7.772936E1],"split_indices":[3,1,12,0,0,10,6,1,13,12,9,2,1,3,0,0,9,3,1,0,0,1,10,0,0,10,0,0,13,0,6,0,0,0,0,0,0,0,0,0,0,0,0,0,0],"split_type":[0,0,0,0,0,0,0,0,0,0,0,0,0,0,0,0,0,0,0,0,0,0,0,0,0,0,0,0,0,0,0,0,0,0,0,0,0,0,0,0,0,0,0,0,0],"sum_hessian":[8.9E1,4E0,8.5E1,3E0,1E0,4.9E1,3.6E1,4.1E1,8E0,1.6E1,2E1,4E0,3.7E1,6E0,2E0,2E0,1.4E1,1.3E1,7E0,2E0,2E0,4E0,3.3E1,4E0,2E0,9E0,5E0,2E0,1.1E1,2E0,5E0,1E0,1E0,2E0,2E0,2E1,1.3E1,4E0,5E0,4E0,7E0,1E0,1E0,2E0,3E0],"tree_param":{"num_deleted":"0","num_feature":"15","num_nodes":"45","size_leaf_vector":"1"}},{"base_weights":[1.21764885E2,3.345794E2,-1.9016796E3,-1.2110957E1,1.7220533E3,-5.3511945E2,-1.4439519E2,6.1398376E1,-8.248912E1,-3.473596E2,3.600127E3,-3.4092087E1,-1.0501198E1,-1.10493164E2,9.465274E2,4.4331638E2,-7.232668E1,2.7356628E2,1.1419403E2,2.6243845E2,-3.8966882E2,8.363116E1,4.6516367E2,-2.2968878E1,1.0095077E3,-1.5716804E1,1.7768875E1,-6.878036E0,-4.406898E1,3.0576511E1,8.6880034E-1,7.556976E1,1.6920673E1],"categories":[],"categories_nodes":[],"categories_segments":[],"categories_sizes":[],"default_left":[1,1,0,0,0,0,0,0,0,0,0,0,0,0,0,0,0,0,0,0,0,0,0,0,0,0,0,0,0,0,0,0,0],"id":36,"left_children":[1,3,5,7,9,11,-1,13,-1,15,17,-1,-1,19,21,23,-1,-1,-1,25,27,-1,29,-1,31,-1,-1,-1,-1,-1,-1,-1,-1],"loss_changes":[4.0683772E7,4.090788E7,1.0584238E7,8.407799E6,6.73212E7,9.529075E4,0E0,1.029838E7,0E0,8.463086E6,9.670768E6,0E0,0E0,6.03673E6,3.066633E6,3.53033E6,0E0,0E0,0E0,1.45183E6,3.9695775E6,0E0,5.13703E5,0E0,8.3577925E5,0E0,0E0,0E0,0E0,0E0,0E0,0E0,0E0],"parents":[2147483647,0,0,1,1,2,2,3,3,4,4,5,5,7,7,9,9,10,10,13,13,14,14,15,15,19,19,20,20,22,22,24,24],"right_children":[2,4,6,8,10,12,-1,14,-1,16,18,-1,-1,20,22,24,-1,-1,-1,26,28,-1,30,-1,32,-1,-1,-1,-1,-1,-1,-1,-1],"split_conditions":[4.296091E4,2.49245E4,3.013092E4,5.725843E4,2.5006783E4,4.843E1,-1.4439519E2,2.7099938E4,-8.248912E1,5.911E1,2.3505627E4,-3.4092087E1,-1.0501198E1,1.643415E4,1.935423E4,5.141E1,-7.232668E1,2.7356628E2,1.1419403E2,1.477304E4,1.936383E4,8.363116E1,6.227E1,-2.2968878E1,3.330592E4,-1.5716804E1,1.7768875E1,-6.878036E0,-4.406898E1,3.0576511E1,8.6880034E-1,7.556976E1,1.6920673E1],"split_indices":[10,9,14,11,14,1,0,12,0,1,12,0,0,9,10,1,0,0,0,9,11,0,1,0,9,0,0,0,0,0,0,0,0],"split_type":[0,0,0,0,0,0,0,0,0,0,0,0,0,0,0,0,0,0,0,0,0,0,0,0,0,0,0,0,0,0,0,0,0],"sum_hessian":[9.2E1,8.4E1,8E0,6.8E1,1.6E1,4E0,4E0,6.6E1,2E0,8E0,8E0,2E0,2E0,5.6E1,1E1,5E0,3E0,2E0,6E0,2.4E1,3.2E1,3E0,7E0,2E0,3E0,3E0,2.1E1,2.2E1,1E1,5E0,2E0,1E0,2E0],"tree_param":{"num_deleted":"0","num_feature":"15","num_nodes":"33","size_leaf_vector":"1"}},{"base_weights":[2.4746397E1,1.852068E2,-1.5829509E3,-1.5845724E2,1.6849816E3,-1.9606359E3,-1.4996546E1,1.1424321E2,-9.511964E2,3.9022617E3,5.239467E2,-1.0648759E2,-2.7876404E1,-8.623123E1,1.0370969E3,-1.0252038E2,-4.55254E2,2.6444742E2,6.0741066E1,1.1540663E3,-8.67279E2,2.2504144E2,-4.3988324E2,1.427556E3,4.3921838E2,-1.17770256E2,-1.0062433E2,1.5830392E3,-4.6218616E1,2.3880548E1,-7.373897E1,1.780259E1,-1.5890307E1,-3.8855106E1,2.930893E0,8.049499E1,1.7454533E1,2.5386374E1,4.1295533E0,-2.7002104E1,9.32949E0,-8.8705647E-1,1.11344986E2],"categories":[],"categories_nodes":[],"categories_segments":[],"categories_sizes":[],"default_left":[1,1,0,0,0,0,0,0,1,0,0,0,0,0,0,0,0,0,0,1,0,0,0,0,0,0,0,0,0,0,0,0,0,0,0,0,0,0,0,0,0,0,0],"id":37,"left_children":[1,3,5,7,9,11,-1,13,15,17,19,-1,-1,21,23,-1,25,-1,-1,27,29,31,33,35,37,-1,39,41,-1,-1,-1,-1,-1,-1,-1,-1,-1,-1,-1,-1,-1,-1,-1],"loss_changes":[2.2736716E7,4.1500492E7,3.288564E6,1.437657E7,3.657051E7,2.3633E5,0E0,9.339859E6,8.334014E6,1.2208064E7,1.064392E7,0E0,0E0,4.7224445E6,1.474015E6,0E0,8.523038E6,0E0,0E0,8.596069E6,3.972455E6,1.7488845E6,3.4076318E6,4.21256E5,8.022731E4,0E0,1.6152501E6,7.254262E6,0E0,0E0,0E0,0E0,0E0,0E0,0E0,0E0,0E0,0E0,0E0,0E0,0E0,0E0,0E0],"parents":[2147483647,0,0,1,1,2,2,3,3,4,4,5,5,7,7,8,8,9,9,10,10,13,13,14,14,16,16,19,19,20,20,21,21,22,22,23,23,24,24,26,26,27,27],"right_children":[2,4,6,8,10,12,-1,14,16,18,20,-1,-1,22,24,-1,26,-1,-1,28,30,32,34,36,38,-1,40,42,-1,-1,-1,-1,-1,-1,-1,-1,-1,-1,-1,-1,-1,-1,-1],"split_conditions":[2.9042127E4,2.49245E4,4.603949E4,1.955284E4,7.838E0,6.763E1,-1.4996546E1,2.032761E4,2.1102867E4,3.149765E4,5.736E1,-1.0648759E2,-2.7876404E1,1.643415E4,1.912458E4,-1.0252038E2,2.104887E2,2.6444742E2,6.0741066E1,4.603949E4,2.622921E4,8.796E1,1.734147E4,6.225E1,1E0,-1.17770256E2,2.6954428E4,2.4701707E4,-4.6218616E1,2.3880548E1,-7.373897E1,1.780259E1,-1.5890307E1,-3.8855106E1,2.930893E0,8.049499E1,1.7454533E1,2.5386374E1,4.1295533E0,-2.7002104E1,9.32949E0,-8.8705647E-1,1.11344986E2],"split_indices":[14,9,10,10,4,1,0,11,12,9,1,0,0,9,9,0,3,0,0,10,9,1,11,1,0,0,12,12,0,0,0,0,0,0,0,0,0,0,0,0,0,0,0],"split_type":[0,0,0,0,0,0,0,0,0,0,0,0,0,0,0,0,0,0,0,0,0,0,0,0,0,0,0,0,0,0,0,0,0,0,0,0,0,0,0,0,0,0,0],"sum_hessian":[8.6E1,7.9E1,7E0,6.5E1,1.4E1,5E0,2E0,4.9E1,1.6E1,4E0,1E1,4E0,1E0,4.1E1,8E0,4E0,1.2E1,2E0,2E0,7E0,3E0,2.2E1,1.9E1,4E0,4E0,1E0,1.1E1,6E0,1E0,1E0,2E0,1.8E1,4E0,1.1E1,8E0,3E0,1E0,3E0,1E0,4E0,7E0,2E0,4E0],"tree_param":{"num_deleted":"0","num_feature":"15","num_nodes":"43","size_leaf_vector":"1"}},{"base_weights":[-4.3852253E1,2.2091635E2,-1.3484065E3,-1.3468889E2,2.217603E3,-6.624808E2,-2.3812026E3,7.465274E1,-2.0663649E2,2.2370683E2,3.6098564E3,-1.14826004E2,-2.694248E2,-1.519838E2,-6.4602356E1,5.4737804E1,-9.632294E2,-4.2494328E1,9.7297516E2,2.2691309E2,4.2961468E1,1.5998549E2,-9.535366E2,-4.451226E1,1.2072417E3,-1.6816229E3,-2.921916E2,1.760042E1,7.089689E1,-1.9712476E2,2.3854969E1,-5.7305733E1,-9.395072E0,-1.5832575E1,1.1474082E1,1.688979E1,6.922292E1,-1.02619644E2,2.2844177E1,-5.7654507E1,1.2074603E1,-1.2026604E1,-1.6725708E0],"categories":[],"categories_nodes":[],"categories_segments":[],"categories_sizes":[],"default_left":[1,1,0,0,0,0,0,0,1,0,0,0,0,0,0,0,0,0,0,0,0,0,0,1,0,0,0,0,0,0,0,0,0,0,0,0,0,0,0,0,0,0,0],"id":38,"left_children":[1,3,5,7,9,11,13,-1,15,17,19,-1,21,-1,-1,23,25,-1,27,-1,-1,29,31,33,35,37,39,-1,-1,41,-1,-1,-1,-1,-1,-1,-1,-1,-1,-1,-1,-1,-1],"loss_changes":[3.2765956E7,5.639123E7,9.757242E6,8.2721545E6,3.2504564E7,6.446217E6,3.75672E5,0E0,1.3104484E7,5.6533755E6,1.3976464E7,0E0,3.0901985E6,0E0,0E0,5.773041E6,7.703821E6,0E0,6.0610175E5,0E0,0E0,8.867604E5,3.744215E5,3.577197E6,1.48657E5,7.28086E6,4.8729365E6,0E0,0E0,2.0372344E4,0E0,0E0,0E0,0E0,0E0,0E0,0E0,0E0,0E0,0E0,0E0,0E0,0E0],"parents":[2147483647,0,0,1,1,2,2,3,3,4,4,5,5,6,6,8,8,9,9,10,10,12,12,15,15,16,16,18,18,21,21,22,22,23,23,24,24,25,25,26,26,29,29],"right_children":[2,4,6,8,10,12,14,-1,16,18,20,-1,22,-1,-1,24,26,-1,28,-1,-1,30,32,34,36,38,40,-1,-1,42,-1,-1,-1,-1,-1,-1,-1,-1,-1,-1,-1,-1,-1],"split_conditions":[3.15799E4,2.622921E4,4.159555E4,4E0,2.5006783E4,1.768876E4,7.838E0,7.465274E1,2.5683867E4,3.15799E4,3.110612E4,-1.14826004E2,2.032761E4,-1.519838E2,-6.4602356E1,1E0,1.9E1,-4.2494328E1,3.172E0,2.2691309E2,4.2961468E1,7.787E0,3.308E0,1.643415E4,7.808E0,1E0,2.5914787E4,1.760042E1,7.089689E1,3.297E0,2.3854969E1,-5.7305733E1,-9.395072E0,-1.5832575E1,1.1474082E1,1.688979E1,6.922292E1,-1.02619644E2,2.2844177E1,-5.7654507E1,1.2074603E1,-1.2026604E1,-1.6725708E0],"split_indices":[10,9,9,6,14,9,4,0,13,9,12,0,9,0,0,0,6,0,2,0,0,4,2,11,4,0,13,0,0,2,0,0,0,0,0,0,0,0,0,0,0,0,0],"split_type":[0,0,0,0,0,0,0,0,0,0,0,0,0,0,0,0,0,0,0,0,0,0,0,0,0,0,0,0,0,0,0,0,0,0,0,0,0,0,0,0,0,0,0],"sum_hessian":[9.3E1,7.8E1,1.5E1,6.7E1,1.1E1,1E1,5E0,2E0,6.5E1,5E0,6E0,1E0,9E0,2E0,3E0,4.9E1,1.6E1,2E0,3E0,4E0,2E0,6E0,3E0,4.6E1,3E0,7E0,9E0,2E0,1E0,3E0,3E0,2E0,1E0,2.3E1,2.3E1,1E0,2E0,6E0,1E0,3E0,6E0,2E0,1E0],"tree_param":{"num_deleted":"0","num_feature":"15","num_nodes":"43","size_leaf_vector":"1"}},{"base_weights":[3.231483E1,1.6752098E2,-1.4589922E3,-2.1063301E2,9.4413196E2,-1.8039266E3,-1.4139632E1,1.3701233E1,-1.1091117E3,2.0927592E2,6.788853E2,-3.803029E1,-1.0677178E2,-1.1879764E3,1.1789709E2,2.2770222E2,-1.3992448E3,-1.11955345E2,8.6988904E2,-7.694579E1,-3.378952E0,2.7204576E1,7.0437744E1,2.5814966E1,-8.737299E0,-7.942449E2,-1.0540917E2,5.9081415E2,9.898278E1,4.120653E0,-5.8669006E1,-4.9223755E1,-2.0272669E1,3.6133377E1,-5.7749012E1],"categories":[],"categories_nodes":[],"categories_segments":[],"categories_sizes":[],"default_left":[1,1,0,1,0,0,0,0,0,0,0,0,0,0,0,0,0,0,0,0,0,0,0,0,0,0,0,0,0,0,0,0,0,0,0],"id":39,"left_children":[1,3,5,7,9,11,-1,13,15,-1,17,-1,-1,19,21,23,