{"learner":{"attributes":{"scikit_learn":"{\"_estimator_type\": \"regressor\"}"},"feature_names":["IsHoliday","Temperature","Fuel_Price","CPI","Unemployment","Size","weekofyear","month","dow","lag_1","lag_2","lag_4","rollmean_4","rollmean_8","rollmean_12"],"feature_types":["int","float","float","float","float","int","int","int","int","float","float","float","float","float","float"],"gradient_booster":{"model":{"gbtree_model_param":{"num_parallel_tree":"1","num_trees":"600"},"iteration_indptr":[0,1,2,3,4,5,6,7,8,9,10,11,12,13,14,15,16,17,18,19,20,21,22,23,24,25,26,27,28,29,30,31,32,33,34,35,36,37,38,39,40,41,42,43,44,45,46,47,48,49,50,51,52,53,54,55,56,57,58,59,60,61,62,63,64,65,66,67,68,69,70,71,72,73,74,75,76,77,78,79,80,81,82,83,84,85,86,87,88,89,90,91,92,93,94,95,96,97,98,99,100,101,102,103,104,105,106,107,108,109,110,111,112,113,114,115,116,117,118,119,120,121,122,123,124,125,126,127,128,129,130,131,132,133,134,135,136,137,138,139,140,141,142,143,144,145,146,147,148,149,150,151,152,153,154,155,156,157,158,159,160,161,162,163,164,165,166,167,168,169,170,171,172,173,174,175,176,177,178,179,180,181,182,183,184,185,186,187,188,189,190,191,192,193,194,195,196,197,198,199,200,201,202,203,204,205,206,207,208,209,210,211,212,213,214,215,216,217,218,219,220,221,222,223,224,225,226,227,228,229,230,231,232,233,234,235,236,237,238,239,240,241,242,243,244,245,246,247,248,249,250,251,252,253,254,255,256,257,258,259,260,261,262,263,264,265,266,267,268,269,270,271,272,273,274,275,276,277,278,279,280,281,282,283,284,285,286,287,288,289,290,291,292,293,294,295,296,297,298,299,300,301,302,303,304,305,306,307,308,309,310,311,312,313,314,315,316,317,318,319,320,321,322,323,324,325,326,327,328,329,330,331,332,333,334,335,336,337,338,339,340,341,342,343,344,345,346,347,348,349,350,351,352,353,354,355,356,357,358,359,360,361,362,363,364,365,366,367,368,369,370,371,372,373,374,375,376,377,378,379,380,381,382,383,384,385,386,387,388,389,390,391,392,393,394,395,396,397,398,399,400,401,402,403,404,405,406,407,408,409,410,411,412,413,414,415,416,417,418,419,420,421,422,423,424,425,426,427,428,429,430,431,432,433,434,435,436,437,438,439,440,441,442,443,444,445,446,447,448,449,450,451,452,453,454,455,456,457,458,459,460,461,462,463,464,465,466,467,468,469,470,471,472,473,474,475,476,477,478,479,480,481,482,483,484,485,486,487,488,489,490,491,492,493,494,495,496,497,498,499,500,501,502,503,504,505,506,507,508,509,510,511,512,513,514,515,516,517,518,519,520,521,522,523,524,525,526,527,528,529,530,531,532,533,534,535,536,537,538,539,540,541,542,543,544,545,546,547,548,549,550,551,552,553,554,555,556,557,558,559,560,561,562,563,564,565,566,567,568,569,570,571,572,573,574,575,576,577,578,579,580,581,582,583,584,585,586,587,588,589,590,591,592,593,594,595,596,597,598,599,600],"tree_info":[0,0,0,0,0,0,0,0,0,0,0,0,0,0,0,0,0,0,0,0,0,0,0,0,0,0,0,0,0,0,0,0,0,0,0,0,0,0,0,0,0,0,0,0,0,0,0,0,0,0,0,0,0,0,0,0,0,0,0,0,0,0,0,0,0,0,0,0,0,0,0,0,0,0,0,0,0,0,0,0,0,0,0,0,0,0,0,0,0,0,0,0,0,0,0,0,0,0,0,0,0,0,0,0,0,0,0,0,0,0,0,0,0,0,0,0,0,0,0,0,0,0,0,0,0,0,0,0,0,0,0,0,0,0,0,0,0,0,0,0,0,0,0,0,0,0,0,0,0,0,0,0,0,0,0,0,0,0,0,0,0,0,0,0,0,0,0,0,0,0,0,0,0,0,0,0,0,0,0,0,0,0,0,0,0,0,0,0,0,0,0,0,0,0,0,0,0,0,0,0,0,0,0,0,0,0,0,0,0,0,0,0,0,0,0,0,0,0,0,0,0,0,0,0,0,0,0,0,0,0,0,0,0,0,0,0,0,0,0,0,0,0,0,0,0,0,0,0,0,0,0,0,0,0,0,0,0,0,0,0,0,0,0,0,0,0,0,0,0,0,0,0,0,0,0,0,0,0,0,0,0,0,0,0,0,0,0,0,0,0,0,0,0,0,0,0,0,0,0,0,0,0,0,0,0,0,0,0,0,0,0,0,0,0,0,0,0,0,0,0,0,0,0,0,0,0,0,0,0,0,0,0,0,0,0,0,0,0,0,0,0,0,0,0,0,0,0,0,0,0,0,0,0,0,0,0,0,0,0,0,0,0,0,0,0,0,0,0,0,0,0,0,0,0,0,0,0,0,0,0,0,0,0,0,0,0,0,0,0,0,0,0,0,0,0,0,0,0,0,0,0,0,0,0,0,0,0,0,0,0,0,0,0,0,0,0,0,0,0,0,0,0,0,0,0,0,0,0,0,0,0,0,0,0,0,0,0,0,0,0,0,0,0,0,0,0,0,0,0,0,0,0,0,0,0,0,0,0,0,0,0,0,0,0,0,0,0,0,0,0,0,0,0,0,0,0,0,0,0,0,0,0,0,0,0,0,0,0,0,0,0,0,0,0,0,0,0,0,0,0,0,0,0,0,0,0,0,0,0,0,0,0,0,0,0,0,0,0,0,0,0,0,0,0,0,0,0,0,0,0,0,0,0,0,0,0,0,0,0,0,0,0,0,0,0,0,0,0,0,0,0,0,0,0,0,0,0,0,0,0,0,0,0,0,0,0,0,0,0,0,0,0,0,0,0,0,0,0,0,0,0,0,0,0,0,0,0,0,0,0,0,0,0,0,0,0,0,0,0,0],"trees":[{"base_weights":[1.9631616E2,3.1387933E2,-2.360966E2,3.9539215E1,3.7624948E2,1.581137E2,-2.2529043E3,7.023919E1,1.1511359E2,-1.7319142E2,-3.4732674E1,-3.421758E1,1.5394774E3,-6.796294E1,1.1944405E0,3.7195802E0,9.435755E1],"categories":[],"categories_nodes":[],"categories_segments":[],"categories_sizes":[],"default_left":[1,1,0,1,0,0,0,1,0,0,0,0,0,0,0,0,0],"id":0,"left_children":[1,3,-1,5,-1,7,9,11,-1,-1,-1,13,15,-1,-1,-1,-1],"loss_changes":[4.9473124E7,1.6192282E8,0E0,2.2102238E7,0E0,1.4346385E7,5.141534E6,1.1563068E7,0E0,0E0,0E0,5.4989985E6,2.40647E6,0E0,0E0,0E0,0E0],"parents":[2147483647,0,0,1,1,3,3,5,5,6,6,7,7,11,11,12,12],"right_children":[2,4,-1,6,-1,8,10,12,-1,-1,-1,14,16,-1,-1,-1,-1],"split_conditions":[4.977552E4,4.110193E4,-2.360966E2,2.671902E4,3.7624948E2,2.133151E4,3.064054E4,4.110193E4,1.1511359E2,-1.7319142E2,-3.4732674E1,7.3665E3,1.227558E4,-6.796294E1,1.1944405E0,3.7195802E0,9.435755E1],"split_indices":[9,9,0,9,0,9,9,11,0,0,0,10,10,0,0,0,0],"split_type":[0,0,0,0,0,0,0,0,0,0,0,0,0,0,0,0,0],"sum_hessian":[8.2E1,8.1E1,1E0,7.9E1,2E0,7.6E1,3E0,7.4E1,2E0,1E0,2E0,7E1,4E0,2E0,6.8E1,1E0,3E0],"tree_param":{"num_deleted":"0","num_feature":"15","num_nodes":"17","size_leaf_vector":"1"}},{"base_weights":[-7.537413E1,1.1570686E2,-2.7639523E2,-1.4132953E2,3.6370786E2,4.4288845E1,-2.1894585E3,-1.0094186E2,1.5317634E3,-1.7592706E2,-9.5411725E2,-6.1141304E1,-1.696593E1,2.6253687E2,1.2090246E2,-5.2338726E1,-1.4587203E1,2.6611444E1,-9.809206E0,4.3007713E1,-3.825788E1],"categories":[],"categories_nodes":[],"categories_segments":[],"categories_sizes":[],"default_left":[1,1,0,1,0,0,0,1,0,0,0,0,1,0,0,0,0,0,0,0,0],"id":1,"left_children":[1,3,-1,5,-1,7,9,11,13,-1,15,-1,17,19,-1,-1,-1,-1,-1,-1,-1],"loss_changes":[9.232461E7,1.5926653E8,0E0,3.2031278E7,0E0,1.7004722E7,8.135996E6,6.7624655E6,7.239453E6,0E0,1.478E3,0E0,6.7973615E6,3.1148258E6,0E0,0E0,0E0,0E0,0E0,0E0,0E0],"parents":[2147483647,0,0,1,1,3,3,5,5,6,6,7,7,8,8,10,10,12,12,13,13],"right_children":[2,4,-1,6,-1,8,10,12,14,-1,16,-1,18,20,-1,-1,-1,-1,-1,-1,-1],"split_conditions":[4.977552E4,4.110193E4,-2.7639523E2,2.091595E4,3.6370786E2,1.60695E4,3.3E1,7.63411E3,2.1152246E2,-1.7592706E2,8.683E1,-6.1141304E1,9.138202E3,4.383E1,1.2090246E2,-5.2338726E1,-1.4587203E1,2.6611444E1,-9.809206E0,4.3007713E1,-3.825788E1],"split_indices":[9,9,0,10,0,10,6,12,3,0,1,0,14,1,0,0,0,0,0,0,0],"split_type":[0,0,0,0,0,0,0,0,0,0,0,0,0,0,0,0,0,0,0,0,0],"sum_hessian":[8.7E1,8.5E1,2E0,8.3E1,2E0,7.7E1,6E0,7.1E1,6E0,2E0,4E0,4E0,6.7E1,3E0,3E0,3E0,1E0,1.6E1,5.1E1,2E0,1E0],"tree_param":{"num_deleted":"0","num_feature":"15","num_nodes":"21","size_leaf_vector":"1"}},{"base_weights":[6.747239E1,2.5117543E2,-2.6718207E2,1.17253895E1,3.5158426E2,1.1398269E2,-1.3707024E3,-1.1734253E2,8.7500934E2,-1.5310626E3,-1.4222522E1,6.653869E0,-7.0411224E2,4.0755463E2,1.0511858E2,-1.7567434E1,-8.69077E1,-6.3659454E1,4.090414E0,1.9375E1,-4.2601173E1,-3.6109787E1,4.4201355E1],"categories":[],"categories_nodes":[],"categories_segments":[],"categories_sizes":[],"default_left":[1,1,0,1,0,0,0,0,0,0,0,0,0,0,0,0,0,0,0,0,0,0,0],"id":2,"left_children":[1,3,-1,5,-1,7,9,11,13,15,-1,17,19,21,-1,-1,-1,-1,-1,-1,-1,-1,-1],"loss_changes":[9.080561E7,1.4279376E8,0E0,1.2313481E7,0E0,1.4362293E7,6.09639E5,4.5883965E6,1.0044157E7,6.10845E5,0E0,5.2020075E6,2.1062375E6,8.712864E6,0E0,0E0,0E0,0E0,0E0,0E0,0E0,0E0,0E0],"parents":[2147483647,0,0,1,1,3,3,5,5,6,6,7,7,8,8,9,9,11,11,12,12,13,13],"right_children":[2,4,-1,6,-1,8,10,12,14,16,-1,18,20,22,-1,-1,-1,-1,-1,-1,-1,-1,-1],"split_conditions":[4.977552E4,4.110193E4,-2.6718207E2,2.133151E4,3.5158426E2,1.152347E4,3.214893E4,1.152347E4,2.1411105E2,2.1150467E2,-1.4222522E1,7.3665E3,2.1089676E2,1.088784E4,1.0511858E2,-1.7567434E1,-8.69077E1,-6.3659454E1,4.090414E0,1.9375E1,-4.2601173E1,-3.6109787E1,4.4201355E1],"split_indices":[9,9,0,10,0,10,9,11,3,3,0,10,3,11,0,0,0,0,0,0,0,0,0],"split_type":[0,0,0,0,0,0,0,0,0,0,0,0,0,0,0,0,0,0,0,0,0,0,0],"sum_hessian":[8.9E1,8.7E1,2E0,8.5E1,2E0,8E1,5E0,6.2E1,1.8E1,4E0,1E0,5.2E1,1E1,1.4E1,4E0,1E0,3E0,2E0,5E1,1E0,9E0,4E0,1E1],"tree_param":{"num_deleted":"0","num_feature":"15","num_nodes":"23","size_leaf_vector":"1"}},{"base_weights":[2.3343899E1,2.1289569E2,-2.58276E2,-3.6680473E1,3.3986475E2,1.377099E2,-2.2104465E3,4.682532E0,1.4293068E3,-1.6935106E2,-3.8770214E1,8.680175E1,-4.6308456E1,2.3752429E2,1.1318813E2,-1.0809173E1,2.1878836E1,4.0100746E1,-3.639869E1],"categories":[],"categories_nodes":[],"categories_segments":[],"categories_sizes":[],"default_left":[1,1,0,1,0,0,0,0,0,0,0,0,0,0,0,0,0,0,0],"id":3,"left_children":[1,3,-1,5,-1,7,9,11,13,-1,-1,-1,15,17,-1,-1,-1,-1,-1],"loss_changes":[8.371862E7,1.3500067E8,0E0,3.0631112E7,0E0,1.2879637E7,7.504294E6,6.1719455E6,6.423731E6,0E0,0E0,0E0,5.6841965E6,2.763904E6,0E0,0E0,0E0,0E0,0E0],"parents":[2147483647,0,0,1,1,3,3,5,5,6,6,7,7,8,8,12,12,13,13],"right_children":[2,4,-1,6,-1,8,10,12,14,-1,-1,-1,16,18,-1,-1,-1,-1,-1],"split_conditions":[4.977552E4,4.110193E4,-2.58276E2,2.091595E4,3.3986475E2,1.60695E4,3.3E1,2E0,2.1152246E2,-1.6935106E2,-3.8770214E1,8.680175E1,2.1548344E2,2.577E0,1.1318813E2,-1.0809173E1,2.1878836E1,4.0100746E1,-3.639869E1],"split_indices":[9,9,0,10,0,10,6,6,3,0,0,0,3,2,0,0,0,0,0],"split_type":[0,0,0,0,0,0,0,0,0,0,0,0,0,0,0,0,0,0,0],"sum_hessian":[8.3E1,8.1E1,2E0,7.9E1,2E0,7.4E1,5E0,6.8E1,6E0,2E0,3E0,1E0,6.7E1,3E0,3E0,5E1,1.7E1,2E0,1E0],"tree_param":{"num_deleted":"0","num_feature":"15","num_nodes":"19","size_leaf_vector":"1"}},{"base_weights":[-4.895146E0,1.5436247E2,-2.4966678E2,-5.6544384E1,3.2853595E2,1.03006676E2,-2.0086654E3,-9.540066E0,1.3745399E3,-1.6370602E2,-8.4765936E2,8.463171E1,-5.251232E1,6.8234216E2,1.0350115E2,-4.6529858E1,-1.2897704E1,-4.749397E1,4.006157E-1,-1.8061966E1,7.492381E1],"categories":[],"categories_nodes":[],"categories_segments":[],"categories_sizes":[],"default_left":[1,1,0,1,0,0,0,0,0,0,0,0,1,0,0,0,0,0,0,0,0],"id":4,"left_children":[1,3,-1,5,-1,7,9,11,13,-1,15,-1,17,19,-1,-1,-1,-1,-1,-1,-1],"loss_changes":[7.7037704E7,1.27577384E8,0E0,2.88615E7,0E0,1.2320309E7,7.509068E6,5.940585E6,1.957419E6,0E0,4.49325E3,0E0,4.298323E6,4.799821E6,0E0,0E0,0E0,0E0,0E0,0E0,0E0],"parents":[2147483647,0,0,1,1,3,3,5,5,6,6,7,7,8,8,10,10,12,12,13,13],"right_children":[2,4,-1,6,-1,8,10,12,14,-1,16,-1,18,20,-1,-1,-1,-1,-1,-1,-1],"split_conditions":[4.977552E4,4.110193E4,-2.4966678E2,2.091595E4,3.2853595E2,1.60695E4,3.3E1,2E0,2.133151E4,-1.6370602E2,8.683E1,8.463171E1,7.54677E3,3.2E1,1.0350115E2,-4.6529858E1,-1.2897704E1,-4.749397E1,4.006157E-1,-1.8061966E1,7.492381E1],"split_indices":[9,9,0,10,0,10,6,6,9,0,1,0,12,6,0,0,0,0,0,0,0],"split_type":[0,0,0,0,0,0,0,0,0,0,0,0,0,0,0,0,0,0,0,0,0],"sum_hessian":[9.5E1,9.3E1,2E0,9.1E1,2E0,8.5E1,6E0,7.9E1,6E0,2E0,4E0,1E0,7.8E1,4E0,2E0,3E0,1E0,4E0,7.4E1,2E0,2E0],"tree_param":{"num_deleted":"0","num_feature":"15","num_nodes":"21","size_leaf_vector":"1"}},{"base_weights":[-5.1379467E1,1.04902214E2,-2.4134456E2,-1.3863882E1,2.7281543E2,1.4493112E2,-1.9401084E3,-6.2585915E1,7.803443E2,-1.5824916E2,-4.0858093E1,-6.039228E1,-7.056313E0,1.0191921E3,-4.962367E1,5.6934643E0,-2.6523962E1,9.373592E1,2.8986927E1],"categories":[],"categories_nodes":[],"categories_segments":[],"categories_sizes":[],"default_left":[1,1,0,1,0,0,0,0,0,0,0,0,0,0,0,0,0,0,0],"id":5,"left_children":[1,3,-1,5,-1,7,9,11,13,-1,-1,-1,15,17,-1,-1,-1,-1,-1],"loss_changes":[7.0660904E7,5.854769E7,0E0,2.8116082E7,0E0,1.1256859E7,7.041978E6,4.1252048E6,9.903626E6,0E0,0E0,0E0,4.0480052E6,6.056472E6,0E0,0E0,0E0,0E0,0E0],"parents":[2147483647,0,0,1,1,3,3,5,5,6,6,7,7,8,8,12,12,13,13],"right_children":[2,4,-1,6,-1,8,10,12,14,-1,-1,-1,16,18,-1,-1,-1,-1,-1],"split_conditions":[4.977552E4,4.110193E4,-2.4134456E2,2.091595E4,2.7281543E2,1.152347E4,3.3E1,7.3665E3,5.2E1,-1.5824916E2,-4.0858093E1,-6.039228E1,1.068997E4,1.0720282E4,-4.962367E1,5.6934643E0,-2.6523962E1,9.373592E1,2.8986927E1],"split_indices":[9,9,0,10,0,10,6,10,6,0,0,0,10,13,0,0,0,0,0],"split_type":[0,0,0,0,0,0,0,0,0,0,0,0,0,0,0,0,0,0,0],"sum_hessian":[9.3E1,9.1E1,2E0,9E1,1E0,8.4E1,6E0,6.4E1,2E1,2E0,4E0,2E0,6.2E1,1.8E1,2E0,5.1E1,1.1E1,5E0,1.3E1],"tree_param":{"num_deleted":"0","num_feature":"15","num_nodes":"19","size_leaf_vector":"1"}},{"base_weights":[-1.5834508E1,1.3934677E2,-2.3329973E2,-6.7820946E1,3.084909E2,4.9223694E1,-1.675635E3,-6.463399E1,1.2946262E3,-1.5328583E2,-7.844754E2,8.017251E1,-1.0768049E2,1.8798907E2,1.0388035E2,-4.3252808E1,-1.1553809E1,-2.0017626E1,5.1417365E0,3.6373837E1,-3.5761845E1],"categories":[],"categories_nodes":[],"categories_segments":[],"categories_sizes":[],"default_left":[1,1,0,1,0,0,0,0,0,0,0,0,0,0,0,0,0,0,0,0,0],"id":6,"left_children":[1,3,-1,5,-1,7,9,11,13,-1,15,-1,17,19,-1,-1,-1,-1,-1,-1,-1],"loss_changes":[6.703903E7,1.1285714E8,0E0,1.664285E7,0E0,1.1852965E7,5.027728E6,5.70166E6,5.67476E6,0E0,2.307275E4,0E0,4.7236755E6,2.469435E6,0E0,0E0,0E0,0E0,0E0,0E0,0E0],"parents":[2147483647,0,0,1,1,3,3,5,5,6,6,7,7,8,8,10,10,12,12,13,13],"right_children":[2,4,-1,6,-1,8,10,12,14,-1,16,-1,18,20,-1,-1,-1,-1,-1,-1,-1],"split_conditions":[4.977552E4,4.110193E4,-2.3329973E2,2.091595E4,3.084909E2,1.60695E4,3.3E1,2E0,2.1152246E2,-1.5328583E2,8.683E1,8.017251E1,6.452E1,4.383E1,1.0388035E2,-4.3252808E1,-1.1553809E1,-2.0017626E1,5.1417365E0,3.6373837E1,-3.5761845E1],"split_indices":[9,9,0,10,0,10,6,6,3,0,1,0,1,1,0,0,0,0,0,0,0],"split_type":[0,0,0,0,0,0,0,0,0,0,0,0,0,0,0,0,0,0,0,0,0],"sum_hessian":[9.1E1,8.9E1,2E0,8.7E1,2E0,8.2E1,5E0,7.6E1,6E0,1E0,4E0,1E0,7.5E1,3E0,3E0,3E0,1E0,3.1E1,4.4E1,2E0,1E0],"tree_param":{"num_deleted":"0","num_feature":"15","num_nodes":"21","size_leaf_vector":"1"}},{"base_weights":[-5.172228E0,1.4021532E2,-2.255231E2,-7.728939E1,2.8234573E3,6.238246E1,-1.9732565E3,3.7434595E2,2.9820786E2,-1.1560253E1,1.5071555E3,-2.5666477E3,-2.62158E1,6.7997444E1,-3.6801952E1,7.81682E1,-5.1794716E1,9.566817E1,7.213302E0,-3.4867798E1,-1.4786465E2,-5.8550594E1,-3.4667915E-1],"categories":[],"categories_nodes":[],"categories_segments":[],"categories_sizes":[],"default_left":[1,1,0,1,0,0,0,0,0,0,0,0,0,0,0,0,0,0,0,0,0,0,0],"id":7,"left_children":[1,3,-1,5,7,9,11,13,-1,15,17,19,-1,-1,-1,-1,21,-1,-1,-1,-1,-1,-1],"loss_changes":[6.285867E7,5.4494676E7,0E0,2.3161846E7,5.1610796E7,8.77752E6,3.812998E6,6.4729685E6,0E0,5.086906E6,1.938431E6,8.58632E5,0E0,0E0,0E0,0E0,3.90821E6,0E0,0E0,0E0,0E0,0E0,0E0],"parents":[2147483647,0,0,1,1,3,3,4,4,5,5,6,6,7,7,9,9,10,10,11,11,16,16],"right_children":[2,4,-1,6,8,10,12,14,-1,16,18,20,-1,-1,-1,-1,22,-1,-1,-1,-1,-1,-1],"split_conditions":[3.7405164E4,2.984436E4,-2.255231E2,1.693062E4,8.3E1,1.60695E4,3.3E1,1E0,2.9820786E2,2E0,1E0,2.1152246E2,-2.62158E1,6.7997444E1,-3.6801952E1,7.81682E1,7.3665E3,9.566817E1,7.213302E0,-3.4867798E1,-1.4786465E2,-5.8550594E1,-3.4667915E-1],"split_indices":[12,12,0,10,1,10,6,0,0,6,0,3,0,0,0,0,10,0,0,0,0,0,0],"split_type":[0,0,0,0,0,0,0,0,0,0,0,0,0,0,0,0,0,0,0,0,0,0,0],"sum_hessian":[9.4E1,9.2E1,2E0,8.6E1,6E0,8.1E1,5E0,4E0,2E0,7.8E1,3E0,3E0,2E0,2E0,2E0,1E0,7.7E1,2E0,1E0,1E0,2E0,2E0,7.5E1],"tree_param":{"num_deleted":"0","num_feature":"15","num_nodes":"23","size_leaf_vector":"1"}},{"base_weights":[-3.1733818E0,1.4539471E2,-2.1800565E2,-5.2340954E1,2.882676E2,9.662321E1,-1.7473113E3,-7.5659546E1,1.0791971E3,-1.4293584E2,-7.3100586E2,7.621399E1,-1.2160394E2,6.243834E2,9.163644E1,-8.076617E2,-1.0609569E1,-7.9899306E0,6.093597E1,3.7666264E1,-1.0178786E1,-1.1972926E1,-4.5862164E1],"categories":[],"categories_nodes":[],"categories_segments":[],"categories_sizes":[],"default_left":[1,1,0,1,0,0,0,0,1,0,0,0,0,1,0,0,0,0,0,0,0,0,0],"id":8,"left_children":[1,3,-1,5,-1,7,9,11,13,-1,15,-1,17,19,-1,21,-1,-1,-1,-1,-1,-1,-1],"loss_changes":[5.8891136E7,9.809317E7,0E0,2.1882956E7,0E0,1.3624094E7,5.81695E6,5.2574275E6,2.968271E6,0E0,2.747175E4,0E0,3.6758872E6,1.1141858E6,0E0,2.94165E4,0E0,0E0,0E0,0E0,0E0,0E0,0E0],"parents":[2147483647,0,0,1,1,3,3,5,5,6,6,7,7,8,8,10,10,12,12,13,13,15,15],"right_children":[2,4,-1,6,-1,8,10,12,14,-1,16,-1,18,20,-1,22,-1,-1,-1,-1,-1,-1,-1],"split_conditions":[4.977552E4,4.110193E4,-2.1800565E2,2.091595E4,2.882676E2,7.962E0,3.3E1,2E0,1.277828E4,-1.4293584E2,8.683E1,7.621399E1,1.90818E4,1.227558E4,9.163644E1,2.1150467E2,-1.0609569E1,-7.9899306E0,6.093597E1,3.7666264E1,-1.0178786E1,-1.1972926E1,-4.5862164E1],"split_indices":[9,9,0,10,0,4,6,6,10,0,1,0,10,10,0,3,0,0,0,0,0,0,0],"split_type":[0,0,0,0,0,0,0,0,0,0,0,0,0,0,0,0,0,0,0,0,0,0,0],"sum_hessian":[8.9E1,8.7E1,2E0,8.5E1,2E0,7.9E1,6E0,6.8E1,1.1E1,2E0,4E0,1E0,6.7E1,8E0,3E0,3E0,1E0,6.6E1,1E0,7E0,1E0,1E0,2E0],"tree_param":{"num_deleted":"0","num_feature":"15","num_nodes":"23","size_leaf_vector":"1"}},{"base_weights":[2.0620079E1,1.5850668E2,-2.107388E2,-2.374341E1,2.786587E2,8.85746E1,-1.9508645E3,2.6166248E1,9.032418E1,-1.3817131E2,-2.4400745E1,-4.497746E1,1.1592323E3,4.5653114E0,-4.1243027E1,7.126092E1,2.3821995E0],"categories":[],"categories_nodes":[],"categories_segments":[],"categories_sizes":[],"default_left":[1,1,0,1,0,0,0,1,0,0,0,0,0,0,0,0,0],"id":9,"left_children":[1,3,-1,5,-1,7,9,11,-1,-1,-1,13,15,-1,-1,-1,-1],"loss_changes":[5.5564476E7,9.09201E7,0E0,1.9653334E7,0E0,9.172951E6,4.594682E6,6.8234225E6,0E0,0E0,0E0,8.578142E6,1.410432E6,0E0,0E0,0E0,0E0],"parents":[2147483647,0,0,1,1,3,3,5,5,6,6,7,7,11,11,12,12],"right_children":[2,4,-1,6,-1,8,10,12,-1,-1,-1,14,16,-1,-1,-1,-1],"split_conditions":[4.977552E4,4.110193E4,-2.107388E2,2.671902E4,2.786587E2,2.133151E4,3.3E1,4.110193E4,9.032418E1,-1.3817131E2,-2.4400745E1,1.235763E4,5.115917E4,4.5653114E0,-4.1243027E1,7.126092E1,2.3821995E0],"split_indices":[9,9,0,9,0,9,6,11,0,0,0,12,11,0,0,0,0],"split_type":[0,0,0,0,0,0,0,0,0,0,0,0,0,0,0,0,0],"sum_hessian":[9.3E1,9.1E1,2E0,8.9E1,2E0,8.5E1,4E0,8.3E1,2E0,2E0,2E0,7.9E1,4E0,6.8E1,1.1E1,3E0,1E0],"tree_param":{"num_deleted":"0","num_feature":"15","num_nodes":"17","size_leaf_vector":"1"}},{"base_weights":[-1.120786E0,1.3317162E2,-2.0371417E2,-4.5433548E1,2.6937006E2,8.321919E1,-1.8389996E3,-2.8239172E1,1.5368845E3,-7.550156E2,-1.335656E2,-5.7056774E1,3.070589E1,2.3226445E0,9.128402E1,-1.0642527E1,-4.323936E1,-3.0235713E0,3.580947E1],"categories":[],"categories_nodes":[],"categories_segments":[],"categories_sizes":[],"default_left":[1,1,0,1,0,1,0,0,0,0,0,0,0,0,0,0,0,0,0],"id":10,"left_children":[1,3,-1,5,-1,7,9,11,13,15,-1,-1,17,-1,-1,-1,-1,-1,-1],"loss_changes":[5.14131E7,8.564213E7,0E0,2.068954E7,0E0,1.3653346E7,3.396398E6,5.2174195E6,2.497774E6,5.398675E4,0E0,0E0,4.7933505E6,0E0,0E0,0E0,0E0,0E0,0E0],"parents":[2147483647,0,0,1,1,3,3,5,5,6,6,7,7,8,8,9,9,12,12],"right_children":[2,4,-1,6,-1,8,10,12,14,16,-1,-1,18,-1,-1,-1,-1,-1,-1],"split_conditions":[4.977552E4,4.110193E4,-2.0371417E2,2.091595E4,2.6937006E2,1.4086405E4,8.683E1,8.0069624E3,1.227558E4,2.572E0,-1.335656E2,-5.7056774E1,8.315E1,2.3226445E0,9.128402E1,-1.0642527E1,-4.323936E1,-3.0235713E0,3.580947E1],"split_indices":[9,9,0,10,0,12,1,13,10,2,0,0,1,0,0,0,0,0,0],"split_type":[0,0,0,0,0,0,0,0,0,0,0,0,0,0,0,0,0,0,0],"sum_hessian":[9.2E1,9E1,2E0,8.8E1,2E0,8.3E1,5E0,7.8E1,5E0,3E0,2E0,3E0,7.5E1,1E0,4E0,1E0,2E0,6.7E1,8E0],"tree_param":{"num_deleted":"0","num_feature":"15","num_nodes":"19","size_leaf_vector":"1"}},{"base_weights":[-2.9965384E1,9.248765E1,-1.9692369E2,-7.175158E1,2.6039105E2,4.7510277E1,-1.5607932E3,-1.1274855E1,8.584237E1,-1.2911342E2,-6.3574963E2,-7.4492485E1,6.516549E1,-7.3073535E2,-6.3951707E0,7.42701E1,-5.581512E0,-1.0376464E1,-4.1798046E1],"categories":[],"categories_nodes":[],"categories_segments":[],"categories_sizes":[],"default_left":[1,1,0,1,0,0,0,1,0,0,0,0,0,0,0,0,0,0,0],"id":11,"left_children":[1,3,-1,5,-1,7,9,11,-1,-1,13,15,-1,17,-1,-1,-1,-1,-1],"loss_changes":[4.7267916E7,8.102695E7,0E0,1.6767227E7,0E0,8.65499E6,4.972686E6,7.24411E6,0E0,0E0,1.47727E5,4.9740875E6,0E0,4.673225E4,0E0,0E0,0E0,0E0,0E0],"parents":[2147483647,0,0,1,1,3,3,5,5,6,6,7,7,10,10,11,11,13,13],"right_children":[2,4,-1,6,-1,8,10,12,-1,-1,14,16,-1,18,-1,-1,-1,-1,-1],"split_conditions":[4.977552E4,4.110193E4,-1.9692369E2,2.091595E4,2.6039105E2,2.133151E4,3.3E1,2.7335465E4,8.584237E1,-1.2911342E2,8.683E1,2E0,6.516549E1,2.572E0,-6.3951707E0,7.42701E1,-5.581512E0,-1.0376464E1,-4.1798046E1],"split_indices":[9,9,0,10,0,9,6,13,0,0,1,6,0,2,0,0,0,0,0],"split_type":[0,0,0,0,0,0,0,0,0,0,0,0,0,0,0,0,0,0,0],"sum_hessian":[9.7E1,9.5E1,2E0,9.3E1,2E0,8.7E1,6E0,8.5E1,2E0,2E0,4E0,8.2E1,3E0,3E0,1E0,1E0,8.1E1,1E0,2E0],"tree_param":{"num_deleted":"0","num_feature":"15","num_nodes":"19","size_leaf_vector":"1"}},{"base_weights":[2.6679684E1,1.5277786E2,-1.9035959E2,-1.3481976E1,2.5171135E2,1.1285617E2,-1.5095654E3,-6.804226E1,6.860883E2,-1.2480962E2,-6.156761E2,-1.2030167E2,5.1733315E1,9.9661316E1,3.381683E2,-7.072422E2,-6.2352915E0,-5.5157745E1,-3.4576988E0,-5.0489872E1,2.9260843E1,-1.0117052E1,-4.040478E1],"categories":[],"categories_nodes":[],"categories_segments":[],"categories_sizes":[],"default_left":[1,1,0,1,0,0,0,0,0,0,0,0,0,0,0,0,0,0,0,0,0,0,0],"id":12,"left_children":[1,3,-1,5,-1,7,9,11,13,-1,15,17,-1,-1,19,21,-1,-1,-1,-1,-1,-1,-1],"loss_changes":[4.5541964E7,7.392246E7,0E0,1.6992468E7,0E0,8.653517E6,4.636702E6,3.8125935E6,8.421544E6,0E0,1.3658388E5,3.040494E6,0E0,0E0,6.2521715E6,4.0173125E4,0E0,0E0,0E0,0E0,0E0,0E0,0E0],"parents":[2147483647,0,0,1,1,3,3,5,5,6,6,7,7,8,8,10,10,11,11,14,14,15,15],"right_children":[2,4,-1,6,-1,8,10,12,14,-1,16,18,-1,-1,20,22,-1,-1,-1,-1,-1,-1,-1],"split_conditions":[4.977552E4,4.110193E4,-1.9035959E2,2.091595E4,2.5171135E2,1.152347E4,3.3E1,1E0,1.0105783E4,-1.2480962E2,8.683E1,7.3665E3,5.1733315E1,9.9661316E1,1.0242847E4,2.1150467E2,-6.2352915E0,-5.5157745E1,-3.4576988E0,-5.0489872E1,2.9260843E1,-1.0117052E1,-4.040478E1],"split_indices":[9,9,0,10,0,10,6,0,14,0,1,10,0,0,14,3,0,0,0,0,0,0,0],"split_type":[0,0,0,0,0,0,0,0,0,0,0,0,0,0,0,0,0,0,0,0,0,0,0],"sum_hessian":[9.2E1,9E1,2E0,8.8E1,2E0,8.2E1,6E0,6.3E1,1.9E1,2E0,4E0,6.1E1,2E0,3E0,1.6E1,3E0,1E0,2E0,5.9E1,2E0,1.4E1,1E0,2E0],"tree_param":{"num_deleted":"0","num_feature":"15","num_nodes":"23","size_leaf_vector":"1"}},{"base_weights":[1.264208E1,1.3983908E2,-1.8401427E2,-2.8626556E1,2.4332097E2,-9.172988E1,9.993727E2,2.167285E1,-7.456017E2,1.6725953E0,6.1624493E1,-1.0746577E2,5.961626E2,5.305358E0,-8.3267584E2,-5.3319153E1,-2.7088084E0,4.488758E0,5.8599274E1,-4.458129E1,-6.079409E0],"categories":[],"categories_nodes":[],"categories_segments":[],"categories_sizes":[],"default_left":[1,1,0,1,0,1,0,0,0,0,0,0,0,0,0,0,0,0,0,0,0],"id":13,"left_children":[1,3,-1,5,-1,7,9,11,13,-1,-1,15,17,-1,19,-1,-1,-1,-1,-1,-1],"loss_changes":[4.2320556E7,6.941449E7,0E0,5.6056365E6,0E0,6.022378E6,1.0846345E6,5.2572835E6,9.78295E5,0E0,0E0,2.906046E6,3.685448E6,0E0,3.526935E5,0E0,0E0,0E0,0E0,0E0,0E0],"parents":[2147483647,0,0,1,1,3,3,5,5,6,6,7,7,8,8,11,11,12,12,14,14],"right_children":[2,4,-1,6,-1,8,10,12,14,-1,-1,16,18,-1,20,-1,-1,-1,-1,-1,-1],"split_conditions":[4.977552E4,4.110193E4,-1.8401427E2,4.110193E4,2.4332097E2,1.235763E4,1.227558E4,1.152347E4,1.041733E4,1.6725953E0,6.1624493E1,7.3665E3,2.976E0,5.305358E0,8.783E1,-5.3319153E1,-2.7088084E0,4.488758E0,5.8599274E1,-4.458129E1,-6.079409E0],"split_indices":[9,9,0,11,0,12,10,10,10,0,0,10,2,0,1,0,0,0,0,0,0],"split_type":[0,0,0,0,0,0,0,0,0,0,0,0,0,0,0,0,0,0,0,0,0],"sum_hessian":[8.8E1,8.6E1,2E0,8.4E1,2E0,8E1,4E0,6.9E1,1.1E1,1E0,3E0,5.7E1,1.2E1,1E0,1E1,2E0,5.5E1,7E0,5E0,9E0,1E0],"tree_param":{"num_deleted":"0","num_feature":"15","num_nodes":"21","size_leaf_vector":"1"}},{"base_weights":[1.7050037E1,1.3735258E2,-1.7788046E2,-2.1703854E1,2.3521025E2,8.884891E1,-1.5289742E3,3.0426064E1,8.085876E1,-1.1980497E2,-4.96387E2,-3.0013E1,5.9313576E1,-3.496168E1,-9.784678E0,6.845684E1,-3.321891E0],"categories":[],"categories_nodes":[],"categories_segments":[],"categories_sizes":[],"default_left":[1,1,0,1,0,0,0,1,0,0,0,0,0,0,0,0,0],"id":14,"left_children":[1,3,-1,5,-1,7,9,11,-1,-1,13,15,-1,-1,-1,-1,-1],"loss_changes":[3.9622344E7,6.475057E7,0E0,1.4632912E7,0E0,7.272507E6,4.182901E6,5.624261E6,0E0,0E0,1.0714306E5,4.0151735E6,0E0,0E0,0E0,0E0,0E0],"parents":[2147483647,0,0,1,1,3,3,5,5,6,6,7,7,10,10,11,11],"right_children":[2,4,-1,6,-1,8,10,12,-1,-1,14,16,-1,-1,-1,-1,-1],"split_conditions":[4.977552E4,4.110193E4,-1.7788046E2,2.091595E4,2.3521025E2,2.133151E4,3.3E1,2.7335465E4,8.085876E1,-1.1980497E2,7.644E1,2E0,5.9313576E1,-3.496168E1,-9.784678E0,6.845684E1,-3.321891E0],"split_indices":[9,9,0,10,0,9,6,13,0,0,1,6,0,0,0,0,0],"split_type":[0,0,0,0,0,0,0,0,0,0,0,0,0,0,0,0,0],"sum_hessian":[9E1,8.8E1,2E0,8.6E1,2E0,8.1E1,5E0,7.9E1,2E0,2E0,3E0,7.6E1,3E0,1E0,2E0,1E0,7.5E1],"tree_param":{"num_deleted":"0","num_feature":"15","num_nodes":"17","size_leaf_vector":"1"}},{"base_weights":[-3.986893E1,7.262919E1,-1.7195111E2,-7.902179E1,2.2736992E2,3.2443707E1,-1.3893953E3,-2.4654078E1,7.816347E1,-1.1581146E2,-5.554159E2,-8.415546E1,5.7089314E1,-6.374418E2,-5.6828074E0,2.5188305E0,-2.6769718E1,-8.504976E0,-3.6826138E1],"categories":[],"categories_nodes":[],"categories_segments":[],"categories_sizes":[],"default_left":[1,1,0,1,0,0,0,1,0,0,0,0,0,0,0,0,0,0,0],"id":15,"left_children":[1,3,-1,5,-1,7,9,11,-1,-1,13,15,-1,17,-1,-1,-1,-1,-1],"loss_changes":[3.5812816E7,6.2112228E7,0E0,1.3044545E7,0E0,7.2933005E6,4.124253E6,5.717877E6,0E0,0E0,1.08729625E5,4.7620475E6,0E0,5.9936625E4,0E0,0E0,0E0,0E0,0E0],"parents":[2147483647,0,0,1,1,3,3,5,5,6,6,7,7,10,10,11,11,13,13],"right_children":[2,4,-1,6,-1,8,10,12,-1,-1,14,16,-1,18,-1,-1,-1,-1,-1],"split_conditions":[4.977552E4,4.110193E4,-1.7195111E2,2.091595E4,2.2736992E2,2.133151E4,3.3E1,2.7335465E4,7.816347E1,-1.1581146E2,3.554E0,1.1535957E4,5.7089314E1,2.572E0,-5.6828074E0,2.5188305E0,-2.6769718E1,-8.504976E0,-3.6826138E1],"split_indices":[9,9,0,10,0,9,6,13,0,0,2,12,0,2,0,0,0,0,0],"split_type":[0,0,0,0,0,0,0,0,0,0,0,0,0,0,0,0,0,0,0],"sum_hessian":[9.2E1,9E1,2E0,8.8E1,2E0,8.2E1,6E0,8E1,2E0,2E0,4E0,7.7E1,3E0,3E0,1E0,6E1,1.7E1,1E0,2E0],"tree_param":{"num_deleted":"0","num_feature":"15","num_nodes":"19","size_leaf_vector":"1"}},{"base_weights":[7.0407195E0,1.1559773E2,-1.662194E2,-2.8360704E1,2.1979092E2,8.1593346E1,-1.3437577E3,6.254536E0,1.2706956E3,-1.1195107E2,-5.378479E2,-5.1515083E1,4.6041893E1,9.131671E0,7.485264E1,-6.1690247E2,-5.540737E0,1.2287563E1,-1.031684E1,-8.292352E0,-3.55986E1],"categories":[],"categories_nodes":[],"categories_segments":[],"categories_sizes":[],"default_left":[1,1,0,1,0,0,0,0,0,0,0,0,1,0,0,0,0,0,0,0,0],"id":16,"left_children":[1,3,-1,5,-1,7,9,11,13,-1,15,-1,17,-1,-1,19,-1,-1,-1,-1,-1],"loss_changes":[3.4379388E7,5.6812668E7,0E0,1.3126632E7,0E0,7.517238E6,3.846261E6,3.3467832E6,9.58042E5,0E0,1.00432875E5,0E0,3.9820942E6,0E0,0E0,5.3447875E4,0E0,0E0,0E0,0E0,0E0],"parents":[2147483647,0,0,1,1,3,3,5,5,6,6,7,7,8,8,10,10,12,12,15,15],"right_children":[2,4,-1,6,-1,8,10,12,14,-1,16,-1,18,-1,-1,20,-1,-1,-1,-1,-1],"split_conditions":[4.977552E4,4.110193E4,-1.662194E2,2.091595E4,2.1979092E2,1.60695E4,2.671902E4,7.3665E3,7.808E0,-1.1195107E2,8.683E1,-5.1515083E1,1.0583044E4,9.131671E0,7.485264E1,2.572E0,-5.540737E0,1.2287563E1,-1.031684E1,-8.292352E0,-3.55986E1],"split_indices":[9,9,0,10,0,9,10,10,4,0,1,0,14,0,0,2,0,0,0,0,0],"split_type":[0,0,0,0,0,0,0,0,0,0,0,0,0,0,0,0,0,0,0,0,0],"sum_hessian":[9.3E1,9.1E1,2E0,8.9E1,2E0,8.3E1,6E0,7.9E1,4E0,2E0,4E0,2E0,7.7E1,1E0,3E0,3E0,1E0,4.3E1,3.4E1,1E0,2E0],"tree_param":{"num_deleted":"0","num_feature":"15","num_nodes":"21","size_leaf_vector":"1"}},{"base_weights":[-4.2318058E1,6.879926E1,-1.6067876E2,-1.01982124E2,2.010758E3,2.7840494E1,-1.4598237E3,2.1246455E2,2.654866E2,6.637525E1,-8.14813E0,-9.22904E1,-1.6495443E1,4.903193E1,-5.381609E2,-4.9797913E1,3.370509E1,-8.085043E0,-3.2277023E1,1.8289309E1,-8.314628E0],"categories":[],"categories_nodes":[],"categories_segments":[],"categories_sizes":[],"default_left":[1,1,0,1,0,0,0,0,0,0,0,0,0,0,0,0,1,0,0,0,0],"id":17,"left_children":[1,3,-1,5,7,9,11,-1,13,-1,15,-1,-1,-1,17,-1,19,-1,-1,-1,-1],"loss_changes":[3.123067E7,2.8726994E7,0E0,1.4142927E7,2.6219806E7,3.4720285E6,2.443956E6,0E0,3.4013918E6,0E0,3.0516105E6,0E0,0E0,0E0,1.6887875E4,0E0,4.7763235E6,0E0,0E0,0E0,0E0],"parents":[2147483647,0,0,1,1,3,3,4,4,5,5,6,6,8,8,10,10,14,14,16,16],"right_children":[2,4,-1,6,8,10,12,-1,14,-1,16,-1,-1,-1,18,-1,20,-1,-1,-1,-1],"split_conditions":[3.7405164E4,2.984436E4,-1.6067876E2,1.580815E4,3.5E1,2E0,3.3E1,2.1246455E2,1E0,6.637525E1,7.3665E3,-9.22904E1,-1.6495443E1,4.903193E1,2.572E0,-4.9797913E1,9.315039E3,-8.085043E0,-3.2277023E1,1.8289309E1,-8.314628E0],"split_indices":[12,12,0,10,6,6,6,0,0,0,10,0,0,0,2,0,14,0,0,0,0],"split_type":[0,0,0,0,0,0,0,0,0,0,0,0,0,0,0,0,0,0,0,0,0],"sum_hessian":[8.7E1,8.5E1,2E0,7.9E1,6E0,7.3E1,6E0,2E0,4E0,1E0,7.2E1,4E0,2E0,2E0,2E0,2E0,7E1,1E0,1E0,2.6E1,4.4E1],"tree_param":{"num_deleted":"0","num_feature":"15","num_nodes":"21","size_leaf_vector":"1"}},{"base_weights":[-1.3496121E2,-3.0944595E1,-1.553228E2,-1.1905497E2,1.8866368E2,2.6627527E2,-4.7605087E2,3.6507095E1,1.4099009E3,-2.453659E2,-1.1667711E3,-4.973811E1,1.6040317E2,6.725165E2,8.97405E1,-4.2326147E2,4.079393E2,-1.1476825E1,-1.3495414E3,1.5130847E1,-2.6499756E1,3.920367E1,8.446146E0,-2.9818604E1,9.063315E0,-2.056017E1,4.908328E1,-7.4664246E1,-4.9898324E0],"categories":[],"categories_nodes":[],"categories_segments":[],"categories_sizes":[],"default_left":[1,1,0,1,0,1,0,0,0,0,0,0,1,0,0,0,0,0,0,0,0,0,0,0,0,0,0,0,0],"id":18,"left_children":[1,3,-1,5,-1,7,9,11,13,15,17,-1,19,21,-1,23,25,-1,27,-1,-1,-1,-1,-1,-1,-1,-1,-1,-1],"loss_changes":[2.741242E7,2.9610852E7,0E0,1.1957034E7,0E0,1.0984817E7,6.883957E6,4.7592905E6,7.79744E5,4.240369E6,1.574517E6,0E0,3.4004628E6,9.226925E4,0E0,3.0383065E6,4.163374E6,0E0,1.467758E6,0E0,0E0,0E0,0E0,0E0,0E0,0E0,0E0,0E0,0E0],"parents":[2147483647,0,0,1,1,3,3,5,5,6,6,7,7,8,8,9,9,10,10,12,12,13,13,15,15,16,16,18,18],"right_children":[2,4,-1,6,-1,8,10,12,14,16,18,-1,20,22,-1,24,26,-1,28,-1,-1,-1,-1,-1,-1,-1,-1,-1,-1],"split_conditions":[4.977552E4,4.110193E4,-1.553228E2,1.0113206E4,1.8866368E2,1.07711875E4,1.327587E4,8.42242E3,2.668E0,2.1751598E2,2.1150467E2,-4.973811E1,1.070681E4,5.874E1,8.97405E1,1.327587E4,9.73573E3,-1.1476825E1,3.214893E4,1.5130847E1,-2.6499756E1,3.920367E1,8.446146E0,-2.9818604E1,9.063315E0,-2.056017E1,4.908328E1,-7.4664246E1,-4.9898324E0],"split_indices":[9,9,0,14,0,12,9,14,2,3,3,0,10,1,0,11,9,0,9,0,0,0,0,0,0,0,0,0,0],"split_type":[0,0,0,0,0,0,0,0,0,0,0,0,0,0,0,0,0,0,0,0,0,0,0,0,0,0,0,0,0],"sum_hessian":[8.8E1,8.6E1,2E0,8.5E1,1E0,4.1E1,4.4E1,3.5E1,6E0,3.4E1,1E1,3E0,3.2E1,3E0,3E0,2.7E1,7E0,2E0,8E0,2.7E1,5E0,2E0,1E0,2.1E1,6E0,3E0,4E0,7E0,1E0],"tree_param":{"num_deleted":"0","num_feature":"15","num_nodes":"29","size_leaf_vector":"1"}},{"base_weights":[6.735249E1,-4.337828E1,1.914159E3,4.2406998E1,-1.4072671E3,3.2898113E3,-8.9711266E1,3.206106E0,7.848193E1,-1.0265423E2,-1.4618029E1,3.0340708E1,1.9909361E2,-5.548663E1,8.8295593E2,6.247236E1,-9.000529E1,5.3873608E1,2.6222744E0,-4.7872932E1,-1.99335E0],"categories":[],"categories_nodes":[],"categories_segments":[],"categories_sizes":[],"default_left":[0,0,0,0,0,0,0,1,0,0,0,0,0,0,0,0,0,0,0,0,0],"id":19,"left_children":[1,3,5,7,9,11,-1,13,-1,-1,-1,-1,-1,15,17,-1,19,-1,-1,-1,-1],"loss_changes":[1.8078884E7,9.88781E6,3.14099E7,4.7844745E6,2.999889E6,5.010936E6,0E0,4.128151E6,0E0,0E0,0E0,0E0,0E0,3.4907992E6,7.512305E5,0E0,3.180283E6,0E0,0E0,0E0,0E0],"parents":[2147483647,0,0,1,1,2,2,3,3,4,4,5,5,7,7,13,13,14,14,16,16],"right_children":[2,4,6,8,10,12,-1,14,-1,-1,-1,-1,-1,16,18,-1,20,-1,-1,-1,-1],"split_conditions":[4.110193E4,2.671902E4,3.5E1,2.133151E4,3.3E1,2.577E0,-8.9711266E1,4.110193E4,7.848193E1,-1.0265423E2,-1.4618029E1,3.0340708E1,1.9909361E2,2E0,5.115917E4,6.247236E1,7.81391E3,5.3873608E1,2.6222744E0,-4.7872932E1,-1.99335E0],"split_indices":[9,9,6,9,6,2,0,11,0,0,0,0,0,6,11,0,11,0,0,0,0],"split_type":[0,0,0,0,0,0,0,0,0,0,0,0,0,0,0,0,0,0,0,0,0],"sum_hessian":[8.7E1,8.3E1,4E0,7.9E1,4E0,3E0,1E0,7.8E1,1E0,2E0,2E0,1E0,2E0,7.4E1,4E0,1E0,7.3E1,3E0,1E0,3E0,7E1],"tree_param":{"num_deleted":"0","num_feature":"15","num_nodes":"21","size_leaf_vector":"1"}},{"base_weights":[2.674828E1,8.6942764E1,-1.3326402E2,-4.3787632E1,1.9245717E2,5.004392E1,-1.3188542E3,-1.8837823E0,8.5010724E2,-8.8316E1,-1.413076E1,1.4839325E2,-2.9123645E2,2.5567176E0,5.1853344E1,-4.488428E1,1.0409507E1,-2.9985082E0,-3.391961E1],"categories":[],"categories_nodes":[],"categories_segments":[],"categories_sizes":[],"default_left":[1,1,0,1,0,1,0,1,0,0,0,0,0,0,0,0,0,0,0],"id":20,"left_children":[1,3,-1,5,-1,7,9,11,13,-1,-1,15,17,-1,-1,-1,-1,-1,-1],"loss_changes":[1.4815801E7,4.394177E7,0E0,1.0474809E7,0E0,3.408328E6,2.282899E6,3.4348968E6,6.93849E5,0E0,0E0,3.439606E6,2.3767902E6,0E0,0E0,0E0,0E0,0E0,0E0],"parents":[2147483647,0,0,1,1,3,3,5,5,6,6,7,7,8,8,11,11,12,12],"right_children":[2,4,-1,6,-1,8,10,12,14,-1,-1,16,18,-1,-1,-1,-1,-1,-1],"split_conditions":[4.977552E4,4.110193E4,-1.3326402E2,2.091595E4,1.9245717E2,4.110193E4,2.671902E4,1.124232E4,1.227558E4,-8.8316E1,-1.413076E1,7.3665E3,1.152347E4,2.5567176E0,5.1853344E1,-4.488428E1,1.0409507E1,-2.9985082E0,-3.391961E1],"split_indices":[9,9,0,9,0,11,10,14,10,0,0,10,11,0,0,0,0,0,0],"split_type":[0,0,0,0,0,0,0,0,0,0,0,0,0,0,0,0,0,0,0],"sum_hessian":[8.9E1,8.8E1,1E0,8.6E1,2E0,8.1E1,5E0,7.7E1,4E0,3E0,2E0,5.1E1,2.6E1,1E0,3E0,2E0,4.9E1,1.7E1,9E0],"tree_param":{"num_deleted":"0","num_feature":"15","num_nodes":"19","size_leaf_vector":"1"}},{"base_weights":[2.4931793E1,1.1655557E2,-1.4271286E2,-2.2423038E0,1.8604193E2,9.077626E1,-1.1447214E3,4.1485344E1,7.203316E1,-9.628854E1,-4.4714752E2,-7.5956297E0,8.184839E2,-5.1747076E2,-4.146366E0,6.065031E1,-1.9200398E0,2.4927998E0,4.9908844E1,-6.698171E0,-3.0032602E1],"categories":[],"categories_nodes":[],"categories_segments":[],"categories_sizes":[],"default_left":[1,1,0,1,0,0,0,1,0,0,0,0,0,0,0,0,0,0,0,0,0],"id":21,"left_children":[1,3,-1,5,-1,7,9,11,-1,-1,13,15,17,19,-1,-1,-1,-1,-1,-1,-1],"loss_changes":[2.5657686E7,4.0257372E7,0E0,9.880916E6,0E0,5.662429E6,2.952775E6,3.209628E6,0E0,0E0,8.515325E4,3.0546478E6,6.4082E5,4.7137125E4,0E0,0E0,0E0,0E0,0E0,0E0,0E0],"parents":[2147483647,0,0,1,1,3,3,5,5,6,6,7,7,10,10,11,11,12,12,13,13],"right_children":[2,4,-1,6,-1,8,10,12,-1,-1,14,16,18,20,-1,-1,-1,-1,-1,-1,-1],"split_conditions":[4.977552E4,4.110193E4,-1.4271286E2,2.091595E4,1.8604193E2,2.133151E4,3.3E1,2.3142787E4,7.203316E1,-9.628854E1,8.683E1,2E0,1.227558E4,2.572E0,-4.146366E0,6.065031E1,-1.9200398E0,2.4927998E0,4.9908844E1,-6.698171E0,-3.0032602E1],"split_indices":[9,9,0,10,0,9,6,12,0,0,1,6,10,2,0,0,0,0,0,0,0],"split_type":[0,0,0,0,0,0,0,0,0,0,0,0,0,0,0,0,0,0,0,0,0],"sum_hessian":[9.5E1,9.3E1,2E0,9.1E1,2E0,8.5E1,6E0,8.3E1,2E0,2E0,4E0,7.9E1,4E0,3E0,1E0,1E0,7.8E1,1E0,3E0,1E0,2E0],"tree_param":{"num_deleted":"0","num_feature":"15","num_nodes":"21","size_leaf_vector":"1"}},{"base_weights":[-4.2312174E0,8.867758E1,-1.3795576E2,-3.3311802E1,1.7984053E2,5.9894287E1,-1.1070806E3,8.525497E0,6.963205E1,-9.307894E1,-4.3296558E2,-6.3301294E2,8.9727196E1,-5.007799E2,-4.042707E0,-2.177888E0,-3.976031E1,-1.1847671E0,2.7660574E1,-6.530717E0,-2.9031515E1],"categories":[],"categories_nodes":[],"categories_segments":[],"categories_sizes":[],"default_left":[1,1,0,1,0,0,0,0,0,0,0,0,0,0,0,0,0,0,0,0,0],"id":22,"left_children":[1,3,-1,5,-1,7,9,11,-1,-1,13,15,17,19,-1,-1,-1,-1,-1,-1,-1],"loss_changes":[2.353639E7,3.820781E7,0E0,8.773422E6,0E0,5.533515E6,2.754331E6,4.1722252E6,0E0,0E0,7.8900875E4,8.25813E5,3.7455472E6,4.2392812E4,0E0,0E0,0E0,0E0,0E0,0E0,0E0],"parents":[2147483647,0,0,1,1,3,3,5,5,6,6,7,7,10,10,11,11,12,12,13,13],"right_children":[2,4,-1,6,-1,8,10,12,-1,-1,14,16,18,20,-1,-1,-1,-1,-1,-1,-1],"split_conditions":[4.977552E4,4.110193E4,-1.3795576E2,2.091595E4,1.7984053E2,2.133151E4,3.3E1,4.65E1,6.963205E1,-9.307894E1,8.683E1,3.993E1,1.152347E4,2.572E0,-4.042707E0,-2.177888E0,-3.976031E1,-1.1847671E0,2.7660574E1,-6.530717E0,-2.9031515E1],"split_indices":[9,9,0,10,0,9,6,1,0,0,1,1,10,2,0,0,0,0,0,0,0],"split_type":[0,0,0,0,0,0,0,0,0,0,0,0,0,0,0,0,0,0,0,0,0],"sum_hessian":[9E1,8.8E1,2E0,8.6E1,2E0,8E1,6E0,7.8E1,2E0,2E0,4E0,8E0,7E1,3E0,1E0,2E0,6E0,5.7E1,1.3E1,1E0,2E0],"tree_param":{"num_deleted":"0","num_feature":"15","num_nodes":"21","size_leaf_vector":"1"}},{"base_weights":[-4.831029E1,4.0507843E1,-1.3335724E2,-7.845463E1,1.7384586E2,1.806516E1,-1.1841187E3,-4.496928E1,6.488231E1,-1.6118344E3,-4.6037338E2,-3.6457195E1,5.3075275E2,-1.0555615E2,-3.7084854E1,-2.80638E1,-3.9416397E0,3.834877E0,-2.4748798E1,-3.2227573E0,3.876407E1],"categories":[],"categories_nodes":[],"categories_segments":[],"categories_sizes":[],"default_left":[1,1,0,1,0,0,0,0,0,0,0,0,0,0,0,0,0,0,0,0,0],"id":23,"left_children":[1,3,-1,5,-1,7,9,-1,11,13,15,17,19,-1,-1,-1,-1,-1,-1,-1,-1],"loss_changes":[2.127464E7,3.665631E7,0E0,9.305898E6,0E0,3.537501E6,1.424855E6,0E0,3.7018138E6,1.71985E5,1.0974675E5,3.4103958E6,2.0876062E6,0E0,0E0,0E0,0E0,0E0,0E0,0E0,0E0],"parents":[2147483647,0,0,1,1,3,3,5,5,6,6,8,8,9,9,10,10,11,11,12,12],"right_children":[2,4,-1,6,-1,8,10,-1,12,14,16,18,20,-1,-1,-1,-1,-1,-1,-1,-1],"split_conditions":[4.977552E4,4.110193E4,-1.3335724E2,1.960447E4,1.7384586E2,8.0069624E3,3.3E1,-4.496928E1,7.962E0,8.716E1,8.683E1,1.1455515E4,9E0,-1.0555615E2,-3.7084854E1,-2.80638E1,-3.9416397E0,3.834877E0,-2.4748798E1,-3.2227573E0,3.876407E1],"split_indices":[9,9,0,9,0,13,6,0,4,1,1,12,6,0,0,0,0,0,0,0,0],"split_type":[0,0,0,0,0,0,0,0,0,0,0,0,0,0,0,0,0,0,0,0,0],"sum_hessian":[9E1,8.8E1,2E0,8.6E1,2E0,8E1,6E0,3E0,7.7E1,3E0,3E0,6.4E1,1.3E1,1E0,2E0,2E0,1E0,5.2E1,1.2E1,4E0,9E0],"tree_param":{"num_deleted":"0","num_feature":"15","num_nodes":"21","size_leaf_vector":"1"}},{"base_weights":[-5.1755234E1,3.4963055E1,-1.28912E2,-1.17729996E2,4.0360532E2,9.070294E0,-1.3238445E3,1.8508559E2,1.1011569E3,-1.4465298E2,6.103973E2,-1.4752931E3,-1.4165039E1,2.6817917E2,-3.6919643E1,8.092303E1,4.3788995E2,-7.5334454E2,-3.720192E1,7.080801E2,4.0661163E0,-4.0747192E1,-1.0291725E2,9.23271E1,7.772699E2,-4.3099033E2,7.611327E1,1.3337583E1,-4.839096E1,2.4405985E1,-8.967206E0,3.8813854E1,2.3576856E0,1.2414678E1,-3.33146E1,4.549409E1,6.1705604E0,-3.8430984E0,-2.8481176E1],"categories":[],"categories_nodes":[],"categories_segments":[],"categories_sizes":[],"default_left":[1,0,0,0,0,0,0,0,0,0,0,0,0,0,0,0,0,0,1,0,0,0,0,0,0,0,0,0,0,0,0,0,0,0,0,0,0,0,0],"id":24,"left_children":[1,3,-1,5,7,9,11,13,15,17,19,21,-1,23,-1,-1,25,27,29,31,-1,-1,-1,33,35,37,-1,-1,-1,-1,-1,-1,-1,-1,-1,-1,-1,-1,-1],"loss_changes":[1.980846E7,5.000958E6,0E0,9.646955E6,3.7593395E6,5.449698E6,5.27582E5,1.8094592E6,1.349954E6,3.0459885E6,5.62595E5,2.47654E5,0E0,1.71873E6,0E0,0E0,4.4248515E6,1.7896608E6,3.1490265E6,4.141275E5,0E0,0E0,0E0,2.058542E6,3.2125775E5,1.0349944E5,0E0,0E0,0E0,0E0,0E0,0E0,0E0,0E0,0E0,0E0,0E0,0E0,0E0],"parents":[2147483647,0,0,1,1,3,3,4,4,5,5,6,6,7,7,8,8,9,9,10,10,11,11,13,13,16,16,17,17,18,18,19,19,23,23,24,24,25,25],"right_children":[2,4,-1,6,8,10,12,14,16,18,20,22,-1,24,-1,-1,26,28,30,32,-1,-1,-1,34,36,38,-1,-1,-1,-1,-1,-1,-1,-1,-1,-1,-1,-1,-1],"split_conditions":[3.7405164E4,2.1542227E2,-1.28912E2,8.577E1,8.583E1,8.091E1,2.133151E4,2.2095127E4,8.854E1,8.46872E3,3.526E0,1.90818E4,-1.4165039E1,2.1249732E4,-3.6919643E1,8.092303E1,9.165E1,2.1101804E2,9.20211E3,4.160311E4,4.0661163E0,-4.0747192E1,-1.0291725E2,1.318005E4,2.197278E4,9.076E1,7.611327E1,1.3337583E1,-4.839096E1,2.4405985E1,-8.967206E0,3.8813854E1,2.3576856E0,1.2414678E1,-3.33146E1,4.549409E1,6.1705604E0,-3.8430984E0,-2.8481176E1],"split_indices":[12,3,0,1,1,1,10,14,1,10,2,10,0,14,0,0,1,3,10,11,0,0,0,10,14,1,0,0,0,0,0,0,0,0,0,0,0,0,0],"split_type":[0,0,0,0,0,0,0,0,0,0,0,0,0,0,0,0,0,0,0,0,0,0,0,0,0,0,0,0,0,0,0,0,0,0,0,0,0,0,0],"sum_hessian":[8.9E1,8.7E1,2E0,6.2E1,2.5E1,5.7E1,5E0,2E1,5E0,4.6E1,1.1E1,4E0,1E0,1.9E1,1E0,2E0,3E0,6E0,4E1,9E0,2E0,3E0,1E0,1.5E1,4E0,2E0,1E0,1E0,5E0,8E0,3.2E1,8E0,1E0,1.3E1,2E0,3E0,1E0,1E0,1E0],"tree_param":{"num_deleted":"0","num_feature":"15","num_nodes":"39","size_leaf_vector":"1"}},{"base_weights":[-1.0260293E1,7.258832E1,-1.2461493E2,-3.8981525E1,1.6605539E2,4.629827E1,-1.2121885E3,-2.8865135E1,5.978776E2,-7.12325E1,-3.7470207E0,5.827119E1,-6.646576E2,-8.655227E0,7.027762E2,-2.855085E0,3.201634E1,-4.2643585E1,-1.9694112E-1,-5.5245485E0,4.0912296E1],"categories":[],"categories_nodes":[],"categories_segments":[],"categories_sizes":[],"default_left":[1,1,0,1,0,1,0,1,0,0,0,0,0,0,0,0,0,0,0,0,0],"id":25,"left_children":[1,3,-1,5,-1,7,9,11,13,-1,-1,15,17,-1,19,-1,-1,-1,-1,-1,-1],"loss_changes":[1.9099186E7,3.2748772E7,0E0,8.860597E6,0E0,3.4583202E6,1.342965E6,4.138376E6,9.3040275E5,0E0,0E0,4.46869E6,1.1158505E6,0E0,9.355785E5,0E0,0E0,0E0,0E0,0E0,0E0],"parents":[2147483647,0,0,1,1,3,3,5,5,6,6,7,7,8,8,11,11,12,12,14,14],"right_children":[2,4,-1,6,-1,8,10,12,14,-1,-1,16,18,-1,20,-1,-1,-1,-1,-1,-1],"split_conditions":[4.977552E4,4.110193E4,-1.2461493E2,1.960447E4,1.6605539E2,1.327587E4,3.214893E4,1.1535957E4,6E0,-7.12325E1,-3.7470207E0,1.101252E4,1.374012E4,-8.655227E0,2.572E0,-2.855085E0,3.201634E1,-4.2643585E1,-1.9694112E-1,-5.5245485E0,4.0912296E1],"split_indices":[9,9,0,9,0,11,9,12,6,0,0,10,9,0,2,0,0,0,0,0,0],"split_type":[0,0,0,0,0,0,0,0,0,0,0,0,0,0,0,0,0,0,0,0,0],"sum_hessian":[9.1E1,8.9E1,2E0,8.7E1,2E0,8.2E1,5E0,7.3E1,9E0,4E0,1E0,6.5E1,8E0,1E0,8E0,5.5E1,1E1,6E0,2E0,1E0,7E0],"tree_param":{"num_deleted":"0","num_feature":"15","num_nodes":"21","size_leaf_vector":"1"}},{"base_weights":[6.084697E1,-2.8314837E1,1.5822606E3,6.2882275E1,-1.0665226E3,-5.7330304E2,1.605202E2,5.7770443E1,3.4427395E1,-1.4704421E3,-3.959724E2,2.445033E1,-6.744806E1,-2.1110141E2,1.8105614E2,-9.856351E1,-3.232047E1,-2.3962597E1,-3.6533456E0,-4.4189307E2,1.7191048E2,7.120107E1,8.457085E2,-2.7821394E1,1.7721754E1,-2.015543E1,2.0418669E1,8.175147E0,-3.40727E1,1.532565E1,5.0004204E1],"categories":[],"categories_nodes":[],"categories_segments":[],"categories_sizes":[],"default_left":[0,0,0,0,0,0,0,0,0,0,0,0,0,0,0,0,0,0,0,1,0,0,0,0,0,0,0,0,0,0,0],"id":26,"left_children":[1,3,5,7,9,11,-1,-1,13,15,17,-1,-1,19,21,-1,-1,-1,-1,23,25,27,29,-1,-1,-1,-1,-1,-1,-1,-1],"loss_changes":[1.2253481E7,8.209678E6,1.9388372E7,2.447239E6,1.3136845E6,3.1316182E6,0E0,0E0,2.8823458E6,3.76547E5,7.254825E4,0E0,0E0,2.7278445E6,3.590556E6,0E0,0E0,0E0,0E0,1.9301555E6,1.7962668E6,3.1681638E6,2.761315E5,0E0,0E0,0E0,0E0,0E0,0E0,0E0,0E0],"parents":[2147483647,0,0,1,1,2,2,3,3,4,4,5,5,8,8,9,9,10,10,13,13,14,14,19,19,20,20,21,21,22,22],"right_children":[2,4,6,8,10,12,-1,-1,14,16,18,-1,-1,20,22,-1,-1,-1,-1,24,26,28,30,-1,-1,-1,-1,-1,-1,-1,-1],"split_conditions":[4.110193E4,1.960447E4,8.184E1,2E0,3.3E1,4.383E1,1.605202E2,5.7770443E1,6.014E1,8.716E1,8.683E1,2.445033E1,-6.744806E1,3.022E0,4.2E1,-9.856351E1,-3.232047E1,-2.3962597E1,-3.6533456E0,1.374012E4,9.73573E3,1E1,6.227E1,-2.7821394E1,1.7721754E1,-2.015543E1,2.0418669E1,8.175147E0,-3.40727E1,1.532565E1,5.0004204E1],"split_indices":[9,9,1,6,6,1,0,0,1,1,1,0,0,2,6,0,0,0,0,11,9,7,1,0,0,0,0,0,0,0,0],"split_type":[0,0,0,0,0,0,0,0,0,0,0,0,0,0,0,0,0,0,0,0,0,0,0,0,0,0,0,0,0,0,0],"sum_hessian":[8.9E1,8.5E1,4E0,7.9E1,6E0,2E0,2E0,1E0,7.8E1,3E0,3E0,1E0,1E0,2.9E1,4.9E1,1E0,2E0,2E0,1E0,1.8E1,1.1E1,4.3E1,6E0,1.6E1,2E0,3E0,8E0,3.9E1,4E0,2E0,4E0],"tree_param":{"num_deleted":"0","num_feature":"15","num_nodes":"31","size_leaf_vector":"1"}},{"base_weights":[2.2822138E1,1.0559048E2,-1.2201229E2,1.0043682E0,1.5516954E2,8.2648315E1,-9.4387616E2,3.3784554E1,6.7092224E1,-9.609942E1,-4.605261E2,-1.0015468E1,4.287694E1,-5.241352E2,-3.5620117E0,5.6326183E1,-2.0094821E0,-5.590814E0,-2.9963043E1],"categories":[],"categories_nodes":[],"categories_segments":[],"categories_sizes":[],"default_left":[1,1,0,1,0,0,0,1,0,0,0,0,0,0,0,0,0,0,0],"id":27,"left_children":[1,3,-1,5,-1,7,9,11,-1,-1,13,15,-1,17,-1,-1,-1,-1,-1],"loss_changes":[1.8809294E7,2.79009E7,0E0,6.789518E6,0E0,4.938521E6,2.424269E6,2.8589445E6,0E0,0E0,1.11233375E5,2.6516282E6,0E0,8.78715E4,0E0,0E0,0E0,0E0,0E0],"parents":[2147483647,0,0,1,1,3,3,5,5,6,6,7,7,10,10,11,11,13,13],"right_children":[2,4,-1,6,-1,8,10,12,-1,-1,14,16,-1,18,-1,-1,-1,-1,-1],"split_conditions":[4.977552E4,4.110193E4,-1.2201229E2,2.091595E4,1.5516954E2,2.133151E4,2.133151E4,2.7335465E4,6.7092224E1,-9.609942E1,3.214893E4,2E0,4.287694E1,2.572E0,-3.5620117E0,5.6326183E1,-2.0094821E0,-5.590814E0,-2.9963043E1],"split_indices":[9,9,0,10,0,9,10,13,0,0,9,6,0,2,0,0,0,0,0],"split_type":[0,0,0,0,0,0,0,0,0,0,0,0,0,0,0,0,0,0,0],"sum_hessian":[9E1,8.8E1,2E0,8.6E1,2E0,8E1,6E0,7.8E1,2E0,1E0,5E0,7.5E1,3E0,4E0,1E0,1E0,7.4E1,1E0,3E0],"tree_param":{"num_deleted":"0","num_feature":"15","num_nodes":"19","size_leaf_vector":"1"}},{"base_weights":[5.1883385E1,1.3441763E2,-1.1794523E2,3.1700014E1,1.4999724E2,9.859044E1,-1.0582648E3,3.20772E1,1.1031761E3,-9.369694E1,-3.8586166E2,1.2355612E2,-3.8840338E2,7.1674034E1,-5.4510436E0,-2.3408804E1,-3.4729614E0,3.4642818E0,6.019804E1,-3.9633083E1,1.4135894E1],"categories":[],"categories_nodes":[],"categories_segments":[],"categories_sizes":[],"default_left":[1,1,0,1,0,1,0,1,0,0,0,1,0,0,0,0,0,0,0,0,0],"id":28,"left_children":[1,3,-1,5,-1,7,9,11,13,-1,15,17,19,-1,-1,-1,-1,-1,-1,-1,-1],"loss_changes":[1.8025638E7,2.5512492E7,0E0,6.3015325E6,0E0,5.3768915E6,2.0192275E6,3.0098032E6,2.1582495E6,0E0,7.165881E4,3.6691645E6,4.0223882E6,0E0,0E0,0E0,0E0,0E0,0E0,0E0,0E0],"parents":[2147483647,0,0,1,1,3,3,5,5,6,6,7,7,8,8,10,10,11,11,12,12],"right_children":[2,4,-1,6,-1,8,10,12,14,-1,16,18,20,-1,-1,-1,-1,-1,-1,-1,-1],"split_conditions":[4.977552E4,4.110193E4,-1.1794523E2,2.671902E4,1.4999724E2,1.4086405E4,3.064054E4,1.152347E4,1E0,-9.369694E1,2.1562796E2,1.121978E4,1.327587E4,7.1674034E1,-5.4510436E0,-2.3408804E1,-3.4729614E0,3.4642818E0,6.019804E1,-3.9633083E1,1.4135894E1],"split_indices":[9,9,0,9,0,12,9,11,0,0,3,11,11,0,0,0,0,0,0,0,0],"split_type":[0,0,0,0,0,0,0,0,0,0,0,0,0,0,0,0,0,0,0,0,0],"sum_hessian":[8.8E1,8.6E1,2E0,8.4E1,2E0,8E1,4E0,7.6E1,4E0,1E0,3E0,6.3E1,1.3E1,3E0,1E0,2E0,1E0,6.1E1,2E0,8E0,5E0],"tree_param":{"num_deleted":"0","num_feature":"15","num_nodes":"21","size_leaf_vector":"1"}},{"base_weights":[5.0008396E1,1.3071584E2,-1.1401371E2,6.453544E1,1.4390123E2,3.038462E1,7.333011E1,5.3413074E1,5.0094595E0,3.685564E1,-3.1658327E1,-3.3467453E1,1.4545792E0],"categories":[],"categories_nodes":[],"categories_segments":[],"categories_sizes":[],"default_left":[1,1,0,0,0,0,0,0,1,0,1,0,0],"id":29,"left_children":[1,3,-1,5,-1,7,-1,-1,9,-1,11,-1,-1],"loss_changes":[1.6848328E7,1.5450612E7,0E0,4.025385E6,0E0,2.206897E6,0E0,0E0,2.2514385E6,0E0,3.1186452E6,0E0,0E0],"parents":[2147483647,0,0,1,1,3,3,5,5,8,8,10,10],"right_children":[2,4,-1,6,-1,8,-1,-1,10,-1,12,-1,-1],"split_conditions":[4.977552E4,4.110193E4,-1.1401371E2,9.076E1,1.4390123E2,2E0,7.333011E1,5.3413074E1,7.3665E3,3.685564E1,7.6907075E3,-3.3467453E1,1.4545792E0],"split_indices":[9,9,0,1,0,6,0,0,9,0,12,0,0],"split_type":[0,0,0,0,0,0,0,0,0,0,0,0,0],"sum_hessian":[8.7E1,8.5E1,2E0,8.4E1,1E0,8.3E1,1E0,1E0,8.2E1,3E0,7.9E1,6E0,7.3E1],"tree_param":{"num_deleted":"0","num_feature":"15","num_nodes":"13","size_leaf_vector":"1"}},{"base_weights":[-6.9483246E1,2.4481838E0,-1.1021326E2,-9.30875E1,1.402006E2,-3.6512585E1,-1.2720326E3,-8.204331E1,6.1767086E1,-1.0133105E1,-7.8046776E1,-2.0611287E2,1.3272217E2,6.978579E0,-1.939406E1,-3.5220364E1,1.0737257E1],"categories":[],"categories_nodes":[],"categories_segments":[],"categories_sizes":[],"default_left":[1,1,0,1,0,0,0,0,0,0,0,1,0,0,0,0,0],"id":30,"left_children":[1,3,-1,5,-1,7,9,11,-1,-1,-1,13,15,-1,-1,-1,-1],"loss_changes":[1.4132725E7,2.4349458E7,0E0,5.823042E6,0E0,5.0235695E6,9.194345E5,2.2389618E6,0E0,0E0,0E0,3.3843652E6,2.2798468E6,0E0,0E0,0E0,0E0],"parents":[2147483647,0,0,1,1,3,3,5,5,6,6,7,7,11,11,12,12],"right_children":[2,4,-1,6,-1,8,10,12,-1,-1,-1,14,16,-1,-1,-1,-1],"split_conditions":[4.977552E4,4.110193E4,-1.1021326E2,2.671902E4,1.402006E2,2.133151E4,8.683E1,2.1507439E2,6.1767086E1,-1.0133105E1,-7.8046776E1,9.138202E3,7.54677E3,6.978579E0,-1.939406E1,-3.5220364E1,1.0737257E1],"split_indices":[9,9,0,9,0,9,1,3,0,0,0,14,12,0,0,0,0],"split_type":[0,0,0,0,0,0,0,0,0,0,0,0,0,0,0,0,0],"sum_hessian":[9.1E1,8.9E1,2E0,8.7E1,2E0,8.4E1,3E0,8.2E1,2E0,1E0,2E0,5.2E1,3E1,1.8E1,3.4E1,2E0,2.8E1],"tree_param":{"num_deleted":"0","num_feature":"15","num_nodes":"17","size_leaf_vector":"1"}},{"base_weights":[2.6147526E1,9.619822E1,-1.0653948E2,7.984454E0,1.3552727E2,8.099257E1,-8.692536E2,3.9279087E1,5.9708187E1,-8.9439705E1,-4.178645E2,-3.9865116E1,8.1140434E1,-4.8966672E2,-1.4713334E0,3.1630789E1,1.3573861E0,-4.866281E0,-2.817103E1],"categories":[],"categories_nodes":[],"categories_segments":[],"categories_sizes":[],"default_left":[1,1,0,1,0,0,0,0,0,0,0,0,0,0,0,0,0,0,0],"id":31,"left_children":[1,3,-1,5,-1,7,9,11,-1,-1,13,-1,15,17,-1,-1,-1,-1,-1],"loss_changes":[1.4407902E7,2.1195526E7,0E0,5.834498E6,0E0,3.853571E6,2.1580205E6,2.9363682E6,0E0,0E0,1.5293494E5,0E0,2.3351025E6,8.9848E4,0E0,0E0,0E0,0E0,0E0],"parents":[2147483647,0,0,1,1,3,3,5,5,6,6,7,7,10,10,12,12,13,13],"right_children":[2,4,-1,6,-1,8,10,12,-1,-1,14,-1,16,18,-1,-1,-1,-1,-1],"split_conditions":[4.977552E4,4.110193E4,-1.0653948E2,2.091595E4,1.3552727E2,2.133151E4,2.133151E4,8.0069624E3,5.9708187E1,-8.9439705E1,3.214893E4,-3.9865116E1,8.587254E3,2.572E0,-1.4713334E0,3.1630789E1,1.3573861E0,-4.866281E0,-2.817103E1],"split_indices":[9,9,0,10,0,9,10,13,0,0,9,0,13,2,0,0,0,0,0],"split_type":[0,0,0,0,0,0,0,0,0,0,0,0,0,0,0,0,0,0,0],"sum_hessian":[9.3E1,9.1E1,2E0,8.9E1,2E0,8.3E1,6E0,8.1E1,2E0,1E0,5E0,3E0,7.8E1,4E0,1E0,6E0,7.2E1,1E0,3E0],"tree_param":{"num_deleted":"0","num_feature":"15","num_nodes":"19","size_leaf_vector":"1"}},{"base_weights":[7.377483E-1,6.7197586E1,-1.0298816E2,-1.770555E1,1.3100969E2,5.0509174E1,-8.434978E2,1.0002471E1,1.1543582E3,-8.720371E1,-4.027227E2,-5.253506E1,4.7177997E2,1.8116892E1,6.845998E1,-4.7179083E2,-1.4345505E0,2.9823596E0,-2.9175848E1,2.3382797E0,4.4372063E1,-4.7446246E0,-2.7114614E1],"categories":[],"categories_nodes":[],"categories_segments":[],"categories_sizes":[],"default_left":[1,1,0,1,0,0,0,1,0,0,0,0,0,0,0,0,0,0,0,0,0,0,0],"id":32,"left_children":[1,3,-1,5,-1,7,9,11,13,-1,15,17,19,-1,-1,21,-1,-1,-1,-1,-1,-1,-1],"loss_changes":[1.3147764E7,2.0204828E7,0E0,5.1687425E6,0E0,3.7890828E6,2.0762835E6,2.4216945E6,1.4363E4,0E0,1.4146581E5,4.4427445E6,1.725118E6,0E0,0E0,8.14E4,0E0,0E0,0E0,0E0,0E0,0E0,0E0],"parents":[2147483647,0,0,1,1,3,3,5,5,6,6,7,7,8,8,10,10,11,11,12,12,15,15],"right_children":[2,4,-1,6,-1,8,10,12,14,-1,16,18,20,-1,-1,22,-1,-1,-1,-1,-1,-1,-1],"split_conditions":[4.977552E4,4.110193E4,-1.0298816E2,2.091595E4,1.3100969E2,2.133151E4,2.133151E4,1.327587E4,4.383E1,-8.720371E1,3.214893E4,1.1455515E4,2.7335465E4,1.8116892E1,6.845998E1,2.572E0,-1.4345505E0,2.9823596E0,-2.9175848E1,2.3382797E0,4.4372063E1,-4.7446246E0,-2.7114614E1],"split_indices":[9,9,0,10,0,9,10,11,1,0,9,12,13,0,0,2,0,0,0,0,0,0,0],"split_type":[0,0,0,0,0,0,0,0,0,0,0,0,0,0,0,0,0,0,0,0,0,0,0],"sum_hessian":[9.4E1,9.2E1,2E0,9E1,2E0,8.4E1,6E0,8.2E1,2E0,1E0,5E0,7.3E1,9E0,1E0,1E0,4E0,1E0,6.1E1,1.2E1,5E0,4E0,1E0,3E0],"tree_param":{"num_deleted":"0","num_feature":"15","num_nodes":"23","size_leaf_vector":"1"}},{"base_weights":[-3.5823975E1,2.9750082E1,-9.955522E1,-5.5921062E1,1.2664269E2,-2.7430615E0,-9.3812726E2,-4.3986767E1,1.1254993E3,-1.4315945E3,-1.3195099E2,-8.3810585E1,5.860622E2,1.7663969E1,6.6748474E1,-8.502362E1,-2.2345966E1,-8.497638E0,-1.3986863E0,-1.6297086E-1,-2.8707205E1,3.678587E1,-3.139618E-1],"categories":[],"categories_nodes":[],"categories_segments":[],"categories_sizes":[],"default_left":[1,1,0,1,0,0,0,1,0,0,0,0,0,0,0,0,0,0,0,0,0,0,0],"id":33,"left_children":[1,3,-1,5,-1,7,9,11,13,15,17,19,21,-1,-1,-1,-1,-1,-1,-1,-1,-1,-1],"loss_changes":[1.1855076E7,1.9441576E7,0E0,4.1258555E6,0E0,3.9582702E6,1.800207E6,2.1065765E6,1.365375E4,3.4299E4,7.099746E3,3.07889E6,4.4785438E5,0E0,0E0,0E0,0E0,0E0,0E0,0E0,0E0,0E0,0E0],"parents":[2147483647,0,0,1,1,3,3,5,5,6,6,7,7,8,8,9,9,10,10,11,11,12,12],"right_children":[2,4,-1,6,-1,8,10,12,14,16,18,20,22,-1,-1,-1,-1,-1,-1,-1,-1,-1,-1],"split_conditions":[4.977552E4,4.110193E4,-9.955522E1,2.671902E4,1.2664269E2,2.133151E4,3.3E1,4.110193E4,4.383E1,8.716E1,8.683E1,1.235763E4,5.115917E4,1.7663969E1,6.6748474E1,-8.502362E1,-2.2345966E1,-8.497638E0,-1.3986863E0,-1.6297086E-1,-2.8707205E1,3.678587E1,-3.139618E-1],"split_indices":[9,9,0,9,0,9,6,11,1,1,1,12,11,0,0,0,0,0,0,0,0,0,0],"split_type":[0,0,0,0,0,0,0,0,0,0,0,0,0,0,0,0,0,0,0,0,0,0,0],"sum_hessian":[9.1E1,8.9E1,2E0,8.7E1,2E0,8.3E1,4E0,8.1E1,2E0,2E0,2E0,7.7E1,4E0,1E0,1E0,1E0,1E0,1E0,1E0,6.7E1,1E1,3E0,1E0],"tree_param":{"num_deleted":"0","num_feature":"15","num_nodes":"23","size_leaf_vector":"1"}},{"base_weights":[4.9856968E1,9.297494E1,-9.7924904E1,1.3426869E1,1.22421265E2,2.7439145E2,-2.1053107E2,1.3123503E2,1.1114574E3,-4.734648E1,-7.699554E2,-3.2086185E1,1.9373907E2,2.459033E1,7.8358635E1,-1.299729E2,7.081279E2,-1.0145494E3,-2.7353278E2,2.7771642E0,2.668371E1,-1.1375316E1,2.601178E1,4.0440212E1,1.01524725E1,-4.4353156E0,-5.770361E1,-1.6413939E1,-1.3637192E0],"categories":[],"categories_nodes":[],"categories_segments":[],"categories_sizes":[],"default_left":[1,1,0,1,0,1,0,0,0,0,0,0,0,0,0,0,0,0,0,0,0,0,0,0,0,0,0,0,0],"id":34,"left_children":[1,3,-1,5,-1,7,9,11,13,15,17,-1,19,-1,-1,21,23,25,27,-1,-1,-1,-1,-1,-1,-1,-1,-1,-1],"loss_changes":[8.2355365E6,1.7205304E7,0E0,5.3178255E6,0E0,4.887054E6,4.4367275E6,1.9119095E6,9.235605E5,2.526501E6,1.0581295E6,0E0,1.614574E6,0E0,0E0,2.401371E6,3.9170625E4,8.0186E5,5.8454688E4,0E0,0E0,0E0,0E0,0E0,0E0,0E0,0E0,0E0,0E0],"parents":[2147483647,0,0,1,1,3,3,5,5,6,6,7,7,8,8,9,9,10,10,12,12,15,15,16,16,17,17,18,18],"right_children":[2,4,-1,6,-1,8,10,12,14,16,18,-1,20,-1,-1,22,24,26,28,-1,-1,-1,-1,-1,-1,-1,-1,-1,-1],"split_conditions":[4.977552E4,4.110193E4,-9.7924904E1,1.018761E4,1.22421265E2,1.0433207E4,1.295555E4,7.8416987E3,2.1089676E2,2.7335465E4,2.671902E4,-3.2086185E1,8.315E1,2.459033E1,7.8358635E1,1E0,1.227558E4,3.639E1,8.683E1,2.7771642E0,2.668371E1,-1.1375316E1,2.601178E1,4.0440212E1,1.01524725E1,-4.4353156E0,-5.770361E1,-1.6413939E1,-1.3637192E0],"split_indices":[9,9,0,14,0,13,9,13,3,13,10,0,1,0,0,0,9,1,1,0,0,0,0,0,0,0,0,0,0],"split_type":[0,0,0,0,0,0,0,0,0,0,0,0,0,0,0,0,0,0,0,0,0,0,0,0,0,0,0,0,0],"sum_hessian":[9.2E1,9.1E1,1E0,8.9E1,2E0,4.1E1,4.8E1,3.6E1,5E0,3.8E1,1E1,2E0,3.4E1,3E0,2E0,3.5E1,3E0,6E0,4E0,2.5E1,9E0,3.1E1,4E0,2E0,1E0,1E0,5E0,3E0,1E0],"tree_param":{"num_deleted":"0","num_feature":"15","num_nodes":"29","size_leaf_vector":"1"}},{"base_weights":[9.9046425E1,3.3568714E1,1.2054537E3,9.857159E1,-1.0391921E3,-3.577214E2,1.1834055E2,6.861776E1,6.31208E1,-8.145544E1,-2.422179E1,1.7152939E1,-4.3982044E1,3.7781E2,-3.2228413E1,1.628961E2,8.5212634E2,-2.7285693E2,1.1667705E2,-1.9366686E1,1.1493247E1,4.7978695E1,7.8722167E0,-3.0064512E1,2.565063E0,-2.6725328E0,3.913016E1],"categories":[],"categories_nodes":[],"categories_segments":[],"categories_sizes":[],"default_left":[0,1,0,0,0,0,0,0,0,0,0,0,0,1,0,0,0,0,0,0,0,0,0,0,0,0,0],"id":35,"left_children":[1,3,5,7,9,11,-1,13,-1,-1,-1,-1,-1,15,17,19,21,23,25,-1,-1,-1,-1,-1,-1,-1,-1],"loss_changes":[6.479587E6,6.099433E6,9.923684E6,2.772027E6,8.47101E5,1.399021E6,0E0,2.537825E6,0E0,0E0,0E0,0E0,0E0,1.8999352E6,2.253352E6,6.417581E5,2.96772E5,2.5859915E6,4.4602375E6,0E0,0E0,0E0,0E0,0E0,0E0,0E0,0E0],"parents":[2147483647,0,0,1,1,2,2,3,3,4,4,5,5,7,7,13,13,14,14,15,15,16,16,17,17,18,18],"right_children":[2,4,6,8,10,12,-1,14,-1,-1,-1,-1,-1,16,18,20,22,24,26,-1,-1,-1,-1,-1,-1,-1,-1],"split_conditions":[3.214893E4,2.091595E4,8.184E1,8.994E1,2.133151E4,4.383E1,1.1834055E2,2.1140494E2,6.31208E1,-8.145544E1,-2.422179E1,1.7152939E1,-4.3982044E1,1.04418125E4,6.014E1,2.548E0,6.276E1,3.022E0,4.2E1,-1.9366686E1,1.1493247E1,4.7978695E1,7.8722167E0,-3.0064512E1,2.565063E0,-2.6725328E0,3.913016E1],"split_indices":[9,10,1,1,10,1,0,3,0,0,0,0,0,12,1,2,1,2,6,0,0,0,0,0,0,0,0],"split_type":[0,0,0,0,0,0,0,0,0,0,0,0,0,0,0,0,0,0,0,0,0,0,0,0,0,0,0],"sum_hessian":[8.9E1,8.5E1,4E0,8.1E1,4E0,2E0,2E0,8E1,1E0,1E0,3E0,1E0,1E0,1.9E1,6.1E1,1.4E1,5E0,2.3E1,3.8E1,1E0,1.3E1,4E0,1E0,1.1E1,1.2E1,3.1E1,7E0],"tree_param":{"num_deleted":"0","num_feature":"15","num_nodes":"27","size_leaf_vector":"1"}},{"base_weights":[5.0451878E1,1.1367841E2,-9.421186E1,3.9112175E1,1.14395874E2,1.0614514E2,-7.6129474E2,8.245998E0,5.4940485E2,-7.941906E1,-3.587168E2,5.9900417E1,-6.6491064E2,-4.5197254E1,8.512256E2,-2.8924348E0,-4.073207E2,-1.7366984E0,2.6381342E1,-3.8763153E1,-5.587526E0,1.2332368E1,-2.0962883E1,4.6144173E1,5.1576385E0,-2.3313475E1,-4.2881403E0],"categories":[],"categories_nodes":[],"categories_segments":[],"categories_sizes":[],"default_left":[1,1,0,1,0,0,0,1,0,0,0,0,0,1,0,0,0,0,0,0,0,0,0,0,0,0,0],"id":36,"left_children":[1,3,-1,5,-1,7,9,11,13,-1,15,17,19,21,23,-1,25,-1,-1,-1,-1,-1,-1,-1,-1,-1,-1],"loss_changes":[1.1590301E7,1.4663875E7,0E0,4.8559825E6,0E0,3.597234E6,1.7609878E6,2.4390632E6,2.730422E6,0E0,6.4177188E4,2.8954218E6,2.185765E5,7.584139E5,4.408545E5,0E0,5.4788625E4,0E0,0E0,0E0,0E0,0E0,0E0,0E0,0E0,0E0,0E0],"parents":[2147483647,0,0,1,1,3,3,5,5,6,6,7,7,8,8,10,10,11,11,12,12,13,13,14,14,16,16],"right_children":[2,4,-1,6,-1,8,10,12,14,-1,16,18,20,22,24,-1,26,-1,-1,-1,-1,-1,-1,-1,-1,-1,-1],"split_conditions":[4.977552E4,4.110193E4,-9.421186E1,2.091595E4,1.14395874E2,7.962E0,2.133151E4,2.1614006E4,2.1133865E2,-7.941906E1,2.1150467E2,1.9822053E4,2.1735527E2,1.088784E4,2.167106E2,-2.8924348E0,3.214893E4,-1.7366984E0,2.6381342E1,-3.8763153E1,-5.587526E0,1.2332368E1,-2.0962883E1,4.6144173E1,5.1576385E0,-2.3313475E1,-4.2881403E0],"split_indices":[9,9,0,10,0,4,10,14,3,0,3,14,3,10,3,0,9,0,0,0,0,0,0,0,0,0,0],"split_type":[0,0,0,0,0,0,0,0,0,0,0,0,0,0,0,0,0,0,0,0,0,0,0,0,0,0,0],"sum_hessian":[9.2E1,9E1,2E0,8.8E1,2E0,8.2E1,6E0,6.8E1,1.4E1,1E0,5E0,6.4E1,4E0,5E0,9E0,1E0,4E0,5.4E1,1E1,3E0,1E0,3E0,2E0,8E0,1E0,3E0,1E0],"tree_param":{"num_deleted":"0","num_feature":"15","num_nodes":"27","size_leaf_vector":"1"}},{"base_weights":[7.933806E0,7.240622E1,-9.1071465E1,-5.788334E0,1.1058268E2,3.437221E1,-1.0881936E3,-3.6462038E0,5.120332E1,-7.7433586E1,-4.1809363E0,4.9343166E1,-2.8997139E1,-3.8501823E1,3.179768E-2],"categories":[],"categories_nodes":[],"categories_segments":[],"categories_sizes":[],"default_left":[1,1,0,1,0,0,0,0,0,0,0,0,0,0,0],"id":37,"left_children":[1,3,-1,5,-1,7,9,11,-1,-1,-1,-1,13,-1,-1],"loss_changes":[1.0392963E7,1.4231388E7,0E0,3.645412E6,0E0,3.0514888E6,1.2582558E6,2.0123332E6,0E0,0E0,0E0,0E0,1.7133141E6,0E0,0E0],"parents":[2147483647,0,0,1,1,3,3,5,5,6,6,7,7,12,12],"right_children":[2,4,-1,6,-1,8,10,12,-1,-1,-1,-1,14,-1,-1],"split_conditions":[4.977552E4,4.110193E4,-9.1071465E1,2.671902E4,1.1058268E2,2.133151E4,8.716E1,2E0,5.120332E1,-7.7433586E1,-4.1809363E0,4.9343166E1,7.3665E3,-3.8501823E1,3.179768E-2],"split_indices":[9,9,0,9,0,9,1,6,0,0,0,0,10,0,0],"split_type":[0,0,0,0,0,0,0,0,0,0,0,0,0,0,0],"sum_hessian":[8.6E1,8.4E1,2E0,8.2E1,2E0,8E1,2E0,7.8E1,2E0,1E0,1E0,1E0,7.7E1,2E0,7.5E1],"tree_param":{"num_deleted":"0","num_feature":"15","num_nodes":"15","size_leaf_vector":"1"}},{"base_weights":[-1.2580014E1,4.4561127E1,-8.803575E1,-2.571302E1,1.068966E2,2.1173168E1,-8.270128E2,-1.367738E1,9.899308E2,-7.549774E1,-2.7878864E2,4.810959E1,-3.702751E1,1.5135721E1,5.910909E1,-5.8846927E0,-1.9051825E1,-5.431335E-1,-3.655679E1],"categories":[],"categories_nodes":[],"categories_segments":[],"categories_sizes":[],"default_left":[1,1,0,1,0,0,0,0,0,0,0,0,0,0,0,0,0,0,0],"id":38,"left_children":[1,3,-1,5,-1,7,9,11,13,-1,15,-1,17,-1,-1,-1,-1,-1,-1],"loss_changes":[9.46816E6,1.3589077E7,0E0,3.398801E6,0E0,2.917049E6,1.4510682E6,1.949708E6,3.84905E4,0E0,2.104075E4,0E0,1.4994402E6,0E0,0E0,0E0,0E0,0E0,0E0],"parents":[2147483647,0,0,1,1,3,3,5,5,6,6,7,7,8,8,10,10,12,12],"right_children":[2,4,-1,6,-1,8,10,12,14,-1,16,-1,18,-1,-1,-1,-1,-1,-1],"split_conditions":[4.977552E4,4.110193E4,-8.803575E1,2.671902E4,1.068966E2,2.133151E4,3.064054E4,2E0,2.577E0,-7.549774E1,3.575E0,4.810959E1,5.2E1,1.5135721E1,5.910909E1,-5.8846927E0,-1.9051825E1,-5.431335E-1,-3.655679E1],"split_indices":[9,9,0,9,0,9,9,6,2,0,2,0,6,0,0,0,0,0,0],"split_type":[0,0,0,0,0,0,0,0,0,0,0,0,0,0,0,0,0,0,0],"sum_hessian":[9.3E1,9.1E1,2E0,8.9E1,2E0,8.5E1,4E0,8.3E1,2E0,1E0,3E0,1E0,8.2E1,1E0,1E0,2E0,1E0,8E1,2E0],"tree_param":{"num_deleted":"0","num_feature":"15","num_nodes":"19","size_leaf_vector":"1"}},{"base_weights":[7.396558E0,7.140935E1,-1.4667468E3,4.107315E0,1.0333337E2,-8.510123E1,-1.902284E1,5.114423E1,-8.057491E2,1.7891146E1,9.651825E2,-7.36103E1,-2.7108337E2,-3.720032E1,4.554726E1,1.4757327E1,5.763136E1,-5.6885366E0,-1.8575531E1,2.4711327E1,-4.8186722E-1],"categories":[],"categories_nodes":[],"categories_segments":[],"categories_sizes":[],"default_left":[1,1,0,1,0,0,0,0,0,0,0,0,0,0,0,0,0,0,0,0,0],"id":39,"left_children":[1,3,5,7,-1,-1,-1,9,11,13,15,-1,17,-1,19,-1,-1,-1,-1,-1,-1],"loss_changes":[9.069323E6,1.2345724E7,3.74773E5,3.4695925E6,0E0,0E0,0E0,2.5966665E6,1.3825672E6,1.8038621E6,3.659025E4,0E0,2.0926875E4,0E0,2.0350986E6,0E0,0E0,0E0,0E0,0E0,0E0],"parents":[2147483647,0,0,1,1,2,2,3,3,7,7,8,8,9,9,10,10,12,12,14,14],"right_children":[2,4,6,8,-1,-1,-1,10,12,14,16,-1,18,-1,20,-1,-1,-1,-1,-1,-1],"split_conditions":[3.5783008E4,4.110193E4,1E0,2.671902E4,1.0333337E2,-8.510123E1,-1.902284E1,2.133151E4,3.064054E4,7.3665E3,4.383E1,-7.36103E1,9.076E1,-3.720032E1,8.587254E3,1.4757327E1,5.763136E1,-5.6885366E0,-1.8575531E1,2.4711327E1,-4.8186722E-1],"split_indices":[12,9,0,9,0,0,0,9,9,10,1,0,1,0,13,0,0,0,0,0,0],"split_type":[0,0,0,0,0,0,0,0,0,0,0,0,0,0,0,0,0,0,0,0,0],"sum_hessian":[9.4E1,9.1E1,3E0,8.9E1,2E0,2E0,1E0,8.5E1,4E0,8.3E1,2E0,1E0,3E0,2E0,8.1E1,1E0,1E0,2E0,1E0,8E0,7.3E1],"tree_param":{"num_deleted":"0","num_feature":"15","num_nodes":"21","size_leaf_vector":"1"}},{"base_weights":[6.217589E0,6.244835E1,-8.226453E1,-5.789318E0,9.988894E1,3.9467686E1,-9.434248E2,5.5883837E0,9.410529E2,-7.177004E1,-3.009659E2,4.6918896E1,-1.7801208E1,1.4388394E1,5.619058E1,-4.4612975E0,-1.8111145E1,-5.978687E0,1.1980825E1],"categories":[],"categories_nodes":[],"categories_segments":[],"categories_sizes":[],"default_left":[1,1,0,1,0,0,0,0,0,0,0,0,0,0,0,0,0,0,0],"id":40,"left_children":[1,3,-1,5,-1,7,9,11,13,-1,15,-1,17,-1,-1,-1,-1,-1,-1],"loss_changes":[8.460646E6,1.1633059E7,0E0,3.686608E6,0E0,2.5299825E6,8.322905E5,1.783927E6,3.478375E4,0E0,6.5919688E3,0E0,2.1244958E6,0E0,0E0,0E0,0E0,0E0,0E0],"parents":[2147483647,0,0,1,1,3,3,5,5,6,6,7,7,8,8,10,10,12,12],"right_children":[2,4,-1,6,-1,8,10,12,14,-1,16,-1,18,-1,-1,-1,-1,-1,-1],"split_conditions":[4.977552E4,4.110193E4,-8.226453E1,2.671902E4,9.988894E1,2.133151E4,3.064054E4,2E0,4.383E1,-7.177004E1,8.683E1,4.6918896E1,1.9822053E4,1.4388394E1,5.619058E1,-4.4612975E0,-1.8111145E1,-5.978687E0,1.1980825E1],"split_indices":[9,9,0,9,0,9,9,6,1,0,1,0,14,0,0,0,0,0,0],"split_type":[0,0,0,0,0,0,0,0,0,0,0,0,0,0,0,0,0,0,0],"sum_hessian":[8.9E1,8.7E1,2E0,8.5E1,2E0,8.2E1,3E0,8E1,2E0,1E0,2E0,1E0,7.9E1,1E0,1E0,1E0,1E0,5.7E1,2.2E1],"tree_param":{"num_deleted":"0","num_feature":"15","num_nodes":"19","size_leaf_vector":"1"}},{"base_weights":[-2.4090607E1,3.7874645E1,-1.3813035E3,-2.8611511E1,9.655931E1,-7.952237E1,-1.884679E1,1.4194556E1,-9.096845E2,-3.0922018E2,1.2872568E2,-6.9975784E1,-2.7990228E2,1.2997578E2,-5.228433E2,1.6813942E2,-3.5122875E1,-3.3343034E0,-1.765837E1,-1.7179274E1,2.414148E1,-3.3081387E1,1.2110295E0,1.1143707E0,2.2936453E1],"categories":[],"categories_nodes":[],"categories_segments":[],"categories_sizes":[],"default_left":[1,1,0,1,0,0,0,0,0,0,0,0,0,0,0,0,0,0,0,0,0,0,0,0,0],"id":41,"left_children":[1,3,5,7,-1,-1,-1,9,11,13,15,-1,17,19,21,23,-1,-1,-1,-1,-1,-1,-1,-1,-1],"loss_changes":[7.7054195E6,1.1132606E7,2.407335E5,3.2564258E6,0E0,0E0,0E0,3.1142122E6,8.4222E5,2.1320502E6,2.149233E6,0E0,2.3312562E4,1.5026764E6,1.154884E6,2.5327608E6,0E0,0E0,0E0,0E0,0E0,0E0,0E0,0E0,0E0],"parents":[2147483647,0,0,1,1,2,2,3,3,7,7,8,8,9,9,10,10,12,12,13,13,14,14,15,15],"right_children":[2,4,6,8,-1,-1,-1,10,12,14,16,-1,18,20,22,24,-1,-1,-1,-1,-1,-1,-1,-1,-1],"split_conditions":[3.5783008E4,4.110193E4,1E0,2.671902E4,9.655931E1,-7.952237E1,-1.884679E1,8.85389E3,8.716E1,2.114561E2,5.2E1,-6.9975784E1,9.076E1,7.85788E3,1.042092E4,1.152347E4,-3.5122875E1,-3.3343034E0,-1.765837E1,-1.7179274E1,2.414148E1,-3.3081387E1,1.2110295E0,1.1143707E0,2.2936453E1],"split_indices":[12,9,0,9,0,0,0,10,1,3,6,0,1,10,9,10,0,0,0,0,0,0,0,0,0],"split_type":[0,0,0,0,0,0,0,0,0,0,0,0,0,0,0,0,0,0,0,0,0,0,0,0,0],"sum_hessian":[9E1,8.7E1,3E0,8.5E1,2E0,2E0,1E0,8.2E1,3E0,2.1E1,6.1E1,1E0,2E0,7E0,1.4E1,5.9E1,2E0,1E0,1E0,3E0,4E0,1.1E1,3E0,4E1,1.9E1],"tree_param":{"num_deleted":"0","num_feature":"15","num_nodes":"25","size_leaf_vector":"1"}},{"base_weights":[-1.2985812E1,4.873936E1,-1.3368306E3,-1.6772078E1,9.334066E1,-7.687163E1,-1.837562E1,2.8036625E1,-7.3035693E2,-5.9458566E0,9.022356E2,-6.8226395E1,-2.3068222E2,4.5172512E1,-2.9489315E1,1.3455274E1,5.42124E1,-3.900877E0,-1.7216908E1,-2.5547491E1,5.5209845E-1],"categories":[],"categories_nodes":[],"categories_segments":[],"categories_sizes":[],"default_left":[1,1,0,1,0,0,0,0,0,0,0,0,0,0,1,0,0,0,0,0,0],"id":42,"left_children":[1,3,5,7,-1,-1,-1,9,11,13,15,-1,17,-1,19,-1,-1,-1,-1,-1,-1],"loss_changes":[7.3377505E6,1.0274308E7,2.127625E5,2.7063608E6,0E0,0E0,0E0,2.3819605E6,1.2696238E6,1.6966478E6,5.393525E4,0E0,4.2540562E4,0E0,1.5082362E6,0E0,0E0,0E0,0E0,0E0,0E0],"parents":[2147483647,0,0,1,1,2,2,3,3,7,7,8,8,9,9,10,10,12,12,14,14],"right_children":[2,4,6,8,-1,-1,-1,10,12,14,16,-1,18,-1,20,-1,-1,-1,-1,-1,-1],"split_conditions":[3.5783008E4,4.110193E4,1E0,2.671902E4,9.334066E1,-7.687163E1,-1.837562E1,2.133151E4,3.064054E4,2E0,4.383E1,-6.8226395E1,9.076E1,4.5172512E1,7.54677E3,1.3455274E1,5.42124E1,-3.900877E0,-1.7216908E1,-2.5547491E1,5.5209845E-1],"split_indices":[12,9,0,9,0,0,0,9,9,6,1,0,1,0,12,0,0,0,0,0,0],"split_type":[0,0,0,0,0,0,0,0,0,0,0,0,0,0,0,0,0,0,0,0,0],"sum_hessian":[8.8E1,8.5E1,3E0,8.3E1,2E0,2E0,1E0,7.9E1,4E0,7.7E1,2E0,1E0,3E0,1E0,7.6E1,1E0,1E0,2E0,1E0,5E0,7.1E1],"tree_param":{"num_deleted":"0","num_feature":"15","num_nodes":"21","size_leaf_vector":"1"}},{"base_weights":[-3.378209E1,2.4538107E1,-1.2938008E3,-2.3002249E1,1.0282522E2,-7.4309235E1,-1.791623E1,4.4934303E1,-5.564585E1,2.257605E1,-5.268586E2,-3.7369213E1,7.804308E1,-7.833462E2,-1.1106689E1,-4.667479E-1,2.2757944E1,7.305913E0,-4.6850044E1,-4.66915E0,7.9499636E0],"categories":[],"categories_nodes":[],"categories_segments":[],"categories_sizes":[],"default_left":[1,1,0,0,0,0,0,0,1,0,1,0,0,0,0,0,0,0,0,0,0],"id":43,"left_children":[1,3,5,7,-1,-1,-1,-1,9,11,13,-1,15,17,19,-1,-1,-1,-1,-1,-1],"loss_changes":[6.6453565E6,8.45154E6,1.87346E5,2.6375095E6,0E0,0E0,0E0,0E0,3.1080635E6,3.175969E6,1.5787072E6,0E0,2.2779118E6,1.2794455E6,8.482628E4,0E0,0E0,0E0,0E0,0E0,0E0],"parents":[2147483647,0,0,1,1,2,2,3,3,8,8,9,9,10,10,12,12,13,13,14,14],"right_children":[2,4,6,8,-1,-1,-1,-1,10,12,14,-1,16,18,20,-1,-1,-1,-1,-1,-1],"split_conditions":[3.5783008E4,4.110193E4,1E0,7.50871E3,1.0282522E2,-7.4309235E1,-1.791623E1,4.4934303E1,1.318005E4,7.93901E3,1.60695E4,-3.7369213E1,1.152347E4,7.91986E3,2.1573323E2,-4.667479E-1,2.2757944E1,7.305913E0,-4.6850044E1,-4.66915E0,7.9499636E0],"split_indices":[12,9,0,11,0,0,0,0,10,11,11,0,10,11,3,0,0,0,0,0,0],"split_type":[0,0,0,0,0,0,0,0,0,0,0,0,0,0,0,0,0,0,0,0,0],"sum_hessian":[8.9E1,8.6E1,3E0,8.5E1,1E0,2E0,1E0,2E0,8.3E1,7.2E1,1.1E1,4E0,6.8E1,7E0,4E0,5.6E1,1.2E1,1E0,6E0,3E0,1E0],"tree_param":{"num_deleted":"0","num_feature":"15","num_nodes":"21","size_leaf_vector":"1"}},{"base_weights":[3.257608E1,-1.8968111E1,9.332386E2,3.2044537E1,-6.138351E2,-1.8063814E2,8.680179E1,6.8926287E0,5.173373E1,-6.534948E1,-2.8047778E2,1.2549942E1,-2.6097803E1,-4.676362E1,3.9252835E2,-3.9676118E0,-3.612025E2,5.6682507E1,-5.2061005E2,4.35078E1,7.328473E2,-2.2055706E1,-3.0366952E0,2.3873742E-1,5.206692E1,8.291968E0,-3.302477E1,-1.2461561E1,2.0966194E1,4.192735E1,7.7512145E0],"categories":[],"categories_nodes":[],"categories_segments":[],"categories_sizes":[],"default_left":[0,1,0,0,0,0,0,1,0,0,0,0,0,0,0,0,0,0,0,0,0,0,0,0,0,0,0,0,0,0,0],"id":44,"left_children":[1,3,5,7,9,11,-1,13,-1,-1,15,-1,-1,17,19,-1,21,23,25,27,29,-1,-1,-1,-1,-1,-1,-1,-1,-1,-1],"loss_changes":[4.2887025E6,2.6900952E6,4.7846795E6,2.0607494E6,1.250895E6,5.729866E5,0E0,1.6943891E6,0E0,0E0,6.875259E4,0E0,0E0,3.5587752E6,1.1558985E6,0E0,6.925306E4,3.0617045E6,1.3578505E6,7.646048E5,1.7538325E5,0E0,0E0,0E0,0E0,0E0,0E0,0E0,0E0,0E0,0E0],"parents":[2147483647,0,0,1,1,2,2,3,3,4,4,5,5,7,7,10,10,13,13,14,14,16,16,17,17,18,18,19,19,20,20],"right_children":[2,4,6,8,10,12,-1,14,-1,-1,16,-1,-1,18,20,-1,22,24,26,28,30,-1,-1,-1,-1,-1,-1,-1,-1,-1,-1],"split_conditions":[4.110193E4,2.091595E4,8.184E1,8.994E1,2.133151E4,4.383E1,8.680179E1,1.327587E4,5.173373E1,-6.534948E1,2.667E0,1.2549942E1,-2.6097803E1,1.152347E4,2.7335465E4,-3.9676118E0,3.214893E4,1.121978E4,1.1360612E4,3.01E0,3.473E0,-2.2055706E1,-3.0366952E0,2.3873742E-1,5.206692E1,8.291968E0,-3.302477E1,-1.2461561E1,2.0966194E1,4.192735E1,7.7512145E0],"split_indices":[9,10,1,1,10,1,0,11,0,0,2,0,0,11,13,0,9,11,13,2,2,0,0,0,0,0,0,0,0,0,0],"split_type":[0,0,0,0,0,0,0,0,0,0,0,0,0,0,0,0,0,0,0,0,0,0,0,0,0,0,0,0,0,0,0],"sum_hessian":[9.1E1,8.7E1,4E0,8.1E1,6E0,2E0,2E0,8E1,1E0,1E0,5E0,1E0,1E0,7.1E1,9E0,2E0,3E0,5.9E1,1.2E1,5E0,4E0,2E0,1E0,5.7E1,2E0,2E0,1E1,3E0,2E0,3E0,1E0],"tree_param":{"num_deleted":"0","num_feature":"15","num_nodes":"31","size_leaf_vector":"1"}},{"base_weights":[-3.2163074E1,1.6222477E1,-7.2844E1,-4.1272453E1,8.39084E1,1.5030013E1,-6.8687634E2,6.687268E1,-3.5974017E2,-4.9945908E1,-2.0311548E2,2.9255354E1,4.611597E1,7.4407897E0,-3.0288382E1,-3.4984696E0,-1.5063843E1,-3.1038527E0,1.4827662E1,-1.2415289E1,1.3035355E1],"categories":[],"categories_nodes":[],"categories_segments":[],"categories_sizes":[],"default_left":[1,1,0,1,0,0,0,0,0,0,0,0,0,0,0,0,0,0,0,0,0],"id":45,"left_children":[1,3,-1,5,-1,7,9,11,13,-1,15,17,-1,19,-1,-1,-1,-1,-1,-1,-1],"loss_changes":[6.2967845E6,8.573518E6,0E0,3.1726948E6,0E0,1.5978128E6,8.537795E5,2.2899498E6,9.078735E5,0E0,3.1199047E4,1.7273165E6,0E0,3.88595E5,0E0,0E0,0E0,0E0,0E0,0E0,0E0],"parents":[2147483647,0,0,1,1,3,3,5,5,6,6,7,7,8,8,10,10,11,11,13,13],"right_children":[2,4,-1,6,-1,8,10,12,14,-1,16,18,-1,20,-1,-1,-1,-1,-1,-1,-1],"split_conditions":[4.977552E4,4.110193E4,-7.2844E1,1.960447E4,8.39084E1,4.8E1,3.064054E4,4.7E1,1.017929E4,-4.9945908E1,3.575E0,1.152347E4,4.611597E1,2.1896185E2,-3.0288382E1,-3.4984696E0,-1.5063843E1,-3.1038527E0,1.4827662E1,-1.2415289E1,1.3035355E1],"split_indices":[9,9,0,9,0,6,9,6,10,0,2,10,0,3,0,0,0,0,0,0,0],"split_type":[0,0,0,0,0,0,0,0,0,0,0,0,0,0,0,0,0,0,0,0,0],"sum_hessian":[9E1,8.8E1,2E0,8.6E1,2E0,8E1,6E0,7.1E1,9E0,3E0,3E0,6.9E1,2E0,4E0,5E0,2E0,1E0,5.2E1,1.7E1,2E0,2E0],"tree_param":{"num_deleted":"0","num_feature":"15","num_nodes":"21","size_leaf_vector":"1"}},{"base_weights":[1.6592478E1,7.105315E1,-1.2129208E3,9.0187675E-1,1.0530206E3,-2.6195026E1,-8.1999535E1,4.902755E1,-7.789144E2,4.4665894E1,7.7301575E1,-2.4838986E2,1.4417789E2,-2.199466E0,-9.516483E2,7.1867433E0,-3.8368013E0,-6.0252545E2,3.7911015E1,9.8932915E1,5.0050896E1,-6.246709E1,-2.1798498E1,1.2505751E1,-3.7018497E1,1.1217167E1,-2.9808353E1,1.9021856E1,1.0315548E0],"categories":[],"categories_nodes":[],"categories_segments":[],"categories_sizes":[],"default_left":[1,1,0,1,0,0,0,0,0,0,0,0,0,0,0,0,0,0,0,1,0,0,0,0,0,0,0,0,0],"id":46,"left_children":[1,3,5,7,9,-1,-1,11,13,15,-1,17,19,-1,21,-1,-1,23,25,27,-1,-1,-1,-1,-1,-1,-1,-1,-1],"loss_changes":[6.3134725E6,6.198814E6,3.17847E5,3.2281688E6,2.9137245E6,0E0,0E0,2.3280608E6,5.9287E5,4.7111133E4,0E0,2.0506291E6,2.3045632E6,0E0,6.938075E4,0E0,0E0,1.2429635E6,1.5522979E6,1.3146888E6,0E0,0E0,0E0,0E0,0E0,0E0,0E0,0E0,0E0],"parents":[2147483647,0,0,1,1,2,2,3,3,4,4,7,7,8,8,9,9,11,11,12,12,14,14,17,17,18,18,19,19],"right_children":[2,4,6,8,10,-1,-1,12,14,16,-1,18,20,-1,22,-1,-1,24,26,28,-1,-1,-1,-1,-1,-1,-1,-1,-1],"split_conditions":[3.5783008E4,2.984436E4,8.184E1,1.693062E4,8.043E1,-2.6195026E1,-8.1999535E1,8.46872E3,8.683E1,1E0,7.7301575E1,8.091E1,8.665E1,-2.199466E0,8.716E1,7.1867433E0,-3.8368013E0,2.1101804E2,8.583E1,9.1892E3,5.0050896E1,-6.246709E1,-2.1798498E1,1.2505751E1,-3.7018497E1,1.1217167E1,-2.9808353E1,1.9021856E1,1.0315548E0],"split_indices":[12,12,1,10,1,0,0,10,1,0,0,1,1,0,1,0,0,3,1,10,0,0,0,0,0,0,0,0,0],"split_type":[0,0,0,0,0,0,0,0,0,0,0,0,0,0,0,0,0,0,0,0,0,0,0,0,0,0,0,0,0],"sum_hessian":[9.2E1,8.9E1,3E0,8.4E1,5E0,2E0,1E0,8E1,4E0,2E0,3E0,1.9E1,6.1E1,1E0,3E0,1E0,1E0,8E0,1.1E1,5.9E1,2E0,1E0,2E0,1E0,7E0,9E0,2E0,1.2E1,4.7E1],"tree_param":{"num_deleted":"0","num_feature":"15","num_nodes":"29","size_leaf_vector":"1"}},{"base_weights":[-1.7718012E1,2.813953E1,-6.8612625E1,-2.537547E1,1.5706947E3,7.581765E2,-6.238538E1,9.40543E1,2.3747803E1,4.3526773E0,4.764332E1,-1.8083858E1,-7.587326E2,4.17761E1,-3.946522E1,-6.0905407E1,-3.393617E2,-3.5415292E0,2.194541E1,-2.1071878E1,-2.328354E0],"categories":[],"categories_nodes":[],"categories_segments":[],"categories_sizes":[],"default_left":[1,1,0,0,0,0,0,0,0,0,0,0,0,0,1,0,0,0,0,0,0],"id":47,"left_children":[1,3,-1,5,7,9,11,-1,-1,-1,-1,13,15,-1,17,-1,19,-1,-1,-1,-1],"loss_changes":[5.6911355E6,7.386793E6,0E0,2.5702285E6,1.268895E5,4.39693E5,2.5776155E6,0E0,0E0,0E0,0E0,1.4930745E6,5.498645E5,0E0,1.2164321E6,0E0,7.650034E4,0E0,0E0,0E0,0E0],"parents":[2147483647,0,0,1,1,3,3,4,4,5,5,6,6,11,11,12,12,14,14,16,16],"right_children":[2,4,-1,6,8,10,12,-1,-1,-1,-1,14,16,-1,18,-1,20,-1,-1,-1,-1],"split_conditions":[4.977552E4,4.110193E4,-6.8612625E1,7.85788E3,8.555E1,7.50871E3,8.7E1,9.40543E1,2.3747803E1,4.3526773E0,4.764332E1,2E0,8.716E1,4.17761E1,4.110193E4,-6.0905407E1,2.1562796E2,-3.5415292E0,2.194541E1,-2.1071878E1,-2.328354E0],"split_indices":[9,9,0,11,1,10,1,0,0,0,0,6,1,0,11,0,3,0,0,0,0],"split_type":[0,0,0,0,0,0,0,0,0,0,0,0,0,0,0,0,0,0,0,0,0],"sum_hessian":[9E1,8.8E1,2E0,8.6E1,2E0,3E0,8.3E1,1E0,1E0,1E0,2E0,7.9E1,4E0,1E0,7.8E1,1E0,3E0,7.4E1,4E0,2E0,1E0],"tree_param":{"num_deleted":"0","num_feature":"15","num_nodes":"21","size_leaf_vector":"1"}},{"base_weights":[-2.8856888E0,7.282059E1,-1.0370571E3,3.890547E1,4.7647503E1,-1.3967295E3,-2.118084E2,5.3042505E2,-9.3483144E-1,-2.0559418E0,-9.1744675E1,-2.2701447E0,-1.3615485E1,3.0377188E1,3.6207855E0,-4.2377997E2,1.0305881E2,-6.818627E2,7.6987854E1,1.2683482E2,-3.3087555E1,-2.5032175E0,-3.732499E1,1.4784406E1,-2.5412836E1,7.549569E0,-3.2460052E1],"categories":[],"categories_nodes":[],"categories_segments":[],"categories_sizes":[],"default_left":[1,0,0,1,0,0,0,0,0,0,0,0,0,0,0,0,0,0,0,1,0,0,0,0,0,0,0],"id":48,"left_children":[1,3,5,7,-1,9,11,13,15,-1,-1,-1,-1,-1,-1,17,19,21,23,25,-1,-1,-1,-1,-1,-1,-1],"loss_changes":[6.8870335E6,2.4105998E6,1.485076E6,1.567079E6,0E0,2.30047E6,1.7839594E4,1.67931E5,3.3416645E6,0E0,0E0,0E0,0E0,0E0,0E0,1.9910882E6,1.1931652E6,3.710035E5,9.182444E5,1.2228052E6,0E0,0E0,0E0,0E0,0E0,0E0,0E0],"parents":[2147483647,0,0,1,1,2,2,3,3,5,5,6,6,7,7,8,8,15,15,16,16,17,17,18,18,19,19],"right_children":[2,4,6,8,-1,10,12,14,16,-1,-1,-1,-1,-1,-1,18,20,22,24,26,-1,-1,-1,-1,-1,-1,-1],"split_conditions":[2.671902E4,8.665E1,8.796E1,7.85788E3,4.7647503E1,8.683E1,9.076E1,8.577E1,8.46872E3,-2.0559418E0,-9.1744675E1,-2.2701447E0,-1.3615485E1,3.0377188E1,3.6207855E0,8.315E1,5.2E1,3.639E1,8.583E1,2.2228473E4,-3.3087555E1,-2.5032175E0,-3.732499E1,1.4784406E1,-2.5412836E1,7.549569E0,-3.2460052E1],"split_indices":[9,1,1,9,0,1,1,1,10,0,0,0,0,0,0,1,6,1,1,14,0,0,0,0,0,0,0],"split_type":[0,0,0,0,0,0,0,0,0,0,0,0,0,0,0,0,0,0,0,0,0,0,0,0,0,0,0],"sum_hessian":[8.6E1,8.1E1,5E0,7.9E1,2E0,3E0,2E0,5E0,7.4E1,1E0,2E0,1E0,1E0,4E0,1E0,1.4E1,6E1,9E0,5E0,5.9E1,1E0,1E0,8E0,4E0,1E0,5.8E1,1E0],"tree_param":{"num_deleted":"0","num_feature":"15","num_nodes":"27","size_leaf_vector":"1"}},{"base_weights":[6.93961E1,1.8716387E1,1.5328691E3,-3.1629615E0,4.8055492E1,9.1754326E1,2.3210865E1,4.0542957E1,-2.2056929E1,2.6914276E1,-4.879564E1,-5.265873E2,-4.726325E0,-3.2662827E1,5.8357043E0,1.0126117E0,-3.1380741E1],"categories":[],"categories_nodes":[],"categories_segments":[],"categories_sizes":[],"default_left":[1,0,0,0,0,0,0,0,1,0,1,0,0,0,0,0,0],"id":49,"left_children":[1,3,5,7,-1,-1,-1,-1,9,-1,11,13,15,-1,-1,-1,-1],"loss_changes":[6.6464665E6,1.8175081E6,1.170165E5,1.3559544E6,0E0,0E0,0E0,0E0,1.3147895E6,0E0,1.745155E6,6.466494E5,1.2107426E6,0E0,0E0,0E0,0E0],"parents":[2147483647,0,0,1,1,2,2,3,3,8,8,10,10,11,11,12,12],"right_children":[2,4,6,8,-1,-1,-1,-1,10,-1,12,14,16,-1,-1,-1,-1],"split_conditions":[4.110193E4,9.165E1,8.555E1,2E0,4.8055492E1,9.1754326E1,2.3210865E1,4.0542957E1,7.3665E3,2.6914276E1,7.6907075E3,1E0,5.2E1,-3.2662827E1,5.8357043E0,1.0126117E0,-3.1380741E1],"split_indices":[9,1,1,6,0,0,0,0,9,0,12,0,6,0,0,0,0],"split_type":[0,0,0,0,0,0,0,0,0,0,0,0,0,0,0,0,0],"sum_hessian":[8.9E1,8.7E1,2E0,8.6E1,1E0,1E0,1E0,1E0,8.5E1,3E0,8.2E1,6E0,7.6E1,5E0,1E0,7.4E1,2E0],"tree_param":{"num_deleted":"0","num_feature":"15","num_nodes":"17","size_leaf_vector":"1"}},{"base_weights":[-6.43973E-1,3.226131E1,-7.652089E1,-2.5086584E1,7.4040497E2,1.0826791E1,-7.729958E2,-1.2760936E2,7.116591E1,-1.1623059E1,4.6854107E1,-2.0298584E0,-5.0179817E1,6.244385E0,-2.5340428E2,3.9529385E1,-3.1047428E1,-1.5138923E1,-3.8663986E0,-5.0081296E0,8.724265E0],"categories":[],"categories_nodes":[],"categories_segments":[],"categories_sizes":[],"default_left":[1,1,0,1,0,0,0,0,0,0,0,0,0,0,0,0,0,0,0,0,0],"id":50,"left_children":[1,3,-1,5,7,9,11,13,-1,15,-1,-1,-1,-1,17,-1,19,-1,-1,-1,-1],"loss_changes":[4.7811115E6,3.795355E6,0E0,2.3451842E6,4.331077E6,1.7576124E6,6.34823E5,1.5869847E5,0E0,1.3178881E6,0E0,0E0,0E0,0E0,2.667625E3,0E0,1.182322E6,0E0,0E0,0E0,0E0],"parents":[2147483647,0,0,1,1,3,3,4,4,5,5,6,6,7,7,9,9,14,14,16,16],"right_children":[2,4,-1,6,8,10,12,14,-1,16,-1,-1,-1,-1,18,-1,20,-1,-1,-1,-1],"split_conditions":[3.8694137E4,2.984436E4,-7.652089E1,1.693062E4,8.043E1,8.994E1,8.683E1,1E0,7.116591E1,2E0,4.6854107E1,-2.0298584E0,-5.0179817E1,6.244385E0,7.644E1,3.9529385E1,2.1542227E2,-1.5138923E1,-3.8663986E0,-5.0081296E0,8.724265E0],"split_indices":[12,12,0,10,1,1,1,0,0,6,0,0,0,0,1,0,3,0,0,0,0],"split_type":[0,0,0,0,0,0,0,0,0,0,0,0,0,0,0,0,0,0,0,0,0],"sum_hessian":[9.3E1,9.2E1,1E0,8.6E1,6E0,8.3E1,3E0,3E0,3E0,8.2E1,1E0,1E0,2E0,1E0,2E0,1E0,8.1E1,1E0,1E0,6.1E1,2E1],"tree_param":{"num_deleted":"0","num_feature":"15","num_nodes":"21","size_leaf_vector":"1"}},{"base_weights":[1.192178E0,4.512323E1,-6.658902E1,-2.6415358E0,1.4471035E3,1.2743962E2,-2.0697931E2,8.768133E1,2.085144E1,1.6665997E2,-3.0396652E1,-3.6568323E2,1.2767676E2,5.487831E1,5.4400745E2,2.580433E1,-4.2645956E2,7.384608E2,-4.1409198E2,2.3688446E1,-1.4048519E0,3.648875E1,-1.2827666E1,-1.7214025E1,-5.5859985E1,4.274443E1,3.9080436E0,-3.2762123E1,-3.4709268E0],"categories":[],"categories_nodes":[],"categories_segments":[],"categories_sizes":[],"default_left":[1,1,0,1,0,0,0,0,0,1,0,0,0,1,0,0,0,0,0,0,0,0,0,0,0,0,0,0,0],"id":51,"left_children":[1,3,-1,5,7,9,11,-1,-1,13,-1,15,17,19,21,-1,23,25,27,-1,-1,-1,-1,-1,-1,-1,-1,-1,-1],"loss_changes":[5.506071E6,6.0976615E6,0E0,2.3920415E6,2.159115E5,1.6876048E6,1.9055819E6,0E0,0E0,2.2057138E6,0E0,1.506268E6,4.276635E6,1.4731305E6,1.9718448E6,0E0,9.20951E5,3.9444475E5,5.3634125E5,0E0,0E0,0E0,0E0,0E0,0E0,0E0,0E0,0E0,0E0],"parents":[2147483647,0,0,1,1,3,3,4,4,5,5,6,6,9,9,11,11,12,12,13,13,14,14,16,16,17,17,18,18],"right_children":[2,4,-1,6,8,10,12,-1,-1,14,-1,16,18,20,22,-1,24,26,28,-1,-1,-1,-1,-1,-1,-1,-1,-1,-1],"split_conditions":[4.977552E4,4.110193E4,-6.658902E1,1.0971499E4,8.555E1,5.2E1,3.353E0,8.768133E1,2.085144E1,1.0161E4,-3.0396652E1,3.851E1,3.473E0,7.85788E3,1.1262932E4,2.580433E1,8.683E1,7.6E1,7.644E1,2.3688446E1,-1.4048519E0,3.648875E1,-1.2827666E1,-1.7214025E1,-5.5859985E1,4.274443E1,3.9080436E0,-3.2762123E1,-3.4709268E0],"split_indices":[9,9,0,14,1,6,2,0,0,13,0,1,2,9,13,0,1,1,1,0,0,0,0,0,0,0,0,0,0],"split_type":[0,0,0,0,0,0,0,0,0,0,0,0,0,0,0,0,0,0,0,0,0,0,0,0,0,0,0,0,0],"sum_hessian":[9.2E1,9E1,2E0,8.8E1,2E0,5.4E1,3.4E1,1E0,1E0,5.2E1,2E0,2.3E1,1.1E1,4.1E1,1.1E1,1E0,2.2E1,5E0,6E0,6E0,3.5E1,9E0,2E0,2.1E1,1E0,4E0,1E0,3E0,3E0],"tree_param":{"num_deleted":"0","num_feature":"15","num_nodes":"29","size_leaf_vector":"1"}},{"base_weights":[-7.524762E0,3.4291695E1,-6.436939E1,-2.0806858E1,7.0631793E2,9.561225E1,-2.2025198E2,-1.1105736E2,1.3471138E3,-5.578993E1,3.0868442E2,-3.2597015E2,8.6135574E1,6.175049E0,-2.3041046E2,7.625415E1,2.0330153E1,-2.7190588E2,2.5693213E2,1.01466125E2,7.6783105E2,-1.3040303E2,-7.00804E2,-2.0500385E2,3.6004788E2,-1.3941398E1,-3.3393877E0,-2.399537E0,-2.701238E1,-2.9167612E1,2.2279612E1,3.1718542E1,-5.5651155E0,1.2173435E1,4.644411E1,-2.5094866E1,1.2779024E1,-4.145671E1,-1.8259514E1,-1.4492892E1,-2.590761E0,2.8062056E1,1.9419364E0],"categories":[],"categories_nodes":[],"categories_segments":[],"categories_sizes":[],"default_left":[1,1,0,1,0,1,0,0,0,0,0,0,0,0,0,0,0,1,0,0,0,0,0,0,0,0,0,0,0,0,0,0,0,0,0,0,0,0,0,0,0,0,0],"id":52,"left_children":[1,3,-1,5,7,9,11,13,15,17,19,21,23,-1,25,-1,-1,27,29,31,33,35,37,39,41,-1,-1,-1,-1,-1,-1,-1,-1,-1,-1,-1,-1,-1,-1,-1,-1,-1,-1],"loss_changes":[5.0749645E6,3.4212422E6,0E0,2.017912E6,3.8160015E6,1.7914989E6,1.064581E6,1.4043697E5,4.94245E4,2.3001408E6,2.1103935E6,1.6679375E6,7.9153125E5,0E0,5.1443125E3,0E0,0E0,1.1757884E6,2.479331E6,1.9981571E6,3.649905E5,2.5659162E6,4.1763E4,4.9974312E4,3.013275E5,0E0,0E0,0E0,0E0,0E0,0E0,0E0,0E0,0E0,0E0,0E0,0E0,0E0,0E0,0E0,0E0,0E0,0E0],"parents":[2147483647,0,0,1,1,3,3,4,4,5,5,6,6,7,7,8,8,9,9,10,10,11,11,12,12,14,14,17,17,18,18,19,19,20,20,21,21,22,22,23,23,24,24],"right_children":[2,4,-1,6,8,10,12,14,16,18,20,22,24,-1,26,-1,-1,28,30,32,34,36,38,40,42,-1,-1,-1,-1,-1,-1,-1,-1,-1,-1,-1,-1,-1,-1,-1,-1,-1,-1],"split_conditions":[3.7405164E4,2.984436E4,-6.436939E1,1.0971499E4,8.043E1,9.28309E3,1.327587E4,1E0,8.555E1,8.315E1,2.1163942E2,1.152347E4,3.01E0,6.175049E0,7.644E1,7.625415E1,2.0330153E1,8.73246E3,7.54677E3,1.1E1,9.913719E3,1.1030497E4,1.1663117E4,7.203E1,7.6E1,-1.3941398E1,-3.3393877E0,-2.399537E0,-2.701238E1,-2.9167612E1,2.2279612E1,3.1718542E1,-5.5651155E0,1.2173435E1,4.644411E1,-2.5094866E1,1.2779024E1,-4.145671E1,-1.8259514E1,-1.4492892E1,-2.590761E0,2.8062056E1,1.9419364E0],"split_indices":[12,12,0,14,1,11,11,0,1,1,3,11,2,0,1,0,0,11,12,6,14,13,12,1,1,0,0,0,0,0,0,0,0,0,0,0,0,0,0,0,0,0,0],"split_type":[0,0,0,0,0,0,0,0,0,0,0,0,0,0,0,0,0,0,0,0,0,0,0,0,0,0,0,0,0,0,0,0,0,0,0,0,0,0,0,0,0,0,0],"sum_hessian":[9.3E1,9.1E1,2E0,8.5E1,6E0,5.4E1,3.1E1,3E0,3E0,3.2E1,2.2E1,2.3E1,8E0,1E0,2E0,2E0,1E0,1.9E1,1.3E1,1.6E1,6E0,1.6E1,7E0,4E0,4E0,1E0,1E0,1.1E1,8E0,2E0,1.1E1,4E0,1.2E1,2E0,4E0,8E0,8E0,4E0,3E0,2E0,2E0,2E0,2E0],"tree_param":{"num_deleted":"0","num_feature":"15","num_nodes":"43","size_leaf_vector":"1"}},{"base_weights":[-3.1009987E1,9.335115E0,-6.2223736E1,-3.6929188E1,1.3787311E3,1.08491806E2,-2.8699185E2,8.358294E1,1.98219E1,-4.300471E2,1.5725035E2,-5.3056915E2,-2.6532635E1,9.449683E0,-3.1602783E1,5.289175E2,7.942247E1,-6.248739E2,2.445767E1,5.579383E2,-1.9162914E2,1.5578509E1,4.2987766E1,-8.319023E0,1.5071628E1,-3.695589E1,-4.8681426E0,3.2942535E1,6.380025E0,-2.031313E1,1.3798179E1],"categories":[],"categories_nodes":[],"categories_segments":[],"categories_sizes":[],"default_left":[1,1,0,1,0,0,0,0,0,0,0,0,0,0,0,0,1,0,0,0,0,0,0,0,0,0,0,0,0,0,0],"id":53,"left_children":[1,3,-1,5,7,9,11,-1,-1,13,15,17,19,-1,-1,21,23,25,-1,27,29,-1,-1,-1,-1,-1,-1,-1,-1,-1,-1],"loss_changes":[4.564652E6,5.8161435E6,0E0,3.2675645E6,2.00513E5,1.564352E6,2.079507E6,0E0,0E0,7.447124E5,1.4910731E6,1.9404585E6,1.7473171E6,0E0,0E0,3.792865E5,2.5058352E6,8.92276E5,0E0,8.9636125E4,1.517168E6,0E0,0E0,0E0,0E0,0E0,0E0,0E0,0E0,0E0,0E0],"parents":[2147483647,0,0,1,1,3,3,4,4,5,5,6,6,9,9,10,10,11,11,12,12,15,15,16,16,17,17,19,19,20,20],"right_children":[2,4,-1,6,8,10,12,-1,-1,14,16,18,20,-1,-1,22,24,26,-1,28,30,-1,-1,-1,-1,-1,-1,-1,-1,-1,-1],"split_conditions":[4.977552E4,4.110193E4,-6.2223736E1,1.0971499E4,8.555E1,8.42242E3,1.8369059E4,8.358294E1,1.98219E1,2.624E0,8.09792E3,1E0,9.82522E3,9.449683E0,-3.1602783E1,8.665E1,9.28309E3,1.580815E4,2.445767E1,6.986E1,7.969E1,1.5578509E1,4.2987766E1,-8.319023E0,1.5071628E1,-3.695589E1,-4.8681426E0,3.2942535E1,6.380025E0,-2.031313E1,1.3798179E1],"split_indices":[9,9,0,14,1,14,14,0,0,2,11,0,11,0,0,1,11,11,0,1,1,0,0,0,0,0,0,0,0,0,0],"split_type":[0,0,0,0,0,0,0,0,0,0,0,0,0,0,0,0,0,0,0,0,0,0,0,0,0,0,0,0,0,0,0],"sum_hessian":[9.2E1,9E1,2E0,8.8E1,2E0,5.6E1,3.2E1,1E0,1E0,4E0,5.2E1,1.6E1,1.6E1,1E0,3E0,8E0,4.4E1,1.5E1,1E0,3E0,1.3E1,6E0,2E0,2.1E1,2.3E1,1.2E1,3E0,2E0,1E0,9E0,4E0],"tree_param":{"num_deleted":"0","num_feature":"15","num_nodes":"31","size_leaf_vector":"1"}},{"base_weights":[-7.042559E1,-5.312196E0,-7.534522E2,-7.5507645E1,4.2800244E2,-1.401822E3,-8.406594E1,-6.6132874E2,-1.4092127E1,1.7057227E2,8.149336E1,-1.6929073E1,-8.2168755E1,1.9326344E1,-2.9834586E2,-4.0042854E1,4.396026E0,1.24882484E2,-2.0529532E2,-2.2281357E1,2.767549E2,-8.242828E-1,-1.9340202E1,6.026708E1,6.913544E2,-3.1721188E2,1.2813715E2,1.4340576E1,3.4056595E2,-4.327309E0,1.6898218E1,6.1181E0,4.2011562E1,2.3846228E1,-1.888693E1,-1.2984273E1,2.9044056E1,-1.0159463E0,2.0914896E0,1.9850136E1,-1.3622864E0],"categories":[],"categories_nodes":[],"categories_segments":[],"categories_sizes":[],"default_left":[0,0,0,0,0,0,0,0,1,0,0,0,0,0,0,0,0,0,0,0,0,0,0,0,0,0,0,0,0,0,0,0,0,0,0,0,0,0,0,0,0],"id":54,"left_children":[1,3,5,7,9,11,13,15,17,19,-1,-1,-1,-1,21,-1,-1,23,25,-1,27,-1,-1,29,31,33,35,37,39,-1,-1,-1,-1,-1,-1,-1,-1,-1,-1,-1,-1],"loss_changes":[4.0876222E6,2.6177385E6,3.354233E6,2.6530902E6,3.4347448E6,4.708995E5,6.1951156E5,8.02202E5,1.8325602E6,8.430561E5,0E0,0E0,0E0,0E0,9.335466E4,0E0,0E0,1.4224465E6,1.1228285E6,0E0,1.6256531E5,0E0,0E0,1.5377262E6,2.3602675E5,1.237615E6,1.555521E6,3.7082234E3,1.768815E5,0E0,0E0,0E0,0E0,0E0,0E0,0E0,0E0,0E0,0E0,0E0,0E0],"parents":[2147483647,0,0,1,1,2,2,3,3,4,4,5,5,6,6,7,7,8,8,9,9,14,14,17,17,18,18,20,20,23,23,24,24,25,25,26,26,27,27,28,28],"right_children":[2,4,6,8,10,12,14,16,18,20,-1,-1,-1,-1,22,-1,-1,24,26,-1,28,-1,-1,30,32,34,36,38,40,-1,-1,-1,-1,-1,-1,-1,-1,-1,-1,-1,-1],"split_conditions":[8.7E1,8.315E1,8.796E1,8.20106E3,3.4E1,2.633E0,8.854E1,3.651E0,1.068997E4,6.59122E3,8.149336E1,-1.6929073E1,-8.2168755E1,1.9326344E1,3.575E0,-4.0042854E1,4.396026E0,1E0,2.1752547E4,-2.2281357E1,7.742E0,-8.242828E-1,-1.9340202E1,3.353E0,3.993E1,3.851E1,2.1133865E2,8.411E1,3.1E1,-4.327309E0,1.6898218E1,6.1181E0,4.2011562E1,2.3846228E1,-1.888693E1,-1.2984273E1,2.9044056E1,-1.0159463E0,2.0914896E0,1.9850136E1,-1.3622864E0],"split_indices":[1,1,1,10,6,2,1,2,10,10,0,0,0,0,2,0,0,0,14,0,4,0,0,2,1,1,3,1,6,0,0,0,0,0,0,0,0,0,0,0,0],"split_type":[0,0,0,0,0,0,0,0,0,0,0,0,0,0,0,0,0,0,0,0,0,0,0,0,0,0,0,0,0,0,0,0,0,0,0,0,0,0,0,0,0],"sum_hessian":[9.1E1,8.4E1,7E0,7.3E1,1.1E1,3E0,4E0,6E0,6.7E1,1E1,1E0,1E0,2E0,1E0,3E0,5E0,1E0,3.9E1,2.8E1,1E0,9E0,1E0,2E0,3.6E1,3E0,2.1E1,7E0,2E0,7E0,2.4E1,1.2E1,1E0,2E0,1E0,2E1,4E0,3E0,1E0,1E0,6E0,1E0],"tree_param":{"num_deleted":"0","num_feature":"15","num_nodes":"41","size_leaf_vector":"1"}},{"base_weights":[-2.7453531E1,2.01361E0,-6.772408E1,-4.2120564E1,1.3106562E3,1.5189484E2,-2.0360037E2,7.945603E1,1.884319E1,3.8634594E1,8.061405E2,-2.6359094E2,3.7703473E2,-2.644824E1,8.758058E1,2.0183683E1,5.3702473E1,-3.536512E2,1.3594476E2,-2.1453922E0,4.9274734E2,1.9362104E1,-1.7893618E0,1.344563E1,-1.9845476E1,-1.7568138E1,2.190795E1,2.875123E1,6.1478915E0],"categories":[],"categories_nodes":[],"categories_segments":[],"categories_sizes":[],"default_left":[1,1,0,1,0,1,0,0,0,0,0,0,0,0,1,0,0,0,0,0,0,0,0,0,0,0,0,0,0],"id":55,"left_children":[1,3,-1,5,7,9,11,-1,-1,13,15,17,19,-1,21,-1,-1,23,25,-1,27,-1,-1,-1,-1,-1,-1,-1,-1],"loss_changes":[3.6002702E6,5.310989E6,0E0,2.8192575E6,1.812015E5,3.006956E6,1.8061816E6,0E0,0E0,1.0464686E6,2.13381E5,1.6672808E6,2.6410606E5,0E0,1.2707902E6,0E0,0E0,1.1031825E6,1.4793942E6,0E0,5.099725E4,0E0,0E0,0E0,0E0,0E0,0E0,0E0,0E0],"parents":[2147483647,0,0,1,1,3,3,4,4,5,5,6,6,9,9,10,10,11,11,12,12,14,14,17,17,18,18,20,20],"right_children":[2,4,-1,6,8,10,12,-1,-1,14,16,18,20,-1,22,-1,-1,24,26,-1,28,-1,-1,-1,-1,-1,-1,-1,-1],"split_conditions":[4.977552E4,4.110193E4,-6.772408E1,1.0113206E4,8.555E1,1.0433207E4,4.110193E4,7.945603E1,1.884319E1,7.54677E3,2.826E0,2.1751598E2,1.227558E4,-2.644824E1,8.00141E3,2.0183683E1,5.3702473E1,3.851E1,9.73573E3,-2.1453922E0,3.473E0,1.9362104E1,-1.7893618E0,1.344563E1,-1.9845476E1,-1.7568138E1,2.190795E1,2.875123E1,6.1478915E0],"split_indices":[9,9,0,14,1,13,11,0,0,12,2,3,10,0,9,0,0,1,9,0,2,0,0,0,0,0,0,0,0],"split_type":[0,0,0,0,0,0,0,0,0,0,0,0,0,0,0,0,0,0,0,0,0,0,0,0,0,0,0,0,0],"sum_hessian":[9.1E1,9E1,1E0,8.8E1,2E0,4E1,4.8E1,1E0,1E0,3.5E1,5E0,4.4E1,4E0,2E0,3.3E1,3E0,2E0,3.6E1,8E0,1E0,3E0,9E0,2.4E1,2E0,3.4E1,3E0,5E0,2E0,1E0],"tree_param":{"num_deleted":"0","num_feature":"15","num_nodes":"29","size_leaf_vector":"1"}},{"base_weights":[9.52713E0,4.522742E1,-5.6207886E1,4.9777946E0,1.27789E3,3.8796955E1,-4.9186618E2,7.746963E1,1.837212E1,1.980391E1,4.2279797E1,-5.092445E1,-1.8284381E2,4.142655E1,-2.9971945E1,-2.2547937E2,-3.0753937E-1,-4.3397274E-2,3.5915604E1,-8.320923E-1,-1.4477229E1],"categories":[],"categories_nodes":[],"categories_segments":[],"categories_sizes":[],"default_left":[1,1,0,1,0,0,0,0,0,0,0,0,0,0,0,0,0,0,0,0,0],"id":56,"left_children":[1,3,-1,5,7,9,11,-1,-1,13,-1,-1,15,17,-1,19,-1,-1,-1,-1,-1],"loss_changes":[3.9767118E6,4.7069885E6,0E0,1.5817475E6,1.72254E5,1.3317281E6,7.90205E5,0E0,0E0,1.1897336E6,0E0,0E0,3.6280156E4,2.4340488E6,0E0,4.869836E4,0E0,0E0,0E0,0E0,0E0],"parents":[2147483647,0,0,1,1,3,3,4,4,5,5,6,6,9,9,12,12,13,13,15,15],"right_children":[2,4,-1,6,8,10,12,-1,-1,14,-1,-1,16,18,-1,20,-1,-1,-1,-1,-1],"split_conditions":[4.977552E4,4.110193E4,-5.6207886E1,2.091595E4,8.555E1,8.994E1,2.133151E4,7.746963E1,1.837212E1,5.2E1,4.2279797E1,-5.092445E1,3.214893E4,1E0,-2.9971945E1,2.667E0,-3.0753937E-1,-4.3397274E-2,3.5915604E1,-8.320923E-1,-1.4477229E1],"split_indices":[9,9,0,10,1,1,10,0,0,6,0,0,9,0,0,2,0,0,0,0,0],"split_type":[0,0,0,0,0,0,0,0,0,0,0,0,0,0,0,0,0,0,0,0,0],"sum_hessian":[9.6E1,9.4E1,2E0,9.2E1,2E0,8.7E1,5E0,1E0,1E0,8.6E1,1E0,1E0,4E0,8.4E1,2E0,3E0,1E0,8E1,4E0,1E0,2E0],"tree_param":{"num_deleted":"0","num_feature":"15","num_nodes":"21","size_leaf_vector":"1"}},{"base_weights":[4.5425865E1,9.145595E1,-9.3256226E2,5.6156433E1,7.553289E1,-1.9086962E1,-6.4625786E1,-1.9384703E2,1.1875199E2,2.5864841E1,-3.2315265E2,1.3540078E1,3.8383786E2,1.2768428E1,-4.3179965E2,4.0580658E2,-5.0632145E1,7.193992E2,1.7362502E2,-3.5302074E1,-1.157327E1,4.3654547E0,4.0068344E1,-2.4685028E1,1.0329225E0,3.9542034E1,7.2687593E0,2.7987299E1,-3.008914E0],"categories":[],"categories_nodes":[],"categories_segments":[],"categories_sizes":[],"default_left":[1,1,0,0,0,0,0,0,0,0,0,1,0,0,0,1,1,0,0,0,0,0,0,0,0,0,0,0,0],"id":57,"left_children":[1,3,5,7,-1,-1,-1,9,11,-1,13,15,17,-1,19,21,23,25,27,-1,-1,-1,-1,-1,-1,-1,-1,-1,-1],"loss_changes":[4.001756E6,4.1233255E6,2.996785E5,1.3218955E6,0E0,0E0,0E0,1.730399E6,1.8634456E6,0E0,1.0530869E6,1.2540049E6,1.215341E6,0E0,5.5079625E5,8.119281E5,1.3684235E6,1.720955E5,1.2072772E6,0E0,0E0,0E0,0E0,0E0,0E0,0E0,0E0,0E0,0E0],"parents":[2147483647,0,0,1,1,2,2,3,3,7,7,8,8,10,10,11,11,12,12,14,14,15,15,16,16,17,17,18,18],"right_children":[2,4,6,8,-1,-1,-1,10,12,-1,14,16,18,-1,20,22,24,26,28,-1,-1,-1,-1,-1,-1,-1,-1,-1,-1],"split_conditions":[4.110193E4,4.110193E4,8.184E1,8.46872E3,7.553289E1,-1.9086962E1,-6.4625786E1,7.3665E3,3.332E0,2.5864841E1,2.624E0,9.1892E3,6.931E1,1.2768428E1,8.852835E3,9.00137E3,9.422655E3,3.907E0,9.949962E3,-3.5302074E1,-1.157327E1,4.3654547E0,4.0068344E1,-2.4685028E1,1.0329225E0,3.9542034E1,7.2687593E0,2.7987299E1,-3.008914E0],"split_indices":[10,9,1,10,0,0,0,9,2,0,2,10,1,0,14,10,12,2,14,0,0,0,0,0,0,0,0,0,0],"split_type":[0,0,0,0,0,0,0,0,0,0,0,0,0,0,0,0,0,0,0,0,0,0,0,0,0,0,0,0,0],"sum_hessian":[8.6E1,8.3E1,3E0,8.2E1,1E0,2E0,1E0,1.6E1,6.6E1,2E0,1.4E1,4.8E1,1.8E1,2E0,1.2E1,6E0,4.2E1,6E0,1.2E1,4E0,8E0,4E0,2E0,5E0,3.7E1,5E0,1E0,4E0,8E0],"tree_param":{"num_deleted":"0","num_feature":"15","num_nodes":"29","size_leaf_vector":"1"}},{"base_weights":[3.832095E1,-6.8038136E-1,1.1955873E3,-1.8900665E1,4.052312E1,7.3644554E1,1.6024488E1,3.437405E1,-4.96273E2,4.275657E2,-2.7821574E0,-6.319982E2,-7.078268E-1,-5.9096336E-1,2.5138319E1,-4.0929025E2,7.348158E1,8.5655177E-1,-7.430416E2,-3.2100647E1,1.0832917E1,-7.2568107E0,8.109141E0,-4.0917713E1,-9.161963E0],"categories":[],"categories_nodes":[],"categories_segments":[],"categories_sizes":[],"default_left":[1,0,0,0,0,0,0,1,0,0,0,0,0,0,0,0,1,0,0,0,0,0,0,0,0],"id":58,"left_children":[1,3,5,7,-1,-1,-1,9,11,13,15,17,-1,-1,-1,19,21,-1,23,-1,-1,-1,-1,-1,-1],"loss_changes":[4.1532265E6,1.3454509E6,2.559575E5,2.2804958E6,0E0,0E0,0E0,1.1845599E6,5.7997125E5,2.3723675E5,2.3552125E6,5.1729975E5,0E0,0E0,0E0,1.8871666E6,1.2646052E6,0E0,1.030065E5,0E0,0E0,0E0,0E0,0E0,0E0],"parents":[2147483647,0,0,1,1,2,2,3,3,7,7,8,8,9,9,10,10,11,11,15,15,16,16,18,18],"right_children":[2,4,6,8,-1,-1,-1,10,12,14,16,18,-1,-1,-1,20,22,-1,24,-1,-1,-1,-1,-1,-1],"split_conditions":[4.110193E4,9.165E1,8.555E1,8.583E1,4.052312E1,7.3644554E1,1.6024488E1,7.85788E3,3.3E1,7.742E0,8.46872E3,7.742E0,-7.078268E-1,-5.9096336E-1,2.5138319E1,8.315E1,9.28309E3,8.5655177E-1,8.994E1,-3.2100647E1,1.0832917E1,-7.2568107E0,8.109141E0,-4.0917713E1,-9.161963E0],"split_indices":[9,1,1,1,0,0,0,9,6,4,10,4,0,0,0,1,11,0,1,0,0,0,0,0,0],"split_type":[0,0,0,0,0,0,0,0,0,0,0,0,0,0,0,0,0,0,0,0,0,0,0,0,0],"sum_hessian":[9.1E1,8.9E1,2E0,8.8E1,1E0,1E0,1E0,8E1,8E0,6E0,7.4E1,6E0,2E0,1E0,5E0,1.1E1,6.3E1,1E0,5E0,8E0,3E0,1.8E1,4.5E1,4E0,1E0],"tree_param":{"num_deleted":"0","num_feature":"15","num_nodes":"25","size_leaf_vector":"1"}},{"base_weights":[2.5802801E1,-2.9287764E1,5.003874E2,6.681971E1,-3.533582E2,-6.7114663E0,1.1359388E3,-1.2501407E1,6.8051135E2,1.2467707E2,-5.468085E2,-2.2043329E2,1.4024406E1,6.531334E1,1.5623878E1,-2.8859906E2,1.08169395E2,4.36688E1,6.611661E0,-2.8669415E2,3.1580648E1,-7.4484796E2,-8.09757E1,-2.5358276E0,-1.8239588E1,-4.0003113E2,8.678149E0,4.485464E2,-7.927089E1,-2.3248367E0,-1.7563051E1,-4.1661224E-1,-8.3587085E2,-1.2459716E1,2.337753E1,-2.3452034E1,1.2427324E1,-5.960031E0,2.7655216E1,2.0987234E1,-1.0903598E1,-4.521179E1,-8.932917E0,3.3641002E0,-6.842316E-1],"categories":[],"categories_nodes":[],"categories_segments":[],"categories_sizes":[],"default_left":[1,1,0,1,0,0,0,0,0,0,0,0,0,0,0,0,0,0,0,0,0,0,0,0,0,0,0,0,0,0,0,0,0,0,0,0,0,0,0,0,0,0,0,0,0],"id":59,"left_children":[1,3,5,7,9,11,13,15,17,19,21,23,-1,-1,-1,25,27,-1,-1,29,-1,31,33,-1,-1,35,-1,37,39,-1,-1,-1,41,-1,43,-1,-1,-1,-1,-1,-1,-1,-1,-1,-1],"loss_changes":[2.2631365E6,2.4529672E6,2.9082108E6,2.9779085E6,1.7327435E6,4.3011384E5,1.52855E5,1.8636485E6,6.2471475E5,1.4323128E6,1.138978E6,7.949919E4,0E0,0E0,0E0,9.44925E5,2.523771E6,0E0,0E0,4.5702688E4,0E0,5.96394E5,9.359632E4,0E0,0E0,7.4319125E5,0E0,8.9700425E5,1.8923958E6,0E0,0E0,0E0,1.97893E5,0E0,7.429509E3,0E0,0E0,0E0,0E0,0E0,0E0,0E0,0E0,0E0,0E0],"parents":[2147483647,0,0,1,1,2,2,3,3,4,4,5,5,6,6,7,7,8,8,9,9,10,10,11,11,15,15,16,16,19,19,21,21,22,22,25,25,27,27,28,28,32,32,34,34],"right_children":[2,4,6,8,10,12,14,16,18,20,22,24,-1,-1,-1,26,28,-1,-1,30,-1,32,34,-1,-1,36,-1,38,40,-1,-1,-1,42,-1,44,-1,-1,-1,-1,-1,-1,-1,-1,-1,-1],"split_conditions":[2.091595E4,1.152347E4,8.184E1,1.088828E4,4.663E1,2.625E0,8.555E1,6.014E1,5.874E1,6E0,1.580815E4,8.121E1,1.4024406E1,6.531334E1,1.5623878E1,1.157811E4,6.997E1,4.36688E1,6.611661E0,3.639E1,3.1580648E1,8E0,7.203E1,-2.5358276E0,-1.8239588E1,2.1896185E2,8.678149E0,2.104887E2,7.85788E3,-2.3248367E0,-1.7563051E1,-4.1661224E-1,8.716E1,-1.2459716E1,7.994E1,-2.3452034E1,1.2427324E1,-5.960031E0,2.7655216E1,2.0987234E1,-1.0903598E1,-4.521179E1,-8.932917E0,3.3641002E0,-6.842316E-1],"split_indices":[11,11,1,12,1,2,1,1,1,6,11,1,0,0,0,9,1,0,0,1,0,6,1,0,0,3,0,3,9,0,0,0,1,0,1,0,0,0,0,0,0,0,0,0,0],"split_type":[0,0,0,0,0,0,0,0,0,0,0,0,0,0,0,0,0,0,0,0,0,0,0,0,0,0,0,0,0,0,0,0,0,0,0,0,0,0,0,0,0,0,0,0,0],"sum_hessian":[8.5E1,7.7E1,8E0,6E1,1.7E1,5E0,3E0,5.4E1,6E0,5E0,1.2E1,3E0,2E0,2E0,1E0,1.6E1,3.8E1,4E0,2E0,3E0,2E0,8E0,4E0,2E0,1E0,1.3E1,3E0,1.3E1,2.5E1,1E0,2E0,1E0,7E0,1E0,3E0,1.2E1,1E0,2E0,1.1E1,5E0,2E1,6E0,1E0,1E0,2E0],"tree_param":{"num_deleted":"0","num_feature":"15","num_nodes":"45","size_leaf_vector":"1"}},{"base_weights":[9.840144E0,4.5525772E1,-5.438996E1,8.580174E0,1.1387184E3,-2.2215096E2,6.934839E1,7.017061E1,1.5233276E1,2.3465162E1,-3.3110458E2,9.767255E1,-3.0733244E1,1.2594726E1,-4.2563074E2,4.628388E2,4.975187E1,-2.84284E1,5.479429E0,9.565646E0,4.258055E1,-7.173172E0,8.221863E0],"categories":[],"categories_nodes":[],"categories_segments":[],"categories_sizes":[],"default_left":[1,1,0,0,0,0,0,0,0,0,0,0,0,0,0,0,1,0,0,0,0,0,0],"id":60,"left_children":[1,3,-1,5,7,9,11,-1,-1,-1,13,15,-1,-1,17,19,21,-1,-1,-1,-1,-1,-1],"loss_changes":[3.731498E6,3.705986E6,0E0,1.2773065E6,2.3473425E5,1.5867809E6,1.4549712E6,0E0,0E0,0E0,1.0440614E6,1.2019039E6,0E0,0E0,1.2098498E6,6.815694E5,1.4196059E6,0E0,0E0,0E0,0E0,0E0,0E0],"parents":[2147483647,0,0,1,1,3,3,4,4,5,5,6,6,10,10,11,11,14,14,15,15,16,16],"right_children":[2,4,-1,6,8,10,12,-1,-1,-1,14,16,-1,-1,18,20,22,-1,-1,-1,-1,-1,-1],"split_conditions":[4.977552E4,4.110193E4,-5.438996E1,8.46872E3,8.555E1,7.3665E3,5.2E1,7.017061E1,1.5233276E1,2.3465162E1,2.1110841E2,9.516975E3,-3.0733244E1,1.2594726E1,9.82522E3,7.742E0,1.0153854E4,-2.84284E1,5.479429E0,9.565646E0,4.258055E1,-7.173172E0,8.221863E0],"split_indices":[9,9,0,10,1,9,6,0,0,0,3,13,0,0,9,4,13,0,0,0,0,0,0],"split_type":[0,0,0,0,0,0,0,0,0,0,0,0,0,0,0,0,0,0,0,0,0,0,0],"sum_hessian":[9.3E1,9.1E1,2E0,8.9E1,2E0,1.8E1,7.1E1,1E0,1E0,2E0,1.6E1,6.9E1,2E0,2E0,1.4E1,7E0,6.2E1,1.1E1,3E0,5E0,2E0,2.3E1,3.9E1],"tree_param":{"num_deleted":"0","num_feature":"15","num_nodes":"23","size_leaf_vector":"1"}},{"base_weights":[-5.158355E1,-2.4099504E1,-6.244159E1,5.661895E1,-2.450711E2,-5.9026558E1,3.2555496E2,-3.9710425E2,1.0863316E2,-1.1806486E2,6.051513E2,1.2844537E2,6.7326624E2,-4.7390433E2,2.0792427E1,2.3593207E2,-1.8217567E2,4.6352238E1,-2.7020013E2,4.346749E1,1.1365096E1,3.8249292E2,-2.740335E2,-1.6366098E1,4.472923E1,1.4655077E2,-5.7300867E2,8.174342E0,3.4776733E2,-1.6266679E0,-1.2036509E1,-2.5151722E1,7.97865E0,9.5181E0,-1.7440128E1,2.5554907E0,2.349362E1,-1.7420774E1,2.4469135E0,1.3395009E1,-2.4037018E0,-3.611716E1,-7.9868927E0,-2.4613755E0,3.0744512E0,1.9643414E1,5.311615E0],"categories":[],"categories_nodes":[],"categories_segments":[],"categories_sizes":[],"default_left":[1,1,0,1,0,0,0,0,0,1,0,1,0,0,0,0,0,0,0,0,0,0,0,0,0,0,0,0,0,0,0,0,0,0,0,0,0,0,0,0,0,0,0,0,0,0,0],"id":61,"left_children":[1,3,-1,5,7,9,11,13,15,17,19,21,23,25,-1,27,29,31,33,-1,-1,35,37,-1,-1,39,41,43,45,-1,-1,-1,-1,-1,-1,-1,-1,-1,-1,-1,-1,-1,-1,-1,-1,-1,-1],"loss_changes":[2.931374E6,1.601323E6,0E0,2.0718981E6,1.3337331E6,1.9144078E6,1.2842668E6,1.2584645E6,3.3913825E5,1.1131244E6,2.0170412E5,1.5362986E6,1.8429572E6,1.0678118E6,0E0,1.4998531E5,1.8454922E4,1.4487142E6,8.990286E5,0E0,0E0,2.365895E5,1.6119062E5,0E0,0E0,8.373186E4,7.48633E5,1.2208034E4,1.8385E3,0E0,0E0,0E0,0E0,0E0,0E0,0E0,0E0,0E0,0E0,0E0,0E0,0E0,0E0,0E0,0E0,0E0,0E0],"parents":[2147483647,0,0,1,1,3,3,4,4,5,5,6,6,7,7,8,8,9,9,10,10,11,11,12,12,13,13,15,15,16,16,17,17,18,18,21,21,22,22,25,25,26,26,27,27,28,28],"right_children":[2,4,-1,6,8,10,12,14,16,18,20,22,24,26,-1,28,30,32,34,-1,-1,36,38,-1,-1,40,42,44,46,-1,-1,-1,-1,-1,-1,-1,-1,-1,-1,-1,-1,-1,-1,-1,-1,-1,-1],"split_conditions":[4.977552E4,1.152347E4,-6.244159E1,1.0009643E4,1.960447E4,1E0,3.297E0,1E0,1E0,8.85389E3,7.866E0,1.1065098E4,8.20106E3,1.1360612E4,2.0792427E1,3.372E0,2.572E0,7.81391E3,8.11267E3,4.346749E1,1.1365096E1,1.017929E4,3.285E0,-1.6366098E1,4.472923E1,2.72E0,1.580815E4,2.625E0,3.524E0,-1.6266679E0,-1.2036509E1,-2.5151722E1,7.97865E0,9.5181E0,-1.7440128E1,2.5554907E0,2.349362E1,-1.7420774E1,2.4469135E0,1.3395009E1,-2.4037018E0,-3.611716E1,-7.9868927E0,-2.4613755E0,3.0744512E0,1.9643414E1,5.311615E0],"split_indices":[9,11,0,12,11,0,2,0,0,9,4,13,9,13,0,2,2,11,11,0,0,10,2,0,0,2,11,2,2,0,0,0,0,0,0,0,0,0,0,0,0,0,0,0,0,0,0],"split_type":[0,0,0,0,0,0,0,0,0,0,0,0,0,0,0,0,0,0,0,0,0,0,0,0,0,0,0,0,0,0,0,0,0,0,0,0,0,0,0,0,0,0,0,0,0,0,0],"sum_hessian":[8.9E1,8.8E1,1E0,6.5E1,2.3E1,4.6E1,1.9E1,1.6E1,7E0,4.3E1,3E0,1.3E1,6E0,1.5E1,1E0,5E0,2E0,2.1E1,2.2E1,1E0,2E0,8E0,5E0,1E0,5E0,2E0,1.3E1,2E0,3E0,1E0,1E0,3E0,1.8E1,3E0,1.9E1,2E0,6E0,4E0,1E0,1E0,1E0,9E0,4E0,1E0,1E0,2E0,1E0],"tree_param":{"num_deleted":"0","num_feature":"15","num_nodes":"47","size_leaf_vector":"1"}},{"base_weights":[-2.2705343E1,4.005637E1,-6.553295E2,-2.0099459E1,5.2353625E2,-1.2265392E3,-6.729592E1,4.5259233E0,-2.9810019E1,9.529629E2,-1.0597613E1,-1.4946822E1,-7.180473E1,1.8887535E2,-1.5051761E1,-1.7788046E2,9.005288E1,1.7686125E1,6.1727455E1,-1.8480777E2,1.7156076E1,1.4361353E1,-1.957016E-1,1.06977104E2,-3.091917E2,