{"learner":{"attributes":{"scikit_learn":"{\"_estimator_type\": \"regressor\"}"},"feature_names":["IsHoliday","Temperature","Fuel_Price","CPI","Unemployment","Size","weekofyear","month","dow","lag_1","lag_2","lag_4","rollmean_4","rollmean_8","rollmean_12"],"feature_types":["int","float","float","float","float","int","int","int","int","float","float","float","float","float","float"],"gradient_booster":{"model":{"gbtree_model_param":{"num_parallel_tree":"1","num_trees":"600"},"iteration_indptr":[0,1,2,3,4,5,6,7,8,9,10,11,12,13,14,15,16,17,18,19,20,21,22,23,24,25,26,27,28,29,30,31,32,33,34,35,36,37,38,39,40,41,42,43,44,45,46,47,48,49,50,51,52,53,54,55,56,57,58,59,60,61,62,63,64,65,66,67,68,69,70,71,72,73,74,75,76,77,78,79,80,81,82,83,84,85,86,87,88,89,90,91,92,93,94,95,96,97,98,99,100,101,102,103,104,105,106,107,108,109,110,111,112,113,114,115,116,117,118,119,120,121,122,123,124,125,126,127,128,129,130,131,132,133,134,135,136,137,138,139,140,141,142,143,144,145,146,147,148,149,150,151,152,153,154,155,156,157,158,159,160,161,162,163,164,165,166,167,168,169,170,171,172,173,174,175,176,177,178,179,180,181,182,183,184,185,186,187,188,189,190,191,192,193,194,195,196,197,198,199,200,201,202,203,204,205,206,207,208,209,210,211,212,213,214,215,216,217,218,219,220,221,222,223,224,225,226,227,228,229,230,231,232,233,234,235,236,237,238,239,240,241,242,243,244,245,246,247,248,249,250,251,252,253,254,255,256,257,258,259,260,261,262,263,264,265,266,267,268,269,270,271,272,273,274,275,276,277,278,279,280,281,282,283,284,285,286,287,288,289,290,291,292,293,294,295,296,297,298,299,300,301,302,303,304,305,306,307,308,309,310,311,312,313,314,315,316,317,318,319,320,321,322,323,324,325,326,327,328,329,330,331,332,333,334,335,336,337,338,339,340,341,342,343,344,345,346,347,348,349,350,351,352,353,354,355,356,357,358,359,360,361,362,363,364,365,366,367,368,369,370,371,372,373,374,375,376,377,378,379,380,381,382,383,384,385,386,387,388,389,390,391,392,393,394,395,396,397,398,399,400,401,402,403,404,405,406,407,408,409,410,411,412,413,414,415,416,417,418,419,420,421,422,423,424,425,426,427,428,429,430,431,432,433,434,435,436,437,438,439,440,441,442,443,444,445,446,447,448,449,450,451,452,453,454,455,456,457,458,459,460,461,462,463,464,465,466,467,468,469,470,471,472,473,474,475,476,477,478,479,480,481,482,483,484,485,486,487,488,489,490,491,492,493,494,495,496,497,498,499,500,501,502,503,504,505,506,507,508,509,510,511,512,513,514,515,516,517,518,519,520,521,522,523,524,525,526,527,528,529,530,531,532,533,534,535,536,537,538,539,540,541,542,543,544,545,546,547,548,549,550,551,552,553,554,555,556,557,558,559,560,561,562,563,564,565,566,567,568,569,570,571,572,573,574,575,576,577,578,579,580,581,582,583,584,585,586,587,588,589,590,591,592,593,594,595,596,597,598,599,600],"tree_info":[0,0,0,0,0,0,0,0,0,0,0,0,0,0,0,0,0,0,0,0,0,0,0,0,0,0,0,0,0,0,0,0,0,0,0,0,0,0,0,0,0,0,0,0,0,0,0,0,0,0,0,0,0,0,0,0,0,0,0,0,0,0,0,0,0,0,0,0,0,0,0,0,0,0,0,0,0,0,0,0,0,0,0,0,0,0,0,0,0,0,0,0,0,0,0,0,0,0,0,0,0,0,0,0,0,0,0,0,0,0,0,0,0,0,0,0,0,0,0,0,0,0,0,0,0,0,0,0,0,0,0,0,0,0,0,0,0,0,0,0,0,0,0,0,0,0,0,0,0,0,0,0,0,0,0,0,0,0,0,0,0,0,0,0,0,0,0,0,0,0,0,0,0,0,0,0,0,0,0,0,0,0,0,0,0,0,0,0,0,0,0,0,0,0,0,0,0,0,0,0,0,0,0,0,0,0,0,0,0,0,0,0,0,0,0,0,0,0,0,0,0,0,0,0,0,0,0,0,0,0,0,0,0,0,0,0,0,0,0,0,0,0,0,0,0,0,0,0,0,0,0,0,0,0,0,0,0,0,0,0,0,0,0,0,0,0,0,0,0,0,0,0,0,0,0,0,0,0,0,0,0,0,0,0,0,0,0,0,0,0,0,0,0,0,0,0,0,0,0,0,0,0,0,0,0,0,0,0,0,0,0,0,0,0,0,0,0,0,0,0,0,0,0,0,0,0,0,0,0,0,0,0,0,0,0,0,0,0,0,0,0,0,0,0,0,0,0,0,0,0,0,0,0,0,0,0,0,0,0,0,0,0,0,0,0,0,0,0,0,0,0,0,0,0,0,0,0,0,0,0,0,0,0,0,0,0,0,0,0,0,0,0,0,0,0,0,0,0,0,0,0,0,0,0,0,0,0,0,0,0,0,0,0,0,0,0,0,0,0,0,0,0,0,0,0,0,0,0,0,0,0,0,0,0,0,0,0,0,0,0,0,0,0,0,0,0,0,0,0,0,0,0,0,0,0,0,0,0,0,0,0,0,0,0,0,0,0,0,0,0,0,0,0,0,0,0,0,0,0,0,0,0,0,0,0,0,0,0,0,0,0,0,0,0,0,0,0,0,0,0,0,0,0,0,0,0,0,0,0,0,0,0,0,0,0,0,0,0,0,0,0,0,0,0,0,0,0,0,0,0,0,0,0,0,0,0,0,0,0,0,0,0,0,0,0,0,0,0,0,0,0,0,0,0,0,0,0,0,0,0,0,0,0,0,0,0,0,0,0,0,0,0,0,0,0,0,0,0,0,0,0,0,0,0,0,0,0,0,0,0,0,0,0,0,0,0,0,0,0,0],"trees":[{"base_weights":[3.1205014E2,-2.679031E2,1.5248385E3,-6.4451886E2,1.8123275E3,2.0728472E3,1.9850485E2,-9.0739E2,1.8502252E3,2.8657578E2,-1.26228134E2,2.4611328E3,8.213729E2,8.22536E2,-4.652273E2,-2.213577E3,-5.6514484E2,-1.9619612E1,1.25448875E2,1.094389E3,-1.3152883E3,3.6309692E1,2.6897732E3,-9.873177E1,6.530541E1,7.06326E1,1.6092203E1,1.2144778E1,-5.091372E1,-1.2708819E2,1.0297956E1,8.870933E2,-1.2136722E3,6.74945E1,8.197157E0,-1.4034859E1,-7.8329315E1,1.1496481E3,2.8828333E3,-8.766505E0,1.3616219E0,-4.2808567E1,6.606817E1,-8.621007E1,-3.9341454E1,1.70251E1,6.919851E1,4.216215E1,1.5078804E2],"categories":[],"categories_nodes":[],"categories_segments":[],"categories_sizes":[],"default_left":[1,1,0,0,0,0,0,0,0,0,0,0,0,0,0,0,1,0,0,0,0,0,0,0,0,0,0,0,0,0,0,0,1,0,0,0,0,0,0,0,0,0,0,0,0,0,0,0,0],"id":0,"left_children":[1,3,5,7,9,11,13,15,17,-1,19,21,23,25,27,29,31,-1,-1,33,35,-1,37,39,-1,-1,-1,-1,-1,-1,-1,41,43,-1,-1,-1,-1,45,47,-1,-1,-1,-1,-1,-1,-1,-1,-1,-1],"loss_changes":[5.878743E7,4.5824596E7,1.921328E7,3.3812896E7,6.910155E7,7.211144E6,4.1103725E6,1.8865636E7,8.371152E6,0E0,1.1599147E7,3.600184E6,2.8049975E6,1.022678E6,2.2054605E6,7.67004E6,3.592385E7,0E0,0E0,7.296135E5,6.002265E5,0E0,2.538E5,3.372061E4,0E0,0E0,0E0,0E0,0E0,0E0,0E0,1.0215885E7,4.309156E6,0E0,0E0,0E0,0E0,9.755775E4,1.6816E5,0E0,0E0,0E0,0E0,0E0,0E0,0E0,0E0,0E0,0E0],"parents":[2147483647,0,0,1,1,2,2,3,3,4,4,5,5,6,6,7,7,8,8,10,10,11,11,12,12,13,13,14,14,15,15,16,16,19,19,20,20,22,22,23,23,31,31,32,32,37,37,38,38],"right_children":[2,4,6,8,10,12,14,16,18,-1,20,22,24,26,28,30,32,-1,-1,34,36,-1,38,40,-1,-1,-1,-1,-1,-1,-1,42,44,-1,-1,-1,-1,46,48,-1,-1,-1,-1,-1,-1,-1,-1,-1,-1],"split_conditions":[4.654973E4,4.652613E4,9E0,1E0,4.6111586E4,4.6027934E4,4.534954E4,4.320229E4,2.561E0,2.8657578E2,2.667E0,4.296396E4,4.7030227E4,4.189255E4,2.608E0,4.699158E4,4.456137E4,-1.9619612E1,1.25448875E2,4.920206E4,2.1483717E2,3.6309692E1,2.1043912E2,6.29E1,6.530541E1,7.06326E1,1.6092203E1,1.2144778E1,-5.091372E1,-1.2708819E2,1.0297956E1,4.165101E4,4.5585773E4,6.74945E1,8.197157E0,-1.4034859E1,-7.8329315E1,6.763E1,5.458E1,-8.766505E0,1.3616219E0,-4.2808567E1,6.606817E1,-8.621007E1,-3.9341454E1,1.70251E1,6.919851E1,4.216215E1,1.5078804E2],"split_indices":[11,12,7,0,13,13,14,11,2,0,2,10,13,9,2,9,12,0,0,9,3,0,3,1,0,0,0,0,0,0,0,10,13,0,0,0,0,1,1,0,0,0,0,0,0,0,0,0,0],"split_type":[0,0,0,0,0,0,0,0,0,0,0,0,0,0,0,0,0,0,0,0,0,0,0,0,0,0,0,0,0,0,0,0,0,0,0,0,0,0,0,0,0,0,0,0,0,0,0,0,0],"sum_hessian":[8.2E1,5.6E1,2.6E1,4.8E1,8E0,1.8E1,8E0,4.4E1,4E0,2E0,6E0,1.3E1,5E0,4E0,4E0,8E0,3.6E1,1E0,3E0,3E0,3E0,2E0,1.1E1,2E0,3E0,1E0,3E0,2E0,2E0,7E0,1E0,1.1E1,2.5E1,2E0,1E0,1E0,2E0,2E0,9E0,1E0,1E0,2E0,9E0,1E1,1.5E1,1E0,1E0,1E0,8E0],"tree_param":{"num_deleted":"0","num_feature":"15","num_nodes":"49","size_leaf_vector":"1"}},{"base_weights":[-2.9314161E1,-5.956189E2,1.5056493E3,-4.2524893E2,-1.9874243E2,2.0828745E3,9.083977E1,-7.116734E2,2.7702322E2,2.3928025E3,2.387037E1,-7.202631E2,1.0820084E3,-1.0009246E3,1.6626826E3,9.188927E2,2.7112422E3,-6.571481E1,1.1385773E2,6.468518E1,1.1173072E1,-1.7362777E3,-6.262594E2,1.22782715E2,-2.1316435E2,5.3311584E1,1.1921897E1,1.1209069E3,1.4700525E2,-8.547342E0,1.7086672E1,-9.868685E1,5.7513264E1,3.27228E1,-5.231451E1,-1.9129122E1,3.1417954E0,1.6599474E1,6.7468544E1],"categories":[],"categories_nodes":[],"categories_segments":[],"categories_sizes":[],"default_left":[1,0,1,0,0,0,0,0,0,0,0,0,0,0,0,0,0,0,0,0,0,0,0,0,0,0,0,0,0,0,0,0,0,0,0,0,0,0,0],"id":1,"left_children":[1,3,5,7,-1,9,11,13,-1,15,-1,17,19,21,23,25,27,-1,29,-1,-1,31,33,-1,35,-1,-1,37,-1,-1,-1,-1,-1,-1,-1,-1,-1,-1,-1],"loss_changes":[7.7391416E7,3.5731456E7,1.9410724E7,1.11592744E8,0E0,7.316504E6,7.210848E6,4.3558132E7,0E0,4.079576E6,0E0,2.6271195E6,4.37908E5,1.4065756E7,1.0935912E7,1.4679975E5,7.08072E5,0E0,2.5311838E5,0E0,0E0,1.4608172E7,2.1126468E7,0E0,1.643182E5,0E0,0E0,9.274075E4,0E0,0E0,0E0,0E0,0E0,0E0,0E0,0E0,0E0,0E0,0E0],"parents":[2147483647,0,0,1,1,2,2,3,3,5,5,6,6,7,7,9,9,11,11,12,12,13,13,14,14,15,15,16,16,18,18,21,21,22,22,24,24,27,27],"right_children":[2,4,6,8,-1,10,12,14,-1,16,-1,18,20,22,24,26,28,-1,30,-1,-1,32,34,-1,36,-1,-1,38,-1,-1,-1,-1,-1,-1,-1,-1,-1,-1,-1],"split_conditions":[4.654973E4,5.2E1,4.681763E4,5.1E1,-1.9874243E2,7.962E0,4.7459973E4,1E0,2.7702322E2,5.458E1,2.387037E1,4.654973E4,6.931E1,6.371E1,7.962E0,2.1436272E2,2.1043912E2,-6.571481E1,6.29E1,6.468518E1,1.1173072E1,4.935975E4,4.456137E4,1.22782715E2,3.993E1,5.3311584E1,1.1921897E1,6.763E1,1.4700525E2,-8.547342E0,1.7086672E1,-9.868685E1,5.7513264E1,3.27228E1,-5.231451E1,-1.9129122E1,3.1417954E0,1.6599474E1,6.7468544E1],"split_indices":[11,6,13,6,0,4,13,0,0,1,0,9,1,1,4,3,3,0,1,0,0,9,12,0,1,0,0,1,0,0,0,0,0,0,0,0,0,0,0],"split_type":[0,0,0,0,0,0,0,0,0,0,0,0,0,0,0,0,0,0,0,0,0,0,0,0,0,0,0,0,0,0,0,0,0,0,0,0,0,0,0],"sum_hessian":[8.7E1,6.4E1,2.3E1,6.2E1,2E0,1.6E1,7E0,6E1,2E0,1.3E1,3E0,4E0,3E0,5.4E1,6E0,3E0,1E1,2E0,2E0,2E0,1E0,1.7E1,3.7E1,4E0,2E0,2E0,1E0,2E0,8E0,1E0,1E0,1.6E1,1E0,9E0,2.8E1,1E0,1E0,1E0,1E0],"tree_param":{"num_deleted":"0","num_feature":"15","num_nodes":"39","size_leaf_vector":"1"}},{"base_weights":[-3.2587612E1,-6.74573E2,1.3410566E3,-4.7400006E2,-2.2305875E2,1.8294685E3,2.301271E2,-7.334007E2,1.5948049E3,2.1427563E3,7.4133795E2,-2.0121788E2,9.274491E2,-1.4953757E3,-4.2932504E2,1.17871414E2,-2.0783525E2,8.8245996E2,2.384292E3,-7.1208053E0,6.094095E1,1.4742963E1,-6.4699054E2,6.519166E1,1.8368834E1,-9.050006E1,-7.2177075E2,8.694482E2,-8.3443494E2,-1.8650894E1,3.0632503E0,5.061079E1,1.2329811E1,5.1491993E1,2.5521985E3,8.079726E0,-4.8519188E1,1.2507678E1,-4.830932E1,-1.9949598E1,7.350322E1,-5.3575985E1,5.1688343E1,5.4644215E1,1.3902083E2],"categories":[],"categories_nodes":[],"categories_segments":[],"categories_sizes":[],"default_left":[1,0,0,0,0,0,0,0,0,0,0,0,0,0,0,0,0,0,0,0,0,0,0,0,0,0,0,0,0,0,0,0,0,0,0,0,0,0,0,0,0,0,0,0,0],"id":2,"left_children":[1,3,5,7,-1,9,11,13,15,17,19,21,23,25,27,-1,29,31,33,-1,-1,-1,35,-1,-1,-1,37,39,41,-1,-1,-1,-1,-1,43,-1,-1,-1,-1,-1,-1,-1,-1,-1,-1],"loss_changes":[8.0272E7,4.4973776E7,1.5314136E7,3.3368592E7,0E0,5.229448E6,3.1944825E6,1.1869696E7,1.0113104E7,2.462064E6,2.7054342E6,1.7387345E6,3.642115E5,2.34453E6,2.1771334E7,0E0,1.5620503E5,8.04195E4,1.00696E5,0E0,0E0,0E0,1.2027724E6,0E0,0E0,0E0,1.6670155E6,8.2049995E6,1.4838288E7,0E0,0E0,0E0,0E0,0E0,2.9174E5,0E0,0E0,0E0,0E0,0E0,0E0,0E0,0E0,0E0,0E0],"parents":[2147483647,0,0,1,1,2,2,3,3,5,5,6,6,7,7,8,8,9,9,10,10,11,11,12,12,13,13,14,14,16,16,17,17,18,18,22,22,26,26,27,27,28,28,34,34],"right_children":[2,4,6,8,-1,10,12,14,16,18,20,22,24,26,28,-1,30,32,34,-1,-1,-1,36,-1,-1,-1,38,40,42,-1,-1,-1,-1,-1,44,-1,-1,-1,-1,-1,-1,-1,-1,-1,-1],"split_conditions":[4.654973E4,5E1,3.2E1,1E0,-2.2305875E2,4.6027934E4,4.975417E4,4.330638E4,4.920206E4,4.326096E4,4.7030227E4,4.534954E4,5.736E1,4.638754E4,4.456137E4,1.17871414E2,3.993E1,4.455E1,5.458E1,-7.1208053E0,6.094095E1,1.4742963E1,7.203E1,6.519166E1,1.8368834E1,-9.050006E1,5.779E1,4.237148E4,4.875447E4,-1.8650894E1,3.0632503E0,5.061079E1,1.2329811E1,5.1491993E1,2.1043912E2,8.079726E0,-4.8519188E1,1.2507678E1,-4.830932E1,-1.9949598E1,7.350322E1,-5.3575985E1,5.1688343E1,5.4644215E1,1.3902083E2],"split_indices":[11,6,6,0,0,13,11,11,9,10,13,14,1,10,12,0,1,1,1,0,0,0,1,0,0,0,1,10,9,0,0,0,0,0,3,0,0,0,0,0,0,0,0,0,0],"split_type":[0,0,0,0,0,0,0,0,0,0,0,0,0,0,0,0,0,0,0,0,0,0,0,0,0,0,0,0,0,0,0,0,0,0,0,0,0,0,0,0,0,0,0,0,0],"sum_hessian":[8.9E1,6.1E1,2.8E1,5.9E1,2E0,1.9E1,9E0,5.3E1,6E0,1.4E1,5E0,6E0,3E0,1.4E1,3.9E1,4E0,2E0,3E0,1.1E1,2E0,3E0,3E0,3E0,1E0,2E0,9E0,5E0,9E0,3E1,1E0,1E0,2E0,1E0,2E0,9E0,1E0,2E0,1E0,4E0,3E0,6E0,2.7E1,3E0,2E0,7E0],"tree_param":{"num_deleted":"0","num_feature":"15","num_nodes":"45","size_leaf_vector":"1"}},{"base_weights":[3.1679762E1,1.675859E2,-1.846824E2,-3.4642757E1,2.7522443E2,-2.2287846E2,1.4750922E3,3.495564E2,-9.09985E2,1.24146706E2,1.0387451E3,1.2082822E2,1.1889514E2,-1.0712067E3,1.0622768E2,5.637557E1,1.0434525E1,2.954491E1,-4.5386288E1,-8.534079E0,-6.582632E1],"categories":[],"categories_nodes":[],"categories_segments":[],"categories_sizes":[],"default_left":[0,0,0,1,0,1,0,1,1,0,0,0,0,0,0,0,0,0,0,0,0],"id":3,"left_children":[1,3,-1,5,-1,7,9,11,13,-1,15,17,-1,19,-1,-1,-1,-1,-1,-1,-1],"loss_changes":[4.3147776E7,8.86912E7,0E0,2.3063646E7,0E0,2.8637402E7,1.378784E6,1.827028E7,1.8420532E7,0E0,3.54146E5,1.8425588E7,0E0,6.84462E6,0E0,0E0,0E0,0E0,0E0,0E0,0E0],"parents":[2147483647,0,0,1,1,3,3,5,5,6,6,7,7,8,8,10,10,11,11,13,13],"right_children":[2,4,-1,6,-1,8,10,12,14,-1,16,18,-1,20,-1,-1,-1,-1,-1,-1,-1],"split_conditions":[5.2E1,5E1,-1.846824E2,4.7447945E4,2.7522443E2,4.51825E4,4.7670645E4,4.476333E4,4.701374E4,1.24146706E2,3.7E1,7.962E0,1.1889514E2,2.664E0,1.0622768E2,5.637557E1,1.0434525E1,2.954491E1,-4.5386288E1,-8.534079E0,-6.582632E1],"split_indices":[6,6,0,12,0,10,12,10,14,0,6,4,0,2,0,0,0,0,0,0,0],"split_type":[0,0,0,0,0,0,0,0,0,0,0,0,0,0,0,0,0,0,0,0,0],"sum_hessian":[8.3E1,8.1E1,2E0,7.9E1,2E0,7.1E1,8E0,3.9E1,3.2E1,1E0,7E0,3.6E1,3E0,3.1E1,1E0,6E0,1E0,2.5E1,1.1E1,7E0,2.4E1],"tree_param":{"num_deleted":"0","num_feature":"15","num_nodes":"21","size_leaf_vector":"1"}},{"base_weights":[-2.5402273E1,-6.338259E2,7.719478E2,-9.5155817E2,1.3517959E3,1.228639E3,-3.4133572E2,-6.6785077E2,-1.9526886E2,5.2875526E1,2.6110596E2,1.9694056E3,4.573805E2,8.420903E1,-6.599319E1,-9.241167E2,1.094952E2,-6.630695E2,7.556017E2,1.0944498E3,1.5497156E2,6.2947437E2,-5.3100704E1,-4.148013E2,3.573279E2,-1.0165723E3,7.166414E1,-7.42364E0,-3.9255543E1,6.174009E1,-1.7049963E1,-2.1920536E1,7.6623314E1,8.6346893E2,-2.971634E1,-3.6424236E1,1.3156222E1,7.109704E1,2.2880043E1,-7.798464E1,-3.0329376E1,7.374853E1,-4.788897E0,6.999508E-1,4.632327E0],"categories":[],"categories_nodes":[],"categories_segments":[],"categories_sizes":[],"default_left":[1,0,0,0,0,1,0,0,0,0,0,0,0,0,0,0,0,0,0,0,0,0,0,0,0,1,0,0,0,0,0,0,0,0,0,0,0,0,0,0,0,0,0,0,0],"id":4,"left_children":[1,3,5,7,9,11,13,15,-1,17,-1,19,21,23,-1,25,-1,27,29,31,-1,33,-1,35,37,39,-1,-1,-1,-1,-1,-1,-1,41,-1,-1,-1,43,-1,-1,-1,-1,-1,-1,-1],"loss_changes":[4.7061436E7,3.59856E7,2.1773308E7,3.761677E7,3.9941812E7,1.6238912E7,5.524441E6,3.4979264E7,0E0,4.0228098E6,0E0,1.1438668E7,4.8521675E6,1.5111116E6,0E0,1.0611144E7,0E0,1.3464062E5,2.5230318E6,7.386031E6,0E0,4.808625E6,0E0,1.0422984E6,1.6837444E5,8.183428E6,0E0,0E0,0E0,0E0,0E0,0E0,0E0,7.766822E6,0E0,0E0,0E0,2.3943408E3,0E0,0E0,0E0,0E0,0E0,0E0,0E0],"parents":[2147483647,0,0,1,1,2,2,3,3,4,4,5,5,6,6,7,7,9,9,11,11,12,12,13,13,15,15,17,17,18,18,19,19,21,21,23,23,24,24,25,25,33,33,37,37],"right_children":[2,4,6,8,10,12,14,16,-1,18,-1,20,22,24,-1,26,-1,28,30,32,-1,34,-1,36,38,40,-1,-1,-1,-1,-1,-1,-1,42,-1,-1,-1,44,-1,-1,-1,-1,-1,-1,-1],"split_conditions":[4.534192E4,4.935743E4,7.866E0,5E1,4.3E1,4.571759E4,4.839798E4,1E0,-1.9526886E2,4.547569E4,2.6110596E2,4.524774E4,4.7225785E4,4.311079E4,-6.599319E1,9.165E1,1.094952E2,4.227E1,1E0,4.636393E4,1.5497156E2,4.988069E4,-5.3100704E1,7.6E1,4.638143E4,4.5232285E4,7.166414E1,-7.42364E0,-3.9255543E1,6.174009E1,-1.7049963E1,-2.1920536E1,7.6623314E1,7.969E1,-2.971634E1,-3.6424236E1,1.3156222E1,1E0,2.2880043E1,-7.798464E1,-3.0329376E1,7.374853E1,-4.788897E0,6.999508E-1,4.632327E0],"split_indices":[11,10,4,6,6,14,10,0,0,9,0,9,14,9,0,1,0,1,0,11,0,10,0,1,11,14,0,0,0,0,0,0,0,1,0,0,0,0,0,0,0,0,0,0,0],"split_type":[0,0,0,0,0,0,0,0,0,0,0,0,0,0,0,0,0,0,0,0,0,0,0,0,0,0,0,0,0,0,0,0,0,0,0,0,0,0,0,0,0,0,0,0,0],"sum_hessian":[9.5E1,5.4E1,4.1E1,4.7E1,7E0,2.9E1,1.2E1,4.4E1,3E0,6E0,1E0,1.4E1,1.5E1,9E0,3E0,4.1E1,3E0,3E0,3E0,9E0,5E0,1.4E1,1E0,3E0,6E0,4E1,1E0,1E0,2E0,2E0,1E0,2E0,7E0,1.2E1,2E0,2E0,1E0,2E0,4E0,1.6E1,2.4E1,7E0,5E0,1E0,1E0],"tree_param":{"num_deleted":"0","num_feature":"15","num_nodes":"45","size_leaf_vector":"1"}},{"base_weights":[-1.3424716E1,-6.7118616E2,8.169272E2,-8.7992303E2,2.545783E2,1.412731E3,-1.4235667E2,-6.2694476E2,-1.8794629E2,3.2144363E2,2.1915789E3,3.7281494E2,-1.1489739E3,-8.55255E2,1.5532365E3,7.47308E2,-2.2897203E2,2.4894702E3,7.500099E2,5.9780383E2,-5.0141962E2,4.516519E0,-7.074504E1,-9.947114E2,8.2285077E2,-1.6623716E1,2.1077827E3,1.0771849E3,-3.0798853E1,-3.5210094E1,1.8469333E2,1.5646693E3,3.153493E3,4.2721317E1,1.0919013E1,-1.2532116E1,1.2106462E3,5.295397E0,-4.2901867E1,-5.435705E1,6.9872536E1,-7.2380495E0,5.9682087E1,3.1662384E1,1.1941058E2,5.950017E1,1.2827318E1,1.1857921E1,6.82452E-1,8.793828E1,1.000229E1,1.7511562E2,3.5234905E1,-1.1754325E1,1.4419222E1,7.05187E1,1.0293384E1],"categories":[],"categories_nodes":[],"categories_segments":[],"categories_sizes":[],"default_left":[1,0,1,0,0,0,0,0,0,0,0,0,0,0,0,0,0,0,0,0,0,0,0,0,0,0,0,0,0,0,0,0,0,0,0,0,0,0,0,0,0,0,0,0,0,0,0,0,0,0,0,0,0,0,0,0,0],"id":5,"left_children":[1,3,5,7,-1,9,11,13,-1,15,17,19,21,23,25,27,29,31,33,35,37,-1,-1,39,41,-1,43,45,-1,-1,47,49,51,-1,-1,53,55,-1,-1,-1,-1,-1,-1,-1,-1,-1,-1,-1,-1,-1,-1,-1,-1,-1,-1,-1,-1],"loss_changes":[5.1888612E7,6.823382E7,2.4206E7,3.551626E7,0E0,2.1394148E7,9.244225E6,2.571854E7,0E0,2.9839415E6,4.574336E6,2.660067E6,2.1051945E6,1.1349516E7,5.929351E6,3.8115355E6,1.309578E6,2.434888E6,3.54535E4,3.7555695E6,7.406243E5,0E0,0E0,1.0805696E7,1.6079195E6,0E0,1.41682E5,2.502085E5,0E0,0E0,3.2658422E4,1.502244E6,2.657048E6,0E0,0E0,4.6961706E5,7.1306E5,0E0,0E0,0E0,0E0,0E0,0E0,0E0,0E0,0E0,0E0,0E0,0E0,0E0,0E0,0E0,0E0,0E0,0E0,0E0,0E0],"parents":[2147483647,0,0,1,1,2,2,3,3,5,5,6,6,7,7,9,9,10,10,11,11,12,12,13,13,14,14,15,15,16,16,17,17,18,18,19,19,20,20,23,23,24,24,26,26,27,27,30,30,31,31,32,32,35,35,36,36],"right_children":[2,4,6,8,-1,10,12,14,-1,16,18,20,22,24,26,28,30,32,34,36,38,-1,-1,40,42,-1,44,46,-1,-1,48,50,52,-1,-1,54,56,-1,-1,-1,-1,-1,-1,-1,-1,-1,-1,-1,-1,-1,-1,-1,-1,-1,-1,-1,-1],"split_conditions":[4.534192E4,2.1935773E2,4.6063125E4,5E1,2.545783E2,4.408133E4,2.150911E2,1E0,-1.8794629E2,2.1527365E2,4.901505E4,3.8E1,4.547569E4,5.003173E4,2.1128914E2,4.5E1,4.311079E4,2.1140494E2,8.313E1,4.735456E4,7.203E1,4.516519E0,-7.074504E1,9.165E1,4.227E1,-1.6623716E1,3.851E1,6.986E1,-3.0798853E1,-3.5210094E1,7.994E1,4.571759E4,4.935743E4,4.2721317E1,1.0919013E1,3.1E1,7.969E1,5.295397E0,-4.2901867E1,-5.435705E1,6.9872536E1,-7.2380495E0,5.9682087E1,3.1662384E1,1.1941058E2,5.950017E1,1.2827318E1,1.1857921E1,6.82452E-1,8.793828E1,1.000229E1,1.7511562E2,3.5234905E1,-1.1754325E1,1.4419222E1,7.05187E1,1.0293384E1],"split_indices":[11,3,13,6,0,10,3,0,0,3,11,6,11,10,3,6,9,3,1,13,1,0,0,1,1,0,1,1,0,0,1,14,9,0,0,6,1,0,0,0,0,0,0,0,0,0,0,0,0,0,0,0,0,0,0,0,0],"split_type":[0,0,0,0,0,0,0,0,0,0,0,0,0,0,0,0,0,0,0,0,0,0,0,0,0,0,0,0,0,0,0,0,0,0,0,0,0,0,0,0,0,0,0,0,0,0,0,0,0,0,0,0,0,0,0,0,0],"sum_hessian":[9.3E1,5.2E1,4.1E1,5.1E1,1E0,2.5E1,1.6E1,4.8E1,3E0,1.1E1,1.4E1,1.1E1,5E0,4.4E1,4E0,6E0,5E0,1.1E1,3E0,9E0,2E0,1E0,4E0,4.1E1,3E0,1E0,3E0,5E0,1E0,2E0,3E0,6E0,5E0,2E0,1E0,5E0,4E0,1E0,1E0,4E1,1E0,1E0,2E0,1E0,2E0,4E0,1E0,2E0,1E0,5E0,1E0,4E0,1E0,3E0,2E0,3E0,1E0],"tree_param":{"num_deleted":"0","num_feature":"15","num_nodes":"57","size_leaf_vector":"1"}},{"base_weights":[1.0595975E1,-6.87514E2,8.2210535E2,-9.0416846E2,2.4821385E2,1.3714421E3,-9.872978E1,-6.0743585E2,-1.6969641E2,4.6018106E2,2.184743E3,-5.839571E2,6.778745E2,1.08808304E2,-7.875142E2,-5.236937E1,6.9662285E1,2.320043E3,1.0646037E1,-9.0901294E2,2.9293142E1,1.3426573E2,6.7896545E1,7.337556E2,-9.199533E2,3.32398E2,-3.5630997E1,2.5054836E3,4.3337322E1,3.5579197E1,-1.1839791E3,-8.528261E0,1.2655739E1,-2.5620981E1,6.59977E1,-7.836997E1,-2.1150713E1,3.5013256E1,-1.957566E1,5.7418903E1,1.4354256E2,5.163012E0,-2.4945724E0,-1.1604242E1,-6.519737E1],"categories":[],"categories_nodes":[],"categories_segments":[],"categories_sizes":[],"default_left":[1,0,0,0,0,0,0,1,0,0,0,0,0,0,0,0,0,0,0,0,0,0,0,0,1,0,0,0,0,0,0,0,0,0,0,0,0,0,0,0,0,0,0,0,0],"id":6,"left_children":[1,3,5,7,-1,9,11,13,-1,15,17,19,21,-1,23,25,-1,27,-1,29,-1,31,-1,33,35,37,-1,39,-1,41,43,-1,-1,-1,-1,-1,-1,-1,-1,-1,-1,-1,-1,-1,-1],"loss_changes":[5.268531E7,6.5712816E7,2.188689E7,3.413926E7,0E0,1.9005116E7,6.8019525E6,2.4270752E7,0E0,6.7683615E6,3.241048E6,4.715382E6,2.4054688E6,0E0,9.338476E6,2.777302E6,0E0,1.33188E6,0E0,2.3797035E6,0E0,2.243169E5,0E0,3.5983935E6,1.2206612E7,2.138285E6,0E0,2.15744E6,0E0,2.250603E4,4.96754E5,0E0,0E0,0E0,0E0,0E0,0E0,0E0,0E0,0E0,0E0,0E0,0E0,0E0,0E0],"parents":[2147483647,0,0,1,1,2,2,3,3,5,5,6,6,7,7,9,9,10,10,11,11,12,12,14,14,15,15,17,17,19,19,21,21,23,23,24,24,25,25,27,27,29,29,30,30],"right_children":[2,4,6,8,-1,10,12,14,-1,16,18,20,22,-1,24,26,-1,28,-1,30,-1,32,-1,34,36,38,-1,40,-1,42,44,-1,-1,-1,-1,-1,-1,-1,-1,-1,-1,-1,-1,-1,-1],"split_conditions":[4.534192E4,2.1935773E2,4.6027934E4,4.8E1,2.4821385E2,4.408133E4,4.654973E4,4.159699E4,-1.6969641E2,4.790301E4,8.783E1,4.975417E4,4.714256E4,1.08808304E2,4.4810926E4,4.5129324E4,6.9662285E1,4.7670645E4,1.0646037E1,4.5751562E4,2.9293142E1,6.29E1,6.7896545E1,2.129367E2,4.525162E4,4.427415E4,-3.5630997E1,2.1117642E2,4.3337322E1,7.203E1,4.636393E4,-8.528261E0,1.2655739E1,-2.5620981E1,6.59977E1,-7.836997E1,-2.1150713E1,3.5013256E1,-1.957566E1,5.7418903E1,1.4354256E2,5.163012E0,-2.4945724E0,-1.1604242E1,-6.519737E1],"split_indices":[11,3,13,6,0,10,9,9,0,11,1,11,13,0,14,12,0,12,0,12,0,1,0,3,13,9,0,3,0,1,11,0,0,0,0,0,0,0,0,0,0,0,0,0,0],"split_type":[0,0,0,0,0,0,0,0,0,0,0,0,0,0,0,0,0,0,0,0,0,0,0,0,0,0,0,0,0,0,0,0,0,0,0,0,0,0,0,0,0,0,0,0,0],"sum_hessian":[9.1E1,4.9E1,4.2E1,4.8E1,1E0,2.6E1,1.6E1,4.4E1,4E0,1.3E1,1.3E1,1E1,6E0,2E0,4.2E1,9E0,4E0,1.2E1,1E0,8E0,2E0,4E0,2E0,3E0,3.9E1,6E0,3E0,1E1,2E0,2E0,6E0,1E0,3E0,1E0,2E0,1.6E1,2.3E1,4E0,2E0,3E0,7E0,1E0,1E0,1E0,5E0],"tree_param":{"num_deleted":"0","num_feature":"15","num_nodes":"45","size_leaf_vector":"1"}},{"base_weights":[-1.6118294E0,1.0684626E2,-1.6816377E2,-5.2624012E1,2.4542479E2,-4.46186E2,8.041701E2,-6.6450836E2,1.3953226E3,1.3007068E3,-7.649037E0,-1.3020417E3,-4.0581686E2,2.034745E3,-1.3548882E2,1.6594406E3,3.6110558E1,-4.021418E2,8.81872E2,-1.05777306E2,-4.272891E1,7.1339165E1,-3.1813452E1,2.9220884E1,1.1256112E2,-1.4248874E1,4.0872126E0,4.4410366E1,9.946069E1,-2.3301594E1,1.3907706E1,-3.6891857E1,2.575973E1,5.2588985E1,9.303721E0],"categories":[],"categories_nodes":[],"categories_segments":[],"categories_sizes":[],"default_left":[0,0,0,1,0,0,0,0,0,0,1,0,0,0,0,0,0,0,0,0,0,0,0,0,0,0,0,0,0,0,0,0,0,0,0],"id":7,"left_children":[1,3,-1,5,-1,7,9,11,13,15,17,19,21,23,25,27,29,31,33,-1,-1,-1,-1,-1,-1,-1,-1,-1,-1,-1,-1,-1,-1,-1,-1],"loss_changes":[3.4996316E7,7.14703E7,0E0,3.1044154E7,0E0,2.6255886E7,1.1699788E7,8.872304E6,7.127532E6,8.10584E6,4.565553E6,4.016318E6,1.864554E7,2.5416E5,1.2071692E5,1.793816E6,7.373304E5,3.1516395E6,2.7717625E5,0E0,0E0,0E0,0E0,0E0,0E0,0E0,0E0,0E0,0E0,0E0,0E0,0E0,0E0,0E0,0E0],"parents":[2147483647,0,0,1,1,3,3,5,5,6,6,7,7,8,8,9,9,10,10,11,11,12,12,13,13,14,14,15,15,16,16,17,17,18,18],"right_children":[2,4,-1,6,-1,8,10,12,14,16,18,20,22,24,26,28,30,32,34,-1,-1,-1,-1,-1,-1,-1,-1,-1,-1,-1,-1,-1,-1,-1,-1],"split_conditions":[5.2E1,5.1E1,-1.6816377E2,4.654973E4,2.4542479E2,1E0,4.6027934E4,4.330638E4,7.962E0,7.962E0,4.7459973E4,4.4512434E4,4.410504E4,3.851E1,3.993E1,5.458E1,7.6E1,4.975417E4,6.931E1,-1.05777306E2,-4.272891E1,7.1339165E1,-3.1813452E1,2.9220884E1,1.1256112E2,-1.4248874E1,4.0872126E0,4.4410366E1,9.946069E1,-2.3301594E1,1.3907706E1,-3.6891857E1,2.575973E1,5.2588985E1,9.303721E0],"split_indices":[6,6,0,11,0,0,13,11,4,4,13,13,12,1,1,1,1,11,1,0,0,0,0,0,0,0,0,0,0,0,0,0,0,0,0],"split_type":[0,0,0,0,0,0,0,0,0,0,0,0,0,0,0,0,0,0,0,0,0,0,0,0,0,0,0,0,0,0,0,0,0,0,0],"sum_hessian":[9.4E1,9.2E1,2E0,9E1,2E0,6.2E1,2.8E1,5.6E1,6E0,1.7E1,1.1E1,1.5E1,4.1E1,4E0,2E0,1.3E1,4E0,8E0,3E0,4E0,1.1E1,4E0,3.7E1,1E0,3E0,1E0,1E0,5E0,8E0,1E0,3E0,6E0,2E0,2E0,1E0],"tree_param":{"num_deleted":"0","num_feature":"15","num_nodes":"35","size_leaf_vector":"1"}},{"base_weights":[-1.7221233E1,-6.477318E2,6.276834E2,-3.753173E2,-3.414255E3,1.3033949E3,-7.5318695E1,-5.987128E2,1.952467E3,-1.941364E2,-5.0220886E1,5.0548798E2,1.8782858E3,3.246197E2,-8.6578064E2,-1.1757213E3,-2.7734866E2,2.8490362E1,1.111709E2,-3.964206E2,1.0774958E3,1.4189404E2,1.136479E3,-6.4763725E1,7.220986E2,6.2943754E0,-6.0865894E1,-1.7201697E3,-6.8212E2,1.2805348E3,-6.896192E2,2.2888979E1,-3.6220776E1,6.784622E1,1.2630816E1,5.830242E0,1.2493877E3,-5.284096E2,6.46896E2,1.00983795E3,-9.407965E1,-9.3382286E1,-2.4569742E1,1.898528E1,-4.311557E1,1.9875986E1,1.0155217E2,-6.762914E1,-1.782357E1,6.8527245E1,1.0032193E1,-3.0362396E0,-4.879264E1,3.7078983E1,9.071128E0,7.263935E1,4.1313276E0,6.8366776E0,-1.3892652E1],"categories":[],"categories_nodes":[],"categories_segments":[],"categories_sizes":[],"default_left":[0,0,0,0,0,0,0,0,0,0,0,0,0,0,0,0,0,0,0,0,0,0,0,0,1,0,0,0,0,0,1,0,0,0,0,0,0,0,0,1,0,0,0,0,0,0,0,0,0,0,0,0,0,0,0,0,0,0,0],"id":8,"left_children":[1,3,5,7,9,11,13,15,17,-1,-1,19,21,23,25,27,29,-1,-1,31,33,-1,35,37,39,-1,-1,41,43,45,47,-1,-1,-1,-1,-1,49,51,53,55,57,-1,-1,-1,-1,-1,-1,-1,-1,-1,-1,-1,-1,-1,-1,-1,-1,-1,-1],"loss_changes":[3.70023E7,3.338606E7,2.1474366E7,2.352968E7,6.15892E5,9.600864E6,7.552179E6,7.09111E6,2.31612E5,0E0,0E0,6.102029E6,6.028652E6,2.523113E6,2.942111E6,2.589004E6,1.8224358E7,0E0,0E0,1.7324892E6,1.270683E6,0E0,8.90689E5,3.311449E6,1.9737782E6,0E0,0E0,1.69538E5,2.0494112E6,3.168883E6,4.376871E6,0E0,0E0,0E0,0E0,0E0,7.41511E5,1.1963159E6,4.17515E4,2.344205E6,1.652438E5,0E0,0E0,0E0,0E0,0E0,0E0,0E0,0E0,0E0,0E0,0E0,0E0,0E0,0E0,0E0,0E0,0E0,0E0],"parents":[2147483647,0,0,1,1,2,2,3,3,4,4,5,5,6,6,7,7,8,8,11,11,12,12,13,13,14,14,15,15,16,16,19,19,20,20,22,22,23,23,24,24,27,27,28,28,29,29,30,30,36,36,37,37,38,38,39,39,40,40],"right_children":[2,4,6,8,10,12,14,16,18,-1,-1,20,22,24,26,28,30,-1,-1,32,34,-1,36,38,40,-1,-1,42,44,46,48,-1,-1,-1,-1,-1,50,52,54,56,58,-1,-1,-1,-1,-1,-1,-1,-1,-1,-1,-1,-1,-1,-1,-1,-1,-1,-1],"split_conditions":[4.534192E4,5E1,4.5955414E4,1E0,5.141E1,4.408133E4,2.150911E2,4.331585E4,3.851E1,-1.941364E2,-5.0220886E1,4.638754E4,4.695582E4,4.524774E4,4.5445055E4,2.1256688E2,4.484392E4,2.8490362E1,1.111709E2,4.241581E4,4.4772625E4,1.4189404E2,2.1043912E2,4.975417E4,4.975417E4,6.2943754E0,-6.0865894E1,6.014E1,4.165101E4,6.632E1,4.5585773E4,2.2888979E1,-3.6220776E1,6.784622E1,1.2630816E1,5.830242E0,8.313E1,4.735456E4,5.958E1,4.975417E4,1E0,-9.3382286E1,-2.4569742E1,1.898528E1,-4.311557E1,1.9875986E1,1.0155217E2,-6.762914E1,-1.782357E1,6.8527245E1,1.0032193E1,-3.0362396E0,-4.879264E1,3.7078983E1,9.071128E0,7.263935E1,4.1313276E0,6.8366776E0,-1.3892652E1],"split_indices":[11,6,13,0,1,10,3,11,1,0,0,11,11,9,14,3,12,0,0,9,12,0,3,11,9,0,0,1,11,1,13,0,0,0,0,0,1,13,1,10,0,0,0,0,0,0,0,0,0,0,0,0,0,0,0,0,0,0,0],"split_type":[0,0,0,0,0,0,0,0,0,0,0,0,0,0,0,0,0,0,0,0,0,0,0,0,0,0,0,0,0,0,0,0,0,0,0,0,0,0,0,0,0,0,0,0,0,0,0,0,0,0,0,0,0,0,0,0,0,0,0],"sum_hessian":[8.9E1,4.5E1,4.4E1,4.2E1,3E0,2.2E1,2.2E1,3.9E1,3E0,2E0,1E0,1E1,1.2E1,1.5E1,7E0,1.3E1,2.6E1,1E0,2E0,4E0,6E0,4E0,8E0,8E0,7E0,2E0,5E0,5E0,8E0,5E0,2.1E1,1E0,3E0,4E0,2E0,1E0,7E0,5E0,3E0,5E0,2E0,4E0,1E0,1E0,7E0,3E0,2E0,6E0,1.5E1,6E0,1E0,3E0,2E0,2E0,1E0,3E0,2E0,1E0,1E0],"tree_param":{"num_deleted":"0","num_feature":"15","num_nodes":"59","size_leaf_vector":"1"}},{"base_weights":[1.2177047E2,-9.912238E0,3.0871094E3,-4.8215555E2,9.1966046E2,2.3811467E2,-4.846107E1,-7.001115E2,1.2992347E3,1.427276E3,-3.0038292E0,-3.2739307E2,-1.2044418E3,1.8966699E3,-1.2956883E2,1.6802029E3,-4.4817734E0,-3.7002917E2,8.235542E2,-5.917241E2,1.2712058E3,-9.95307E1,-8.7547095E2,2.7778101E1,1.04652824E2,-1.3545336E1,3.8276727E0,8.1283826E2,1.9738682E3,-2.1197407E1,1.3832819E1,-6.8330237E2,2.4214235E1,4.900738E1,8.84435E0,1.5123691E1,-4.7338726E1,1.6441402E1,8.949242E1,1.8510645E1,-4.8526184E1,4.583156E1,7.3468432E0,3.7213E1,1.0726819E2,-1.448954E0,-5.8340004E1],"categories":[],"categories_nodes":[],"categories_segments":[],"categories_sizes":[],"default_left":[0,1,0,0,0,0,0,1,0,0,1,0,1,0,0,0,0,0,0,0,0,0,0,0,0,0,0,0,0,0,0,0,0,0,0,0,0,0,0,0,0,0,0,0,0,0,0],"id":9,"left_children":[1,3,5,7,9,-1,-1,11,13,15,17,19,21,23,25,27,29,31,33,35,37,-1,39,-1,-1,-1,-1,41,43,-1,-1,45,-1,-1,-1,-1,-1,-1,-1,-1,-1,-1,-1,-1,-1,-1,-1],"loss_changes":[3.673608E7,4.039101E7,3.179612E7,2.4593752E7,1.4523412E7,0E0,0E0,9.944198E6,6.221071E6,7.250128E6,3.9451522E6,1.4696662E7,4.205714E6,1.54054E5,1.081375E5,2.725716E6,5.8899994E5,2.7396158E6,2.3168E5,9.49345E6,1.855234E6,0E0,2.490603E6,0E0,0E0,0E0,0E0,2.8000825E5,9.3376E5,0E0,0E0,2.1807338E6,0E0,0E0,0E0,0E0,0E0,0E0,0E0,0E0,0E0,0E0,0E0,0E0,0E0,0E0,0E0],"parents":[2147483647,0,0,1,1,2,2,3,3,4,4,7,7,8,8,9,9,10,10,11,11,12,12,13,13,14,14,15,15,16,16,17,17,18,18,19,19,20,20,22,22,27,27,28,28,31,31],"right_children":[2,4,6,8,10,-1,-1,12,14,16,18,20,22,24,26,28,30,32,34,36,38,-1,40,-1,-1,-1,-1,42,44,-1,-1,46,-1,-1,-1,-1,-1,-1,-1,-1,-1,-1,-1,-1,-1,-1,-1],"split_conditions":[5.1E1,4.654973E4,1E0,1E0,4.6027934E4,2.3811467E2,-4.846107E1,4.636393E4,7.962E0,7.962E0,4.7459973E4,4.582902E4,4.451896E4,3.851E1,3.993E1,5.458E1,7.6E1,4.975417E4,6.931E1,2.728E0,4.59713E4,-9.95307E1,8E0,2.7778101E1,1.04652824E2,-1.3545336E1,3.8276727E0,2.1436272E2,2.1043912E2,-2.1197407E1,1.3832819E1,4.707169E4,2.4214235E1,4.900738E1,8.84435E0,1.5123691E1,-4.7338726E1,1.6441402E1,8.949242E1,1.8510645E1,-4.8526184E1,4.583156E1,7.3468432E0,3.7213E1,1.0726819E2,-1.448954E0,-5.8340004E1],"split_indices":[6,11,0,0,13,0,0,9,4,4,13,9,13,1,1,1,1,11,1,2,9,0,6,0,0,0,0,3,3,0,0,13,0,0,0,0,0,0,0,0,0,0,0,0,0,0,0],"split_type":[0,0,0,0,0,0,0,0,0,0,0,0,0,0,0,0,0,0,0,0,0,0,0,0,0,0,0,0,0,0,0,0,0,0,0,0,0,0,0,0,0,0,0,0,0,0,0],"sum_hessian":[9.3E1,9E1,3E0,6E1,3E1,2E0,1E0,5.4E1,6E0,1.9E1,1.1E1,3.2E1,2.2E1,4E0,2E0,1.6E1,3E0,8E0,3E0,2.8E1,4E0,5E0,1.7E1,1E0,3E0,1E0,1E0,5E0,1.1E1,1E0,2E0,6E0,2E0,2E0,1E0,8E0,2E1,2E0,2E0,1E0,1.6E1,4E0,1E0,2E0,9E0,3E0,3E0],"tree_param":{"num_deleted":"0","num_feature":"15","num_nodes":"47","size_leaf_vector":"1"}},{"base_weights":[5.637126E1,1.6092418E2,-3.133858E3,9.364613E0,2.3017752E2,-4.7249546E1,-1.877898E2,1.2909285E3,-1.3314697E2,-2.1650877E1,1.5605488E3,2.9712946E1,-1.2924237E3,9.525843E1,3.698185E1,3.714793E2,-4.0910376E2,-1.01151085E2,-4.6818823E2,3.5191875E1,-1.9925516E1,-3.490625E1,2.0353773E1,1.2184344E1,-4.4252377E1],"categories":[],"categories_nodes":[],"categories_segments":[],"categories_sizes":[],"default_left":[0,0,0,1,0,0,0,0,0,0,1,0,0,0,0,0,1,0,0,0,0,0,0,0,0],"id":10,"left_children":[1,3,5,7,-1,-1,-1,9,11,-1,13,15,17,-1,-1,19,21,-1,23,-1,-1,-1,-1,-1,-1],"loss_changes":[3.1524256E7,6.122923E7,5.34828E5,1.6426639E7,0E0,0E0,0E0,4.859044E6,1.533118E7,0E0,8.54088E5,1.0950014E7,5.074692E6,0E0,0E0,1.0772892E7,7.83277E6,0E0,1.9961851E6,0E0,0E0,0E0,0E0,0E0,0E0],"parents":[2147483647,0,0,1,1,2,2,3,3,7,7,8,8,10,10,11,11,12,12,15,15,16,16,18,18],"right_children":[2,4,6,8,-1,-1,-1,10,12,-1,14,16,18,-1,-1,20,22,-1,24,-1,-1,-1,-1,-1,-1],"split_conditions":[5.2E1,5.1E1,4.633E1,4.241581E4,2.3017752E2,-4.7249546E1,-1.877898E2,4.231E1,4.5E1,-2.1650877E1,4.4424707E4,4.6027934E4,2.886E0,9.525843E1,3.698185E1,8.315E1,4.720318E4,-1.01151085E2,4.927E1,3.5191875E1,-1.9925516E1,-3.490625E1,2.0353773E1,1.2184344E1,-4.4252377E1],"split_indices":[6,6,1,9,0,0,0,1,6,0,12,13,2,0,0,1,12,0,1,0,0,0,0,0,0],"split_type":[0,0,0,0,0,0,0,0,0,0,0,0,0,0,0,0,0,0,0,0,0,0,0,0,0],"sum_hessian":[9.2E1,9E1,2E0,8.8E1,2E0,1E0,1E0,8E0,8E1,1E0,7E0,7.1E1,9E0,4E0,3E0,4E1,3.1E1,4E0,5E0,2.8E1,1.2E1,2.3E1,8E0,2E0,3E0],"tree_param":{"num_deleted":"0","num_feature":"15","num_nodes":"25","size_leaf_vector":"1"}},{"base_weights":[-6.663103E1,2.7465563E1,-3.0555115E3,-1.1397449E2,2.2250493E2,-4.606831E1,-1.8309506E2,-4.9257785E2,7.1013196E2,1.8029634E2,-6.98046E2,1.2854086E3,-3.9141903E1,-4.269661E2,1.0220575E3,-8.7930016E1,-1.0691516E3,1.0827239E2,9.421539E2,-7.682626E2,3.293326E2,1.4200076E1,-5.9736702E1,5.716333E1,7.370071E0,-4.67534E1,3.4509453E1,1.0808737E1,-5.5960083E1,7.155285E0,5.3170155E1,-4.775385E1,-5.251255E-1,-3.4838696E0,4.7263348E1],"categories":[],"categories_nodes":[],"categories_segments":[],"categories_sizes":[],"default_left":[0,0,0,1,0,0,0,0,0,0,0,0,0,1,0,0,0,0,0,0,0,0,0,0,0,0,0,0,0,0,0,0,0,0,0],"id":11,"left_children":[1,3,5,7,-1,-1,-1,9,11,13,15,17,19,21,23,25,27,-1,29,31,33,-1,-1,-1,-1,-1,-1,-1,-1,-1,-1,-1,-1,-1,-1],"loss_changes":[2.7645778E7,6.0558788E7,5.08422E5,2.9678686E7,0E0,0E0,0E0,9.112383E6,1.2981506E7,8.615103E6,1.122686E7,3.095134E6,4.0142872E6,5.7978875E6,5.73595E5,1.3828857E7,2.236192E6,0E0,1.204197E6,6.9777175E5,2.5235032E6,0E0,0E0,0E0,0E0,0E0,0E0,0E0,0E0,0E0,0E0,0E0,0E0,0E0,0E0],"parents":[2147483647,0,0,1,1,2,2,3,3,7,7,8,8,9,9,10,10,11,11,12,12,13,13,14,14,15,15,16,16,18,18,19,19,20,20],"right_children":[2,4,6,8,-1,-1,-1,10,12,14,16,18,20,22,24,26,28,-1,30,32,34,-1,-1,-1,-1,-1,-1,-1,-1,-1,-1,-1,-1,-1,-1],"split_conditions":[5.2E1,5.1E1,4.633E1,4.654973E4,2.2250493E2,-4.606831E1,-1.8309506E2,2.692E0,4.5955414E4,2.114561E2,4.4542664E4,4.695582E4,4.839798E4,4.708954E4,4.920206E4,6.014E1,4.404E1,1.0827239E2,4.5180824E4,7.6E1,4.760111E4,1.4200076E1,-5.9736702E1,5.716333E1,7.370071E0,-4.67534E1,3.4509453E1,1.0808737E1,-5.5960083E1,7.155285E0,5.3170155E1,-4.775385E1,-5.251255E-1,-3.4838696E0,4.7263348E1],"split_indices":[6,6,1,11,0,0,0,2,13,3,12,11,11,9,9,1,1,0,13,1,13,0,0,0,0,0,0,0,0,0,0,0,0,0,0],"split_type":[0,0,0,0,0,0,0,0,0,0,0,0,0,0,0,0,0,0,0,0,0,0,0,0,0,0,0,0,0,0,0,0,0,0,0],"sum_hessian":[9.7E1,9.5E1,2E0,9.3E1,2E0,1E0,1E0,6.4E1,2.9E1,1.5E1,4.9E1,1.6E1,1.3E1,9E0,6E0,1.9E1,3E1,3E0,1.3E1,4E0,9E0,5E0,4E0,5E0,1E0,9E0,1E1,1E0,2.9E1,2E0,1.1E1,3E0,1E0,6E0,3E0],"tree_param":{"num_deleted":"0","num_feature":"15","num_nodes":"35","size_leaf_vector":"1"}},{"base_weights":[4.802015E1,-4.8612827E1,2.2345634E2,-6.250583E2,7.163927E2,-4.1468576E2,-3.09845E3,1.1605455E3,-2.237067E1,-5.981337E2,1.3559728E3,-1.7639873E2,-4.52469E1,4.2153308E2,1.8102853E3,-4.3973975E2,5.7706665E2,-7.083009E2,7.356965E2,-1.0840629E1,1.8033723E3,1.0271862E3,-8.539834E1,1.9324609E3,8.604453E0,-9.6040607E2,5.813612E2,1.3108604E2,5.640061E1,-3.9256943E1,6.2972363E1,-5.089925E0,5.2439716E1,2.7372686E1,1.01976364E2,5.8959297E1,6.6796813E0,-2.2063972E1,1.9040133E1,5.7526093E1,1.2613232E2,-8.369268E0,-5.323393E1,3.3289753E1,8.201493E0,-7.8815646E0,1.213366E1],"categories":[],"categories_nodes":[],"categories_segments":[],"categories_sizes":[],"default_left":[0,1,0,0,0,0,0,0,0,0,0,0,0,0,0,0,0,0,0,0,0,0,0,0,0,0,0,0,0,0,0,0,0,0,0,0,0,0,0,0,0,0,0,0,0,0,0],"id":12,"left_children":[1,3,-1,5,7,9,11,13,15,17,19,-1,-1,21,23,25,27,29,31,-1,33,35,37,39,-1,41,43,45,-1,-1,-1,-1,-1,-1,-1,-1,-1,-1,-1,-1,-1,-1,-1,-1,-1,-1,-1],"loss_changes":[3.9949156E7,4.101831E7,0E0,2.6292798E7,1.3150916E7,1.7052242E7,5.76068E5,1.1241052E7,4.256745E6,7.280528E6,3.90931E6,0E0,0E0,4.0790395E6,2.26936E6,5.8748715E6,1.5721102E6,7.490346E6,1.155637E6,0E0,6.9818E4,6.574235E5,1.4953374E6,2.635508E6,0E0,4.006205E5,3.173725E4,1.9933861E5,0E0,0E0,0E0,0E0,0E0,0E0,0E0,0E0,0E0,0E0,0E0,0E0,0E0,0E0,0E0,0E0,0E0,0E0,0E0],"parents":[2147483647,0,0,1,1,3,3,4,4,5,5,6,6,7,7,8,8,9,9,10,10,13,13,14,14,15,15,16,16,17,17,18,18,20,20,21,21,22,22,23,23,25,25,26,26,27,27],"right_children":[2,4,-1,6,8,10,12,14,16,18,20,-1,-1,22,24,26,28,30,32,-1,34,36,38,40,-1,42,44,46,-1,-1,-1,-1,-1,-1,-1,-1,-1,-1,-1,-1,-1,-1,-1,-1,-1,-1,-1],"split_conditions":[2.1935773E2,4.534192E4,2.2345634E2,5E1,4.6027934E4,1E0,5.141E1,4.431915E4,4.654973E4,5.003173E4,2.1128914E2,-1.7639873E2,-4.52469E1,6.276E1,8.783E1,4.975417E4,4.714256E4,9.165E1,4.227E1,-1.0840629E1,3.851E1,2.1799808E2,4.784427E4,2.1140494E2,8.604453E0,4.636393E4,5.958E1,6.29E1,5.640061E1,-3.9256943E1,6.2972363E1,-5.089925E0,5.2439716E1,2.7372686E1,1.01976364E2,5.8959297E1,6.6796813E0,-2.2063972E1,1.9040133E1,5.7526093E1,1.2613232E2,-8.369268E0,-5.323393E1,3.3289753E1,8.201493E0,-7.8815646E0,1.213366E1],"split_indices":[3,11,0,6,13,0,1,10,9,10,3,0,0,1,1,11,13,1,1,0,1,3,11,3,0,11,1,1,0,0,0,0,0,0,0,0,0,0,0,0,0,0,0,0,0,0,0],"split_type":[0,0,0,0,0,0,0,0,0,0,0,0,0,0,0,0,0,0,0,0,0,0,0,0,0,0,0,0,0,0,0,0,0,0,0,0,0,0,0,0,0,0,0,0,0,0,0],"sum_hessian":[9.2E1,9.1E1,1E0,5.2E1,3.9E1,4.9E1,3E0,2.4E1,1.5E1,4.5E1,4E0,2E0,1E0,1.2E1,1.2E1,9E0,6E0,4.2E1,3E0,1E0,3E0,5E0,7E0,1.1E1,1E0,6E0,3E0,4E0,2E0,4.1E1,1E0,1E0,2E0,1E0,2E0,4E0,1E0,4E0,3E0,6E0,5E0,1E0,5E0,2E0,1E0,1E0,3E0],"tree_param":{"num_deleted":"0","num_feature":"15","num_nodes":"47","size_leaf_vector":"1"}},{"base_weights":[-9.37065E1,-5.2142554E2,7.233622E2,-7.983015E2,9.1509705E2,1.1453009E3,-4.0149223E1,-6.26491E2,-1.6405847E2,2.1786995E2,4.8463646E1,1.5054686E3,5.399837E1,-7.532438E2,4.1055353E2,-1.4591907E3,-3.9691443E2,6.8432587E2,-9.1744556E2,3.7412247E1,1.7128004E3,1.2108466E1,-2.1489566E2,-4.7487164E1,8.188508E-1,7.2281616E2,-3.508229E2,1.1519942E1,-8.362614E1,-2.365468E2,-7.200524E1,-1.0354859E1,5.9090584E1,-7.17666E0,-5.6378597E1,6.1916345E2,1.8870348E3,-1.9801823E1,3.6846473E0,4.395372E1,1.3676658E1,-3.4308174E1,7.9964557E0,6.462346E0,-2.9459951E1,2.2573287E0,4.417993E1,1.0023254E2,2.3652708E1],"categories":[],"categories_nodes":[],"categories_segments":[],"categories_sizes":[],"default_left":[1,0,0,0,0,0,0,1,0,0,0,0,0,0,1,0,0,0,0,0,0,0,0,0,0,0,0,0,0,0,0,0,0,0,0,0,0,0,0,0,0,0,0,0,0,0,0,0,0],"id":13,"left_children":[1,3,5,7,9,11,13,15,-1,-1,17,19,21,23,25,27,29,31,33,-1,35,-1,37,-1,-1,39,41,-1,-1,43,-1,-1,-1,-1,-1,45,47,-1,-1,-1,-1,-1,-1,-1,-1,-1,-1,-1,-1],"loss_changes":[3.148053E7,2.4197104E7,1.0032789E7,1.9273524E7,2.9620966E7,7.779748E6,4.165971E6,8.596904E6,0E0,0E0,6.155498E6,1.073352E6,3.5562938E5,7.717045E5,2.155576E6,3.989786E6,6.183813E6,2.9055715E6,4.8863325E5,0E0,9.27658E5,0E0,1.860106E5,0E0,0E0,1.8076925E5,6.2356506E5,0E0,0E0,4.5910815E6,0E0,0E0,0E0,0E0,0E0,4.1547925E5,5.4845E5,0E0,0E0,0E0,0E0,0E0,0E0,0E0,0E0,0E0,0E0,0E0,0E0],"parents":[2147483647,0,0,1,1,2,2,3,3,4,4,5,5,6,6,7,7,10,10,11,11,12,12,13,13,14,14,15,15,16,16,17,17,18,18,20,20,22,22,25,25,26,26,29,29,35,35,36,36],"right_children":[2,4,6,8,10,12,14,16,-1,-1,18,20,22,24,26,28,30,32,34,-1,36,-1,38,-1,-1,40,42,-1,-1,44,-1,-1,-1,-1,-1,46,48,-1,-1,-1,-1,-1,-1,-1,-1,-1,-1,-1,-1],"split_conditions":[4.638754E4,4.935743E4,4.6027934E4,4.8393812E4,4.935975E4,7.866E0,4.839798E4,4.4555164E4,-1.6405847E2,2.1786995E2,2.667E0,5.458E1,4.5639367E4,8.043E1,4.687754E4,4.404E1,8.641E1,4.227E1,4.331585E4,3.7412247E1,2.1043912E2,1.2108466E1,7.6E1,-4.7487164E1,8.188508E-1,6.931E1,8.121E1,1.1519942E1,-8.362614E1,4.5422105E4,-7.200524E1,-1.0354859E1,5.9090584E1,-7.17666E0,-5.6378597E1,6.763E1,4.901505E4,-1.9801823E1,3.6846473E0,4.395372E1,1.3676658E1,-3.4308174E1,7.9964557E0,6.462346E0,-2.9459951E1,2.2573287E0,4.417993E1,1.0023254E2,2.3652708E1],"split_indices":[11,10,13,12,10,4,11,13,0,0,2,1,13,1,14,1,1,1,9,0,3,0,1,0,0,1,1,0,0,12,0,0,0,0,0,1,11,0,0,0,0,0,0,0,0,0,0,0,0],"split_type":[0,0,0,0,0,0,0,0,0,0,0,0,0,0,0,0,0,0,0,0,0,0,0,0,0,0,0,0,0,0,0,0,0,0,0,0,0,0,0,0,0,0,0,0,0,0,0,0,0],"sum_hessian":[8.8E1,5.8E1,3E1,4.9E1,9E0,1.9E1,1.1E1,4.7E1,2E0,1E0,8E0,1.4E1,5E0,4E0,7E0,9E0,3.8E1,5E0,3E0,4E0,1E1,3E0,2E0,3E0,1E0,5E0,2E0,1E0,8E0,3.4E1,4E0,2E0,3E0,1E0,2E0,2E0,8E0,1E0,1E0,3E0,2E0,1E0,1E0,1.7E1,1.7E1,1E0,1E0,7E0,1E0],"tree_param":{"num_deleted":"0","num_feature":"15","num_nodes":"49","size_leaf_vector":"1"}},{"base_weights":[1.1281519E2,2.1382219E2,-1.4606653E2,7.6584915E1,2.0612144E2,-3.828332E2,6.2597205E2,-5.685552E2,1.328087E3,9.491857E2,8.182737E1,-6.408367E2,6.348871E1,-1.031074E1,1.7632163E3,4.111444E2,1.4978018E3,-2.4871533E2,5.423416E2,4.771947E0,-4.334213E1,2.6526814E1,9.986321E1,2.9736784E0,4.3506332E1,8.365004E1,2.0726889E1,-3.3156525E1,2.69345E1,6.282004E0,5.280318E1],"categories":[],"categories_nodes":[],"categories_segments":[],"categories_sizes":[],"default_left":[0,0,0,1,0,0,0,0,0,0,0,1,0,0,0,0,0,0,0,0,0,0,0,0,0,0,0,0,0,0,0],"id":14,"left_children":[1,3,-1,5,-1,7,9,11,13,15,17,19,-1,-1,21,23,25,27,29,-1,-1,-1,-1,-1,-1,-1,-1,-1,-1,-1,-1],"loss_changes":[2.851341E7,4.7424468E7,0E0,2.2198302E7,0E0,1.6007356E7,6.957332E6,6.660316E6,3.701699E6,6.76364E6,2.5704025E6,7.238042E6,0E0,0E0,9.4403E4,2.2080002E6,1.583918E6,3.6203485E6,1.3657975E6,0E0,0E0,0E0,0E0,0E0,0E0,0E0,0E0,0E0,0E0,0E0,0E0],"parents":[2147483647,0,0,1,1,3,3,5,5,6,6,7,7,8,8,9,9,10,10,11,11,14,14,15,15,16,16,17,17,18,18],"right_children":[2,4,-1,6,-1,8,10,12,14,16,18,20,-1,-1,22,24,26,28,30,-1,-1,-1,-1,-1,-1,-1,-1,-1,-1,-1,-1],"split_conditions":[5.2E1,5.1E1,-1.4606653E2,4.534192E4,2.0612144E2,1E0,4.6027934E4,9.165E1,2.561E0,4.431915E4,4.654973E4,4.429287E4,6.348871E1,-1.031074E1,3.851E1,4.790301E4,4.708954E4,4.975417E4,4.714256E4,4.771947E0,-4.334213E1,2.6526814E1,9.986321E1,2.9736784E0,4.3506332E1,8.365004E1,2.0726889E1,-3.3156525E1,2.69345E1,6.282004E0,5.280318E1],"split_indices":[6,6,0,11,0,0,13,1,2,10,9,10,0,0,1,11,9,11,13,0,0,0,0,0,0,0,0,0,0,0,0],"split_type":[0,0,0,0,0,0,0,0,0,0,0,0,0,0,0,0,0,0,0,0,0,0,0,0,0,0,0,0,0,0,0],"sum_hessian":[9E1,8.8E1,2E0,8.6E1,2E0,4.7E1,3.9E1,4.3E1,4E0,2.4E1,1.5E1,4.2E1,1E0,1E0,3E0,1.3E1,1.1E1,9E0,6E0,1E1,3.2E1,1E0,2E0,8E0,5E0,9E0,2E0,6E0,3E0,4E0,2E0],"tree_param":{"num_deleted":"0","num_feature":"15","num_nodes":"31","size_leaf_vector":"1"}},{"base_weights":[2.5986359E1,1.1965484E2,-1.4119765E2,-1.1982633E1,1.9925075E2,-3.263588E2,6.8456396E2,8.964061E1,-4.2687802E2,1.0972314E3,-5.294321E1,1.2557994E2,-7.062465E2,1.3414985E3,-9.307789E1,4.332448E2,-7.230178E2,-2.0957666E1,4.492318E1,-6.4118256E1,-8.829369E0,4.7233242E1,9.7311646E1,-1.9381119E1,6.7155533E0,-4.8754177E0,3.325239E1,7.123182E0,-4.8750206E1],"categories":[],"categories_nodes":[],"categories_segments":[],"categories_sizes":[],"default_left":[0,0,0,1,0,1,0,0,0,0,0,0,1,0,0,0,0,0,0,0,0,0,0,0,0,0,0,0,0],"id":15,"left_children":[1,3,-1,5,-1,7,9,-1,11,13,15,17,19,21,23,25,27,-1,-1,-1,-1,-1,-1,-1,-1,-1,-1,-1,-1],"loss_changes":[2.51642E7,4.6350936E7,0E0,1.9712422E7,0E0,1.3972393E7,8.579756E6,0E0,9.34905E6,5.358424E6,3.8968488E6,9.217917E6,1.197941E7,1.761148E6,3.1996662E5,9.260586E5,1.22935E6,0E0,0E0,0E0,0E0,0E0,0E0,0E0,0E0,0E0,0E0,0E0,0E0],"parents":[2147483647,0,0,1,1,3,3,5,5,6,6,8,8,9,9,10,10,11,11,12,12,13,13,14,14,15,15,16,16],"right_children":[2,4,-1,6,-1,8,10,-1,12,14,16,18,20,22,24,26,28,-1,-1,-1,-1,-1,-1,-1,-1,-1,-1,-1,-1],"split_conditions":[5.2E1,5.1E1,-1.4119765E2,4.654973E4,1.9925075E2,4.159699E4,4.6027934E4,8.964061E1,4.456137E4,7.962E0,4.6815125E4,4.331585E4,4.5585773E4,3.236E0,4.311079E4,4.7030227E4,2.603E0,-2.0957666E1,4.492318E1,-6.4118256E1,-8.829369E0,4.7233242E1,9.7311646E1,-1.9381119E1,6.7155533E0,-4.8754177E0,3.325239E1,7.123182E0,-4.8750206E1],"split_indices":[6,6,0,11,0,9,13,0,12,4,14,11,13,2,9,13,2,0,0,0,0,0,0,0,0,0,0,0,0],"split_type":[0,0,0,0,0,0,0,0,0,0,0,0,0,0,0,0,0,0,0,0,0,0,0,0,0,0,0,0,0],"sum_hessian":[9.2E1,9E1,2E0,8.8E1,2E0,6.1E1,2.7E1,2E0,5.9E1,1.7E1,1E1,2E1,3.9E1,1.4E1,3E0,6E0,4E0,1.2E1,8E0,1.8E1,2.1E1,1E1,4E0,1E0,2E0,2E0,4E0,1E0,3E0],"tree_param":{"num_deleted":"0","num_feature":"15","num_nodes":"29","size_leaf_vector":"1"}},{"base_weights":[4.2238304E1,-8.122433E2,2.8415555E2,3.059235E2,-1.0933368E3,1.4205913E3,1.0494765E2,-1.8716263E1,5.6956696E2,-1.0039406E2,-5.449533E2,3.094958E2,1.9549911E2,-3.536927E2,6.518178E2,-8.450016E0,4.3604477E1,2.0764277E1,-6.70001E2,1.0044326E3,-6.365492E2,3.943559E2,-5.81505E2,9.7887244E2,-2.0831277E0,1.048702E1,-4.111929E1,5.298221E1,8.105361E1,-3.8641308E1,-5.6929564E0,9.2315475E1,4.8383247E1,6.2867456E2,-8.0939636E2,1.2229323E3,2.1067016E0,3.0519968E2,-4.6161858E1,1.0230713E0,-2.365448E-1,1.2647277E1,-8.673612E0,-4.274642E0,1.7894543E1,-2.5099865E1,5.184209E1,1.4807418E1,-4.6168087E1,2.7994724E1,7.367068E1,-1.889659E1,9.579964E0,3.0421356E1,-1.1297073E1],"categories":[],"categories_nodes":[],"categories_segments":[],"categories_sizes":[],"default_left":[1,0,0,0,0,0,0,0,0,0,0,0,0,0,0,0,0,0,0,0,0,0,0,0,1,0,0,0,0,0,0,0,0,0,0,0,0,0,0,0,0,0,0,0,0,0,0,0,0,0,0,0,0,0,0],"id":16,"left_children":[1,3,5,7,9,11,13,-1,15,-1,17,19,-1,21,23,-1,-1,-1,25,27,29,31,33,35,37,39,-1,41,-1,-1,-1,43,-1,45,47,49,51,53,-1,-1,-1,-1,-1,-1,-1,-1,-1,-1,-1,-1,-1,-1,-1,-1,-1],"loss_changes":[1.96619E7,6.934976E6,1.4921623E7,1.109919E6,7.431656E6,2.644938E7,1.6533629E7,0E0,1.0411164E6,0E0,1.7191488E6,5.8989025E6,0E0,6.3642485E6,6.41788E6,0E0,0E0,0E0,1.149281E6,2.8476215E6,1.96929E5,1.469132E6,8.230952E6,4.765206E6,3.3953742E6,5.521699E2,0E0,1.7972678E5,0E0,0E0,0E0,3.6114762E5,0E0,2.828008E6,3.297304E6,1.832302E6,4.324838E5,1.5869782E6,0E0,0E0,0E0,0E0,0E0,0E0,0E0,0E0,0E0,0E0,0E0,0E0,0E0,0E0,0E0,0E0,0E0],"parents":[2147483647,0,0,1,1,2,2,3,3,4,4,5,5,6,6,8,8,10,10,11,11,13,13,14,14,18,18,19,19,20,20,21,21,22,22,23,23,24,24,25,25,27,27,31,31,33,33,34,34,35,35,36,36,37,37],"right_children":[2,4,6,8,10,12,14,-1,16,-1,18,20,-1,22,24,-1,-1,-1,26,28,30,32,34,36,38,40,-1,42,-1,-1,-1,44,-1,46,48,50,52,54,-1,-1,-1,-1,-1,-1,-1,-1,-1,-1,-1,-1,-1,-1,-1,-1,-1],"split_conditions":[4.331585E4,4.383E1,4.427415E4,4.16824E4,5.145E1,4.408133E4,4.654973E4,-1.8716263E1,2.561E0,-1.0039406E2,5.779E1,4.462323E4,1.9549911E2,2.667E0,4.6027934E4,-8.450016E0,4.3604477E1,2.0764277E1,4.330638E4,6E0,3.172E0,4.901505E4,4.431435E4,7.962E0,4.687754E4,6.997E1,-4.111929E1,6.632E1,8.105361E1,-3.8641308E1,-5.6929564E0,8.434E1,4.8383247E1,2.1163942E2,4.319102E4,5.458E1,7.6E1,4.839798E4,-4.6161858E1,1.0230713E0,-2.365448E-1,1.2647277E1,-8.673612E0,-4.274642E0,1.7894543E1,-2.5099865E1,5.184209E1,1.4807418E1,-4.6168087E1,2.7994724E1,7.367068E1,-1.889659E1,9.579964E0,3.0421356E1,-1.1297073E1],"split_indices":[11,1,11,9,1,11,11,0,2,0,1,10,0,2,13,0,0,0,9,7,2,10,13,4,14,1,0,1,0,0,0,1,0,3,10,1,1,10,0,0,0,0,0,0,0,0,0,0,0,0,0,0,0,0,0],"split_type":[0,0,0,0,0,0,0,0,0,0,0,0,0,0,0,0,0,0,0,0,0,0,0,0,0,0,0,0,0,0,0,0,0,0,0,0,0,0,0,0,0,0,0,0,0,0,0,0,0,0,0,0,0,0,0],"sum_hessian":[9.3E1,2E1,7.3E1,4E0,1.6E1,9E0,6.4E1,1E0,3E0,5E0,1.1E1,7E0,2E0,3.5E1,2.9E1,1E0,2E0,1E0,1E1,4E0,3E0,8E0,2.7E1,1.9E1,1E1,2E0,8E0,2E0,2E0,2E0,1E0,6E0,2E0,4E0,2.3E1,1.5E1,4E0,8E0,2E0,1E0,1E0,1E0,1E0,4E0,2E0,1E0,3E0,2E0,2.1E1,5E0,1E1,1E0,3E0,5E0,3E0],"tree_param":{"num_deleted":"0","num_feature":"15","num_nodes":"55","size_leaf_vector":"1"}},{"base_weights":[-5.4624596E1,-1.4601175E2,1.9740143E2,-7.323636E2,5.297089E2,-5.315878E2,-2.7578057E3,8.690966E2,-5.499209E-1,-6.4442914E2,4.774602E2,-1.5736925E2,-3.972668E1,3.8664752E2,1.3595292E3,5.184E2,-2.0010376E2,-7.569101E1,-4.464831E2,-1.339308E2,4.648489E1,-2.3282014E2,7.566651E2,1.0629954E2,7.105495E2,1.3221309E1,3.8357388E1,-3.3553418E2,3.5626537E1,-5.3060207E0,-4.1137928E1,-1.8060448E0,-8.238766E0,1.8973814E1,-2.1558735E1,4.149868E1,4.254936E0,-2.9129517E0,4.14351E1,1.9774374E1,-2.1897205E1],"categories":[],"categories_nodes":[],"categories_segments":[],"categories_sizes":[],"default_left":[0,1,0,0,0,0,0,0,0,1,0,0,0,0,0,0,1,0,0,0,0,0,0,0,0,0,0,0,0,0,0,0,0,0,0,0,0,0,0,0,0],"id":17,"left_children":[1,3,-1,5,7,9,11,13,15,17,19,-1,-1,21,23,25,27,-1,29,31,-1,33,35,-1,37,-1,-1,39,-1,-1,-1,-1,-1,-1,-1,-1,-1,-1,-1,-1,-1],"loss_changes":[3.2766072E7,3.4858212E7,0E0,1.7646986E7,7.378974E6,5.317629E6,5.58698E5,5.38956E6,1.8642274E6,6.207807E6,1.5069852E6,0E0,0E0,3.385162E6,4.458394E6,1.13023125E5,1.8458586E6,0E0,4.267073E6,3.0988672E3,0E0,8.923312E5,3.72454E5,0E0,7.74972E5,0E0,0E0,1.071568E6,0E0,0E0,0E0,0E0,0E0,0E0,0E0,0E0,0E0,0E0,0E0,0E0,0E0],"parents":[2147483647,0,0,1,1,3,3,4,4,5,5,6,6,7,7,8,8,9,9,10,10,13,13,14,14,15,15,16,16,18,18,19,19,21,21,22,22,24,24,27,27],"right_children":[2,4,-1,6,8,10,12,14,16,18,20,-1,-1,22,24,26,28,-1,30,32,-1,34,36,-1,38,-1,-1,40,-1,-1,-1,-1,-1,-1,-1,-1,-1,-1,-1,-1,-1],"split_conditions":[2.1935773E2,4.534192E4,1.9740143E2,5E1,4.5955414E4,4.941975E4,2.976E0,4.431915E4,2.623E0,4.4239008E4,2.561E0,-1.5736925E2,-3.972668E1,4.638754E4,4.695582E4,1E0,4.7621418E4,-7.569101E1,3.288E0,1E0,4.648489E1,4.583377E4,2.1799808E2,1.0629954E2,2.1043912E2,1.3221309E1,3.8357388E1,1E1,3.5626537E1,-5.3060207E0,-4.1137928E1,-1.8060448E0,-8.238766E0,1.8973814E1,-2.1558735E1,4.149868E1,4.254936E0,-2.9129517E0,4.14351E1,1.9774374E1,-2.1897205E1],"split_indices":[3,11,0,6,13,10,2,10,2,13,2,0,0,11,11,0,13,0,2,0,0,11,3,0,3,0,0,6,0,0,0,0,0,0,0,0,0,0,0,0,0],"split_type":[0,0,0,0,0,0,0,0,0,0,0,0,0,0,0,0,0,0,0,0,0,0,0,0,0,0,0,0,0,0,0,0,0,0,0,0,0,0,0,0,0],"sum_hessian":[8.7E1,8.6E1,1E0,4.6E1,4E1,4.3E1,3E0,2.4E1,1.6E1,3.9E1,4E0,2E0,1E0,1.3E1,1.1E1,4E0,1.2E1,6E0,3.3E1,2E0,2E0,5E0,8E0,4E0,7E0,3E0,1E0,1.1E1,1E0,1.8E1,1.5E1,1E0,1E0,1E0,4E0,7E0,1E0,1E0,6E0,1E0,1E1],"tree_param":{"num_deleted":"0","num_feature":"15","num_nodes":"41","size_leaf_vector":"1"}},{"base_weights":[6.0995817E0,-3.185374E2,8.499118E2,-1.9948845E2,-1.3561932E2,1.2277944E3,4.066513E2,-3.2687787E2,1.924664E2,5.2346844E2,1.6025647E3,4.2239544E1,2.7215183E1,-4.3618427E2,7.660123E2,4.3126812E1,1.3830046E2,4.31898E1,1.0626922E2,2.0082492E2,-2.9701324E1,-1.08481E3,-2.3911047E2,5.805702E1,-1.6162455E1,1.5360743E0,8.195981E0,-7.9886765E0,2.875536E2,-7.046715E1,2.3337334E1,2.3607986E1,-2.714095E1,-8.032797E0,6.8206124E0,1.619525E1,2.6449153E0],"categories":[],"categories_nodes":[],"categories_segments":[],"categories_sizes":[],"default_left":[1,0,0,0,0,0,0,0,0,0,0,0,0,0,0,0,0,0,0,0,0,0,0,0,0,0,0,0,0,0,0,0,0,0,0,0,0],"id":18,"left_children":[1,3,5,7,-1,9,11,13,-1,15,17,-1,19,21,23,-1,25,-1,-1,27,-1,29,31,-1,33,-1,-1,-1,35,-1,-1,-1,-1,-1,-1,-1,-1],"loss_changes":[2.4650736E7,1.7982952E7,3.688226E6,3.3752172E7,0E0,2.592596E6,2.138207E6,7.740634E6,0E0,6.642991E5,1.254044E6,0E0,9.821242E5,7.026758E6,1.8731218E6,0E0,5.9884766E3,0E0,0E0,2.6486303E5,0E0,7.203709E6,9.977143E6,0E0,8.8053586E4,0E0,0E0,0E0,3.4046188E4,0E0,0E0,0E0,0E0,0E0,0E0,0E0,0E0],"parents":[2147483647,0,0,1,1,2,2,3,3,5,5,6,6,7,7,9,9,10,10,12,12,13,13,14,14,16,16,19,19,21,21,22,22,24,24,28,28],"right_children":[2,4,6,8,-1,10,12,14,-1,16,18,-1,20,22,24,-1,26,-1,-1,28,-1,30,32,-1,34,-1,-1,-1,36,-1,-1,-1,-1,-1,-1,-1,-1],"split_conditions":[4.654973E4,5.2E1,4.901505E4,2.1935773E2,-1.3561932E2,4.440502E4,5.958E1,1E0,1.924664E2,2.1121564E2,2.1140494E2,4.2239544E1,4.6815125E4,5.233E1,7.962E0,4.3126812E1,2.642E0,4.31898E1,1.0626922E2,6.29E1,-2.9701324E1,4.638754E4,4.456137E4,5.805702E1,3.993E1,1.5360743E0,8.195981E0,-7.9886765E0,2.1586105E2,-7.046715E1,2.3337334E1,2.3607986E1,-2.714095E1,-8.032797E0,6.8206124E0,1.619525E1,2.6449153E0],"split_indices":[11,6,11,3,0,10,1,0,0,3,3,0,14,1,4,0,2,0,0,1,0,10,12,0,1,0,0,0,3,0,0,0,0,0,0,0,0],"split_type":[0,0,0,0,0,0,0,0,0,0,0,0,0,0,0,0,0,0,0,0,0,0,0,0,0,0,0,0,0,0,0,0,0,0,0,0,0],"sum_hessian":[8.8E1,6.4E1,2.4E1,6.2E1,2E0,1.2E1,1.2E1,6.1E1,1E0,5E0,7E0,5E0,7E0,5.6E1,5E0,2E0,3E0,4E0,3E0,6E0,1E0,1.2E1,4.4E1,3E0,2E0,1E0,2E0,1E0,5E0,1E1,2E0,1.3E1,3.1E1,1E0,1E0,4E0,1E0],"tree_param":{"num_deleted":"0","num_feature":"15","num_nodes":"37","size_leaf_vector":"1"}},{"base_weights":[-3.3501328E1,5.7183765E1,-1.3109868E2,-7.167122E1,1.823031E2,-3.561175E2,5.0993982E2,-5.5259485E2,1.1262343E3,9.863747E2,-3.695037E1,5.273977E1,-7.830658E2,1.586183E3,-1.5758392E1,8.180215E1,6.876207E2,-6.418436E2,2.691913E2,3.5156788E1,-1.713859E1,-4.8198162E1,-2.0851128E1,2.3978697E1,8.714709E1,-7.8319764E0,6.650097E0,-3.919873E0,3.821929E1,1.4976724E0,-4.0864063E1,-5.759165E0,3.3830128E1],"categories":[],"categories_nodes":[],"categories_segments":[],"categories_sizes":[],"default_left":[0,0,0,1,0,0,0,0,0,0,0,1,0,0,0,0,0,0,0,0,0,0,0,0,0,0,0,0,0,0,0,0,0],"id":19,"left_children":[1,3,-1,5,-1,7,9,11,13,15,17,19,21,23,25,-1,27,29,31,-1,-1,-1,-1,-1,-1,-1,-1,-1,-1,-1,-1,-1,-1],"loss_changes":[2.0806688E7,4.0031572E7,0E0,1.4078314E7,0E0,1.722352E7,7.33206E6,7.156412E6,3.701802E6,1.786386E6,2.7653415E6,4.0996018E6,2.048008E6,3.1484E4,8.370593E4,0E0,7.65567E5,6.137729E5,1.6439189E6,0E0,0E0,0E0,0E0,0E0,0E0,0E0,0E0,0E0,0E0,0E0,0E0,0E0,0E0],"parents":[2147483647,0,0,1,1,3,3,5,5,6,6,7,7,8,8,9,9,10,10,11,11,12,12,13,13,14,14,16,16,17,17,18,18],"right_children":[2,4,-1,6,-1,8,10,12,14,16,18,20,22,24,26,-1,28,30,32,-1,-1,-1,-1,-1,-1,-1,-1,-1,-1,-1,-1,-1,-1],"split_conditions":[5.2E1,5.1E1,-1.3109868E2,4.654973E4,1.823031E2,1E0,4.5955414E4,2.728E0,7.962E0,4.695582E4,4.839798E4,4.568198E4,2.1550378E2,7.787E0,2.561E0,8.180215E1,2.1043912E2,2.642E0,4.7459973E4,3.5156788E1,-1.713859E1,-4.8198162E1,-2.0851128E1,2.3978697E1,8.714709E1,-7.8319764E0,6.650097E0,-3.919873E0,3.821929E1,1.4976724E0,-4.0864063E1,-5.759165E0,3.3830128E1],"split_indices":[6,6,0,11,0,0,13,2,4,11,11,9,3,4,2,0,3,2,13,0,0,0,0,0,0,0,0,0,0,0,0,0,0],"split_type":[0,0,0,0,0,0,0,0,0,0,0,0,0,0,0,0,0,0,0,0,0,0,0,0,0,0,0,0,0,0,0,0,0],"sum_hessian":[8.7E1,8.5E1,2E0,8.3E1,2E0,5.6E1,2.7E1,5E1,6E0,1.4E1,1.3E1,1.4E1,3.6E1,4E0,2E0,3E0,1.1E1,4E0,9E0,5E0,9E0,2.3E1,1.3E1,1E0,3E0,1E0,1E0,1E0,1E1,1E0,3E0,5E0,4E0],"tree_param":{"num_deleted":"0","num_feature":"15","num_nodes":"33","size_leaf_vector":"1"}},{"base_weights":[5.4500446E1,1.4214503E2,-2.5345745E3,5.959629E1,1.8309715E2,-1.5106827E2,-3.9024822E1,-3.4584827E2,5.2292065E2,7.975933E1,-4.6756506E2,7.802596E2,2.484917E1,-6.4043225E2,4.1199982E2,4.846186E2,1.9841561E3,2.092834E2,-3.9132442E1,-4.723487E1,-8.151207E0,5.165445E1,-2.3368082E1,-9.607478E0,3.4164238E1,1.3928973E1,1.1704528E2,2.124842E1,-1.1040316E1],"categories":[],"categories_nodes":[],"categories_segments":[],"categories_sizes":[],"default_left":[1,0,0,1,0,0,0,1,0,0,0,0,0,1,0,0,0,0,0,0,0,0,0,0,0,0,0,0,0],"id":20,"left_children":[1,3,5,7,-1,-1,-1,9,11,-1,13,15,17,19,21,23,25,27,-1,-1,-1,-1,-1,-1,-1,-1,-1,-1,-1],"loss_changes":[2.0782934E7,2.5350596E7,2.03444E5,1.6524005E7,0E0,0E0,0E0,1.184991E7,5.235711E6,0E0,7.106013E6,8.648314E6,2.3977498E6,5.36582E6,4.8521215E6,3.223664E6,2.39019E6,1.2997665E6,0E0,0E0,0E0,0E0,0E0,0E0,0E0,0E0,0E0,0E0,0E0],"parents":[2147483647,0,0,1,1,2,2,3,3,7,7,8,8,10,10,11,11,12,12,13,13,14,14,15,15,16,16,17,17],"right_children":[2,4,6,8,-1,-1,-1,10,12,-1,14,16,18,20,22,24,26,28,-1,-1,-1,-1,-1,-1,-1,-1,-1,-1,-1],"split_conditions":[5.988932E4,2.1917946E2,2.976E0,4.547569E4,1.8309715E2,-1.5106827E2,-3.9024822E1,4.159699E4,4.6027934E4,7.975933E1,2.1604105E2,4.654456E4,2.150911E2,4.5788445E4,4.502502E4,4.638754E4,2.1140494E2,4.6868168E4,-3.9132442E1,-4.723487E1,-8.151207E0,5.165445E1,-2.3368082E1,-9.607478E0,3.4164238E1,1.3928973E1,1.1704528E2,2.124842E1,-1.1040316E1],"split_indices":[9,3,2,11,0,0,0,9,13,0,3,10,3,13,10,11,3,14,0,0,0,0,0,0,0,0,0,0,0],"split_type":[0,0,0,0,0,0,0,0,0,0,0,0,0,0,0,0,0,0,0,0,0,0,0,0,0,0,0,0,0],"sum_hessian":[8.9E1,8.7E1,2E0,8.6E1,1E0,1E0,1E0,4.6E1,4E1,2E0,4.4E1,2.6E1,1.4E1,3.7E1,7E0,2.2E1,4E0,1.2E1,2E0,2.2E1,1.5E1,4E0,3E0,5E0,1.7E1,1E0,3E0,8E0,4E0],"tree_param":{"num_deleted":"0","num_feature":"15","num_nodes":"29","size_leaf_vector":"1"}},{"base_weights":[-3.64382E1,4.1654922E1,-2.47121E3,-4.129316E1,1.0784801E3,-3.8049206E1,-1.4729155E2,-6.502797E2,1.03068855E2,7.540069E1,3.0975952E0,-1.0426833E3,5.0002567E2,1.374828E3,2.7849937E1,-6.4553056E0,6.6876254E0,-4.366169E2,-8.384957E1,-2.042376E0,3.2272793E1,-3.31999E0,9.386852E1,1.854479E2,-5.5186597E2,-3.5545685E1,1.2875783E1,3.4485367E1,-3.9254112E0,5.9452186E0,-3.6473362E1],"categories":[],"categories_nodes":[],"categories_segments":[],"categories_sizes":[],"default_left":[0,0,0,0,0,0,0,0,0,0,0,0,0,0,0,0,0,0,0,0,0,0,0,0,0,0,0,0,0,0,0],"id":21,"left_children":[1,3,5,7,9,-1,-1,11,13,-1,15,17,19,21,23,-1,-1,25,-1,-1,-1,-1,-1,27,29,-1,-1,-1,-1,-1,-1],"loss_changes":[1.8356276E7,8.1287845E6,1.93398E5,7.8035025E6,3.228719E6,0E0,0E0,8.194896E6,6.849256E6,0E0,6.9087445E4,4.265424E6,4.1966175E5,3.02177E6,6.406324E6,0E0,0E0,1.7062581E6,0E0,0E0,0E0,0E0,0E0,7.374777E6,1.873682E6,0E0,0E0,0E0,0E0,0E0,0E0],"parents":[2147483647,0,0,1,1,2,2,3,3,4,4,7,7,8,8,10,10,11,11,12,12,13,13,14,14,17,17,23,23,24,24],"right_children":[2,4,6,8,10,-1,-1,12,14,-1,16,18,20,22,24,-1,-1,26,-1,-1,-1,-1,-1,28,30,-1,-1,-1,-1,-1,-1],"split_conditions":[5.2E1,1E0,4.633E1,5.233E1,7.962E0,-3.8049206E1,-1.4729155E2,4.638754E4,4.493266E4,7.540069E1,3.993E1,4.427415E4,4.227E1,7.787E0,7.962E0,-6.4553056E0,6.6876254E0,4.5126863E4,-8.384957E1,-2.042376E0,3.2272793E1,-3.31999E0,9.386852E1,4.571759E4,4.311079E4,-3.5545685E1,1.2875783E1,3.4485367E1,-3.9254112E0,5.9452186E0,-3.6473362E1],"split_indices":[6,0,1,1,4,0,0,10,14,0,1,10,1,4,4,0,0,12,0,0,0,0,0,14,10,0,0,0,0,0,0],"split_type":[0,0,0,0,0,0,0,0,0,0,0,0,0,0,0,0,0,0,0,0,0,0,0,0,0,0,0,0,0,0,0],"sum_hessian":[9.5E1,9.3E1,2E0,8.7E1,6E0,1E0,1E0,1.6E1,7.1E1,4E0,2E0,1.2E1,4E0,3E0,6.8E1,1E0,1E0,7E0,5E0,1E0,3E0,1E0,2E0,5.4E1,1.4E1,5E0,2E0,1.8E1,3.6E1,3E0,1.1E1],"tree_param":{"num_deleted":"0","num_feature":"15","num_nodes":"31","size_leaf_vector":"1"}},{"base_weights":[3.3975735E1,1.1595598E2,-2.40943E3,1.9860393E0,1.6912161E2,-3.7097973E1,-1.4360928E2,-2.501997E2,5.7166547E2,-1.0230009E3,-4.006469E1,8.391781E2,-5.660179E1,8.9111496E1,-1.5271744E3,1.4706985E3,-2.0703693E2,9.960541E2,1.8794785E0,1.2176404E1,-2.4725475E2,-1.0682399E1,3.2503735E1,-8.0749954E1,-2.0614428E1,-3.2369905E0,9.353715E1,7.2719865E0,-3.0839655E1,3.6833195E1,7.950294E1,-2.2641802E1,1.5219833E1,4.177386E0,-3.0295322E1],"categories":[],"categories_nodes":[],"categories_segments":[],"categories_sizes":[],"default_left":[0,0,0,1,0,0,0,0,0,0,0,0,0,0,1,0,0,0,0,0,0,0,0,0,0,0,0,0,0,0,0,0,0,0,0],"id":22,"left_children":[1,3,5,7,-1,-1,-1,9,11,13,15,17,19,21,23,25,27,29,31,-1,33,-1,-1,-1,-1,-1,-1,-1,-1,-1,-1,-1,-1,-1,-1],"loss_changes":[1.8507688E7,3.3126208E7,1.8385E5,1.2641889E7,0E0,0E0,0E0,9.864962E6,4.585374E6,7.425158E6,1.2665009E7,2.493817E6,5.751993E5,9.880718E5,2.15384E5,3.192329E6,6.589033E6,1.293923E6,6.8807875E5,0E0,7.6247925E5,0E0,0E0,0E0,0E0,0E0,0E0,0E0,0E0,0E0,0E0,0E0,0E0,0E0,0E0],"parents":[2147483647,0,0,1,1,2,2,3,3,7,7,8,8,9,9,10,10,11,11,12,12,13,13,14,14,15,15,16,16,17,17,18,18,20,20],"right_children":[2,4,6,8,-1,-1,-1,10,12,14,16,18,20,22,24,26,28,30,32,-1,34,-1,-1,-1,-1,-1,-1,-1,-1,-1,-1,-1,-1,-1,-1],"split_conditions":[5.2E1,5.1E1,4.633E1,4.654973E4,1.6912161E2,-3.7097973E1,-1.4360928E2,5.233E1,3.2E1,4.383E1,4.4928785E4,7.838E0,2.608E0,4.231E1,4.638143E4,7.787E0,3.288E0,4.636393E4,2.1122353E2,1.2176404E1,4.534954E4,-1.0682399E1,3.2503735E1,-8.0749954E1,-2.0614428E1,-3.2369905E0,9.353715E1,7.2719865E0,-3.0839655E1,3.6833195E1,7.950294E1,-2.2641802E1,1.5219833E1,4.177386E0,-3.0295322E1],"split_indices":[6,6,1,11,0,0,0,1,6,1,14,4,2,1,11,4,2,10,3,0,14,0,0,0,0,0,0,0,0,0,0,0,0,0,0],"split_type":[0,0,0,0,0,0,0,0,0,0,0,0,0,0,0,0,0,0,0,0,0,0,0,0,0,0,0,0,0,0,0,0,0,0,0],"sum_hessian":[9E1,8.8E1,2E0,8.6E1,2E0,1E0,1E0,6E1,2.6E1,1.2E1,4.8E1,1.8E1,8E0,4E0,8E0,4E0,4.4E1,1.5E1,3E0,3E0,5E0,3E0,1E0,7E0,1E0,1E0,3E0,2.4E1,2E1,1.2E1,3E0,1E0,2E0,3E0,2E0],"tree_param":{"num_deleted":"0","num_feature":"15","num_nodes":"35","size_leaf_vector":"1"}},{"base_weights":[7.8343E1,1.5928984E2,-2.3491943E3,5.0203945E1,1.6348422E2,-3.6170525E1,-1.4001904E2,-2.3732976E2,6.3345514E2,-3.982611E2,1.0150549E3,7.0981854E2,-3.7618023E1,-7.770304E2,-1.0439163E2,7.054802E1,1.686084E1,7.320957E1,5.6072614E2,-4.540565E1,1.9977924E1,3.3441044E1,-2.5221834E1,-6.026863E0,7.291426E0,7.039088E0,3.750329E1],"categories":[],"categories_nodes":[],"categories_segments":[],"categories_sizes":[],"default_left":[0,0,0,1,0,0,0,0,1,1,0,0,0,0,0,0,0,0,0,0,0,0,0,0,0,0,0],"id":23,"left_children":[1,3,5,7,-1,-1,-1,9,11,13,15,17,-1,19,21,-1,23,-1,25,-1,-1,-1,-1,-1,-1,-1,-1],"loss_changes":[1.8255836E7,3.0033562E7,1.74771E5,1.4740617E7,0E0,0E0,0E0,1.2295587E7,3.602982E6,5.818246E6,2.7425435E6,2.328185E6,0E0,3.910144E6,9.926292E6,0E0,7.073751E4,0E0,1.882208E6,0E0,0E0,0E0,0E0,0E0,0E0,0E0,0E0],"parents":[2147483647,0,0,1,1,2,2,3,3,7,7,8,8,9,9,10,10,11,11,13,13,14,14,16,16,18,18],"right_children":[2,4,6,8,-1,-1,-1,10,12,14,16,18,-1,20,22,-1,24,-1,26,-1,-1,-1,-1,-1,-1,-1,-1],"split_conditions":[5.2E1,5.1E1,4.633E1,4.654973E4,1.6348422E2,-3.6170525E1,-1.4001904E2,1E0,4.727596E4,4.5232285E4,7.962E0,4.695582E4,-3.7618023E1,4.941975E4,4.5422105E4,7.054802E1,3.993E1,7.320957E1,4.790301E4,-4.540565E1,1.9977924E1,3.3441044E1,-2.5221834E1,-6.026863E0,7.291426E0,7.039088E0,3.750329E1],"split_indices":[6,6,1,11,0,0,0,0,14,14,4,11,0,10,12,0,1,0,11,0,0,0,0,0,0,0,0],"split_type":[0,0,0,0,0,0,0,0,0,0,0,0,0,0,0,0,0,0,0,0,0,0,0,0,0,0,0],"sum_hessian":[9E1,8.8E1,2E0,8.6E1,2E0,1E0,1E0,5.8E1,2.8E1,5.2E1,6E0,2.7E1,1E0,2.2E1,3E1,4E0,2E0,3E0,2.4E1,2E1,2E0,1E1,2E1,1E0,1E0,8E0,1.6E1],"tree_param":{"num_deleted":"0","num_feature":"15","num_nodes":"27","size_leaf_vector":"1"}},{"base_weights":[8.270281E1,1.6266643E2,-2.290464E3,8.665213E1,1.6939775E2,-3.5266262E1,-1.3651855E2,-2.4338753E2,4.46061E2,-3.9421722E2,1.0722594E3,8.8889404E2,1.9289825E2,2.1628851E2,-5.917593E2,-5.8761916E0,1.3990862E3,1.508606E2,1.2428247E3,4.5092026E2,-4.019171E2,-3.626164E1,2.5304846E1,-4.5250042E1,4.426006E0,2.1178442E1,7.915345E1,1.6637205E1,-1.8963926E1,8.275592E1,1.05302305E1,2.7475937E1,-1.4548879E1,5.783849E0,-3.3999683E1],"categories":[],"categories_nodes":[],"categories_segments":[],"categories_sizes":[],"default_left":[1,0,0,1,0,0,0,0,0,0,0,0,0,0,0,0,0,0,0,0,0,0,0,0,0,0,0,0,0,0,0,0,0,0,0],"id":24,"left_children":[1,3,5,7,-1,-1,-1,9,11,13,15,17,19,21,23,-1,25,27,29,31,33,-1,-1,-1,-1,-1,-1,-1,-1,-1,-1,-1,-1,-1,-1],"loss_changes":[1.7451614E7,2.1281216E7,1.66141E5,1.0428434E7,0E0,0E0,0E0,9.55088E6,4.5371045E6,5.193214E6,2.108691E6,3.730698E6,4.4785455E6,3.3685065E6,6.899049E6,0E0,4.7375E4,7.047441E5,3.907203E6,1.622898E6,1.3740368E6,0E0,0E0,0E0,0E0,0E0,0E0,0E0,0E0,0E0,0E0,0E0,0E0,0E0,0E0],"parents":[2147483647,0,0,1,1,2,2,3,3,7,7,8,8,9,9,10,10,11,11,12,12,13,13,14,14,16,16,17,17,18,18,19,19,20,20],"right_children":[2,4,6,8,-1,-1,-1,10,12,14,16,18,20,22,24,-1,26,28,30,32,34,-1,-1,-1,-1,-1,-1,-1,-1,-1,-1,-1,-1,-1,-1],"split_conditions":[5.013836E4,2.1935773E2,4.633E1,4.534192E4,1.6939775E2,-3.5266262E1,-1.3651855E2,1E0,6.484E1,2.669E0,2.561E0,4.984E1,2.1529185E2,2.565E0,2.1550378E2,-5.8761916E0,3.851E1,4.927E1,4.7670645E4,4.6868168E4,4.5445055E4,-3.626164E1,2.5304846E1,-4.5250042E1,4.426006E0,2.1178442E1,7.915345E1,1.6637205E1,-1.8963926E1,8.275592E1,1.05302305E1,2.7475937E1,-1.4548879E1,5.783849E0,-3.3999683E1],"split_indices":[12,3,1,11,0,0,0,0,1,2,2,1,3,2,3,0,1,1,12,14,14,0,0,0,0,0,0,0,0,0,0,0,0,0,0],"split_type":[0,0,0,0,0,0,0,0,0,0,0,0,0,0,0,0,0,0,0,0,0,0,0,0,0,0,0,0,0,0,0,0,0,0,0],"sum_hessian":[8.9E1,8.7E1,2E0,8.6E1,1E0,1E0,1E0,4.5E1,4.1E1,4.1E1,4E0,1.4E1,2.7E1,1E1,3.1E1,1E0,3E0,5E0,9E0,1.9E1,8E0,2E0,8E0,2.1E1,1E1,1E0,2E0,4E0,1E0,6E0,3E0,1.7E1,2E0,3E0,5E0],"tree_param":{"num_deleted":"0","num_feature":"15","num_nodes":"35","size_leaf_vector":"1"}},{"base_weights":[5.670526E1,1.3240546E2,-2.2332026E3,3.0529106E1,1.5383218E2,-3.4384605E1,-1.3310559E2,-2.0178032E2,5.3554144E2,-3.440665E2,9.4500836E2,8.099322E2,-3.9355083E1,-5.958093E2,3.2089096E1,6.565649E1,1.6470102E1,1.0436812E3,-5.3301064E1,-3.8088733E2,5.681651E2,-1.9974715E0,-4.1787533E1,7.614495E1,-9.120589E0,-5.729286E0,6.964544E0,1.5759682E1,6.399659E1,-1.5570917E1,4.454142E0,-3.5969402E1,1.5512148E1,3.3103497E1,7.1612687E0],"categories":[],"categories_nodes":[],"categories_segments":[],"categories_sizes":[],"default_left":[0,0,0,1,0,0,0,0,0,1,0,0,1,1,0,0,0,0,0,0,0,0,0,0,0,0,0,0,0,0,0,0,0,0,0],"id":25,"left_children":[1,3,5,7,-1,-1,-1,9,11,13,15,17,19,21,23,-1,25,27,29,31,33,-1,-1,-1,-1,-1,-1,-1,-1,-1,-1,-1,-1,-1,-1],"loss_changes":[1.6243565E7,2.6901416E7,1.57939E5,1.0432146E7,0E0,0E0,0E0,1.0278649E7,4.4487705E6,5.227314E6,2.3710755E6,3.889447E6,2.2912842E6,4.367946E6,7.6327355E6,0E0,6.424988E4,2.178159E6,2.1150077E5,1.8608218E6,6.479025E4,0E0,0E0,0E0,0E0,0E0,0E0,0E0,0E0,0E0,0E0,0E0,0E0,0E0,0E0],"parents":[2147483647,0,0,1,1,2,2,3,3,7,7,8,8,9,9,10,10,11,11,12,12,13,13,14,14,16,16,17,17,18,18,19,19,20,20],"right_children":[2,4,6,8,-1,-1,-1,10,12,14,16,18,20,22,24,-1,26,28,30,32,34,-1,-1,-1,-1,-1,-1,-1,-1,-1,-1,-1,-1,-1,-1],"split_conditions":[5.2E1,5.1E1,4.633E1,4.654973E4,1.5383218E2,-3.4384605E1,-1.3310559E2,1E0,4.6027934E4,4.556607E4,7.962E0,7.962E0,4.7459973E4,4.326096E4,4.5617688E4,6.565649E1,3.993E1,4.927E1,7.6E1,4.975417E4,6.931E1,-1.9974715E0,-4.1787533E1,7.614495E1,-9.120589E0,-5.729286E0,6.964544E0,1.5759682E1,6.399659E1,-1.5570917E1,4.454142E0,-3.5969402E1,1.5512148E1,3.3103497E1,7.1612687E0],"split_indices":[6,6,1,11,0,0,0,0,13,13,4,4,13,10,13,0,1,1,1,11,1,0,0,0,0,0,0,0,0,0,0,0,0,0,0],"split_type":[0,0,0,0,0,0,0,0,0,0,0,0,0,0,0,0,0,0,0,0,0,0,0,0,0,0,0,0,0,0,0,0,0,0,0],"sum_hessian":[9.1E1,8.9E1,2E0,8.7E1,2E0,1E0,1E0,6E1,2.7E1,5.4E1,6E0,1.8E1,9E0,3.2E1,2.2E1,4E0,2E0,1.4E1,4E0,6E0,3E0,1E1,2.2E1,2E0,2E1,1E0,1E0,4E0,1E1,1E0,3E0,4E0,2E0,2E0,1E0],"tree_param":{"num_deleted":"0","num_feature":"15","num_nodes":"35","size_leaf_vector":"1"}},{"base_weights":[5.3093414E1,1.2852869E2,-2.1773726E3,2.777045E1,1.4870444E2,-3.352499E1,-1.2977795E2,-1.6624454E2,4.148428E2,-3.07565E2,9.073139E2,7.0084375E2,-1.1687182E2,-8.126397E2,-8.084176E1,1.2606045E3,1.605836E1,8.5758203E2,-1.0132009E2,-3.0667215E2,4.9148642E2,-7.316033E1,-2.7497726E1,2.8319519E1,-1.3945963E1,1.9007568E1,6.9284E1,-5.5860534E0,6.7904305E0,1.6270693E1,5.349468E1,-1.51816435E1,3.3664231E0,-2.6141098E1,1.4995076E1,2.9879246E1,6.9822364E0],"categories":[],"categories_nodes":[],"categories_segments":[],"categories_sizes":[],"default_left":[0,0,0,1,0,0,0,0,0,0,0,0,1,0,1,0,0,0,0,0,0,0,0,0,0,0,0,0,0,0,0,0,0,0,0,0,0],"id":26,"left_children":[1,3,5,7,-1,-1,-1,9,11,13,15,17,19,21,23,25,27,29,31,33,35,-1,-1,-1,-1,-1,-1,-1,-1,-1,-1,-1,-1,-1,-1,-1,-1],"loss_changes":[1.5422878E7,2.5148208E7,1.50141E5,6.5273795E6,0E0,0E0,0E0,9.078574E6,4.4919645E6,5.888938E6,2.1838615E6,2.475755E6,1.4208578E6,1.92961E6,4.9014555E6,2.38475E4,6.107754E4,1.45961E6,1.5692216E5,1.3367922E6,2.8540062E4,0E0,0E0,0E0,0E0,0E0,0E0,0E0,0E0,0E0,0E0,0E0,0E0,0E0,0E0,0E0,0E0],"parents":[2147483647,0,0,1,1,2,2,3,3,7,7,8,8,9,9,10,10,11,11,12,12,13,13,14,14,15,15,16,16,17,17,18,18,19,19,20,20],"right_children":[2,4,6,8,-1,-1,-1,10,12,14,16,18,20,22,24,26,28,30,32,34,36,-1,-1,-1,-1,-1,-1,-1,-1,-1,-1,-1,-1,-1,-1,-1,-1],"split_conditions":[5.2E1,5.1E1,4.633E1,4.654973E4,1.4870444E2,-3.352499E1,-1.2977795E2,1E0,4.6027934E4,4.5219836E4,7.962E0,7.962E0,4.7459973E4,4.241581E4,4.367561E4,3.851E1,3.993E1,5.458E1,7.6E1,4.975417E4,6.931E1,-7.316033E1,-2.7497726E1,2.8319519E1,-1.3945963E1,1.9007568E1,6.9284E1,-5.5860534E0,6.7904305E0,1.6270693E1,5.349468E1,-1.51816435E1,3.3664231E0,-2.6141098E1,1.4995076E1,2.9879246E1,6.9822364E0],"split_indices":[6,6,1,11,0,0,0,0,13,14,4,4,13,11,10,1,1,1,1,11,1,0,0,0,0,0,0,0,0,0,0,0,0,0,0,0,0],"split_type":[0,0,0,0,0,0,0,0,0,0,0,0,0,0,0,0,0,0,0,0,0,0,0,0,0,0,0,0,0,0,0,0,0,0,0,0,0],"sum_hessian":[8.9E1,8.7E1,2E0,8.5E1,2E0,1E0,1E0,5.7E1,2.8E1,5.1E1,6E0,1.8E1,1E1,1.5E1,3.6E1,4E0,2E0,1.5E1,3E0,8E0,2E0,3E0,1.2E1,8E0,2.8E1,1E0,3E0,1E0,1E0,5E0,1E1,1E0,2E0,6E0,2E0,1E0,1E0],"tree_param":{"num_deleted":"0","num_feature":"15","num_nodes":"37","size_leaf_vector":"1"}},{"base_weights":[1.281909E2,2.026313E2,-2.1229382E3,1.08153206E2,1.4374762E2,-3.2686863E1,-1.2653351E2,-1.0021366E2,4.6941544E2,-2.3437166E2,1.0568315E3,6.433695E1,3.4049442E2,-2.8750555E2,6.0558064E1,1.2152325E3,6.62067E0,9.611348E2,2.0274657E2,1.4401476E1,-2.1929502E1,1.853238E1,6.6685844E1,6.2470154E1,1.7624416E1,3.3612022E1,2.5880544E0],"categories":[],"categories_nodes":[],"categories_segments":[],"categories_sizes":[],"default_left":[0,0,0,0,0,0,0,0,0,0,0,0,0,0,0,0,0,0,1,0,0,0,0,0,0,0,0],"id":27,"left_children":[1,3,5,7,-1,-1,-1,9,11,13,15,-1,17,19,-1,21,-1,23,25,-1,-1,-1,-1,-1,-1,-1,-1],"loss_changes":[1.5679498E7,2.2159414E7,1.42727E5,6.595974E6,0E0,0E0,0E0,8.940396E6,2.9337185E6,4.265361E6,7.17659E5,0E0,2.2843978E6,4.474048E6,0E0,6.0115E3,0E0,4.36867E5,1.7373728E6,0E0,0E0,0E0,0E0,0E0,0E0,0E0,0E0],"parents":[2147483647,0,0,1,1,2,2,3,3,7,7,8,8,9,9,10,10,12,12,13,13,15,15,17,17,18,18],"right_children":[2,4,6,8,-1,-1,-1,10,12,14,16,-1,18,20,-1,22,-1,24,26,-1,-1,-1,-1,-1,-1,-1,-1],"split_conditions":[5.2E1,5.1E1,4.633E1,4.654973E4,1.4374762E2,-3.2686863E1,-1.2653351E2,1E0,4.695582E4,9.165E1,3.274E0,6.433695E1,7.742E0,2.692E0,6.0558064E1,3.851E1,6.62067E0,4.875447E4,4.241581E4,1.4401476E1,-2.1929502E1,1.853238E1,6.6685844E1,6.2470154E1,1.7624416E1,3.3612022E1,2.5880544E0],"split_indices":[6,6,1,11,0,0,0,0,11,1,2,0,4,2,0,1,0,11,9,0,0,0,0,0,0,0,0],"split_type":[0,0,0,0,0,0,0,0,0,0,0,0,0,0,0,0,0,0,0,0,0,0,0,0,0,0,0],"sum_hessian":[9E1,8.8E1,2E0,8.6E1,2E0,1E0,1E0,5.5E1,3.1E1,5E1,5E0,3E0,2.8E1,4.9E1,1E0,4E0,1E0,4E0,2.4E1,1E1,3.9E1,1E0,3E0,2E0,2E0,5E0,1.9E1],"tree_param":{"num_deleted":"0","num_feature":"15","num_nodes":"27","size_leaf_vector":"1"}},{"base_weights":[4.243353E1,1.1478366E2,-2.0698647E3,1.9397839E1,1.3895604E2,-3.186969E1,-1.2337017E2,-4.3284818E2,1.7455432E2,-6.02067E2,4.7915326E2,1.7786501E3,3.7970425E1,-9.127188E2,6.0867317E1,-5.511104E0,3.5617622E1,2.0566483E1,1.0088239E2,-2.5538501E2,3.8235468E2,-7.185784E1,-2.0265022E1,3.495135E1,-1.67101E1,2.5314639E0,-3.1298872E1,2.776564E1,-2.2240267E0],"categories":[],"categories_nodes":[],"categories_segments":[],"categories_sizes":[],"default_left":[0,0,0,1,0,0,0,0,0,0,0,0,0,0,0,0,0,0,0,0,0,0,0,0,0,0,0,0,0],"id":28,"left_children":[1,3,5,7,-1,-1,-1,9,11,13,15,17,19,21,23,-1,-1,-1,-1,25,27,-1,-1,-1,-1,-1,-1,-1,-1],"loss_changes":[1.3839016E7,2.205627E7,1.3568E5,6.0399115E6,0E0,0E0,0E0,3.6836948E6,1.3954457E7,3.968448E6,6.282843E5,8.04014E5,6.159267E6,2.876942E6,1.9984375E6,0E0,0E0,0E0,0E0,3.77411E6,2.0917895E6,0E0,0E0,0E0,0E0,0E0,0E0,0E0,0E0],"parents":[2147483647,0,0,1,1,2,2,3,3,7,7,8,8,9,9,10,10,11,11,12,12,13,13,14,14,19,19,20,20],"right_children":[2,4,6,8,-1,-1,-1,10,12,14,16,18,20,22,24,-1,-1,-1,-1,26,28,-1,-1,-1,-1,-1,-1,-1,-1],"split_conditions":[5.2E1,5.1E1,4.633E1,4.331585E4,1.3895604E2,-3.186969E1,-1.2337017E2,1E0,4.410504E4,4.638754E4,2.561E0,5.911E1,4.654973E4,2.1256688E2,5.779E1,-5.511104E0,3.5617622E1,2.0566483E1,1.0088239E2,3.159E0,7.838E0,-7.185784E1,-2.0265022E1,3.495135E1,-1.67101E1,2.5314639E0,-3.1298872E1,2.776564E1,-2.2240267E0],"split_indices":[6,6,1,11,0,0,0,0,12,10,2,1,11,3,1,0,0,0,0,2,4,0,0,0,0,0,0,0,0],"split_type":[0,0,0,0,0,0,0,0,0,0,0,0,0,0,0,0,0,0,0,0,0,0,0,0,0,0,0,0,0],"sum_hessian":[8.8E1,8.6E1,2E0,8.4E1,2E0,1E0,1E0,2.1E1,6.3E1,1.8E1,3E0,4E0,5.9E1,1.2E1,6E0,1E0,2E0,1E0,3E0,3.2E1,2.7E1,5E0,7E0,2E0,4E0,1.8E1,1.4E1,1.9E1,8E0],"tree_param":{"num_deleted":"0","num_feature":"15","num_nodes":"29","size_leaf_vector":"1"}},{"base_weights":[7.135277E1,1.434116E2,-2.0181182E3,5.0880333E1,1.3432417E2,-3.107295E1,-1.2028591E2,2.603607E2,-3.1566223E2,1.4251212E2,5.896986E1,-1.0511208E3,-9.710734E1,1.1262173E3,3.004461E1,-5.3733263E0,-5.9524273E1,2.1590842E2,-5.882218E2,-1.7267498E1,7.902233E1,-1.9299212E1,1.0555917E1,3.1278997E1,-8.611694E0,-4.88588E1,1.1975171E1],"categories":[],"categories_nodes":[],"categories_segments":[],"categories_sizes":[],"default_left":[0,0,0,1,0,0,0,0,1,0,0,0,1,0,1,0,0,0,0,0,0,0,0,0,0,0,0],"id":29,"left_children":[1,3,5,7,-1,-1,-1,9,11,13,-1,15,17,19,21,-1,-1,23,25,-1,-1,-1,-1,-1,-1,-1,-1],"loss_changes":[1.3539128E7,2.0100286E7,1.28981E5,6.5319975E6,0E0,0E0,0E0,5.6805075E6,4.880809E6,5.387272E6,0E0,7.92647E5,3.9701665E6,3.887952E6,3.4714235E6,0E0,0E0,2.65192E6,3.4535088E6,0E0,0E0,0E0,0E0,0E0,0E0,0E0,0E0],"parents":[2147483647,0,0,1,1,2,2,3,3,7,7,8,8,9,9,11,11,12,12,13,13,14,14,17,17,18,18],"right_children":[2,4,6,8,-1,-1,-1,10,12,14,-1,16,18,20,22,-1,-1,24,26,-1,-1,-1,-1,-1,-1,-1,-1],"split_conditions":[5.2E1,5.1E1,4.633E1,4.636393E4,1.3432417E2,-3.107295E1,-1.2028591E2,4.583377E4,4.4555164E4,4.4229195E4,5.896986E1,3.993E1,4.6006133E4,4.984E1,4.4881938E4,-5.3733263E0,-5.9524273E1,4.534192E4,4.6696664E4,-1.7267498E1,7.902233E1,-1.9299212E1,1.0555917E1,3.1278997E1,-8.611694E0,-4.88588E1,1.1975171E1],"split_indices":[6,6,1,9,0,0,0,9,13,13,0,1,14,1,13,0,0,10,12,0,0,0,0,0,0,0,0],"split_type":[0,0,0,0,0,0,0,0,0,0,0,0,0,0,0,0,0,0,0,0,0,0,0,0,0,0,0],"sum_hessian":[8.7E1,8.5E1,2E0,8.3E1,2E0,1E0,1E0,5.3E1,3E1,4.8E1,5E0,6E0,2.4E1,4E0,4.4E1,1E0,5E0,1.5E1,9E0,1E0,3E0,1.3E1,3.1E1,7E0,8E0,6E0,3E0],"tree_param":{"num_deleted":"0","num_feature":"15","num_nodes":"27","size_leaf_vector":"1"}},{"base_weights":[-1.0523262E1,5.4831726E1,-1.9676652E3,-1.0697668E1,1.4717369E2,-3.0296125E1,-1.1727876E2,-2.5059564E2,2.8944226E2,2.1231062E1,-5.232716E2,5.154701E2,-4.668188E1,-2.65285E2,1.0204988E3,-8.231133E1,-8.117577E2,2.6382034E2,8.538818E1,1.1519082E2,-4.202424E1,-2.4268494E1,3.9570904E1,6.3273254E1,1.7685545E1,3.0297087E1,-3.7842293E1,-1.0709993E1,-4.716486E1,4.1512615E1,4.085193E0,-1.8508337E1,1.6266798E1],"categories":[],"categories_nodes":[],"categories_segments":[],"categories_sizes":[],"default_left":[1,0,0,1,0,0,0,1,0,0,0,0,1,0,1,0,0,0,0,0,0,0,0,0,0,0,0,0,0,0,0,0,0],"id":30,"left_children":[1,3,5,7,-1,-1,-1,9,11,13,15,17,19,21,23,25,27,29,-1,31,-1,-1,-1,-1,-1,-1,-1,-1,-1,-1,-1,-1,-1],"loss_changes":[1.1875518E7,1.7067676E7,1.22611E5,6.480796E6,0E0,0E0,0E0,3.7171402E6,3.0629995E6,7.714686E6,3.1134555E6,6.7504265E6,2.2812312E6,5.2679815E6,5.324345E5,5.5653595E6,9.76983E5,2.0984532E6,0E0,1.6503616E6,0E0,0E0,0E0,0E0,0E0,0E0,0E0,0E0,0E0,0E0,0E0,0E0,0E0],"parents":[2147483647,0,0,1,1,2,2,3,3,7,7,8,8,9,9,10,10,11,11,12,12,13,13,14,14,15,15,16,16,17,17,19,19],"right_children":[2,4,6,8,-1,-1,-1,10,12,14,16,18,20,22,24,26,28,30,-1,32,-1,-1,-1,-1,-1,-1,-1,-1,-1,-1,-1,-1,-1],"split_conditions":[5.988932E4,2.1935773E2,4.633E1,4.534192E4,1.4717369E2,-3.0296125E1,-1.1727876E2,4.636393E4,4.6027934E4,4.51825E4,4.5422105E4,4.654456E4,4.687754E4,3.684E0,4.493647E4,7.838E0,2.1128914E2,2.708E0,8.538818E1,4.429287E4,-4.202424E1,-2.4268494E1,3.9570904E1,6.3273254E1,1.7685545E1,3.0297087E1,-3.7842293E1,-1.0709993E1,-4.716486E1,4.1512615E1,4.085193E0,-1.8508337E1,1.6266798E1],"split_indices":[9,3,1,11,0,0,0,9,13,9,12,10,14,2,11,4,3,2,0,9,0,0,0,0,0,0,0,0,0,0,0,0,0],"split_type":[0,0,0,0,0,0,0,0,0,0,0,0,0,0,0,0,0,0,0,0,0,0,0,0,0,0,0,0,0,0,0,0,0],"sum_hessian":[9.1E1,8.9E1,2E0,8.8E1,1E0,1E0,1E0,4.9E1,3.9E1,2.5E1,2.4E1,2.3E1,1.6E1,2E1,5E0,1E1,1.4E1,2E1,3E0,1.4E1,2E0,1.7E1,3E0,3E0,2E0,5E0,5E0,3E0,1.1E1,4E0,1.6E1,4E0,1E1],"tree_param":{"num_deleted":"0","num_feature":"15","num_nodes":"33","size_leaf_vector":"1"}},{"base_weights":[5.2342457E1,1.1603925E2,-1.9184735E3,5.423997E1,1.4349435E2,-1.14346794E2,-2.9538721E1,2.608079E2,-2.8372034E2,1.1597372E2,1.27877E3,-9.752803E2,-1.0700863E2,1.0775629E3,1.1209469E1,1.3800558E3,1.6776373E1,-5.997236E1,-1.3828769E1,1.6545546E2,-5.679004E2,-1.693794E1,7.581665E1,-8.577968E0,2.2713797E1,3.0226486E1,8.083433E1,3.4439175E1,-9.860892E0,-3.705852E1,7.060492E0],"categories":[],"categories_nodes":[],"categories_segments":[],"categories_sizes":[],"default_left":[0,0,0,1,0,0,0,0,1,0,0,0,0,0,1,0,0,0,0,0,0,0,0,0,0,0,0,0,0,0,0],"id":31,"left_children":[1,3,5,7,-1,-1,-1,9,11,13,15,17,19,21,23,25,-1,-1,-1,27,29,-1,-1,-1,-1,-1,-1,-1,-1,-1,-1],"loss_changes":[1.2022876E7,1.5501432E7,1.16559E5,6.4268665E6,0E0,0E0,0E0,8.255531E6,4.1728722E6,5.1256695E6,2.05712E5,7.64648E5,3.7356792E6,3.620869E6,3.8839358E6,1.23744E5,0E0,0E0,0E0,3.7419858E6,1.4562035E6,0E0,0E0,0E0,0E0,0E0,0E0,0E0,0E0,0E0,0E0],"parents":[2147483647,0,0,1,1,2,2,3,3,7,7,8,8,9,9,10,10,11,11,12,12,13,13,14,14,15,15,19,19,20,20],"right_children":[2,4,6,8,-1,-1,-1,10,12,14,16,18,20,22,24,26,-1,-1,-1,28,30,-1,-1,-1,-1,-1,-1,-1,-1,-1,-1],"split_conditions":[5.2E1,2.1935773E2,2.976E0,4.636393E4,1.4349435E2,-1.14346794E2,-2.9538721E1,4.582902E4,4.451896E4,4.4229195E4,2.1735527E2,4.846572E4,2.150911E2,2.716E0,4.784427E4,2.1110039E2,1.6776373E1,-5.997236E1,-1.3828769E1,4.568198E4,4.6696664E4,-1.693794E1,7.581665E1,-8.577968E0,2.2713797E1,3.0226486E1,8.083433E1,3.4439175E1,-9.860892E0,-3.705852E1,7.060492E0],"split_indices":[6,3,2,9,0,0,0,9,13,13,3,9,3,2,11,3,0,0,0,10,12,0,0,0,0,0,0,0,0,0,0],"split_type":[0,0,0,0,0,0,0,0,0,0,0,0,0,0,0,0,0,0,0,0,0,0,0,0,0,0,0,0,0,0,0],"sum_hessian":[9.3E1,9.1E1,2E0,9E1,1E0,1E0,1E0,5.6E1,3.4E1,5E1,6E0,6E0,2.8E1,4E0,4.6E1,5E0,1E0,4E0,2E0,1.8E1,1E1,1E0,3E0,3.3E1,1.3E1,2E0,3E0,7E0,1.1E1,8E0,2E0],"tree_param":{"num_deleted":"0","num_feature":"15","num_nodes":"31","size_leaf_vector":"1"}},{"base_weights":[8.2940125E1,1.4506287E2,-1.8705117E3,8.581051E1,1.39907E2,-2.8800253E1,-1.1148812E2,-2.9982983E2,2.040961E2,-4.4228067E2,4.5176907E2,1.6056687E3,9.6454926E1,-7.2130676E2,1.3909361E2,-4.625522E0,3.3201622E1,1.9711435E1,9.049858E1,-2.4120956E2,3.0318878E2,-5.6973675E1,-1.587592E1,1.9675894E1,-1.6565565E1,1.8215834E1,-2.4173637E1,2.6739908E1,-1.7667366E0],"categories":[],"categories_nodes":[],"categories_segments":[],"categories_sizes":[],"default_left":[1,0,0,1,0,0,0,0,0,0,0,0,0,0,1,0,0,0,0,0,0,0,0,0,0,0,0,0,0],"id":32,"left_children":[1,3,5,7,-1,-1,-1,9,11,13,15,17,19,21,23,-1,-1,-1,-1,25,27,-1,-1,-1,-1,-1,-1,-1,-1],"loss_changes":[1.1799952E7,1.437959E7,1.10803E5,4.257838E6,0E0,0E0,0E0,2.555258E6,1.0556677E7,3.1824825E6,5.235523E5,5.23961E5,4.7501795E6,1.833258E6,9.6815375E5,0E0,0E0,0E0,0E0,3.9902515E6,3.3119165E6,0E0,0E0,0E0,0E0,0E0,0E0,0E0,0E0],"parents":[2147483647,0,0,1,1,2,2,3,3,7,7,8,8,9,9,10,10,11,11,12,12,13,13,14,14,19,19,20,20],"right_children":[2,4,6,8,-1,-1,-1,10,12,14,16,18,20,22,24,-1,-1,-1,-1,26,28,-1,-1,-1,-1,-1,-1,-1,-1],"split_conditions":[5.988932E4,2.1935773E2,4.633E1,4.331585E4,1.39907E2,-2.8800253E1,-1.1148812E2,1E0,4.410504E4,4.638754E4,2.561E0,5.911E1,4.534192E4,2.1256688E2,4.522945E4,-4.625522E0,3.3201622E1,1.9711435E1,9.049858E1,2.669E0,4.6027934E4,-5.6973675E1,-1.587592E1,1.9675894E1,-1.6565565E1,1.8215834E1,-2.4173637E1,2.6739908E1,-1.7667366E0],"split_indices":[9,3,1,11,0,0,0,0,12,10,2,1,11,3,12,0,0,0,0,2,13,0,0,0,0,0,0,0,0],"split_type":[0,0,0,0,0,0,0,0,0,0,0,0,0,0,0,0,0,0,0,0,0,0,0,0,0,0,0,0,0],"sum_hessian":[9.4E1,9.2E1,2E0,9.1E1,1E0,1E0,1E0,2.1E1,7E1,1.8E1,3E0,4E0,6.6E1,1.2E1,6E0,1E0,2E0,1E0,3E0,2.5E1,4.1E1,5E0,7E0,4E0,2E0,7E0,1.8E1,2.4E1,1.7E1],"tree_param":{"num_deleted":"0","num_feature":"15","num_nodes":"29","size_leaf_vector":"1"}},{"base_weights":[4.342733E1,1.05184006E2,-1.8237488E3,4.5058296E1,1.3640932E2,-2.8080246E1,-1.0870092E2,2.553328E2,-2.8666046E2,1.1383402E2,1.2093481E3,-9.122169E2,-1.2577922E2,-4.2186432E2,2.9897577E2,3.6723106E1,7.9885445E1,-5.6046413E1,-1.3014626E1,1.1600745E2,-5.3197626E2,-3.820856E1,1.3933046E1,6.398891E1,7.0654726E0,-3.1882044E1,1.4858454E1,-3.9517384E1,-3.193053E0],"categories":[],"categories_nodes":[],"categories_segments":[],"categories_sizes":[],"default_left":[0,0,0,1,0,0,0,0,1,0,0,0,0,0,0,0,0,0,0,0,0,0,0,0,0,0,0,0,0],"id":33,"left_children":[1,3,5,7,-1,-1,-1,9,11,13,15,17,19,21,23,-1,-1,-1,-1,25,27,-1,-1,-1,-1,-1,-1,-1,-1],"loss_changes":[1.0800404E7,1.4070962E7,1.05332E5,6.281121E6,0E0,0E0,0E0,7.286896E6,3.407673E6,4.985953E6,1.17533E5,6.60678E5,2.909891E6,3.330274E6,5.540816E6,0E0,0E0,0E0,0E0,2.7835978E6,1.2799502E6,0E0,0E0,0E0,0E0,0E0,0E0,0E0,0E0],"parents":[2147483647,0,0,1,1,2,2,3,3,7,7,8,8,9,9,10,10,11,11,12,12,13,13,14,14,19,19,20,20],"right_children":[2,4,6,8,-1,-1,-1,10,12,14,16,18,20,22,24,-1,-1,-1,-1,26,28,-1,-1,-1,-1,-1,-1,-1,-1],"split_conditions":[5.2E1,2.1935773E2,4.633E1,4.636393E4,1.3640932E2,-2.8080246E1,-1.0870092E2,4.582902E4,4.451896E4,5.498E1,3.159E0,4.846572E4,2.150911E2,4.839798E4,4.431435E4,3.6723106E1,7.9885445E1,-5.6046413E1,-1.3014626E1,4.675212E4,7.58E1,-3.820856E1,1.3933046E1,6.398891E1,7.0654726E0,-3.1882044E1,1.4858454E1,-3.9517384E1,-3.193053E0],"split_indices":[6,3,1,9,0,0,0,9,13,1,2,9,3,11,13,0,0,0,0,9,1,0,0,0,0,0,0,0,0],"split_type":[0,0,0,0,0,0,0,0,0,0,0,0,0,0,0,0,0,0,0,0,0,0,0,0,0,0,0,0,0],"sum_hessian":[9.1E1,8.9E1,2E0,8.8E1,1E0,1E0,1E0,5.4E1,3.4E1,4.8E1,6E0,6E0,2.8E1,1.2E1,3.6E1,4E0,2E0,4E0,2E0,1.8E1,1E1,8E0,4E0,4E0,3.2E1,3E0,1.5E1,6E0,4E0],"tree_param":{"num_deleted":"0","num_feature":"15","num_nodes":"29","size_leaf_vector":"1"}},{"base_weights":[-5.0469254E1,7.0420337E0,-1.7781552E3,-5.5010406E1,7.5952997E2,-2.737824E1,-1.059834E2,-2.7588104E2,2.1257756E2,1.0408682E3,3.7456177E1,-3.2344336E2,4.7799618E1,4.154844E2,-1.3977235E2,1.3576743E1,5.8265896E1,-4.184517E0,6.99373E0,-3.934605E2,5.10102E2,1.1721845E2,7.2883765E2,-3.2639175E2,4.550289E2,-6.2580627E1,-1.4890441E1,-3.9889297E-1,3.4272728E1,2.488435E1,-4.236883E0,1.767855E0,4.7803463E1,-5.5844393E0,-3.6393776E1,2.6245106E1,6.135233E0],"categories":[],"categories_nodes":[],"categories_segments":[],"categories_sizes":[],"default_left":[0,0,0,1,0,0,0,0,0,0,0,0,0,0,1,0,0,0,0,1,0,0,0,1,0,0,0,0,0,0,0,0,0,0,0,0,0],"id":34,"left_children":[1,3,5,7,9,-1,-1,11,13,15,17,19,-1,21,23,-1,-1,-1,-1,25,27,29,31,33,35,-1,-1,-1,-1,-1,-1,-1,-1,-1,-1,-1,-1],"loss_changes":[9.253135E6,4.29091E6,1.00132E5,5.0823435E6,1.383042E6,0E0,0E0,3.0629738E6,2.846347E6,1.62292E5,4.892906E4,2.885379E6,0E0,2.251132E6,1.8135394E6,0E0,0E0,0E0,0E0,3.1568585E6,3.68855E5,1.1179041E6,1.857165E6,9.531014E5,2.8474375E4,0E0,0E0,0E0,0E0,0E0,0E0,0E0,0E0,0E0,0E0,0E0,0E0],"parents":[2147483647,0,0,1,1,2,2,3,3,4,4,7,7,8,8,9,9,10,10,11,11,13,13,14,14,19,19,20,20,21,21,22,22,23,23,24,24],"right_children":[2,4,6,8,10,-1,-1,12,14,16,18,20,-1,22,24,-1,-1,-1,-1,26,28,30,32,34,36,-1,-1,-1,-1,-1,-1,-1,-1,-1,-1,-1,-1],"split_conditions":[5.2E1,1E0,4.633E1,4.568198E4,4.920206E4,-2.737824E1,-1.059834E2,9.165E1,4.6027934E4,3.851E1,3.993E1,5.003173E4,4.7799618E1,4.431915E4,4.7459973E4,1.3576743E1,5.8265896E1,-4.184517E0,6.99373E0,4.159699E4,4.227E1,4.241581E4,1.8E1,4.6815125E4,6.931E1,-6.2580627E1,-1.4890441E1,-3.9889297E-1,3.4272728E1,2.488435E1,-4.236883E0,1.767855E0,4.7803463E1,-5.5844393E0,-3.6393776E1,2.6245106E1,6.135233E0],"split_indices":[6,0,1,11,9,0,0,1,13,1,1,10,0,10,13,0,0,0,0,11,1,9,6,14,1,0,0,0,0,0,0,0,0,0,0,0,0],"split_type":[0,0,0,0,0,0,0,0,0,0,0,0,0,0,0,0,0,0,0,0,0,0,0,0,0,0,0,0,0,0,0,0,0,0,0,0,0],"sum_hessian":[9.2E1,9E1,2E0,8.4E1,6E0,1E0,1E0,4.6E1,3.8E1,4E0,2E0,4.5E1,1E0,2.4E1,1.4E1,1E0,3E0,1E0,1E0,4.2E1,3E0,1.3E1,1.1E1,1.1E1,3E0,3E0,3.9E1,1E0,2E0,4E0,9E0,3E0,8E0,8E0,3E0,2E0,1E0],"tree_param":{"num_deleted":"0","num_feature":"15","num_nodes":"37","size_leaf_vector":"1"}},{"base_weights":[4.8147E1,1.083447E2,-1.7337013E3,4.8269886E1,1.3337135E2,-2.6693785E1,-1.0333382E2,2.134963E2,-2.895449E2,8.564859E1,1.1509867E3,1.9097849E2,-4.8169565E2,1.7799877E1,6.0526356E1,2.7597721E1,7.311362E1,2.930409E1,-2.423205E2,-7.716366E2,-1.4796416E2,-4.4408855E0,3.503279E1,-1.9437073E1,8.584085E0,-7.56716E0,-4.0926582E1,9.154936E0,-2.9092966E1],"categories":[],"categories_nodes":[],"categories_segments":[],"categories_sizes":[],"default_left":[0,0,0,1,0,0,0,0,0,0,1,0,0,0,0,0,0,0,0,0,0,0,0,0,0,0,0,0,0],"id":35,"left_children":[1,3,5,7,-1,-1,-1,9,11,13,15,17,19,21,-1,-1,-1,-1,23,25,27,-1,-1,-1,-1,-1,-1,-1,-1],"loss_changes":[9.841524E6,1.3400047E7,9.5187E4,4.9178025E6,0E0,0E0,0E0,6.972924E6,2.7696482E6,4.0234955E6,4.98184E5,1.6828004E6,1.917837E6,3.775258E6,0E0,0E0,0E0,0E0,3.698328E5,1.96096E5,1.6866501E6,0E0,0E0,0E0,0E0,0E0,0E0,0E0,0E0],"parents":[2147483647,0,0,1,1,2,2,3,3,7,7,8,8,9,9,10,10,11,11,12,12,13,13,18,18,19,19,20,20],"right_children":[2,4,6,8,-1,-1,-1,10,12,14,16,18,20,22,-1,-1,-1,-1,24,26,28,-1,-1,-1,-1,-1,-1,-1,-1],"split_conditions":[5.2E1,2.1935773E2,4.633E1,4.636393E4,1.3337135E2,-2.6693785E1,-1.0333382E2,4.583377E4,1.5E1,1E0,4.545449E4,4.765993E4,7.58E1,3.684E0,6.0526356E1,2.7597721E1,7.311362E1,2.930409E1,5.113742E4,2.106171E2,8.555E1,-4.4408855E0,3.503279E1,-1.9437073E1,8.584085E0,-7.56716E0,-4.0926582E1,9.154936E0,-2.9092966E1],"split_indices":[6,3,1,9,0,0,0,9,6,0,14,9,1,2,0,0,0,0,9,3,1,0,0,0,0,0,0,0,0],"split_type":[0,0,0,0,0,0,0,0,0,0,0,0,0,0,0,0,0,0,0,0,0,0,0,0,0,0,0,0,0],"sum_hessian":[8.9E1,8.7E1,2E0,8.6E1,1E0,1E0,1E0,5.8E1,2.8E1,5.2E1,6E0,8E0,2E1,5E1,2E0,3E0,3E0,4E0,4E0,1E1,1E1,4.4E1,6E0,3E0,1E0,1E0,9E0,6E0,4E0],"tree_param":{"num_deleted":"0","num_feature":"15","num_nodes":"29","size_leaf_vector":"1"}},{"base_weights":[4.376714E1,1.0045517E2,-1.6903588E3,2.4270626E1,1.1635558E2,-2.6026442E1,-1.00750465E2,-3.393025E1,7.108995E2,-2.2705276E2,2.973415E2,9.71291E2,3.9947144E1,-7.5892737E2,-8.571152E1,5.0601508E2,-1.2806645E2,1.2504722E1,5.4453327E1,-3.5939775E0,6.590013E0,1.373172E0,-5.2862843E1,2.238677E1,-1.4153781E1,1.6751232E1,5.744842E1,-1.431597E1,1.946906E1],"categories":[],"categories_nodes":[],"categories_segments":[],"categories_sizes":[],"default_left":[0,0,0,0,0,0,0,1,0,0,0,0,0,0,0,0,1,0,0,0,0,0,0,0,0,0,0,0,0],"id":36,"left_children":[1,3,5,7,-1,-1,-1,9,11,13,15,17,19,21,23,25,27,-1,-1,-1,-1,-1,-1,-1,-1,-1,-1,-1,-1],"loss_changes":[9.312094E6,1.5380468E7,9.0488E4,3.5807745E6,0E0,0E0,0E0,5.3775225E6,1.184172E6,3.9192698E6,2.816717E6,1.52327E5,4.0288633E4,2.6096755E6,4.6539235E6,1.923784E6,1.0122513E6,0E0,0E0,0E0,0E0,0E0,0E0,0E0,0E0,0E0,0E0,0E0,0E0],"parents":[2147483647,0,0,1,1,2,2,3,3,7,7,8,8,9,9,10,10,11,11,12,12,13,13,14,14,15,15,16,16],"right_children":[2,4,6,8,-1,-1,-1,10,12,14,16,18,20,22,24,26,28,-1,-1,-1,-1,-1,-1,-1,-1,-1,-1,-1,-1],"split_conditions":[5.2E1,5.1E1,4.633E1,1E0,1.1635558E2,-2.6026442E1,-1.00750465E2,4.654973E4,7.962E0,5.233E1,4.6027934E4,3.851E1,3.993E1,4.404E1,4.456137E4,4.654456E4,4.7459973E4,1.2504722E1,5.4453327E1,-3.5939775E0,6.590013E0,1.373172E0,-5.2862843E1,2.238677E1,-1.4153781E1,1.6751232E1,5.744842E1,-1.431597E1,1.946906E1],"split_indices":[6,6,1,0,0,0,0,11,4,1,13,1,1,1,12,10,13,0,0,0,0,0,0,0,0,0,0,0,0],"split_type":[0,0,0,0,0,0,0,0,0,0,0,0,0,0,0,0,0,0,0,0,0,0,0,0,0,0,0,0,0],"sum_hessian":[9.2E1,9E1,2E0,8.8E1,2E0,1E0,1E0,8.2E1,6E0,5.2E1,3E1,4E0,2E0,1E1,4.2E1,2E1,1E1,1E0,3E0,1E0,1E0,3E0,7E0,1.1E1,3.1E1,1.7E1,3E0,8E0,2E0],"tree_param":{"num_deleted":"0","num_feature":"15","num_nodes":"29","size_leaf_vector":"1"}},{"base_weights":[3.2238102E1,9.116487E1,-1.6480997E3,1.2052897E1,1.12477066E2,-2.5375778E1,-9.8231705E1,-1.6594888E2,3.4922684E2,-2.84176E2,6.853479E2,4.7618146E2,-1.177993E2,-8.032633E2,-1.304802E2,9.3611804E2,3.8948475E1,6.35909E2,1.570599E2,-3.5009613E2,1.4394736E2,1.04899845E1,-5.2584972E1,1.6436687E1,-2.3211308E1,1.2192102E1,5.2411327E1,-3.5041275E0,6.4252634E0,1.6242462E1,4.724994E1,2.1832468E1,-1.5079462E1,-2.5042051E1,2.5534616E0,1.4154007E1,1.6048585E-1],"categories":[],"categories_nodes":[],"categories_segments":[],"categories_sizes":[],"default_left":[0,0,0,1,0,0,0,0,0,0,0,0,0,0,0,0,0,0,0,0,0,0,0,0,0,0,0,0,0,0,0,0,0,0,0,0,0],"id":37,"left_children":[1,3,5,7,-1,-1,-1,9,11,13,15,17,19,21,23,25,27,29,31,33,35,-1,-1,-1,-1,-1,-1,-1,-1,-1,-1,-1,-1,-1,-1,-1,-1],"loss_changes":[8.764717E6,1.4486927E7,8.602E4,5.0394115E6,0E0,0E0,0E0,5.73031E6,1.7755368E6,3.8044855E6,1.0982235E6,1.0724915E6,4.760158E5,2.9891425E6,6.129778E6,1.32448E5,3.8299383E4,1.135199E6,1.28579E6,2.674721E5,7.741627E4,0E0,0E0,0E0,0E0,0E0,0E0,0E0,0E0,0E0,0E0,0E0,0E0,0E0,0E0,0E0,0E0],"parents":[2147483647,0,0,1,1,2,2,3,3,7,7,8,8,9,9,10,10,11,11,12,12,13,13,14,14,15,15,16,16,17,17,18,18,19,19,20,20],"right_children":[2,4,6,8,-1,-1,-1,10,12,14,16,18,20,22,24,26,28,30,32,34,36,-1,-1,-1,-1,-1,-1,-1,-1,-1,-1,-1,-1,-1,-1,-1,-1],"split_conditions":[5.2E1,5.1E1,4.633E1,4.654973E4,1.12477066E2,-2.5375778E1,-9.8231705E1,1E0,7.962E0,5.233E1,7.962E0,4.901505E4,4.839798E4,4.383E1,4.5422105E4,3.851E1,3.993E1,2.1140494E2,4.6006133E4,7.6E1,4.663E1,1.04899845E1,-5.2584972E1,1.6436687E1,-2.3211308E1,1.2192102E1,5.2411327E1,-3.5041275E0,6.4252634E0,1.6242462E1,4.724994E1,2.1832468E1,-1.5079462E1,-2.5042051E1,2.5534616E0,1.4154007E1,1.6048585E-1],"split_indices":[6,6,1,11,0,0,0,0,4,1,4,11,11,1,12,1,1,3,14,1,1,0,0,0,0,0,0,0,0,0,0,0,0,0,0,0,0],"split_type":[0,0,0,0,0,0,0,0,0,0,0,0,0,0,0,0,0,0,0,0,0,0,0,0,0,0,0,0,0,0,0,0,0,0,0,0,0],"sum_hessian":[8.6E1,8.4E1,2E0,8.2E1,2E0,1E0,1E0,5.4E1,2.8E1,4.8E1,6E0,2.2E1,6E0,1E1,3.8E1,4E0,2E0,1.4E1,8E0,3E0,3E0,2E0,8E0,1.6E1,2.2E1,1E0,3E0,1E0,1E0,8E0,6E0,5E0,3E0,2E0,1E0,1E0,2E0],"tree_param":{"num_deleted":"0","num_feature":"15","num_nodes":"37","size_leaf_vector":"1"}},{"base_weights":[-3.8635674E1,1.2923242E1,-1.6068972E3,-3.754511E2,1.4034734E2,-9.57759E1,-2.4741385E1,-5.054625E2,3.6846863E2,1.3981559E3,4.2932335E1,-6.072859E2,2.739654E2,-3.4165237E0,2.6842258E1,1.686529E1,7.89521E1,1.5184363E2,-4.127709E2,-9.5561536E2,-3.534865E2,-5.744774E-1,2.1121881E1,3.1188464E2,-9.511991E1,-4.144424E1,-1.3573311E2,-5.8231953E1,-1.4435211E1,7.5911417E0,-2.3486532E1,1.3835502E0,3.0606611E1,6.303096E0,-2.4897291E1,-1.6295942E1,9.173939E0],"categories":[],"categories_nodes":[],"categories_segments":[],"categories_sizes":[],"default_left":[0,1,0,0,0,0,0,0,0,0,0,1,0,0,0,0,0,0,0,0,0,0,0,0,0,0,0,0,0,0,0,0,0,0,0,0,0],"id":38,"left_children":[1,3,5,7,9,-1,-1,11,13,15,17,19,21,-1,-1,-1,-1,23,25,27,29,-1,-1,31,33,-1,35,-1,-1,-1,-1,-1,-1,-1,-1,-1,-1],"loss_changes":[7.6214055E6,4.605612E6,8.17725E4,2.410762E6,8.517033E6,0E0,0E0,1.753655E6,3.308697E5,4.26845E5,3.3383375E6,1.253507E6,1.3200005E5,0E0,0E0,0E0,0E0,2.1639785E6,1.3861232E6,6.395655E5,7.761869E5,0E0,0E0,2.7990992E6,2.022923E6,0E0,6.061851E5,0E0,0E0,0E0,0E0,0E0,0E0,0E0,0E0,0E0,0E0],"parents":[2147483647,0,0,1,1,2,2,3,3,4,4,7,7,8,8,9,9,10,10,11,11,12,12,17,17,18,18,19,19,20,20,23,23,24,24,26,26],"right_children":[2,4,6,8,10,-1,-1,12,14,16,18,20,22,-1,-1,-1,-1,24,26,28,30,-1,-1,32,34,-1,36,-1,-1,-1,-1,-1,-1,-1,-1,-1,-1],"split_conditions":[5.2E1,4.331585E4,2.976E0,1E0,4.410504E4,-9.57759E1,-2.4741385E1,4.765993E4,2.561E0,2.692E0,7.962E0,4.241581E4,2.548E0,-3.4165237E0,2.6842258E1,1.686529E1,7.89521E1,4.6027934E4,4.529992E4,4.638754E4,4.248767E4,-5.744774E-1,2.1121881E1,4.638754E4,3.637E0,-4.144424E1,4.399778E4,-5.8231953E1,-1.4435211E1,7.5911417E0,-2.3486532E1,1.3835502E0,3.0606611E1,6.303096E0,-2.4897291E1,-1.6295942E1,9.173939E0],"split_indices":[6,11,2,0,12,0,0,10,2,2,4,11,2,0,0,0,0,13,11,10,11,0,0,11,2,0,9,0,0,0,0,0,0,0,0,0,0],"split_type":[0,0,0,0,0,0,0,0,0,0,0,0,0,0,0,0,0,0,0,0,0,0,0,0,0,0,0,0,0,0,0,0,0,0,0,0,0],"sum_hessian":[9.3E1,9.1E1,2E0,2.2E1,6.9E1,1E0,1E0,1.9E1,3E0,4E0,6.5E1,1.7E1,2E0,1E0,2E0,1E0,3E0,5.3E1,1.2E1,6E0,1.1E1,1E0,1E0,3.2E1,2.1E1,4E0,8E0,4E0,2E0,2E0,9E0,1.7E1,1.5E1,1.4E1,7E0,5E0,3E0],"tree_param":{"num_deleted":"0","num_feature":"15","num_nodes":"37","size_leaf_vector":"1"}},{"base_weights":[5.1317596E1,1.0296071E2,-1.5667247E3,3.361938E1,1.0859971E2,-2.4122852E1,-9.338151E1,3.5182507E2,-6.68684E1,-5.134942E2,6.365363E2,-5.4520264E1,-2.0729008E1,7.856002E1,-4.1458065E1,6.1279774E1,4.2276678E2,-5.2711205E1,5.3051952E1,-5.32424E0,1.1216242E1,2.8678278E1,-1.6067522E1,4.5986786E0,-1.7641897E1],"categories":[],"categories_nodes":[],"categories_segments":[],"categories_sizes":[],"default_left":[0,0,0,0,0,0,0,0,0,0,0,0,0,0,0,0,0,0,0,0,0,0,0,0,0],"id":39,"left_children":[1,3,5,7,-1,-1,-1,9,11,13,15,-1,17,19,-1,-1,21,23,-1,-1,-1,-1,-1,-1,-1],"loss_changes":[8.099582E6,1.3269646E7,7.77345E4,2.9333222E6,0E0,0E0,0E0,5.7469115E6,3.283173E6,1.1864911E6,1.6225475E6,0E0,2.4085462E6,1.0480625E5,0E0,0E0,1.755283E6,2.9418445E6,0E0,0E0,0E0,0E0,0E0,0E0,0E0],"parents":[2147483647,0,0,1,1,2,2,3,3,7,7,8,8,9,9,10,10,12,12,13,13,16,16,17,17],"right_children":[2,4,6,8,-1,-1,-1,10,12,14,16,-1,18,20,-1,-1,22,24,-1,-1,-1,-1,-1,-1,-1],"split_conditions":[5.2E1,5.1E1,4.633E1,4.456137E4,1.0859971E2,-2.4122852E1,-9.338151E1,5.145E1,4.469221E4,4.231E1,4.4928785E4,-5.4520264E1,3.906E0,1E0,-4.1458065E1,6.1279774E1,2.1799808E2,2.150911E2,5.3051952E1,-5.32424E0,1.1216242E1,2.8678278E1,-1.6067522E1,4.5986786E0,-1.7641897E1],"split_indices":[6,6,1,12,0,0,0,1,12,1,14,0,2,0,0,0,3,3,0,0,0,0,0,0,0],"split_type":[0,0,0,0,0,0,0,0,0,0,0,0,0,0,0,0,0,0,0,0,0,0,0,0,0],"sum_hessian":[9.4E1,9.2E1,2E0,9E1,2E0,1E0,1E0,2.1E1,6.9E1,5E0,1.6E1,2E0,6.7E1,2E0,3E0,3E0,1.3E1,6.6E1,1E0,1E0,1E0,1.1E1,2E0,4.5E1,2.1E1],"tree_param":{"num_deleted":"0","num_feature":"15","num_nodes":"25","size_leaf_vector":"1"}},{"base_weights":[9.064615E1,1.4478209E2,-1.5275568E3,7.490745E1,1.0497973E2,-2.3519781E1,-9.1046974E1,-3.5063196E2,1.9270657E2,-8.531493E2,-5.3074013E1,1.3114283E3,1.022954E2,-4.692953E1,-8.512527E0,3.5710995E2,-3.5407773E2,1.5726703E1,7.410092E1,2.761038E2,-1.1699415E2,2.6485981E1,-1.2648462E1,-5.3543763E0,-2.0927994E1,3.6402412E1,3.713857E0,9.250196E0,-2.055963E1],"categories":[],"categories_nodes":[],"categories_segments":[],"categories_sizes":[],"default_left":[0,0,0,0,0,0,0,0,0,0,0,0,0,0,0,0,0,0,0,0,0,0,0,0,0,0,0,0,0],"id":40,"left_children":[1,3,5,7,-1,-1,-1,9,11,13,15,17,19,-1,-1,21,23,-1,-1,25,27,-1,-1,-1,-1,-1,-1,-1,-1],"loss_changes":[8.105427E6,1.1862803E7,7.38965E4,4.378592E6,0E0,0E0,0E0,2.7957518E6,6.743704E6,2.486395E5,1.7315142E6,3.84155E5,2.4716215E6,0E0,0E0,7.658362E5,8.258919E4,0E0,0E0,3.2296422E6,2.652646E6,0E0,0E0,0E0,0E0,0E0,0E0,0E0,0E0],"parents":[2147483647,0,0,1,1,2,2,3,3,7,7,8,8,9,9,10,10,11,11,12,12,15,15,16,16,19,19,20,20],"right_children":[2,4,6,8,-1,-1,-1,10,12,14,16,18,20,-1,-1,22,24,-1,-1,26,28,-1,-1,-1,-1,-1,-1,-1,-1],"split_conditions":[5.2E1,5.1E1,4.633E1,4.331585E4,1.0497973E2,-2.3519781E1,-9.1046974E1,2.1256688E2,4.410504E4,6.014E1,4.247749E4,5.911E1,4.6027934E4,-4.692953E1,-8.512527E0,4.765993E4,4.5013855E4,1.5726703E1,7.410092E1,7.808E0,2.667E0,2.6485981E1,-1.2648462E1,-5.3543763E0,-2.0927994E1,3.6402412E1,3.713857E0,9.250196E0,-2.055963E1],"split_indices":[6,6,1,11,0,0,0,3,12,1,11,1,13,0,0,9,14,0,0,4,2,0,0,0,0,0,0,0,0],"split_type":[0,0,0,0,0,0,0,0,0,0,0,0,0,0,0,0,0,0,0,0,0,0,0,0,0,0,0,0,0],"sum_hessian":[8.9E1,8.7E1,2E0,8.5E1,2E0,1E0,1E0,1.8E1,6.7E1,6E0,1.2E1,4E0,6.3E1,5E0,1E0,5E0,7E0,1E0,3E0,3.5E1,2.8E1,4E0,1E0,2E0,5E0,1E1,2.5E1,1.4E1,1.4E1],"tree_param":{"num_deleted":"0","num_feature":"15","num_nodes":"29","size_leaf_vector":"1"}},{"base_weights":[-3.3952496E1,1.5487935E1,-1.4893678E3,-3.8344788E1,1.1881919E2,-2.2931787E1,-8.8770805E1,-9.2736435E1,6.042923E2,-4.2095834E2,1.2933002E1,8.195053E2,4.4173176E1,-6.22174E2,4.1609924E1,7.446304E2,-1.0703444E2,1.0273688E1,4.608224E1,-3.677333E0,6.9903216E0,-4.864894E1,-1.1872403E1,2.6154678E1,-1.2780112E1,1.6054754E1,5.968878E1,2.3373673E0,-2.0043543E1],"categories":[],"categories_nodes":[],"categories_segments":[],"categories_sizes":[],"default_left":[0,0,0,0,0,0,0,1,0,0,0,0,0,0,0,0,0,0,0,0,0,0,0,0,0,0,0,0,0],"id":41,"left_children":[1,3,5,7,-1,-1,-1,9,11,13,15,17,19,21,23,25,27,-1,-1,-1,-1,-1,-1,-1,-1,-1,-1,-1,-1],"loss_changes":[6.5710965E6,1.1402439E7,7.02475E4,3.1319995E6,0E0,0E0,0E0,2.8494522E6,8.0761425E5,1.887408E6,5.6098325E6,1.242105E5,4.405609E4,1.65846E6,1.1354232E6,1.3287445E6,2.5040075E6,0E0,0E0,0E0,0E0,0E0,0E0,0E0,0E0,0E0,0E0,0E0,0E0],"parents":[2147483647,0,0,1,1,2,2,3,3,7,7,8,8,9,9,10,10,11,11,12,12,13,13,14,14,15,15,16,16],"right_children":[2,4,6,8,-1,-1,-1,10,12,14,16,18,20,22,24,26,28,-1,-1,-1,-1,-1,-1,-1,-1,-1,-1,-1,-1],"split_conditions":[5.2E1,2.1935773E2,4.633E1,1E0,1.1881919E2,-2.2931787E1,-8.8770805E1,4.331585E4,7.962E0,4.638754E4,4.445121E4,3.851E1,3.993E1,2.1256688E2,5.779E1,2.1529185E2,2.150911E2,1.0273688E1,4.608224E1,-3.677333E0,6.9903216E0,-4.864894E1,-1.1872403E1,2.6154678E1,-1.2780112E1,1.6054754E1,5.968878E1,2.3373673E0,-2.0043543E1],"split_indices":[6,3,1,0,0,0,0,11,4,10,12,1,1,3,1,3,3,0,0,0,0,0,0,0,0,0,0,0,0],"split_type":[0,0,0,0,0,0,0,0,0,0,0,0,0,0,0,0,0,0,0,0,0,0,0,0,0,0,0,0,0],"sum_hessian":[9E1,8.8E1,2E0,8.7E1,1E0,1E0,1E0,8.1E1,6E0,1.9E1,6.2E1,4E0,2E0,1.3E1,6E0,8E0,5.4E1,1E0,3E0,1E0,1E0,6E0,7E0,2E0,4E0,5E0,3E0,3.6E1,1.8E1],"tree_param":{"num_deleted":"0","num_feature":"15","num_nodes":"29","size_leaf_vector":"1"}},{"base_weights":[-7.2345467E0,4.2672714E1,-1.4521335E3,-2.6531075E1,9.946113E1,-2.2358494E1,-8.655153E1,-8.016904E1,5.826018E2,-9.779075E0,-5.1441797E2,7.898012E2,4.3068836E1,9.9787225E2,-8.714027E1,1.7820541E1,-6.3714197E2,1.0016846E1,4.4354153E1,-3.5854003E0,6.815563E0,1.4932166E1,5.4900936E1,8.494861E0,-1.2087254E1,-3.5372005E1,-1.1146622E-1],"categories":[],"categories_nodes":[],"categories_segments":[],"categories_sizes":[],"default_left":[0,0,0,0,0,0,0,0,0,0,0,0,0,0,0,0,0,0,0,0,0,0,0,0,0,0,0],"id":42,"left_children":[1,3,5,7,-1,-1,-1,9,11,13,15,17,19,21,23,-1,25,-1,-1,-1,-1,-1,-1,-1,-1,-1,-1],"loss_changes":[6.4798415E6,1.1772426E7,6.67795E4,2.8238818E6,0E0,0E0,0E0,2.409744E6,7.485205E5,5.465719E6,1.4026715E6,1.090055E5,4.1880824E4,2.22105E4,2.6241218E6,0E0,4.4475475E5,0E0,0E0,0E0,0E0,0E0,0E0,0E0,0E0,0E0,0E0],"parents":[2147483647,0,0,1,1,2,2,3,3,7,7,8,8,9,9,10,10,11,11,12,12,13,13,14,14,16,16],"right_children":[2,4,6,8,-1,-1,-1,10,12,14,16,18,20,22,24,-1,26,-1,-1,-1,-1,-1,-1,-1,-1,-1,-1],"split_conditions":[5.2E1,5.1E1,4.633E1,1E0,9.946113E1,-2.2358494E1,-8.655153E1,4.5E1,7.962E0,4.451896E4,4.404E1,3.851E1,3.993E1,2.1200394E2,4.5429957E4,1.7820541E1,4.638754E4,1.0016846E1,4.4354153E1,-3.5854003E0,6.815563E0,1.4932166E1,5.4900936E1,8.494861E0,-1.2087254E1,-3.5372005E1,-1.1146622E-1],"split_indices":[6,6,1,0,0,0,0,6,4,13,1,1,1,3,12,0,11,0,0,0,0,0,0,0,0,0,0],"split_type":[0,0,0,0,0,0,0,0,0,0,0,0,0,0,0,0,0,0,0,0,0,0,0,0,0,0,0],"sum_hessian":[8.8E1,8.6E1,2E0,8.4E1,2E0,1E0,1E0,7.8E1,6E0,6.8E1,1E1,4E0,2E0,4E0,6.4E1,1E0,9E0,1E0,3E0,1E0,1E0,1E0,3E0,2.4E1,4E1,8E0,1E0],"tree_param":{"num_deleted":"0","num_feature":"15","num_nodes":"27","size_leaf_vector":"1"}},{"base_weights":[6.1634727E1,1.1130245E2,-1.4158302E3,4.6812447E1,9.614576E1,-8.438773E1,-2.179953E1,6.479842E2,1.7032734E0,5.5486045E0,4.4437363E1,-1.1488075E2,2.3912617E2,4.22025E1,-3.5242392E2,4.2354794E2,-1.16745636E2,9.687577E0,-2.0014751E1,-6.8924537E0,-4.508244E1,1.1547839E1,6.5475914E1,6.3760962E0,-3.646053E1],"categories":[],"categories_nodes":[],"categories_segments":[],"categories_sizes":[],"default_left":[0,0,0,1,0,0,0,0,1,0,0,0,0,0,0,0,1,0,0,0,0,0,0,0,0],"id":43,"left_children":[1,3,5,7,-1,-1,-1,9,11,-1,-1,13,15,17,19,21,23,-1,-1,-1,-1,-1,-1,-1,-1],"loss_changes":[6.761995E6,1.0191105E7,6.34815E4,2.3310755E6,0E0,0E0,0E0,6.7713E5,2.2695282E6,0E0,0E0,2.0671461E6,1.8214711E6,2.3576002E6,2.4684052E6,2.768899E6,1.5890435E6,0E0,0E0,0E0,0E0,0E0,0E0,0E0,0E0],"parents":[2147483647,0,0,1,1,2,2,3,3,7,7,8,8,11,11,12,12,13,13,14,14,15,15,16,16],"right_children":[2,4,6,8,-1,-1,-1,10,12,-1,-1,14,16,18,20,22,24,-1,-1,-1,-1,-1,-1,-1,-1],"split_conditions":[5.2E1,5.1E1,2.976E0,4.189255E4,9.614576E1,-8.438773E1,-2.179953E1,7.787E0,4.654973E4,5.5486045E0,4.4437363E1,4.502502E4,4.6027934E4,4.3E1,3.554E0,4.654456E4,4.687754E4,9.687577E0,-2.0014751E1,-6.8924537E0,-4.508244E1,1.1547839E1,6.5475914E1,6.3760962E0,-3.646053E1],"split_indices":[6,6,2,9,0,0,0,4,11,0,0,11,13,6,2,10,14,0,0,0,0,0,0,0,0],"split_type":[0,0,0,0,0,0,0,0,0,0,0,0,0,0,0,0,0,0,0,0,0,0,0,0,0],"sum_hessian":[8.9E1,8.7E1,2E0,8.5E1,2E0,1E0,1E0,5E0,8E1,2E0,3E0,5.4E1,2.6E1,3.3E1,2.1E1,1.7E1,9E0,2.5E1,8E0,1.6E1,5E0,1.5E1,2E0,7E0,2E0],"tree_param":{"num_deleted":"0","num_feature":"15","num_nodes":"25","size_leaf_vector":"1"}},{"base_weights":[7.1563965E1,1.19168755E2,-1.3804344E3,5.8508343E1,1.8588179E3,-2.1254541E1,-8.227804E1,-2.314658E2,1.5867345E2,1.10958534E2,2.8452808E1,-3.2608792E2,2.9951117E2,1.1915991E3,7.281374E1,-5.132547E2,1.8819122E1,-3.3234544E0,2.2183046E1,1.47311735E1,6.710936E1,1.8291939E2,-3.5627054E2,-3.1378744E1,3.8502057E0,1.7787628E1,-1.2724574E1,2.2501608E1,3.327065E0,-3.768604E1,-4.793961E0],"categories":[],"categories_nodes":[],"categories_segments":[],"categories_sizes":[],"default_left":[0,0,0,1,0,0,0,0,0,0,0,0,0,0,0,0,0,0,0,0,0,0,0,0,0,0,0,0,0,0,0],"id":44,"left_children":[1,3,5,7,9,-1,-1,11,13,-1,-1,15,17,19,21,23,25,-1,-1,-1,-1,27,29,-1,-1,-1,-1,-1,-1,-1,-1],"loss_changes":[6.523736E6,9.388748E6,6.03475E4,2.592713E6,1.31476E5,0E0,0E0,1.2532365E6,5.766557E6,0E0,0E0,1.3007618E6,2.405136E5,2.79929E5,2.9943338E6,9.255465E5,8.272359E5,0E0,0E0,0E0,0E0,1.524358E6,1.2731376E6,0E0,0E0,0E0,0E0,0E0,0E0,0E0,0E0],"parents":[2147483647,0,0,1,1,2,2,3,3,4,4,7,7,8,8,11,11,12,12,13,13,14,14,15,15,16,16,21,21,22,22],"right_children":[2,4,6,8,10,-1,-1,12,14,-1,-1,16,18,20,22,24,26,-1,-1,-1,-1,28,30,-1,-1,-1,-1,-1,-1,-1,-1],"split_conditions":[5.2E1,5.1E1,4.633E1,4.331585E4,4.827E1,-2.1254541E1,-8.227804E1,1E0,4.410504E4,1.10958534E2,2.8452808E1,4.638754E4,2.561E0,5.911E1,7.962E0,3.594E0,5.779E1,-3.3234544E0,2.2183046E1,1.47311735E1,6.710936E1,4.5429957E4,4.529992E4,-3.1378744E1,3.8502057E0,1.7787628E1,-1.2724574E1,2.2501608E1,3.327065E0,-3.768604E1,-4.793961E0],"split_indices":[6,6,1,11,1,0,0,0,12,0,0,10,2,1,4,2,1,0,0,0,0,12,11,0,0,0,0,0,0,0,0],"split_type":[0,0,0,0,0,0,0,0,0,0,0,0,0,0,0,0,0,0,0,0,0,0,0,0,0,0,0,0,0,0,0],"sum_hessian":[9.1E1,8.9E1,2E0,8.7E1,2E0,1E0,1E0,2.2E1,6.5E1,1E0,1E0,1.9E1,3E0,4E0,6.1E1,1.2E1,7E0,1E0,2E0,1E0,3E0,4.9E1,1.2E1,1E1,2E0,3E0,4E0,1.4E1,3.5E1,4E0,8E0],"tree_param":{"num_deleted":"0","num_feature":"15","num_nodes":"31","size_leaf_vector":"1"}},{"base_weights":[-3.1374672E1,-2.6786353E2,2.6355963E2,-1.6933208E2,-6.916375E1,4.2880527E2,-8.575736E1,4.1317535E1,-2.3058678E2,-1.5552098E2,4.7973502E2,-2.1441505E2,2.2872961E1,-1.0521339E2,-6.7140967E2,-1.2372917E1,7.08844E-1,6.079503E2,1.7000055E2,6.0914032E1,-4.197807E2,-3.1217514E1,-4.5872955E0,-2.8216553E-1,-8.391563E2,2.6602023E2,8.013585E2,1.1976613E1,-9.656329E0,-4.422571E0,6.3862414E0,3.365094E0,-2.5608906E1,2.3571215E1,-5.509887E0,3.2192063E0,-3.2403686E0,-5.100737E1,-9.872767E0,-5.3583517E0,2.0413858E1,4.6499767E1,7.41642E0,-1.1603292E0,1.2982367E0],"categories":[],"categories_nodes":[],"categories_segments":[],"categories_sizes":[],"default_left":[1,0,0,1,0,0,0,0,0,0,0,0,0,1,1,0,0,0,0,0,0,0,0,0,0,0,0,0,0,0,0,0,0,0,0,