{"learner":{"attributes":{"scikit_learn":"{\"_estimator_type\": \"regressor\"}"},"feature_names":["IsHoliday","Temperature","Fuel_Price","CPI","Unemployment","Size","weekofyear","month","dow","lag_1","lag_2","lag_4","rollmean_4","rollmean_8","rollmean_12"],"feature_types":["int","float","float","float","float","int","int","int","int","float","float","float","float","float","float"],"gradient_booster":{"model":{"gbtree_model_param":{"num_parallel_tree":"1","num_trees":"600"},"iteration_indptr":[0,1,2,3,4,5,6,7,8,9,10,11,12,13,14,15,16,17,18,19,20,21,22,23,24,25,26,27,28,29,30,31,32,33,34,35,36,37,38,39,40,41,42,43,44,45,46,47,48,49,50,51,52,53,54,55,56,57,58,59,60,61,62,63,64,65,66,67,68,69,70,71,72,73,74,75,76,77,78,79,80,81,82,83,84,85,86,87,88,89,90,91,92,93,94,95,96,97,98,99,100,101,102,103,104,105,106,107,108,109,110,111,112,113,114,115,116,117,118,119,120,121,122,123,124,125,126,127,128,129,130,131,132,133,134,135,136,137,138,139,140,141,142,143,144,145,146,147,148,149,150,151,152,153,154,155,156,157,158,159,160,161,162,163,164,165,166,167,168,169,170,171,172,173,174,175,176,177,178,179,180,181,182,183,184,185,186,187,188,189,190,191,192,193,194,195,196,197,198,199,200,201,202,203,204,205,206,207,208,209,210,211,212,213,214,215,216,217,218,219,220,221,222,223,224,225,226,227,228,229,230,231,232,233,234,235,236,237,238,239,240,241,242,243,244,245,246,247,248,249,250,251,252,253,254,255,256,257,258,259,260,261,262,263,264,265,266,267,268,269,270,271,272,273,274,275,276,277,278,279,280,281,282,283,284,285,286,287,288,289,290,291,292,293,294,295,296,297,298,299,300,301,302,303,304,305,306,307,308,309,310,311,312,313,314,315,316,317,318,319,320,321,322,323,324,325,326,327,328,329,330,331,332,333,334,335,336,337,338,339,340,341,342,343,344,345,346,347,348,349,350,351,352,353,354,355,356,357,358,359,360,361,362,363,364,365,366,367,368,369,370,371,372,373,374,375,376,377,378,379,380,381,382,383,384,385,386,387,388,389,390,391,392,393,394,395,396,397,398,399,400,401,402,403,404,405,406,407,408,409,410,411,412,413,414,415,416,417,418,419,420,421,422,423,424,425,426,427,428,429,430,431,432,433,434,435,436,437,438,439,440,441,442,443,444,445,446,447,448,449,450,451,452,453,454,455,456,457,458,459,460,461,462,463,464,465,466,467,468,469,470,471,472,473,474,475,476,477,478,479,480,481,482,483,484,485,486,487,488,489,490,491,492,493,494,495,496,497,498,499,500,501,502,503,504,505,506,507,508,509,510,511,512,513,514,515,516,517,518,519,520,521,522,523,524,525,526,527,528,529,530,531,532,533,534,535,536,537,538,539,540,541,542,543,544,545,546,547,548,549,550,551,552,553,554,555,556,557,558,559,560,561,562,563,564,565,566,567,568,569,570,571,572,573,574,575,576,577,578,579,580,581,582,583,584,585,586,587,588,589,590,591,592,593,594,595,596,597,598,599,600],"tree_info":[0,0,0,0,0,0,0,0,0,0,0,0,0,0,0,0,0,0,0,0,0,0,0,0,0,0,0,0,0,0,0,0,0,0,0,0,0,0,0,0,0,0,0,0,0,0,0,0,0,0,0,0,0,0,0,0,0,0,0,0,0,0,0,0,0,0,0,0,0,0,0,0,0,0,0,0,0,0,0,0,0,0,0,0,0,0,0,0,0,0,0,0,0,0,0,0,0,0,0,0,0,0,0,0,0,0,0,0,0,0,0,0,0,0,0,0,0,0,0,0,0,0,0,0,0,0,0,0,0,0,0,0,0,0,0,0,0,0,0,0,0,0,0,0,0,0,0,0,0,0,0,0,0,0,0,0,0,0,0,0,0,0,0,0,0,0,0,0,0,0,0,0,0,0,0,0,0,0,0,0,0,0,0,0,0,0,0,0,0,0,0,0,0,0,0,0,0,0,0,0,0,0,0,0,0,0,0,0,0,0,0,0,0,0,0,0,0,0,0,0,0,0,0,0,0,0,0,0,0,0,0,0,0,0,0,0,0,0,0,0,0,0,0,0,0,0,0,0,0,0,0,0,0,0,0,0,0,0,0,0,0,0,0,0,0,0,0,0,0,0,0,0,0,0,0,0,0,0,0,0,0,0,0,0,0,0,0,0,0,0,0,0,0,0,0,0,0,0,0,0,0,0,0,0,0,0,0,0,0,0,0,0,0,0,0,0,0,0,0,0,0,0,0,0,0,0,0,0,0,0,0,0,0,0,0,0,0,0,0,0,0,0,0,0,0,0,0,0,0,0,0,0,0,0,0,0,0,0,0,0,0,0,0,0,0,0,0,0,0,0,0,0,0,0,0,0,0,0,0,0,0,0,0,0,0,0,0,0,0,0,0,0,0,0,0,0,0,0,0,0,0,0,0,0,0,0,0,0,0,0,0,0,0,0,0,0,0,0,0,0,0,0,0,0,0,0,0,0,0,0,0,0,0,0,0,0,0,0,0,0,0,0,0,0,0,0,0,0,0,0,0,0,0,0,0,0,0,0,0,0,0,0,0,0,0,0,0,0,0,0,0,0,0,0,0,0,0,0,0,0,0,0,0,0,0,0,0,0,0,0,0,0,0,0,0,0,0,0,0,0,0,0,0,0,0,0,0,0,0,0,0,0,0,0,0,0,0,0,0,0,0,0,0,0,0,0,0,0,0,0,0,0,0,0,0,0,0,0,0,0,0,0,0,0,0,0,0,0,0,0,0,0,0,0,0,0,0,0,0,0,0,0,0,0,0,0,0,0,0,0,0,0,0,0,0,0,0,0,0,0,0,0,0,0,0,0,0,0,0,0,0,0,0,0,0,0,0,0,0,0],"trees":[{"base_weights":[1.5741386E2,-3.5345068E2,1.3898285E4,2.7355283E2,-4.9693073E2,1.9718057E2,8.4519086E2,-5.006249E2,9.518094E3,-1.9339341E3,6.302658E2,2.687701E2,7.5578876E2,-2.3424878E3,1.398123E2,1.8022359E2,6.270726E3,-2.3219414E2,-2.7511545E1,2.2207815E1,-2.462305E2,-5.1115078E1,5.2141956E2],"categories":[],"categories_nodes":[],"categories_segments":[],"categories_sizes":[],"default_left":[1,0,0,0,0,0,0,1,0,0,0,0,0,0,0,0,0,0,0,0,0,0,0],"id":0,"left_children":[1,3,5,7,-1,-1,-1,9,11,13,15,-1,-1,17,-1,19,21,-1,-1,-1,-1,-1,-1],"loss_changes":[5.8754944E8,4.895232E8,2.3095168E7,5.558477E8,0E0,0E0,0E0,1.1792485E8,5.788339E7,6.839119E7,1.0294613E8,0E0,0E0,1.2118552E8,0E0,5.4733268E7,1.0162685E8,0E0,0E0,0E0,0E0,0E0,0E0],"parents":[2147483647,0,0,1,1,2,2,3,3,7,7,8,8,9,9,10,10,13,13,15,15,16,16],"right_children":[2,4,6,8,-1,-1,-1,10,12,14,16,-1,-1,18,-1,20,22,-1,-1,-1,-1,-1,-1],"split_conditions":[7.015886E4,2.1871474E2,4.827E1,2.1704536E2,-4.9693073E2,1.9718057E2,8.4519086E2,1.8936998E4,1E0,3.228082E4,1E0,2.687701E2,7.5578876E2,6.986E1,1.398123E2,5.958948E4,3.851E1,-2.3219414E2,-2.7511545E1,2.2207815E1,-2.462305E2,-5.1115078E1,5.2141956E2],"split_indices":[11,3,1,3,0,0,0,14,0,9,0,0,0,1,0,9,1,0,0,0,0,0,0],"split_type":[0,0,0,0,0,0,0,0,0,0,0,0,0,0,0,0,0,0,0,0,0,0,0],"sum_hessian":[8.2E1,8E1,2E0,7.6E1,4E0,1E0,1E0,7.1E1,5E0,3.1E1,4E1,4E0,1E0,2.9E1,2E0,3.8E1,2E0,1.2E1,1.7E1,3.7E1,1E0,1E0,1E0],"tree_param":{"num_deleted":"0","num_feature":"15","num_nodes":"23","size_leaf_vector":"1"}},{"base_weights":[-5.9736137E1,5.642011E2,-5.2649677E2,-3.3712512E2,8.1127114E3,7.779843E1,-6.2445996E3,-1.6265278E3,1.0346697E3,-2.1846877E2,2.584479E2,-3.8741635E2,-5.7422357E0,-5.4970264E3,2.0381566E2,-6.6563513E2,1.7589891E3,-4.933514E1,-3.3357834E2,-1.3987738E2,-1.7478713E0,3.4778073E2,3.731512E1],"categories":[],"categories_nodes":[],"categories_segments":[],"categories_sizes":[],"default_left":[1,0,0,0,0,0,0,0,0,1,0,0,0,0,0,1,0,0,0,0,0,0,0],"id":1,"left_children":[1,3,-1,5,7,9,11,13,-1,15,-1,-1,-1,17,-1,19,21,-1,-1,-1,-1,-1,-1],"loss_changes":[5.8082266E8,5.7424326E8,0E0,1.8677325E8,1.1363948E9,1.0972999E8,4.519755E7,1.5484462E8,0E0,6.218428E7,0E0,0E0,0E0,1.4607376E7,0E0,7.6541544E7,6.3222204E7,0E0,0E0,0E0,0E0,0E0,0E0],"parents":[2147483647,0,0,1,1,3,3,4,4,5,5,6,6,7,7,9,9,13,13,15,15,16,16],"right_children":[2,4,-1,6,8,10,12,14,-1,16,-1,-1,-1,18,-1,20,22,-1,-1,-1,-1,-1,-1],"split_conditions":[6.148382E4,4.7E1,-5.2649677E2,4.5E1,5.233E1,2.1751598E2,3.109262E4,4.34797E4,1.0346697E3,2.410189E4,2.584479E2,-3.8741635E2,-5.7422357E0,2.854E0,2.0381566E2,1.7683686E4,2.471649E4,-4.933514E1,-3.3357834E2,-1.3987738E2,-1.7478713E0,3.4778073E2,3.731512E1],"split_indices":[9,6,0,6,1,3,9,9,0,11,0,0,0,2,0,14,11,0,0,0,0,0,0],"split_type":[0,0,0,0,0,0,0,0,0,0,0,0,0,0,0,0,0,0,0,0,0,0,0],"sum_hessian":[8.7E1,8.3E1,4E0,7.5E1,8E0,7.1E1,4E0,5E0,3E0,6.8E1,3E0,3E0,1E0,3E0,2E0,5.6E1,1.2E1,1E0,2E0,1.2E1,4.4E1,1E0,1.1E1],"tree_param":{"num_deleted":"0","num_feature":"15","num_nodes":"23","size_leaf_vector":"1"}},{"base_weights":[-7.593707E1,3.3885208E2,-4.5393088E2,-1.4944919E2,6.955827E3,2.2820735E2,-6.0110015E3,-1.5017059E3,7.956965E2,-2.8004198E1,2.487561E2,-3.7288824E2,-5.59868E0,-3.4473015E3,1.08377014E2,2.1756065E2,-3.5094243E3,-2.1044585E2,-4.8101757E1,9.6191025E1,-1.5689219E1,-4.9793503E1,-1.9444226E2],"categories":[],"categories_nodes":[],"categories_segments":[],"categories_sizes":[],"default_left":[1,0,0,0,0,0,0,0,0,0,0,0,0,0,0,0,0,0,0,0,0,0,0],"id":2,"left_children":[1,3,-1,5,7,9,11,13,-1,15,-1,-1,-1,17,-1,19,21,-1,-1,-1,-1,-1,-1],"loss_changes":[3.3915555E8,2.821433E8,0E0,1.8289134E8,4.784787E8,9.500404E7,4.183741E7,3.6027636E7,0E0,6.4882096E7,0E0,0E0,0E0,1.629328E6,0E0,6.497317E7,8.95692E5,0E0,0E0,0E0,0E0,0E0,0E0],"parents":[2147483647,0,0,1,1,3,3,4,4,5,5,6,6,7,7,9,9,13,13,15,15,16,16],"right_children":[2,4,-1,6,8,10,12,14,-1,16,-1,-1,-1,18,-1,20,22,-1,-1,-1,-1,-1,-1],"split_conditions":[7.015886E4,4.7E1,-4.5393088E2,4.5E1,1E0,2.1751598E2,3.109262E4,4.65E1,7.956965E2,1E0,2.487561E2,-3.7288824E2,-5.59868E0,4.404E1,1.08377014E2,6.276E1,3.851E1,-2.1044585E2,-4.8101757E1,9.6191025E1,-1.5689219E1,-4.9793503E1,-1.9444226E2],"split_indices":[9,6,0,6,0,3,9,1,0,0,0,0,0,1,0,1,1,0,0,0,0,0,0],"split_type":[0,0,0,0,0,0,0,0,0,0,0,0,0,0,0,0,0,0,0,0,0,0,0],"sum_hessian":[8.9E1,8.6E1,3E0,8.1E1,5E0,7.7E1,4E0,3E0,2E0,7.4E1,3E0,3E0,1E0,2E0,1E0,7E1,4E0,1E0,1E0,1.6E1,5.4E1,1E0,3E0],"tree_param":{"num_deleted":"0","num_feature":"15","num_nodes":"23","size_leaf_vector":"1"}},{"base_weights":[3.967722E1,5.5170264E2,-5.1693787E2,-1.5883383E2,9.459881E3,2.279592E2,-3.5890494E2,1.671066E4,-3.3611191E3,-3.5902824E1,2.3942773E2,9.910799E2,1.8444624E2,-4.689921E1,-2.0518472E2,2.1819398E2,-3.3828003E3,2.7874952E1,-1.1557275E2,-4.8548664E1,-1.8715068E2],"categories":[],"categories_nodes":[],"categories_segments":[],"categories_sizes":[],"default_left":[1,0,0,0,0,0,0,0,0,0,0,0,0,0,0,0,0,0,0,0,0],"id":3,"left_children":[1,3,-1,5,7,9,-1,11,13,15,-1,-1,-1,-1,-1,17,19,-1,-1,-1,-1],"loss_changes":[4.520818E8,5.1419894E8,0E0,2.0797651E8,6.1394E8,8.801779E7,0E0,8.891891E7,1.54888E6,6.026862E7,0E0,0E0,0E0,0E0,0E0,5.7937924E7,7.095E5,0E0,0E0,0E0,0E0],"parents":[2147483647,0,0,1,1,3,3,4,4,5,5,7,7,8,8,9,9,15,15,16,16],"right_children":[2,4,-1,6,8,10,-1,12,14,16,-1,-1,-1,-1,-1,18,20,-1,-1,-1,-1],"split_conditions":[6.148382E4,4.7E1,-5.1693787E2,4.5E1,5.958948E4,2.1751598E2,-3.5890494E2,2.1871474E2,2.854E0,1E0,2.3942773E2,9.910799E2,1.8444624E2,-4.689921E1,-2.0518472E2,3.9E1,7.787E0,2.7874952E1,-1.1557275E2,-4.8548664E1,-1.8715068E2],"split_indices":[9,6,0,6,10,3,0,3,2,0,0,0,0,0,0,6,4,0,0,0,0],"split_type":[0,0,0,0,0,0,0,0,0,0,0,0,0,0,0,0,0,0,0,0,0],"sum_hessian":[8.3E1,8E1,3E0,7.5E1,5E0,7.2E1,3E0,3E0,2E0,6.9E1,3E0,2E0,1E0,1E0,1E0,6.5E1,4E0,5.8E1,7E0,1E0,3E0],"tree_param":{"num_deleted":"0","num_feature":"15","num_nodes":"21","size_leaf_vector":"1"}},{"base_weights":[9.869566E0,-4.3720917E2,1.0401982E4,1.9723192E2,-7.2027993E3,1.7966022E2,7.7070795E2,-3.2388437E2,7.361372E2,4.6885147E2,-4.9190793E2,3.6104403E0,-5.4990244E3,-4.5726734E1,8.0890594E1,2.1832678E2,-3.2608E3,-3.45446E2,3.5139108E0,-2.054565E1,7.592062E1,-4.733495E1,-1.8013254E2],"categories":[],"categories_nodes":[],"categories_segments":[],"categories_sizes":[],"default_left":[1,0,0,0,0,0,0,0,0,0,0,0,0,0,0,0,0,0,0,0,0,0,0],"id":4,"left_children":[1,3,5,7,9,-1,-1,11,-1,13,-1,15,17,-1,-1,19,21,-1,-1,-1,-1,-1,-1],"loss_changes":[4.5057274E8,4.0061088E8,8.112093E7,6.557439E8,1.6635309E8,0E0,0E0,1.423857E8,0E0,6.247913E6,0E0,5.6785704E7,3.974621E7,0E0,0E0,6.2796924E7,5.44756E5,0E0,0E0,0E0,0E0,0E0,0E0],"parents":[2147483647,0,0,1,1,2,2,3,3,4,4,7,7,9,9,11,11,12,12,15,15,16,16],"right_children":[2,4,6,8,10,-1,-1,12,-1,14,-1,16,18,-1,-1,20,22,-1,-1,-1,-1,-1,-1],"split_conditions":[7.015886E4,4.8E1,4.827E1,4.7E1,2.886E0,1.7966022E2,7.7070795E2,4.5E1,7.361372E2,4.65E1,-4.9190793E2,1E0,3.109262E4,-4.5726734E1,8.0890594E1,7.866E0,3.851E1,-3.45446E2,3.5139108E0,-2.054565E1,7.592062E1,-4.733495E1,-1.8013254E2],"split_indices":[11,6,1,6,2,0,0,6,0,1,0,0,9,0,0,4,1,0,0,0,0,0,0],"split_type":[0,0,0,0,0,0,0,0,0,0,0,0,0,0,0,0,0,0,0,0,0,0,0],"sum_hessian":[9.5E1,9.2E1,3E0,8.5E1,7E0,2E0,1E0,8.3E1,2E0,2E0,5E0,7.9E1,4E0,1E0,1E0,7.5E1,4E0,3E0,1E0,5.1E1,2.4E1,1E0,3E0],"tree_param":{"num_deleted":"0","num_feature":"15","num_nodes":"23","size_leaf_vector":"1"}},{"base_weights":[-7.6459656E1,-4.810713E2,1.2357117E4,2.276902E2,-7.042726E3,1.7534358E2,7.514402E2,-2.874388E2,7.115993E2,-1.703781E3,-4.7141177E2,3.708097E1,-5.2924595E3,-3.3232856E3,7.886833E1,2.0031399E3,-3.8694833E2,-3.3249176E2,3.4260628E0,-4.458357E1,-2.0466287E2,1.671485E2,-2.0119472E2,-4.0513496E1,1.1685412E2],"categories":[],"categories_nodes":[],"categories_segments":[],"categories_sizes":[],"default_left":[1,0,0,0,0,0,0,0,0,0,0,0,0,0,0,1,1,0,0,0,0,0,0,0,0],"id":5,"left_children":[1,3,5,7,9,-1,-1,11,-1,13,-1,15,17,19,-1,21,23,-1,-1,-1,-1,-1,-1,-1,-1],"loss_changes":[4.78837E8,4.2946317E8,1.8231168E7,6.100684E8,9.856131E7,0E0,0E0,1.3338296E8,0E0,2.6497376E7,0E0,6.5801104E7,3.6839984E7,1.966982E6,0E0,1.2650459E8,7.684782E7,0E0,0E0,0E0,0E0,0E0,0E0,0E0,0E0],"parents":[2147483647,0,0,1,1,2,2,3,3,4,4,7,7,9,9,11,11,12,12,13,13,15,15,16,16],"right_children":[2,4,6,8,10,-1,-1,12,-1,14,-1,16,18,20,-1,22,24,-1,-1,-1,-1,-1,-1,-1,-1],"split_conditions":[7.015886E4,4.8E1,4.827E1,4.7E1,2.476398E4,1.7534358E2,7.514402E2,4.5E1,7.115993E2,4.984E1,-4.7141177E2,2.1121564E2,3.109262E4,4.65E1,7.886833E1,2.996792E4,2.962081E4,-3.3249176E2,3.4260628E0,-4.458357E1,-2.0466287E2,1.671485E2,-2.0119472E2,-4.0513496E1,1.1685412E2],"split_indices":[11,6,1,6,11,0,0,6,0,1,0,3,9,1,0,10,10,0,0,0,0,0,0,0,0],"split_type":[0,0,0,0,0,0,0,0,0,0,0,0,0,0,0,0,0,0,0,0,0,0,0,0,0],"sum_hessian":[9.3E1,9.1E1,2E0,8.3E1,8E0,1E0,1E0,8.1E1,2E0,3E0,5E0,7.7E1,4E0,2E0,1E0,1.3E1,6.4E1,3E0,1E0,1E0,1E0,1.1E1,2E0,5.6E1,8E0],"tree_param":{"num_deleted":"0","num_feature":"15","num_nodes":"25","size_leaf_vector":"1"}},{"base_weights":[-1.7060872E2,-6.18784E2,9.843943E3,-2.7581772E2,-3.9189313E2,1.6782677E2,7.3265424E2,-5.878142E1,-3.1304477E2,-2.7581387E2,4.3508213E3,1.7848303E3,-6.9600806E2,4.457019E2,4.016545E2,1.5273717E2,-1.9448822E2,-5.4965115E1,1.2330556E2,-4.3468975E1,7.689662E1],"categories":[],"categories_nodes":[],"categories_segments":[],"categories_sizes":[],"default_left":[1,1,0,0,0,0,0,0,0,0,0,1,0,0,0,0,0,0,0,0,0],"id":6,"left_children":[1,3,5,7,-1,-1,-1,9,-1,11,13,15,17,19,-1,-1,-1,-1,-1,-1,-1],"loss_changes":[4.1901254E8,2.181933E8,7.561181E7,1.1134418E8,0E0,0E0,0E0,8.159028E7,0E0,7.1377784E7,5.393843E7,1.127696E8,8.942896E7,5.646163E6,0E0,0E0,0E0,0E0,0E0,0E0,0E0],"parents":[2147483647,0,0,1,1,2,2,3,3,7,7,9,9,10,10,11,11,12,12,13,13],"right_children":[2,4,6,8,-1,-1,-1,10,-1,12,14,16,18,20,-1,-1,-1,-1,-1,-1,-1],"split_conditions":[7.015886E4,7.015886E4,4.827E1,2.182205E2,-3.9189313E2,1.6782677E2,7.3265424E2,4.7E1,-3.1304477E2,2.1121564E2,1E0,2.996792E4,2.1604105E2,4.65E1,4.016545E2,1.5273717E2,-1.9448822E2,-5.4965115E1,1.2330556E2,-4.3468975E1,7.689662E1],"split_indices":[11,9,1,3,0,0,0,6,0,3,0,10,3,1,0,0,0,0,0,0,0],"split_type":[0,0,0,0,0,0,0,0,0,0,0,0,0,0,0,0,0,0,0,0,0],"sum_hessian":[9.1E1,8.8E1,3E0,8.5E1,3E0,2E0,1E0,8.3E1,2E0,8E1,3E0,1.3E1,6.7E1,2E0,1E0,1.1E1,2E0,6E1,7E0,1E0,1E0],"tree_param":{"num_deleted":"0","num_feature":"15","num_nodes":"21","size_leaf_vector":"1"}},{"base_weights":[-3.574008E0,-4.2007605E2,9.576866E3,2.1686383E2,-7.1350527E3,1.6223253E2,7.143378E2,-2.7410513E2,6.864025E2,-1.5303301E3,-4.3741193E2,3.0605755E1,-5.033716E3,-1.8974896E2,7.4974205E1,-2.0035802E2,2.2056328E2,-1.9684583E3,-3.2105344E2,9.041637E1,-3.2177612E1,2.5777227E-1,-1.4789214E2],"categories":[],"categories_nodes":[],"categories_segments":[],"categories_sizes":[],"default_left":[1,0,0,0,0,0,0,0,0,0,0,0,0,0,0,0,0,0,0,0,0,0,0],"id":7,"left_children":[1,3,5,7,9,-1,-1,11,-1,13,-1,15,17,-1,-1,19,-1,21,-1,-1,-1,-1,-1],"loss_changes":[3.8309894E8,3.9503466E8,7.294064E7,5.6761664E8,5.894397E7,0E0,0E0,1.2052939E8,0E0,2.627491E7,0E0,8.081396E7,8.623368E6,0E0,0E0,6.8821816E7,0E0,5.873239E6,0E0,0E0,0E0,0E0,0E0],"parents":[2147483647,0,0,1,1,2,2,3,3,4,4,7,7,9,9,11,11,12,12,15,15,17,17],"right_children":[2,4,6,8,10,-1,-1,12,-1,14,-1,16,18,-1,-1,20,-1,22,-1,-1,-1,-1,-1],"split_conditions":[7.015886E4,4.8E1,4.827E1,4.7E1,2.476398E4,1.6223253E2,7.143378E2,4.5E1,6.864025E2,4.984E1,-4.3741193E2,2.1751598E2,4.6E1,-1.8974896E2,7.4974205E1,2.1121564E2,2.2056328E2,5.917E1,-3.2105344E2,9.041637E1,-3.2177612E1,2.5777227E-1,-1.4789214E2],"split_indices":[11,6,1,6,11,0,0,6,0,1,0,3,6,0,0,3,0,1,0,0,0,0,0],"split_type":[0,0,0,0,0,0,0,0,0,0,0,0,0,0,0,0,0,0,0,0,0,0,0],"sum_hessian":[9.4E1,9.1E1,3E0,8.4E1,7E0,2E0,1E0,8.2E1,2E0,2E0,5E0,7.8E1,4E0,1E0,1E0,7.5E1,3E0,2E0,2E0,1.3E1,6.2E1,1E0,1E0],"tree_param":{"num_deleted":"0","num_feature":"15","num_nodes":"23","size_leaf_vector":"1"}},{"base_weights":[3.0443218E1,5.191312E2,-4.1905396E2,1.9748366E2,6.9647943E2,3.9256982E2,-2.632864E2,-1.0944942E2,8.24596E3,2.0976445E2,-4.8757676E3,4.7281766E2,6.635224E2,-4.4955025E0,2.2115947E2,-3.0486115E2,2.5132796E-1,-3.763853E1,7.309985E1],"categories":[],"categories_nodes":[],"categories_segments":[],"categories_sizes":[],"default_left":[1,0,0,0,0,0,0,0,0,0,0,0,0,0,0,0,0,0,0],"id":8,"left_children":[1,3,-1,5,-1,7,-1,9,11,13,15,17,-1,-1,-1,-1,-1,-1,-1],"loss_changes":[3.7430582E8,3.6820506E8,0E0,9.26599E7,0E0,3.281344E8,0E0,1.2121929E8,1.890058E8,9.509689E7,2.9838992E7,4.7375285E6,0E0,0E0,0E0,0E0,0E0,0E0,0E0],"parents":[2147483647,0,0,1,1,3,3,5,5,7,7,8,8,9,9,10,10,11,11],"right_children":[2,4,-1,6,-1,8,-1,10,12,14,16,18,-1,-1,-1,-1,-1,-1,-1],"split_conditions":[6.148382E4,5.1E1,-4.1905396E2,2.1871474E2,6.9647943E2,4.7E1,-2.632864E2,4.5E1,1E0,2.1704536E2,3.109262E4,4.65E1,6.635224E2,-4.4955025E0,2.2115947E2,-3.0486115E2,2.5132796E-1,-3.763853E1,7.309985E1],"split_indices":[9,6,0,3,0,6,0,6,0,3,9,1,0,0,0,0,0,0,0],"split_type":[0,0,0,0,0,0,0,0,0,0,0,0,0,0,0,0,0,0,0],"sum_hessian":[8.9E1,8.5E1,4E0,8.4E1,1E0,8.2E1,2E0,7.8E1,4E0,7.4E1,4E0,2E0,2E0,7E1,4E0,3E0,1E0,1E0,1E0],"tree_param":{"num_deleted":"0","num_feature":"15","num_nodes":"19","size_leaf_vector":"1"}},{"base_weights":[2.5600568E2,-1.2984247E2,8.97005E3,2.8799982E2,-3.6871652E2,1.4529173E2,6.790674E2,1.0305616E1,6.0424255E2,-1.0353616E3,6.491336E2,2.3528447E3,-1.7244286E3,4.545376E2,1.4963383E2,2.0536331E1,1.6106111E2,-5.079675E1,-1.8523882E2,4.483165E1,-7.205244E1],"categories":[],"categories_nodes":[],"categories_segments":[],"categories_sizes":[],"default_left":[1,0,0,0,0,0,0,0,0,0,0,0,0,0,0,0,0,0,0,0,0],"id":9,"left_children":[1,3,5,7,-1,-1,-1,9,-1,11,13,15,17,-1,19,-1,-1,-1,-1,-1,-1],"loss_changes":[3.1722067E8,2.7758566E8,7.239046E7,2.8488022E8,0E0,0E0,0E0,5.812022E7,0E0,8.110246E7,2.263354E8,8.795908E6,3.552197E7,0E0,6.308049E7,0E0,0E0,0E0,0E0,0E0,0E0],"parents":[2147483647,0,0,1,1,2,2,3,3,7,7,9,9,10,10,11,11,12,12,14,14],"right_children":[2,4,6,8,-1,-1,-1,10,-1,12,14,16,18,-1,20,-1,-1,-1,-1,-1,-1],"split_conditions":[7.015886E4,2.1871474E2,4.827E1,2.1846762E2,-3.6871652E2,1.4529173E2,6.790674E2,2.732E0,6.0424255E2,2.1121564E2,2.759E0,2.624E0,2.705E0,4.545376E2,2.5655006E4,2.0536331E1,1.6106111E2,-5.079675E1,-1.8523882E2,4.483165E1,-7.205244E1],"split_indices":[11,3,1,3,0,0,0,2,0,3,2,2,2,0,13,0,0,0,0,0,0],"split_type":[0,0,0,0,0,0,0,0,0,0,0,0,0,0,0,0,0,0,0,0,0],"sum_hessian":[9.3E1,9E1,3E0,8.6E1,4E0,2E0,1E0,8.5E1,1E0,3.2E1,5.3E1,5E0,2.7E1,2E0,5.1E1,2E0,3E0,2.1E1,6E0,3.5E1,1.6E1],"tree_param":{"num_deleted":"0","num_feature":"15","num_nodes":"21","size_leaf_vector":"1"}},{"base_weights":[-1.7776736E2,1.7673529E2,-4.0548178E2,-1.1884778E2,6.6209076E2,6.825432E1,-3.2758137E3,-5.4384814E2,1.2085704E3,1.4166423E2,-2.755705E2,-3.3962814E1,-3.5989146E3,3.6156332E2,5.201183E2,1.2774794E1,-1.6771236E2,-1.6000679E1,-2.0108064E2,1.6038663E2,-1.7933674E1],"categories":[],"categories_nodes":[],"categories_segments":[],"categories_sizes":[],"default_left":[1,1,0,0,0,1,0,0,0,0,0,0,0,0,0,0,0,0,0,0,0],"id":10,"left_children":[1,3,-1,5,-1,7,9,11,13,-1,-1,15,17,-1,19,-1,-1,-1,-1,-1,-1],"loss_changes":[2.6293701E8,3.4913725E8,0E0,5.2793656E7,0E0,5.9986452E7,8.390277E7,8.711085E7,1.20629016E8,0E0,0E0,4.795017E7,9.800912E6,0E0,6.728242E7,0E0,0E0,0E0,0E0,0E0,0E0],"parents":[2147483647,0,0,1,1,3,3,5,5,6,6,7,7,8,8,11,11,12,12,14,14],"right_children":[2,4,-1,6,-1,8,10,12,14,-1,-1,16,18,-1,20,-1,-1,-1,-1,-1,-1],"split_conditions":[6.148382E4,5.958948E4,-4.0548178E2,2.182205E2,6.6209076E2,2.1849137E4,3.129E0,4.1E1,2.1638773E4,1.4166423E2,-2.755705E2,1E0,2.692E0,3.6156332E2,2.268569E4,1.2774794E1,-1.6771236E2,-1.6000679E1,-2.0108064E2,1.6038663E2,-1.7933674E1],"split_indices":[9,9,0,3,0,12,2,6,13,0,0,0,2,0,10,0,0,0,0,0,0],"split_type":[0,0,0,0,0,0,0,0,0,0,0,0,0,0,0,0,0,0,0,0,0],"sum_hessian":[9.2E1,8.9E1,3E0,8.8E1,1E0,8.4E1,4E0,5.5E1,2.9E1,1E0,3E0,4.8E1,7E0,2E0,2.7E1,4.5E1,3E0,1E0,6E0,6E0,2.1E1],"tree_param":{"num_deleted":"0","num_feature":"15","num_nodes":"21","size_leaf_vector":"1"}},{"base_weights":[-1.3097256E2,-4.943162E2,8.531182E3,-1.0271987E2,-3.7612534E2,1.3838649E2,6.455385E2,5.2073357E1,-2.3303397E2,-2.1825566E2,5.960257E2,2.233843E1,-3.0054644E3,-6.462921E0,1.505396E2,-2.8230148E2,1.9323347E1],"categories":[],"categories_nodes":[],"categories_segments":[],"categories_sizes":[],"default_left":[1,1,0,0,0,0,0,0,0,0,0,1,0,0,0,0,0],"id":11,"left_children":[1,3,5,7,-1,-1,-1,9,-1,11,-1,13,15,-1,-1,-1,-1],"loss_changes":[3.126563E8,2.6068754E8,6.523267E7,6.4446948E7,0E0,0E0,0E0,2.8814787E8,0E0,5.90787E7,0E0,3.753846E7,6.4878308E7,0E0,0E0,0E0,0E0],"parents":[2147483647,0,0,1,1,2,2,3,3,7,7,9,9,11,11,12,12],"right_children":[2,4,6,8,-1,-1,-1,10,-1,12,-1,14,16,-1,-1,-1,-1],"split_conditions":[7.015886E4,6.148382E4,4.827E1,2.1871474E2,-3.7612534E2,1.3838649E2,6.455385E2,2.1846762E2,-2.3303397E2,4.5E1,5.960257E2,3.270034E4,3.109262E4,-6.462921E0,1.505396E2,-2.8230148E2,1.9323347E1],"split_indices":[11,9,1,3,0,0,0,3,0,6,0,9,9,0,0,0,0],"split_type":[0,0,0,0,0,0,0,0,0,0,0,0,0,0,0,0,0],"sum_hessian":[9.7E1,9.4E1,3E0,9E1,4E0,2E0,1E0,8.8E1,2E0,8.7E1,1E0,8.1E1,6E0,7.8E1,3E0,3E0,3E0],"tree_param":{"num_deleted":"0","num_feature":"15","num_nodes":"17","size_leaf_vector":"1"}},{"base_weights":[2.0809106E2,-1.2318736E2,1.0187506E4,2.3118234E2,-4.40865E3,1.3466296E2,6.294E2,-2.09341E2,6.1709674E2,5.0810574E2,-3.2384866E2,-5.338299E0,-2.8238168E2,-3.4930996E1,7.303893E1,-2.0932562E2,3.1371343E3,-9.77965E-1,-1.4690245E2,1.9652614E2,-9.104883E-1],"categories":[],"categories_nodes":[],"categories_segments":[],"categories_sizes":[],"default_left":[1,0,0,0,0,0,0,0,0,0,0,0,0,0,0,0,0,0,0,0,0],"id":12,"left_children":[1,3,5,7,9,-1,-1,11,-1,13,-1,15,-1,-1,-1,17,19,-1,-1,-1,-1],"loss_changes":[3.087097E8,1.3921526E8,2.0066944E7,4.5606454E8,7.447707E7,0E0,0E0,9.205226E7,0E0,4.469373E6,0E0,5.257967E7,0E0,0E0,0E0,3.981466E7,1.2588644E7,0E0,0E0,0E0,0E0],"parents":[2147483647,0,0,1,1,2,2,3,3,4,4,7,7,9,9,11,11,15,15,16,16],"right_children":[2,4,6,8,10,-1,-1,12,-1,14,-1,16,-1,-1,-1,18,20,-1,-1,-1,-1],"split_conditions":[7.015886E4,4.8E1,4.827E1,4.7E1,2.476398E4,1.3466296E2,6.294E2,4.6E1,6.1709674E2,4.65E1,-3.2384866E2,2.1751598E2,-2.8238168E2,-3.4930996E1,7.303893E1,1E0,2.1799808E2,-9.77965E-1,-1.4690245E2,1.9652614E2,-9.104883E-1],"split_indices":[11,6,1,6,11,0,0,6,0,1,0,3,0,0,0,0,3,0,0,0,0],"split_type":[0,0,0,0,0,0,0,0,0,0,0,0,0,0,0,0,0,0,0,0,0],"sum_hessian":[9.2E1,9E1,2E0,8.4E1,6E0,1E0,1E0,8.2E1,2E0,2E0,4E0,8E1,2E0,1E0,1E0,7.6E1,4E0,7.2E1,4E0,3E0,1E0],"tree_param":{"num_deleted":"0","num_feature":"15","num_nodes":"21","size_leaf_vector":"1"}},{"base_weights":[-4.6052246E2,-6.7964424E1,-3.5209525E2,-5.7440735E2,1.5028334E3,-1.7450414E2,-1.8957843E3,7.4052954E3,-3.2158694E2,8.3705376E1,-3.229392E3,-3.7456472E3,1.910515E2,6.827999E2,5.8296796E2,1.4664021E3,-2.5163748E3,-2.9669125E2,2.0227749E3,-1.8709264E2,-4.2300262E1,-2.5459822E2,-1.1263389E3,9.1244214E2,-6.577068E1,7.121295E1,-2.0002958E1,2.2300578E2,1.6378726E2,-3.626122E3,1.3129639E2,5.4685993E1,-2.6009253E1,5.0959644E1,1.6778404E2,-7.251913E1,-3.8551958E0,6.444729E1,5.314506E0,-4.1248127E1,9.476421E1,1.4939844E1,-2.1650374E2],"categories":[],"categories_nodes":[],"categories_segments":[],"categories_sizes":[],"default_left":[1,1,0,1,0,1,1,0,0,0,0,0,0,0,0,0,0,0,0,0,0,0,0,0,0,0,0,0,0,0,0,0,0,0,0,0,0,0,0,0,0,0,0],"id":13,"left_children":[1,3,-1,5,7,9,11,13,15,17,19,21,23,25,-1,27,29,31,33,-1,-1,-1,35,37,-1,-1,-1,39,-1,41,-1,-1,-1,-1,-1,-1,-1,-1,-1,-1,-1,-1,-1],"loss_changes":[2.2945952E8,6.8482376E7,0E0,3.4016664E7,2.2852144E8,4.0499176E7,5.8621012E7,1.3502864E8,7.040237E7,3.6005684E7,1.71994E6,2.247608E7,9.894239E6,2.978475E6,0E0,2.1766792E7,5.5175184E7,1.3309614E7,7.281356E6,0E0,0E0,0E0,1.2481615E6,1.6841125E6,0E0,0E0,0E0,1.3831003E7,0E0,2.0634512E7,0E0,0E0,0E0,0E0,0E0,0E0,0E0,0E0,0E0,0E0,0E0,0E0,0E0],"parents":[2147483647,0,0,1,1,3,3,4,4,5,5,6,6,7,7,8,8,9,9,10,10,11,11,12,12,13,13,15,15,16,16,17,17,18,18,22,22,23,23,27,27,29,29],"right_children":[2,4,-1,6,8,10,12,14,16,18,20,22,24,26,-1,28,30,32,34,-1,-1,-1,36,38,-1,-1,-1,40,-1,42,-1,-1,-1,-1,-1,-1,-1,-1,-1,-1,-1,-1,-1],"split_conditions":[6.148382E4,2.410189E4,-3.5209525E2,2.338138E4,2.646827E4,2.338138E4,2.639179E4,7.866E0,7.838E0,2.200641E4,7.127E1,2.78E0,3.897189E4,5.141E1,5.8296796E2,5.958E1,2.1935773E2,1.554462E4,6E0,-1.8709264E2,-4.2300262E1,-2.5459822E2,3.285E0,5.779E1,-6.577068E1,7.121295E1,-2.0002958E1,5.958948E4,1.6378726E2,2.627E0,1.3129639E2,5.4685993E1,-2.6009253E1,5.0959644E1,1.6778404E2,-7.251913E1,-3.8551958E0,6.444729E1,5.314506E0,-4.1248127E1,9.476421E1,1.4939844E1,-2.1650374E2],"split_indices":[9,11,0,9,11,11,10,4,4,9,1,2,10,1,0,1,3,11,7,0,0,0,2,1,0,0,0,11,0,2,0,0,0,0,0,0,0,0,0,0,0,0,0],"split_type":[0,0,0,0,0,0,0,0,0,0,0,0,0,0,0,0,0,0,0,0,0,0,0,0,0,0,0,0,0,0,0,0,0,0,0,0,0,0,0,0,0,0,0],"sum_hessian":[8.8E1,8.4E1,4E0,6.4E1,2E1,5E1,1.4E1,4E0,1.6E1,4.7E1,3E0,7E0,7E0,2E0,2E0,9E0,7E0,4E1,7E0,2E0,1E0,4E0,3E0,5E0,2E0,1E0,1E0,6E0,3E0,6E0,1E0,5E0,3.5E1,5E0,2E0,2E0,1E0,3E0,2E0,4E0,2E0,1E0,5E0],"tree_param":{"num_deleted":"0","num_feature":"15","num_nodes":"43","size_leaf_vector":"1"}},{"base_weights":[8.621071E1,-2.4762346E2,9.961221E3,1.3838417E2,-3.3801144E2,1.2801398E2,6.190776E2,-1.613429E2,3.501249E3,4.105127E1,-2.6511728E2,-2.1908994E3,5.91054E2,-2.504465E2,2.2713062E3,4.93589E2,-2.072544E2,-2.4655201E0,-1.7532903E2,2.035125E2,-4.9746773E1,-3.2413456E1,6.943263E1],"categories":[],"categories_nodes":[],"categories_segments":[],"categories_sizes":[],"default_left":[1,1,0,0,0,0,0,0,0,1,0,0,0,0,0,0,0,0,0,0,0,0,0],"id":14,"left_children":[1,3,5,7,-1,-1,-1,9,11,13,-1,15,-1,17,19,21,-1,-1,-1,-1,-1,-1,-1],"loss_changes":[3.0245866E8,2.2467397E8,2.203792E7,8.623993E7,0E0,0E0,0E0,8.241787E7,3.5740278E8,5.062765E7,0E0,2.8275954E7,0E0,4.5016988E7,5.693169E7,3.9663272E6,0E0,0E0,0E0,0E0,0E0,0E0,0E0],"parents":[2147483647,0,0,1,1,2,2,3,3,7,7,8,8,9,9,11,11,13,13,14,14,15,15],"right_children":[2,4,6,8,-1,-1,-1,10,12,14,-1,16,-1,18,20,22,-1,-1,-1,-1,-1,-1,-1],"split_conditions":[7.015886E4,6.148382E4,4.827E1,4.7E1,-3.3801144E2,1.2801398E2,6.190776E2,4.6E1,1E0,3.035206E4,-2.6511728E2,2.886E0,5.91054E2,2.996792E4,3.647202E4,4.65E1,-2.072544E2,-2.4655201E0,-1.7532903E2,2.035125E2,-4.9746773E1,-3.2413456E1,6.943263E1],"split_indices":[11,9,1,6,0,0,0,6,0,10,0,2,0,10,10,1,0,0,0,0,0,0,0],"split_type":[0,0,0,0,0,0,0,0,0,0,0,0,0,0,0,0,0,0,0,0,0,0,0],"sum_hessian":[9E1,8.8E1,2E0,8.4E1,4E0,1E0,1E0,7.8E1,6E0,7.6E1,2E0,4E0,2E0,6.8E1,8E0,2E0,2E0,6.5E1,3E0,5E0,3E0,1E0,1E0],"tree_param":{"num_deleted":"0","num_feature":"15","num_nodes":"23","size_leaf_vector":"1"}},{"base_weights":[1.538436E2,-1.901286E2,7.8547573E3,1.7834328E2,-3.2449097E2,6.036007E2,1.2125002E2,-1.7110901E2,5.873692E3,7.590374E1,-3.990286E3,5.7135223E2,-1.6375568E3,-1.1813382E2,1.8475659E2,-2.489134E2,-9.589508E-1,6.7696815E1,-1.9051358E2,-1.315412E1,1.2602372E2],"categories":[],"categories_nodes":[],"categories_segments":[],"categories_sizes":[],"default_left":[1,1,0,0,0,0,0,0,0,0,0,0,0,0,0,0,0,0,0,0,0],"id":15,"left_children":[1,3,5,7,-1,-1,-1,9,11,13,15,-1,17,19,-1,-1,-1,-1,-1,-1,-1],"loss_changes":[2.4784114E8,2.1007072E8,6.232008E7,1.7216677E8,0E0,0E0,0E0,7.766048E7,2.2727544E8,5.521328E7,1.9521432E7,0E0,2.4657848E7,2.9347782E7,0E0,0E0,0E0,0E0,0E0,0E0,0E0],"parents":[2147483647,0,0,1,1,2,2,3,3,7,7,8,8,9,9,10,10,12,12,13,13],"right_children":[2,4,6,8,-1,-1,-1,10,12,14,16,-1,18,20,-1,-1,-1,-1,-1,-1,-1],"split_conditions":[7.015886E4,6.148382E4,2.943E0,4.7E1,-3.2449097E2,6.036007E2,1.2125002E2,4.5E1,4.8E1,2.1751598E2,3.109262E4,5.7135223E2,2.886E0,3.257227E4,1.8475659E2,-2.489134E2,-9.589508E-1,6.7696815E1,-1.9051358E2,-1.315412E1,1.2602372E2],"split_indices":[11,9,2,6,0,0,0,6,6,3,9,0,2,9,0,0,0,0,0,0,0],"split_type":[0,0,0,0,0,0,0,0,0,0,0,0,0,0,0,0,0,0,0,0,0],"sum_hessian":[9.2E1,8.9E1,3E0,8.5E1,4E0,1E0,2E0,8.1E1,4E0,7.7E1,4E0,2E0,2E0,7.4E1,3E0,3E0,1E0,1E0,1E0,7.1E1,3E0],"tree_param":{"num_deleted":"0","num_feature":"15","num_nodes":"21","size_leaf_vector":"1"}},{"base_weights":[-2.4763954E2,6.881236E1,-4.190515E3,-1.5706325E2,3.1819563E3,1.2178237E2,-2.8504083E2,2.7250314E2,-1.4382832E3,1.9129137E2,-9.3497705E-1,2.6194976E3,-2.1975047E2,-2.986327E3,9.575891E2,2.7199533E2,8.818559E2,-4.5966675E2,3.0639743E2,-4.335225E3,-6.900747E2,1.3741162E2,-1.0245721E3,1.2275803E2,-2.5886202E0,-3.898203E1,8.543425E1,-2.5931384E2,4.0553364E1,4.1399723E1,-1.2420711E2,-6.9185326E1,1.0299145E1],"categories":[],"categories_nodes":[],"categories_segments":[],"categories_sizes":[],"default_left":[0,0,0,0,0,0,0,0,1,0,0,0,0,0,0,0,0,0,0,0,1,0,0,0,0,0,0,0,0,0,0,0,0],"id":16,"left_children":[1,3,5,7,9,-1,-1,11,13,-1,-1,15,17,19,21,-1,23,25,-1,27,29,-1,31,-1,-1,-1,-1,-1,-1,-1,-1,-1,-1],"loss_changes":[1.17575016E8,6.2379896E7,8.3937704E7,4.607257E7,1.24364E7,0E0,0E0,7.336058E7,8.074689E7,0E0,0E0,4.911225E7,8.353138E7,3.727471E7,3.475986E7,0E0,1.1878164E7,3.7410576E7,0E0,3.9244496E7,1.8397968E7,0E0,2.4946935E6,0E0,0E0,0E0,0E0,0E0,0E0,0E0,0E0,0E0,0E0],"parents":[2147483647,0,0,1,1,2,2,3,3,4,4,7,7,8,8,11,11,12,12,13,13,14,14,16,16,17,17,19,19,20,20,22,22],"right_children":[2,4,6,8,10,-1,-1,12,14,-1,-1,16,18,20,22,-1,24,26,-1,28,30,-1,32,-1,-1,-1,-1,-1,-1,-1,-1,-1,-1],"split_conditions":[2.182205E2,2.1704536E2,3.129E0,2.370437E4,2.1799808E2,1.2178237E2,-2.8504083E2,2.1121564E2,3.109262E4,1.9129137E2,-9.3497705E-1,6.586E1,2.369889E4,3.128062E4,3.666765E4,2.7199533E2,1.619554E4,8.716E1,3.0639743E2,7.127E1,2.890237E4,1.3741162E2,2.983E0,1.2275803E2,-2.5886202E0,-3.898203E1,8.543425E1,-2.5931384E2,4.0553364E1,4.1399723E1,-1.2420711E2,-6.9185326E1,1.0299145E1],"split_indices":[3,3,2,10,3,0,0,3,10,0,0,1,10,11,10,0,10,1,0,1,9,0,2,0,0,0,0,0,0,0,0,0,0],"split_type":[0,0,0,0,0,0,0,0,0,0,0,0,0,0,0,0,0,0,0,0,0,0,0,0,0,0,0,0,0,0,0,0,0],"sum_hessian":[9.3E1,8.7E1,6E0,8.2E1,5E0,1E0,5E0,6.2E1,2E1,4E0,1E0,1E1,5.2E1,1.2E1,8E0,3E0,7E0,5.1E1,1E0,7E0,5E0,4E0,4E0,2E0,5E0,4.5E1,6E0,6E0,1E0,3E0,2E0,3E0,1E0],"tree_param":{"num_deleted":"0","num_feature":"15","num_nodes":"33","size_leaf_vector":"1"}},{"base_weights":[-2.3427454E2,-6.020644E2,7.639828E3,-8.368575E1,-4.4815356E3,5.902403E2,1.1582836E2,7.3494896E1,-1.4656555E2,-2.0363923E3,-2.6192706E2,-4.550327E2,1.1064692E3,4.1337598E2,-2.3464244E2,1.2718063E3,-7.731203E2,2.8777072E2,6.729542E2,-3.1565907E1,6.2569103E1,9.542786E1,-2.1281538E1,-1.6778164E1,-1.456484E2,1.0946305E2,-4.0093718E0],"categories":[],"categories_nodes":[],"categories_segments":[],"categories_sizes":[],"default_left":[1,0,0,0,0,0,0,0,0,0,0,0,0,0,0,0,0,0,0,0,0,0,0,0,0,0,0],"id":17,"left_children":[1,3,5,7,9,-1,-1,11,-1,13,-1,15,17,19,-1,21,23,-1,25,-1,-1,-1,-1,-1,-1,-1,-1],"loss_changes":[2.59449E8,1.7056293E8,6.133843E7,3.4232396E7,7.842128E6,0E0,0E0,4.0358228E7,0E0,2.797072E7,0E0,2.7898276E7,4.6511544E7,3.4164005E6,0E0,9.459096E6,3.834734E7,0E0,2.7583406E7,0E0,0E0,0E0,0E0,0E0,0E0,0E0,0E0],"parents":[2147483647,0,0,1,1,2,2,3,3,4,4,7,7,9,9,11,11,12,12,13,13,15,15,16,16,18,18],"right_children":[2,4,6,8,10,-1,-1,12,-1,14,-1,16,18,20,-1,22,24,-1,26,-1,-1,-1,-1,-1,-1,-1,-1],"split_conditions":[7.015886E4,4.6E1,2.943E0,1E0,2.114952E2,5.902403E2,1.1582836E2,7.866E0,-1.4656555E2,1E0,-2.6192706E2,1E1,2.1109636E2,2.854E0,-2.3464244E2,3.257227E4,2.369889E4,2.8777072E2,1.9172848E4,-3.1565907E1,6.2569103E1,9.542786E1,-2.1281538E1,-1.6778164E1,-1.456484E2,1.0946305E2,-4.0093718E0],"split_indices":[11,6,2,0,3,0,0,4,0,0,0,6,3,2,0,10,10,0,12,0,0,0,0,0,0,0,0],"split_type":[0,0,0,0,0,0,0,0,0,0,0,0,0,0,0,0,0,0,0,0,0,0,0,0,0,0,0],"sum_hessian":[8.7E1,8.4E1,3E0,7.5E1,9E0,1E0,2E0,7.2E1,3E0,3E0,6E0,4.8E1,2.4E1,2E0,1E0,7E0,4.1E1,1E0,2.3E1,1E0,1E0,5E0,2E0,3.5E1,6E0,7E0,1.6E1],"tree_param":{"num_deleted":"0","num_feature":"15","num_nodes":"27","size_leaf_vector":"1"}},{"base_weights":[-1.8869174E2,1.4633603E2,-2.9232126E2,-2.1702322E2,3.2388167E3,9.500955E1,-2.3171438E3,8.222164E3,-6.2321765E2,2.9877173E2,-2.5321482E3,6.100488E1,-2.845737E3,1.9098595E2,5.357375E2,1.1584212E2,-1.6745981E3,1.7601155E3,-1.8449915E2,-3.437984E1,-1.4106934E2,-1.2979914E1,-3.1365547E3,-1.757632E2,7.2426715E2,2.7888882E2,4.081614E1,1.2363721E1,-1.6600444E2,-7.276409E1,-1.927131E2,-8.113683E-1,5.5131405E1],"categories":[],"categories_nodes":[],"categories_segments":[],"categories_sizes":[],"default_left":[1,0,0,0,0,0,0,0,0,0,0,0,0,0,0,0,0,0,0,0,0,0,0,0,0,0,0,0,0,0,0,0,0],"id":18,"left_children":[1,3,-1,5,7,9,11,13,15,17,19,-1,21,-1,-1,-1,23,25,27,-1,-1,-1,29,-1,31,-1,-1,-1,-1,-1,-1,-1,-1],"loss_changes":[1.6955486E8,9.621582E7,0E0,5.0678748E7,1.7833693E8,3.7157976E7,2.2169696E7,2.96656E6,2.2426508E7,4.5523132E7,7.27602E5,0E0,5.954608E6,0E0,0E0,0E0,2.4623538E7,5.3096028E7,6.7160344E7,0E0,0E0,0E0,4.044248E6,0E0,8.584154E5,0E0,0E0,0E0,0E0,0E0,0E0,0E0,0E0],"parents":[2147483647,0,0,1,1,3,3,4,4,5,5,6,6,7,7,8,8,9,9,10,10,12,12,16,16,17,17,18,18,22,22,24,24],"right_children":[2,4,-1,6,8,10,12,14,16,18,20,-1,22,-1,-1,-1,24,26,28,-1,-1,-1,30,-1,32,-1,-1,-1,-1,-1,-1,-1,-1],"split_conditions":[6.148382E4,2.1751598E2,-2.9232126E2,4.1E1,2.890237E4,1E0,2.1145377E2,1E0,3.129E0,6.276E1,3.851E1,6.100488E1,2.692E0,1.9098595E2,5.357375E2,1.1584212E2,5.233E1,2.1109636E2,2.4790686E4,-3.437984E1,-1.4106934E2,-1.2979914E1,2.1188968E2,-1.757632E2,5.917E1,2.7888882E2,4.081614E1,1.2363721E1,-1.6600444E2,-7.276409E1,-1.927131E2,-8.113683E-1,5.5131405E1],"split_indices":[9,3,0,6,9,0,3,0,2,1,1,0,2,0,0,0,1,3,12,0,0,0,3,0,1,0,0,0,0,0,0,0,0],"split_type":[0,0,0,0,0,0,0,0,0,0,0,0,0,0,0,0,0,0,0,0,0,0,0,0,0,0,0,0,0,0,0,0,0],"sum_hessian":[8.8E1,8.4E1,4E0,7.6E1,8E0,6.7E1,9E0,3E0,5E0,6.3E1,4E0,1E0,8E0,2E0,1E0,1E0,4E0,1.5E1,4.8E1,1E0,3E0,1E0,7E0,2E0,2E0,2E0,1.3E1,4.3E1,5E0,3E0,4E0,1E0,1E0],"tree_param":{"num_deleted":"0","num_feature":"15","num_nodes":"33","size_leaf_vector":"1"}},{"base_weights":[8.959816E1,-2.2780898E2,9.158736E3,1.0330817E2,-2.8062842E2,5.7395917E2,1.1294606E2,-2.070171E2,3.4577957E3,2.7922382E1,-3.5487422E3,-1.7946764E3,5.529659E2,-1.6256374E2,1.6534137E2,-2.2140086E2,-7.910841E-1,4.069613E2,-1.6990443E2,6.5958496E1,-2.8185862E1,-2.8957657E1,5.9479755E1],"categories":[],"categories_nodes":[],"categories_segments":[],"categories_sizes":[],"default_left":[1,1,0,0,0,0,0,0,0,0,0,0,0,0,0,0,0,0,0,0,0,0,0],"id":19,"left_children":[1,3,5,7,-1,-1,-1,9,11,13,15,17,-1,19,-1,-1,-1,21,-1,-1,-1,-1,-1],"loss_changes":[2.5540405E8,1.5391662E8,2.2101408E7,8.607637E7,0E0,0E0,0E0,5.976693E7,2.9933533E8,4.550775E7,1.5461988E7,1.9033552E7,0E0,4.175742E7,0E0,0E0,0E0,3.0042572E6,0E0,0E0,0E0,0E0,0E0],"parents":[2147483647,0,0,1,1,2,2,3,3,7,7,8,8,9,9,10,10,11,11,13,13,17,17],"right_children":[2,4,6,8,-1,-1,-1,10,12,14,16,18,-1,20,-1,-1,-1,22,-1,-1,-1,-1,-1],"split_conditions":[7.015886E4,6.148382E4,2.943E0,4.7E1,-2.8062842E2,5.7395917E2,1.1294606E2,4.5E1,1E0,2.1704536E2,3.109262E4,2.886E0,5.529659E2,2.1121564E2,1.6534137E2,-2.2140086E2,-7.910841E-1,2.854E0,-1.6990443E2,6.5958496E1,-2.8185862E1,-2.8957657E1,5.9479755E1],"split_indices":[11,9,2,6,0,0,0,6,0,3,9,2,0,3,0,0,0,2,0,0,0,0,0],"split_type":[0,0,0,0,0,0,0,0,0,0,0,0,0,0,0,0,0,0,0,0,0,0,0],"sum_hessian":[8.7E1,8.5E1,2E0,8.1E1,4E0,1E0,1E0,7.5E1,6E0,7.1E1,4E0,4E0,2E0,6.8E1,3E0,3E0,1E0,2E0,2E0,1.4E1,5.4E1,1E0,1E0],"tree_param":{"num_deleted":"0","num_feature":"15","num_nodes":"23","size_leaf_vector":"1"}},{"base_weights":[9.020016E1,-2.1217374E2,8.929768E3,9.844095E1,-2.694033E2,5.5961017E2,1.1012241E2,-1.9435358E2,4.7634653E3,2.6261387E1,-1.9376785E3,-1.3757823E2,5.345337E2,-2.2721346E2,1.8258312E3,-2.750395E3,1.1410134E2,7.16613E0,-9.224066E1,1.7493655E2,2.031297E1,-1.7525896E2,-5.59658E1],"categories":[],"categories_nodes":[],"categories_segments":[],"categories_sizes":[],"default_left":[1,1,0,0,0,0,0,0,0,0,0,0,0,0,0,0,0,0,0,0,0,0,0],"id":20,"left_children":[1,3,5,7,-1,-1,-1,9,11,13,15,-1,-1,17,19,21,-1,-1,-1,-1,-1,-1,-1],"loss_changes":[2.4245157E8,1.4200872E8,2.1010112E7,1.15660856E8,0E0,0E0,0E0,3.081917E7,2.5213182E8,3.325734E7,3.7141292E7,0E0,0E0,3.862466E7,1.995182E7,5.9255E6,0E0,0E0,0E0,0E0,0E0,0E0,0E0],"parents":[2147483647,0,0,1,1,2,2,3,3,7,7,8,8,9,9,10,10,13,13,14,14,15,15],"right_children":[2,4,6,8,-1,-1,-1,10,12,14,16,-1,-1,18,20,22,-1,-1,-1,-1,-1,-1,-1],"split_conditions":[7.015886E4,6.148382E4,2.943E0,1E0,-2.694033E2,5.5961017E2,1.1012241E2,1.1E1,2.572E0,3.035206E4,3.332E0,-1.3757823E2,5.345337E2,2.308214E4,2.390381E4,3.109262E4,1.1410134E2,7.16613E0,-9.224066E1,1.7493655E2,2.031297E1,-1.7525896E2,-5.59658E1],"split_indices":[11,9,2,0,0,0,0,7,2,10,2,0,0,10,9,9,0,0,0,0,0,0,0],"split_type":[0,0,0,0,0,0,0,0,0,0,0,0,0,0,0,0,0,0,0,0,0,0,0],"sum_hessian":[8.9E1,8.7E1,2E0,8.3E1,4E0,1E0,1E0,7.9E1,4E0,7.1E1,8E0,2E0,2E0,6.3E1,8E0,7E0,1E0,5.2E1,1.1E1,3E0,5E0,4E0,3E0],"tree_param":{"num_deleted":"0","num_feature":"15","num_nodes":"23","size_leaf_vector":"1"}},{"base_weights":[9.001094E1,3.7504092E2,-2.5862717E2,-1.1627943E2,5.5484395E3,3.609775E1,-2.1466441E2,-1.6880464E3,6.6034686E2,2.0101814E2,-1.288432E2,4.340978E2,-1.6237543E2,-3.4173245E2,1.2589723E3,-2.683457E1,5.9391907E1,-2.5295948E1,1.2816747E2,2.717761E2,4.4463863E1],"categories":[],"categories_nodes":[],"categories_segments":[],"categories_sizes":[],"default_left":[1,0,0,0,0,0,0,0,0,0,0,0,0,0,0,0,0,0,0,0,0],"id":21,"left_children":[1,3,-1,5,7,9,-1,11,-1,13,-1,15,-1,17,19,-1,-1,-1,-1,-1,-1],"loss_changes":[1.4593853E8,2.3449042E8,0E0,5.425585E7,4.6565875E8,3.6285244E7,0E0,1.7956754E7,0E0,4.579245E7,0E0,2.8326712E6,0E0,2.6576532E7,3.685566E7,0E0,0E0,0E0,0E0,0E0,0E0],"parents":[2147483647,0,0,1,1,3,3,4,4,5,5,7,7,9,9,11,11,13,13,14,14],"right_children":[2,4,-1,6,8,10,-1,12,-1,14,-1,16,-1,18,20,-1,-1,-1,-1,-1,-1],"split_conditions":[6.148382E4,4.7E1,-2.5862717E2,4.6E1,5.233E1,1E0,-2.1466441E2,2.886E0,6.6034686E2,7.866E0,-1.288432E2,4.65E1,-1.6237543E2,3.257227E4,2.1109636E2,-2.683457E1,5.9391907E1,-2.5295948E1,1.2816747E2,2.717761E2,4.4463863E1],"split_indices":[9,6,0,6,1,0,0,2,0,4,0,1,0,9,3,0,0,0,0,0,0],"split_type":[0,0,0,0,0,0,0,0,0,0,0,0,0,0,0,0,0,0,0,0,0],"sum_hessian":[9.5E1,9.1E1,4E0,8.4E1,7E0,8.2E1,2E0,4E0,3E0,7.8E1,4E0,2E0,2E0,5.2E1,2.6E1,1E0,1E0,5E1,2E0,1E0,2.5E1],"tree_param":{"num_deleted":"0","num_feature":"15","num_nodes":"21","size_leaf_vector":"1"}},{"base_weights":[3.0009674E2,-1.801903E0,6.866843E3,2.936862E2,-2.4828209E2,1.0504868E2,5.2911127E2,4.6454138E-1,4.10549E3,2.1879346E3,-3.855664E2,-1.262329E3,4.947043E2,4.0914175E3,7.247658E2,-2.0860574E2,-2.0750894E2,5.7907112E1,-2.4552002E3,2.3295599E1,2.440658E2,1.1721895E2,-1.0291754E1,-2.5907398E1,9.047001E1,-2.6163706E1,-1.579763E2],"categories":[],"categories_nodes":[],"categories_segments":[],"categories_sizes":[],"default_left":[1,1,0,0,0,0,0,0,0,0,0,0,0,0,0,1,0,0,0,0,0,0,0,0,0,0,0],"id":22,"left_children":[1,3,5,7,-1,-1,-1,9,11,13,15,17,-1,19,21,23,-1,-1,25,-1,-1,-1,-1,-1,-1,-1,-1],"loss_changes":[1.8041912E8,1.3053282E8,4.859512E7,9.388518E7,0E0,0E0,0E0,6.755365E7,1.9892237E8,3.045608E7,4.443505E7,1.4392712E7,0E0,1.204464E7,1.2540263E7,4.2164964E7,0E0,0E0,2.428818E6,0E0,0E0,0E0,0E0,0E0,0E0,0E0,0E0],"parents":[2147483647,0,0,1,1,2,2,3,3,7,7,8,8,9,9,10,10,11,11,13,13,14,14,15,15,18,18],"right_children":[2,4,6,8,-1,-1,-1,10,12,14,16,18,-1,20,22,24,-1,-1,26,-1,-1,-1,-1,-1,-1,-1,-1],"split_conditions":[7.015886E4,6.148382E4,4.827E1,4.7E1,-2.4828209E2,1.0504868E2,5.2911127E2,2.1121564E2,5.233E1,6.586E1,4.6E1,2.1145377E2,4.947043E2,4.383E1,1.619554E4,2.962081E4,-2.0750894E2,5.7907112E1,4.65E1,2.3295599E1,2.440658E2,1.1721895E2,-1.0291754E1,-2.5907398E1,9.047001E1,-2.6163706E1,-1.579763E2],"split_indices":[11,9,1,6,0,0,0,3,1,1,6,3,0,1,10,10,0,0,1,0,0,0,0,0,0,0,0],"split_type":[0,0,0,0,0,0,0,0,0,0,0,0,0,0,0,0,0,0,0,0,0,0,0,0,0,0,0],"sum_hessian":[9E1,8.7E1,3E0,8.3E1,4E0,2E0,1E0,7.8E1,5E0,1.1E1,6.7E1,3E0,2E0,4E0,7E0,6.5E1,2E0,1E0,2E0,1E0,3E0,2E0,5E0,5.7E1,8E0,1E0,1E0],"tree_param":{"num_deleted":"0","num_feature":"15","num_nodes":"27","size_leaf_vector":"1"}},{"base_weights":[3.198955E2,2.707189E1,6.682041E3,4.276631E2,-3.5367466E3,1.01547066E2,5.158835E2,7.077175E1,4.7821417E2,-4.9106372E2,-2.488872E2,2.3099625E2,-2.0059196E2,-7.0377205E1,5.645943E1,4.14181E2,-1.22653175E2,-1.8770948E1,5.101761E1],"categories":[],"categories_nodes":[],"categories_segments":[],"categories_sizes":[],"default_left":[1,0,0,0,0,0,0,0,0,0,0,0,0,0,0,0,0,0,0],"id":23,"left_children":[1,3,5,7,9,-1,-1,11,-1,13,-1,15,-1,-1,-1,17,-1,-1,-1],"loss_changes":[1.6935086E8,1.2714435E8,4.6684096E7,2.6018555E8,3.7055016E7,0E0,0E0,5.194919E7,0E0,7.5290995E6,0E0,3.838361E7,0E0,0E0,0E0,3.4844616E7,0E0,0E0,0E0],"parents":[2147483647,0,0,1,1,2,2,3,3,4,4,7,7,9,9,11,11,15,15],"right_children":[2,4,6,8,10,-1,-1,12,-1,14,-1,16,-1,-1,-1,18,-1,-1,-1],"split_conditions":[7.015886E4,4.8E1,4.827E1,4.7E1,2.476398E4,1.01547066E2,5.158835E2,4.6E1,4.7821417E2,4.984E1,-2.488872E2,1E0,-2.0059196E2,-7.0377205E1,5.645943E1,7.808E0,-1.22653175E2,-1.8770948E1,5.101761E1],"split_indices":[11,6,1,6,11,0,0,6,0,1,0,0,0,0,0,4,0,0,0],"split_type":[0,0,0,0,0,0,0,0,0,0,0,0,0,0,0,0,0,0,0],"sum_hessian":[9E1,8.7E1,3E0,7.9E1,8E0,2E0,1E0,7.7E1,2E0,3E0,5E0,7.5E1,2E0,2E0,1E0,7.1E1,4E0,3.1E1,4E1],"tree_param":{"num_deleted":"0","num_feature":"15","num_nodes":"19","size_leaf_vector":"1"}},{"base_weights":[2.8245248E2,-6.7639303E0,6.5022964E3,4.0577115E2,-3.2238613E3,9.816216E1,5.029864E2,1.7502798E2,4.5432492E2,-4.6998993E2,-4.33695E3,-7.058456E2,6.120988E2,-6.8031296E1,5.5047943E1,-2.5798358E2,-7.600492E1,-2.8700376E3,2.4254294E2,1.2274019E3,-1.1456812E3,-8.506017E1,-1.8067854E2,-8.651938E0,9.22117E1,1.3990517E1,1.9737183E2,-9.0062065E0,-1.7572713E2],"categories":[],"categories_nodes":[],"categories_segments":[],"categories_sizes":[],"default_left":[1,1,0,0,0,0,0,0,0,0,0,0,1,0,0,0,0,0,0,1,0,0,0,0,0,0,0,0,0],"id":24,"left_children":[1,3,5,7,9,-1,-1,11,-1,13,15,17,19,-1,-1,-1,-1,21,23,25,27,-1,-1,-1,-1,-1,-1,-1,-1],"loss_changes":[1.6194326E8,1.1677155E8,4.483979E7,1.5464506E8,2.861472E7,0E0,0E0,3.0077364E7,0E0,7.094566E6,8.379176E6,5.4060976E7,5.764772E7,0E0,0E0,0E0,0E0,8.0512E5,1.2966162E7,9.941726E7,3.1388734E7,0E0,0E0,0E0,0E0,0E0,0E0,0E0,0E0],"parents":[2147483647,0,0,1,1,2,2,3,3,4,4,7,7,9,9,10,10,11,11,12,12,17,17,18,18,19,19,20,20],"right_children":[2,4,6,8,10,-1,-1,12,-1,14,16,18,20,-1,-1,-1,-1,22,24,26,28,-1,-1,-1,-1,-1,-1,-1,-1],"split_conditions":[7.015886E4,3.561951E4,4.827E1,2.1846762E2,2.886E0,9.816216E1,5.029864E2,1.8936998E4,4.5432492E2,4.984E1,7.015886E4,6.997E1,2.5655006E4,-6.8031296E1,5.5047943E1,-2.5798358E2,-7.600492E1,1.756054E4,8.994E1,2.2174162E4,6.371E1,-8.506017E1,-1.8067854E2,-8.651938E0,9.22117E1,1.3990517E1,1.9737183E2,-9.0062065E0,-1.7572713E2],"split_indices":[11,12,1,3,2,0,0,14,0,1,10,1,13,0,0,0,0,14,1,12,1,0,0,0,0,0,0,0,0],"split_type":[0,0,0,0,0,0,0,0,0,0,0,0,0,0,0,0,0,0,0,0,0,0,0,0,0,0,0,0,0],"sum_hessian":[8.9E1,8.6E1,3E0,7.7E1,9E0,2E0,1E0,7.6E1,1E0,3E0,6E0,2.5E1,5.1E1,2E0,1E0,4E0,2E0,7E0,1.8E1,3.8E1,1.3E1,4E0,3E0,1.5E1,3E0,2.9E1,9E0,1E1,3E0],"tree_param":{"num_deleted":"0","num_feature":"15","num_nodes":"29","size_leaf_vector":"1"}},{"base_weights":[1.1942475E2,-1.609303E2,6.3274688E3,9.23913E1,-2.2176057E2,9.48901E1,4.904117E2,-1.5309476E2,2.849678E3,4.0711403E1,-3.029568E3,-1.4273956E3,4.5141208E2,-1.1594631E2,2.8503723E3,-1.8632512E2,-6.0458097E0,4.2163126E2,-1.400312E2,2.527128E0,-1.1785028E2,1.6151364E2,4.2766792E1,-2.2049402E1,5.367175E1],"categories":[],"categories_nodes":[],"categories_segments":[],"categories_sizes":[],"default_left":[1,1,0,0,0,0,0,0,0,0,0,0,0,0,0,0,0,0,0,0,0,0,0,0,0],"id":25,"left_children":[1,3,5,7,-1,-1,-1,9,11,13,15,17,-1,19,21,-1,-1,23,-1,-1,-1,-1,-1,-1,-1],"loss_changes":[1.6114029E8,9.677611E7,4.306045E7,5.7970684E7,0E0,0E0,0E0,4.416412E7,1.9787008E8,3.334212E7,9.6851E6,1.3876512E7,0E0,2.6983154E7,2.68692E5,0E0,0E0,2.1601475E6,0E0,0E0,0E0,0E0,0E0,0E0,0E0],"parents":[2147483647,0,0,1,1,2,2,3,3,7,7,8,8,9,9,10,10,11,11,13,13,14,14,17,17],"right_children":[2,4,6,8,-1,-1,-1,10,12,14,16,18,-1,20,22,-1,-1,24,-1,-1,-1,-1,-1,-1,-1],"split_conditions":[7.015886E4,6.148382E4,4.827E1,4.7E1,-2.2176057E2,9.48901E1,4.904117E2,4.5E1,1E0,2.1751598E2,3.109262E4,2.886E0,4.5141208E2,1E0,6.393E1,-1.8632512E2,-6.0458097E0,4.65E1,-1.400312E2,2.527128E0,-1.1785028E2,1.6151364E2,4.2766792E1,-2.2049402E1,5.367175E1],"split_indices":[11,9,1,6,0,0,0,6,0,3,9,2,0,0,1,0,0,1,0,0,0,0,0,0,0],"split_type":[0,0,0,0,0,0,0,0,0,0,0,0,0,0,0,0,0,0,0,0,0,0,0,0,0],"sum_hessian":[9.1E1,8.8E1,3E0,8.4E1,4E0,2E0,1E0,7.8E1,6E0,7.4E1,4E0,4E0,2E0,7.1E1,3E0,3E0,1E0,2E0,2E0,6.7E1,4E0,2E0,1E0,1E0,1E0],"tree_param":{"num_deleted":"0","num_feature":"15","num_nodes":"25","size_leaf_vector":"1"}},{"base_weights":[1.8279971E2,-9.399664E1,6.1574204E3,2.5316258E2,-3.130839E3,9.172709E1,4.7815143E2,-8.0286446E1,4.36365E2,-4.0220163E2,-4.428124E3,1.1507895E2,-2.916564E3,-6.170008E1,5.2329956E1,-6.519088E1,-2.3961111E2,2.857158E2,-1.1313627E2,-1.7933792E2,-5.8946643E0,7.3901085E1,-8.20394E0],"categories":[],"categories_nodes":[],"categories_segments":[],"categories_sizes":[],"default_left":[1,0,0,0,0,0,0,0,0,0,0,0,0,0,0,0,0,0,0,0,0,0,0],"id":26,"left_children":[1,3,5,7,9,-1,-1,11,-1,13,15,17,19,-1,-1,-1,-1,21,-1,-1,-1,-1,-1],"loss_changes":[1.4941658E8,9.251391E7,4.1344336E7,2.2393042E8,3.0077384E7,0E0,0E0,4.3002144E7,0E0,6.1119545E6,5.77136E5,3.0265592E7,8.955408E6,0E0,0E0,0E0,0E0,3.724671E7,0E0,0E0,0E0,0E0,0E0],"parents":[2147483647,0,0,1,1,2,2,3,3,4,4,7,7,9,9,10,10,11,11,12,12,17,17],"right_children":[2,4,6,8,10,-1,-1,12,-1,14,16,18,20,-1,-1,-1,-1,22,-1,-1,-1,-1,-1],"split_conditions":[7.015886E4,4.8E1,4.827E1,4.7E1,2.886E0,9.172709E1,4.7815143E2,4.5E1,4.36365E2,4.984E1,4.404E1,1E0,3.109262E4,-6.170008E1,5.2329956E1,-6.519088E1,-2.3961111E2,6.393E1,-1.1313627E2,-1.7933792E2,-5.8946643E0,7.3901085E1,-8.20394E0],"split_indices":[11,6,1,6,2,0,0,6,0,1,1,0,9,0,0,0,0,1,0,0,0,0,0],"split_type":[0,0,0,0,0,0,0,0,0,0,0,0,0,0,0,0,0,0,0,0,0,0,0],"sum_hessian":[8.9E1,8.6E1,3E0,7.8E1,8E0,2E0,1E0,7.6E1,2E0,3E0,5E0,7.2E1,4E0,2E0,1E0,1E0,4E0,6.8E1,4E0,3E0,1E0,1.8E1,5E1],"tree_param":{"num_deleted":"0","num_feature":"15","num_nodes":"23","size_leaf_vector":"1"}},{"base_weights":[-2.1143885E1,-2.9422922E2,5.9920195E3,-2.5573442E3,2.836623E2,8.866952E1,4.6619766E2,-7.8114935E2,-3.900185E3,-7.491517E1,4.218195E2,2.0773312E2,-1.0345929E2,-2.2288237E2,-5.5677853E1,2.3888141E2,-1.7511954E3,3.56389E2,-1.33886595E1,3.6911404E0,1.7359123E2,-2.9105818E3,1.1553477E2,-8.876493E0,2.671256E1,1.6919842E1,-5.6472145E1,-1.8532031E2,-4.173206E0],"categories":[],"categories_nodes":[],"categories_segments":[],"categories_sizes":[],"default_left":[1,0,0,0,0,0,0,1,0,0,0,0,0,0,0,0,0,0,0,0,0,0,0,0,0,0,0,0,0],"id":27,"left_children":[1,3,5,7,9,-1,-1,11,13,15,-1,17,-1,-1,-1,19,21,23,-1,25,-1,27,-1,-1,-1,-1,-1,-1,-1],"loss_changes":[1.5119474E8,1.158149E8,3.968976E7,3.9886016E7,2.0819232E8,0E0,0E0,1.1893287E7,1.057056E7,3.671309E7,0E0,5.195523E5,0E0,0E0,0E0,4.4848236E7,5.8527764E7,5.696655E5,0E0,2.1621118E7,0E0,1.9939648E7,0E0,0E0,0E0,0E0,0E0,0E0,0E0],"parents":[2147483647,0,0,1,1,2,2,3,3,4,4,7,7,8,8,9,9,11,11,15,15,16,16,17,17,19,19,21,21],"right_children":[2,4,6,8,10,-1,-1,12,14,16,-1,18,-1,-1,-1,20,22,24,-1,26,-1,28,-1,-1,-1,-1,-1,-1,-1],"split_conditions":[7.015886E4,5.498E1,4.827E1,1E1,4.7E1,8.866952E1,4.6619766E2,3.128062E4,7.015886E4,2.5655006E4,4.218195E2,3.01E0,-1.0345929E2,-2.2288237E2,-5.5677853E1,2.646827E4,3.109262E4,4.227E1,-1.33886595E1,3.9E1,1.7359123E2,3.523E0,1.1553477E2,-8.876493E0,2.671256E1,1.6919842E1,-5.6472145E1,-1.8532031E2,-4.173206E0],"split_indices":[11,1,1,6,6,0,0,9,10,13,0,2,0,0,0,10,9,1,0,6,0,2,0,0,0,0,0,0,0],"split_type":[0,0,0,0,0,0,0,0,0,0,0,0,0,0,0,0,0,0,0,0,0,0,0,0,0,0,0,0,0],"sum_hessian":[9E1,8.7E1,3E0,1.7E1,7E1,2E0,1E0,8E0,9E0,6.8E1,2E0,5E0,3E0,7E0,2E0,5.8E1,1E1,4E0,1E0,5.5E1,3E0,8E0,2E0,1E0,3E0,4.3E1,1.2E1,6E0,2E0],"tree_param":{"num_deleted":"0","num_feature":"15","num_nodes":"29","size_leaf_vector":"1"}},{"base_weights":[1.2829778E2,-1.3844229E2,5.831135E3,3.838437E2,-2.0003899E3,8.5713875E1,4.545427E2,2.4785473E1,4.0775885E2,-2.544571E2,-3.9120422E3,-1.6971712E2,1.5410025E2,-7.6867004E1,2.0144356E2,-2.2205733E2,-6.867257E1,1.5414218E2,-2.7826118E3,-5.6579376E1,1.056557E3,1.0087759E2,-1.4262728E1,-5.4197025E0,-1.9153102E2,3.2340977E0,7.681621E1],"categories":[],"categories_nodes":[],"categories_segments":[],"categories_sizes":[],"default_left":[1,1,0,0,0,0,0,1,0,0,1,1,0,0,0,0,0,0,0,0,0,0,0,0,0,0,0],"id":28,"left_children":[1,3,5,7,9,-1,-1,11,-1,13,15,17,-1,-1,19,-1,-1,21,23,-1,25,-1,-1,-1,-1,-1,-1],"loss_changes":[1.3619186E8,8.440019E7,3.8094944E7,1.8954242E8,6.241927E7,0E0,0E0,3.976912E7,0E0,6.7432265E6,5.988912E6,5.374017E7,0E0,0E0,1.1454622E7,0E0,0E0,4.724575E7,1.9203E7,0E0,2.7558415E6,0E0,0E0,0E0,0E0,0E0,0E0],"parents":[2147483647,0,0,1,1,2,2,3,3,4,4,7,7,9,9,10,10,11,11,14,14,17,17,18,18,20,20],"right_children":[2,4,6,8,10,-1,-1,12,-1,14,16,18,-1,-1,20,-1,-1,22,24,-1,26,-1,-1,-1,-1,-1,-1],"split_conditions":[7.015886E4,2.996792E4,4.827E1,4.7E1,2.476398E4,8.5713875E1,4.545427E2,3.035206E4,4.0775885E2,3.100265E4,7.934015E4,2.4790686E4,1.5410025E2,-7.6867004E1,4.984E1,-2.2205733E2,-6.867257E1,2.1121564E2,5.458E1,-5.6579376E1,3.222938E4,1.0087759E2,-1.4262728E1,-5.4197025E0,-1.9153102E2,3.2340977E0,7.681621E1],"split_indices":[11,9,1,6,11,0,0,10,0,9,10,12,0,0,1,0,0,3,1,0,9,0,0,0,0,0,0],"split_type":[0,0,0,0,0,0,0,0,0,0,0,0,0,0,0,0,0,0,0,0,0,0,0,0,0,0,0],"sum_hessian":[8.8E1,8.5E1,3E0,6.7E1,1.8E1,2E0,1E0,6.5E1,2E0,1E1,8E0,6.2E1,3E0,2E0,8E0,6E0,2E0,5.6E1,6E0,3E0,5E0,1E1,4.6E1,2E0,4E0,2E0,3E0],"tree_param":{"num_deleted":"0","num_feature":"15","num_nodes":"27","size_leaf_vector":"1"}},{"base_weights":[1.0237277E2,-1.6105606E2,5.674642E3,1.5363808E2,-2.835544E3,8.285674E1,4.431791E2,-1.5759843E2,3.941669E2,-1.0466056E2,-3.600845E3,-6.222557E2,6.9150543E2,-6.25229E1,5.467336E1,-6.638349E1,-2.1222905E2,-2.3218251E2,-2.592358E3,-1.3971273E3,1.4923833E3,2.859361E1,-4.009073E1,-5.580481E0,-1.4654033E2,2.5048061E1,-1.05665855E2,-3.7342148E1,1.1442908E2],"categories":[],"categories_nodes":[],"categories_segments":[],"categories_sizes":[],"default_left":[1,1,0,0,0,0,0,0,0,0,0,0,1,0,0,0,0,0,0,1,0,0,0,0,0,0,0,0,0],"id":29,"left_children":[1,3,5,7,9,-1,-1,11,-1,13,15,17,19,-1,-1,-1,-1,21,23,25,27,-1,-1,-1,-1,-1,-1,-1,-1],"loss_changes":[1.3008882E8,7.197553E7,3.655821E7,1.8648629E8,1.8432664E7,0E0,0E0,3.0020962E7,0E0,5.4857695E6,4.607872E6,3.7053816E7,4.724902E7,0E0,0E0,0E0,0E0,1.969518E7,6.389736E6,1.1933822E7,3.7366572E7,0E0,0E0,0E0,0E0,0E0,0E0,0E0,0E0],"parents":[2147483647,0,0,1,1,2,2,3,3,4,4,7,7,9,9,10,10,11,11,12,12,17,17,18,18,19,19,20,20],"right_children":[2,4,6,8,10,-1,-1,12,-1,14,16,18,20,-1,-1,-1,-1,22,24,26,28,-1,-1,-1,-1,-1,-1,-1,-1],"split_conditions":[7.015886E4,3.561951E4,4.827E1,4.7E1,2.886E0,8.285674E1,4.431791E2,7.866E0,3.941669E2,4.984E1,3.270034E4,4E1,1.864351E4,-6.25229E1,5.467336E1,-6.638349E1,-2.1222905E2,2.72E0,1.638537E4,1.933153E4,2.725E0,2.859361E1,-4.009073E1,-5.580481E0,-1.4654033E2,2.5048061E1,-1.05665855E2,-3.7342148E1,1.1442908E2],"split_indices":[11,12,1,6,2,0,0,4,0,1,9,6,10,0,0,0,0,2,9,9,2,0,0,0,0,0,0,0,0],"split_type":[0,0,0,0,0,0,0,0,0,0,0,0,0,0,0,0,0,0,0,0,0,0,0,0,0,0,0,0,0],"sum_hessian":[8.7E1,8.4E1,3E0,7.6E1,8E0,2E0,1E0,7.4E1,2E0,2E0,6E0,4.8E1,2.6E1,1E0,1E0,2E0,4E0,4.1E1,7E0,7E0,1.9E1,1.7E1,2.4E1,1E0,6E0,2E0,5E0,5E0,1.4E1],"tree_param":{"num_deleted":"0","num_feature":"15","num_nodes":"29","size_leaf_vector":"1"}},{"base_weights":[8.950321E1,-2.2664601E2,4.6587495E3,-1.8352009E1,-1.8194986E2,2.1337024E3,4.3209967E2,-2.8944696E2,1.6097471E3,1.1964193E2,2.7428919E1,1.3084799E3,-5.990482E2,5.2364497E3,-1.7288191E3,2.089134E3,-1.8196788E2,-8.490327E2,1.1632283E3,1.581155E2,3.9017874E2,-2.2738447E3,3.8533386E1,4.719929E1,2.4141003E2,-9.905875E1,-6.239843E0,-1.8106462E1,8.660178E1,-4.851952E1,-1.3414873E2],"categories":[],"categories_nodes":[],"categories_segments":[],"categories_sizes":[],"default_left":[1,1,0,0,0,0,0,0,0,0,0,1,1,0,0,1,0,0,0,0,0,0,0,0,0,0,0,0,0,0,0],"id":30,"left_children":[1,3,5,7,-1,9,-1,11,13,-1,-1,15,17,19,21,23,-1,25,27,-1,-1,29,-1,-1,-1,-1,-1,-1,-1,-1,-1],"loss_changes":[1.3395574E8,6.1770404E7,4.190783E7,3.7099596E7,0E0,7.41156E5,0E0,3.640369E7,1.5434872E8,0E0,0E0,5.3953704E7,2.7860668E7,7.270144E6,1.1288372E7,2.9945256E7,0E0,4.4029412E7,7.568297E6,0E0,0E0,5.96158E5,0E0,0E0,0E0,0E0,0E0,0E0,0E0,0E0,0E0],"parents":[2147483647,0,0,1,1,2,2,3,3,5,5,7,7,8,8,11,11,12,12,13,13,14,14,15,15,17,17,18,18,21,21],"right_children":[2,4,6,8,-1,10,-1,12,14,-1,-1,16,18,20,22,24,-1,26,28,-1,-1,30,-1,-1,-1,-1,-1,-1,-1,-1,-1],"split_conditions":[3.897189E4,6.148382E4,4.951717E4,2.1604105E2,-1.8194986E2,8.567609E4,4.3209967E2,2.1121564E2,2.890237E4,1.1964193E2,2.7428919E1,2.996792E4,2.962081E4,1E0,3.332E0,2.282888E4,-1.8196788E2,7.127E1,4.65E1,1.581155E2,3.9017874E2,2.182205E2,3.8533386E1,4.719929E1,2.4141003E2,-9.905875E1,-6.239843E0,-1.8106462E1,8.660178E1,-4.851952E1,-1.3414873E2],"split_indices":[11,9,9,3,0,11,0,3,9,0,0,10,10,0,2,12,0,1,1,0,0,3,0,0,0,0,0,0,0,0,0],"split_type":[0,0,0,0,0,0,0,0,0,0,0,0,0,0,0,0,0,0,0,0,0,0,0,0,0,0,0,0,0,0,0],"sum_hessian":[9.1E1,8.6E1,5E0,8.2E1,4E0,4E0,1E0,7.1E1,1.1E1,3E0,1E0,1.1E1,6E1,5E0,6E0,1E1,1E0,5.3E1,7E0,4E0,1E0,5E0,1E0,8E0,2E0,2E1,3.3E1,2E0,5E0,2E0,3E0],"tree_param":{"num_deleted":"0","num_feature":"15","num_nodes":"31","size_leaf_vector":"1"}},{"base_weights":[-5.6533875E0,1.8817519E2,-1.7467186E2,-5.4387333E1,3.0720432E3,1.0321089E2,-2.5650815E3,-2.1325127E2,3.76176E2,2.3953009E2,-1.989483E3,-1.5728555E2,-6.0640855E0,9.390919E1,-1.1168013E2,-2.1473198E2,1.174814E3,-2.5764425E1,-1.1146047E2,-2.7760267E1,4.2469807E1,2.4491374E2,4.077875E1],"categories":[],"categories_nodes":[],"categories_segments":[],"categories_sizes":[],"default_left":[1,0,0,0,0,0,0,0,0,0,0,0,0,0,0,0,0,0,0,0,0,0,0],"id":31,"left_children":[1,3,-1,5,7,9,11,13,-1,15,17,-1,-1,-1,-1,19,21,-1,-1,-1,-1,-1,-1],"loss_changes":[6.42044E7,6.3123732E7,0E0,3.3501946E7,1.0397527E8,2.3298488E7,6.713194E6,2.5322284E7,0E0,3.2541934E7,6.18332E5,0E0,0E0,0E0,0E0,1.9311566E7,2.94454E7,0E0,0E0,0E0,0E0,0E0,0E0],"parents":[2147483647,0,0,1,1,3,3,4,4,5,5,6,6,7,7,9,9,10,10,15,15,16,16],"right_children":[2,4,-1,6,8,10,12,14,-1,16,18,-1,-1,-1,-1,20,22,-1,-1,-1,-1,-1,-1],"split_conditions":[6.148382E4,4.7E1,-1.7467186E2,4.5E1,1E0,1E0,3.109262E4,3.129E0,3.76176E2,7.866E0,7.787E0,-1.5728555E2,-6.0640855E0,9.390919E1,-1.1168013E2,2.269969E4,2.1109636E2,-2.5764425E1,-1.1146047E2,-2.7760267E1,4.2469807E1,2.4491374E2,4.077875E1],"split_indices":[9,6,0,6,0,0,9,2,0,4,4,0,0,0,0,9,3,0,0,0,0,0,0],"split_type":[0,0,0,0,0,0,0,0,0,0,0,0,0,0,0,0,0,0,0,0,0,0,0],"sum_hessian":[9.3E1,8.9E1,4E0,8.3E1,6E0,7.9E1,4E0,4E0,2E0,7.5E1,4E0,3E0,1E0,2E0,2E0,5.1E1,2.4E1,1E0,3E0,3.9E1,1.2E1,1E0,2.3E1],"tree_param":{"num_deleted":"0","num_feature":"15","num_nodes":"23","size_leaf_vector":"1"}},{"base_weights":[2.566668E2,3.296628E1,5.337612E3,2.4220573E2,-3.6562412E3,7.654118E1,4.1894943E2,-7.125502E0,3.1283423E3,-5.204429E1,-2.0249294E2,1.5636853E3,-2.9874573E2,5.6946885E3,-2.200895E2,3.496082E3,3.1638873E2,2.7974704E2,-9.194953E2,7.975499E1,3.2647592E2,-7.807937E2,3.655058E1,1.316189E1,2.119242E2,-2.1342432E1,9.725732E1,-9.170499E0,9.908087E1,-6.675651E1,4.3720024E1,-5.2647045E1,-5.912483E0],"categories":[],"categories_nodes":[],"categories_segments":[],"categories_sizes":[],"default_left":[1,1,0,0,0,0,0,0,0,0,0,0,0,0,0,0,0,0,1,0,0,0,0,0,0,0,0,0,0,0,0,0,0],"id":32,"left_children":[1,3,5,7,9,-1,-1,11,13,-1,-1,15,17,19,21,23,25,27,29,-1,-1,31,-1,-1,-1,-1,-1,-1,-1,-1,-1,-1,-1],"loss_changes":[1.0780199E8,7.190291E7,3.3484752E7,6.334743E7,9.31804E5,0E0,0E0,3.802972E7,6.1405984E7,0E0,0E0,3.0227414E7,2.5394166E7,3.2746E6,2.703915E6,1.0884616E7,1.1725265E7,2.9528076E7,2.6518028E7,0E0,0E0,4.1641875E5,0E0,0E0,0E0,0E0,0E0,0E0,0E0,0E0,0E0,0E0,0E0],"parents":[2147483647,0,0,1,1,2,2,3,3,4,4,7,7,8,8,11,11,12,12,13,13,14,14,15,15,16,16,17,17,18,18,21,21],"right_children":[2,4,6,8,10,-1,-1,12,14,-1,-1,16,18,20,22,24,26,28,30,-1,-1,32,-1,-1,-1,-1,-1,-1,-1,-1,-1,-1,-1],"split_conditions":[7.015886E4,4.178213E4,4.827E1,2.1751598E2,2.716E0,7.654118E1,4.1894943E2,2.1121564E2,2.890237E4,-5.204429E1,-2.0249294E2,6.586E1,1.938623E4,5.736E1,5.917E1,4.383E1,2.1110841E2,2.1554462E2,3.5889715E4,7.975499E1,3.2647592E2,4.404E1,3.655058E1,1.316189E1,2.119242E2,-2.1342432E1,9.725732E1,-9.170499E0,9.908087E1,-6.675651E1,4.3720024E1,-5.2647045E1,-5.912483E0],"split_indices":[11,9,1,3,2,0,0,3,9,0,0,1,11,1,1,1,3,3,14,0,0,1,0,0,0,0,0,0,0,0,0,0,0],"split_type":[0,0,0,0,0,0,0,0,0,0,0,0,0,0,0,0,0,0,0,0,0,0,0,0,0,0,0,0,0,0,0,0,0],"sum_hessian":[9.4E1,9.1E1,3E0,8.7E1,4E0,2E0,1E0,8.1E1,6E0,1E0,3E0,1.2E1,6.9E1,3E0,3E0,4E0,8E0,3.6E1,3.3E1,1E0,2E0,2E0,1E0,1E0,3E0,6E0,2E0,2.9E1,7E0,2.7E1,6E0,1E0,1E0],"tree_param":{"num_deleted":"0","num_feature":"15","num_nodes":"33","size_leaf_vector":"1"}},{"base_weights":[1.20362236E2,3.0888977E2,-1.6108975E2,8.596928E1,2.5273486E3,2.4945615E2,-2.4489224E3,-2.1368584E2,3.583484E2,4.036492E1,2.0478224E3,-1.5017532E2,-5.764671E0,-1.7137E3,9.287808E1,9.939586E2,-2.1578276E2,-6.363977E1,2.7040242E3,-1.5812317E1,-1.0370512E2,9.0340866E1,-1.4298743E2,-2.15782E1,6.781689E1,1.4585582E2,3.5636818E1],"categories":[],"categories_nodes":[],"categories_segments":[],"categories_sizes":[],"default_left":[1,0,0,0,0,0,0,0,0,0,0,0,0,0,0,1,0,0,0,0,0,0,0,0,0,0,0],"id":33,"left_children":[1,3,-1,5,7,9,11,13,-1,15,17,-1,-1,19,-1,21,23,-1,25,-1,-1,-1,-1,-1,-1,-1,-1],"loss_changes":[5.8963332E7,4.3302236E7,0E0,3.4179044E7,1.0327032E8,2.887108E7,6.124678E6,2.1824706E7,0E0,1.7312738E7,2.0873636E7,0E0,0E0,1.358656E6,0E0,5.215484E7,1.9582456E7,0E0,8.9116E5,0E0,0E0,0E0,0E0,0E0,0E0,0E0,0E0],"parents":[2147483647,0,0,1,1,3,3,4,4,5,5,6,6,7,7,9,9,10,10,13,13,15,15,16,16,18,18],"right_children":[2,4,-1,6,8,10,12,14,-1,16,18,-1,-1,20,-1,22,24,-1,26,-1,-1,-1,-1,-1,-1,-1,-1],"split_conditions":[6.148382E4,4.7E1,-1.6108975E2,4.5E1,1E0,2.1604105E2,3.109262E4,4.34797E4,3.583484E2,2.1121564E2,3.285E0,-1.5017532E2,-5.764671E0,2.854E0,9.287808E1,2.7522207E4,8.783E1,-6.363977E1,2.646827E4,-1.5812317E1,-1.0370512E2,9.0340866E1,-1.4298743E2,-2.15782E1,6.781689E1,1.4585582E2,3.5636818E1],"split_indices":[9,6,0,6,0,3,9,9,0,3,2,0,0,2,0,12,1,0,9,0,0,0,0,0,0,0,0],"split_type":[0,0,0,0,0,0,0,0,0,0,0,0,0,0,0,0,0,0,0,0,0,0,0,0,0,0,0],"sum_hessian":[9.1E1,8.7E1,4E0,8E1,7E0,7.6E1,4E0,5E0,2E0,6.9E1,7E0,3E0,1E0,3E0,2E0,1.4E1,5.5E1,1E0,6E0,1E0,2E0,1.2E1,2E0,4.9E1,6E0,5E0,1E0],"tree_param":{"num_deleted":"0","num_feature":"15","num_nodes":"27","size_leaf_vector":"1"}},{"base_weights":[7.07687E1,-1.1766136E2,5.762891E3,1.12754395E2,-2.522319E3,2.6063124E1,4.0615372E2,-9.417971E1,2.8185945E3,-9.195912E2,-1.9475748E2,5.7974995E1,-2.3576643E3,-9.681599E2,3.4640344E2,1.0574323E1,-6.276161E1,-1.0302587E2,1.6367014E3,-1.4454375E2,-5.6205544E0,5.153412E1,-9.890008E1,9.372721E0,-7.492142E1,1.1983954E2,2.3371834E1],"categories":[],"categories_nodes":[],"categories_segments":[],"categories_sizes":[],"default_left":[1,0,0,0,0,0,0,0,0,0,0,0,0,0,0,0,0,0,0,0,0,0,0,0,0,0,0],"id":34,"left_children":[1,3,5,7,9,-1,-1,11,13,15,-1,17,19,21,-1,-1,-1,23,25,-1,-1,-1,-1,-1,-1,-1,-1],"loss_changes":[1.0042681E8,5.070487E7,3.287936E7,4.7299624E7,1.402024E7,0E0,0E0,2.7344272E7,1.000769E8,2.163645E6,0E0,1.9231846E7,5.660996E6,1.0112746E7,0E0,0E0,0E0,2.8249136E7,5.10087E6,0E0,0E0,0E0,0E0,0E0,0E0,0E0,0E0],"parents":[2147483647,0,0,1,1,2,2,3,3,4,4,7,7,8,8,9,9,11,11,12,12,13,13,17,17,18,18],"right_children":[2,4,6,8,10,-1,-1,12,14,16,-1,18,20,22,-1,-1,-1,24,26,-1,-1,-1,-1,-1,-1,-1,-1],"split_conditions":[7.015886E4,3.897189E4,4.455E1,4.7E1,1E0,2.6063124E1,4.0615372E2,4.5E1,1E0,4.383E1,-1.9475748E2,3.035206E4,3.109262E4,2.1145377E2,3.4640344E2,1.0574323E1,-6.276161E1,2.308214E4,2.646827E4,-1.4454375E2,-5.6205544E0,5.153412E1,-9.890008E1,9.372721E0,-7.492142E1,1.1983954E2,2.3371834E1],"split_indices":[11,10,1,6,0,0,0,6,0,1,0,10,9,3,0,0,0,10,9,0,0,0,0,0,0,0,0],"split_type":[0,0,0,0,0,0,0,0,0,0,0,0,0,0,0,0,0,0,0,0,0,0,0,0,0,0,0],"sum_hessian":[9.2E1,9E1,2E0,8.3E1,7E0,1E0,1E0,7.8E1,5E0,4E0,3E0,7.4E1,4E0,3E0,2E0,1E0,3E0,6.8E1,6E0,3E0,1E0,1E0,2E0,5.7E1,1.1E1,3E0,3E0],"tree_param":{"num_deleted":"0","num_feature":"15","num_nodes":"27","size_leaf_vector":"1"}},{"base_weights":[-2.1501405E2,-5.2022854E1,-2.9754597E3,-2.9224622E2,2.3266855E3,-1.6384453E2,-4.4243435E1,-1.8465175E2,-1.478211E2,-2.463189E2,3.3485666E2,-3.7939862E2,1.3289244E3,-1.6017886E3,8.2154015E1,-1.9830518E2,-2.6577336E3,-8.4163165E2,1.2772372E2,-1.3847968E1,-9.7553925E1,6.3511494E1,-2.1335005E1,1.0309964E1,-1.7126334E2,-1.0516268E1,-4.9097935E1],"categories":[],"categories_nodes":[],"categories_segments":[],"categories_sizes":[],"default_left":[1,0,0,0,0,0,0,1,0,0,0,0,0,0,0,0,0,0,0,0,0,0,0,0,0,0,0],"id":35,"left_children":[1,3,5,7,9,-1,-1,11,-1,13,-1,15,17,19,-1,21,23,25,-1,-1,-1,-1,-1,-1,-1,-1,-1],"loss_changes":[4.033876E7,4.98222E7,2.51224E5,2.2099488E7,9.161107E7,0E0,0E0,2.3201036E7,0E0,1.7998006E7,0E0,2.7941772E7,2.6091052E7,1.310628E6,0E0,2.2343392E7,1.1697104E7,1.4782625E5,0E0,0E0,0E0,0E0,0E0,0E0,0E0,0E0,0E0],"parents":[2147483647,0,0,1,1,2,2,3,3,4,4,7,7,9,9,11,11,12,12,13,13,15,15,16,16,17,17],"right_children":[2,4,6,8,10,-1,-1,12,-1,14,-1,16,18,20,-1,22,24,26,-1,-1,-1,-1,-1,-1,-1,-1,-1],"split_conditions":[6.148382E4,4.7E1,4.927E1,4.6E1,1E0,-1.6384453E2,-4.4243435E1,3.035206E4,-1.478211E2,4.34797E4,3.3485666E2,2.733937E4,2.983E0,2.854E0,8.2154015E1,2.1121564E2,6E0,4.227E1,1.2772372E2,-1.3847968E1,-9.7553925E1,6.3511494E1,-2.1335005E1,1.0309964E1,-1.7126334E2,-1.0516268E1,-4.9097935E1],"split_indices":[9,6,1,6,0,0,0,10,0,9,0,10,2,2,0,3,6,1,0,0,0,0,0,0,0,0,0],"split_type":[0,0,0,0,0,0,0,0,0,0,0,0,0,0,0,0,0,0,0,0,0,0,0,0,0,0,0],"sum_hessian":[8.9E1,8.5E1,4E0,7.8E1,7E0,3E0,1E0,7.6E1,2E0,5E0,2E0,6.8E1,8E0,3E0,2E0,6.4E1,4E0,3E0,5E0,1E0,2E0,8E0,5.6E1,1E0,3E0,1E0,2E0],"tree_param":{"num_deleted":"0","num_feature":"15","num_nodes":"27","size_leaf_vector":"1"}},{"base_weights":[1.7519238E2,-3.7111134E1,4.908223E3,1.9429568E2,-2.1413608E3,6.458422E1,3.93946E2,-9.896008E1,2.315633E3,-7.9581274E2,-1.8121715E2,2.577567E2,-1.7651727E3,4.3833525E3,-6.2875684E2,1.0052216E1,-1.0353931E3,2.5771323E3,4.649396E0,5.222483E1,-2.3709758E3,1.2825407E2,3.3686774E2,6.3174965E1,-1.15571365E2,-5.796118E1,-1.3501767E1,-6.757987E1,1.8165988E2,-6.7424593E0,1.257037E2,-1.8476656E2,-3.2572903E1],"categories":[],"categories_nodes":[],"categories_segments":[],"categories_sizes":[],"default_left":[1,0,0,0,0,0,0,0,0,0,0,1,1,0,0,0,0,0,0,0,0,0,0,0,0,0,0,0,0,0,0,0,0],"id":36,"left_children":[1,3,5,7,9,-1,-1,11,13,15,-1,17,19,21,23,-1,25,27,29,-1,31,-1,-1,-1,-1,-1,-1,-1,-1,-1,-1,-1,-1],"loss_changes":[9.3632184E7,4.4240452E7,3.279748E7,5.12409E7,1.5074516E7,0E0,0E0,4.3843704E7,6.363778E7,1.6411232E6,0E0,3.579812E7,2.4603864E7,8.399416E6,1.8840704E7,0E0,1.60842E5,2.9804596E7,1.9942448E7,0E0,2.264242E7,0E0,0E0,0E0,0E0,0E0,0E0,0E0,0E0,0E0,0E0,0E0,0E0],"parents":[2147483647,0,0,1,1,2,2,3,3,4,4,7,7,8,8,9,9,11,11,12,12,13,13,14,14,16,16,17,17,18,18,20,20],"right_children":[2,4,6,8,10,-1,-1,12,14,16,-1,18,20,22,24,-1,26,28,30,-1,32,-1,-1,-1,-1,-1,-1,-1,-1,-1,-1,-1,-1],"split_conditions":[7.015886E4,3.666765E4,4.827E1,3.035206E4,1E0,6.458422E1,3.93946E2,2.370437E4,2.890237E4,4.383E1,-1.8121715E2,1.6777055E4,1.952585E4,1E0,2.1353561E2,1.0052216E1,3.270034E4,1.2E1,2.359855E4,5.222483E1,2.387031E4,1.2825407E2,3.3686774E2,6.3174965E1,-1.15571365E2,-5.796118E1,-1.3501767E1,-6.757987E1,1.8165988E2,-6.7424593E0,1.257037E2,-1.8476656E2,-3.2572903E1],"split_indices":[11,10,1,10,0,0,0,10,9,1,0,14,11,0,3,0,9,6,10,0,9,0,0,0,0,0,0,0,0,0,0,0,0],"split_type":[0,0,0,0,0,0,0,0,0,0,0,0,0,0,0,0,0,0,0,0,0,0,0,0,0,0,0,0,0,0,0,0,0],"sum_hessian":[9.2E1,8.9E1,3E0,8.1E1,8E0,2E0,1E0,7.2E1,9E0,5E0,3E0,6E1,1.2E1,5E0,4E0,1E0,4E0,5E0,5.5E1,2E0,1E1,4E0,1E0,2E0,2E0,3E0,1E0,1E0,4E0,5.3E1,2E0,5E0,5E0],"tree_param":{"num_deleted":"0","num_feature":"15","num_nodes":"33","size_leaf_vector":"1"}},{"base_weights":[2.9159338E2,7.451006E1,4.777445E3,4.5105573E2,-1.331216E3,6.2431416E1,3.8409738E2,1.7325569E2,3.1598523E2,3.708112E1,-3.0462224E3,-9.09555E2,6.747172E2,-7.3846954E2,1.1154358E3,-3.7824116E1,-1.6326297E2,-1.6922452E3,3.2205927E2,3.5609226E1,1.6314009E3,-5.796748E1,-1.3297205E2,-4.2323025E1,9.087625E1,-1.4726233E2,-5.1091007E1,4.196116E1,-1.2975824E1,1.26631325E2,-1.8266897E1,2.5077736E1,1.2425612E2,-1.1531045E1,3.9993615E0],"categories":[],"categories_nodes":[],"categories_segments":[],"categories_sizes":[],"default_left":[1,1,0,0,0,0,0,0,0,0,0,0,1,0,0,0,0,0,0,0,0,0,0,0,0,0,0,0,0,0,0,0,0,0,0],"id":37,"left_children":[1,3,5,7,9,-1,-1,11,-1,13,15,17,19,21,23,-1,-1,25,27,29,31,-1,33,-1,-1,-1,-1,-1,-1,-1,-1,-1,-1,-1,-1],"loss_changes":[8.436494E7,4.5063332E7,3.140592E7,1.08135896E8,4.2352456E7,0E0,0E0,3.5907908E7,0E0,1.0023222E7,1.542184E6,2.0788424E7,2.7455994E7,1.6297318E6,8.425594E6,0E0,0E0,7.911052E6,2.9247218E6,2.8958078E7,1.6115904E7,0E0,1.01627625E5,0E0,0E0,0E0,0E0,0E0,0E0,0E0,0E0,0E0,0E0,0E0,0E0],"parents":[2147483647,0,0,1,1,2,2,3,3,4,4,7,7,9,9,10,10,11,11,12,12,13,13,14,14,17,17,18,18,19,19,20,20,22,22],"right_children":[2,4,6,8,10,-1,-1,12,-1,14,16,18,20,22,24,-1,-1,26,28,30,32,-1,34,-1,-1,-1,-1,-1,-1,-1,-1,-1,-1,-1,-1],"split_conditions":[7.015886E4,2.996792E4,4.827E1,4.7E1,2.476398E4,6.2431416E1,3.8409738E2,1.8936998E4,3.1598523E2,3.666765E4,7.787E0,2.1504352E2,2.200641E4,2.169524E4,4.984E1,-3.7824116E1,-1.6326297E2,6.986E1,1.851645E4,1.9044469E4,1.2E1,-5.796748E1,5.917E1,-4.2323025E1,9.087625E1,-1.4726233E2,-5.1091007E1,4.196116E1,-1.2975824E1,1.26631325E2,-1.8266897E1,2.5077736E1,1.2425612E2,-1.1531045E1,3.9993615E0],"split_indices":[11,9,1,6,11,0,0,14,0,9,4,3,9,11,1,0,0,1,9,14,6,0,1,0,0,0,0,0,0,0,0,0,0,0,0],"split_type":[0,0,0,0,0,0,0,0,0,0,0,0,0,0,0,0,0,0,0,0,0,0,0,0,0,0,0,0,0,0,0,0,0,0,0],"sum_hessian":[8.6E1,8.3E1,3E0,6.6E1,1.7E1,2E0,1E0,6.4E1,2E0,1E1,7E0,2E1,4.4E1,6E0,4E0,1E0,6E0,1.2E1,8E0,2.7E1,1.7E1,3E0,3E0,1E0,3E0,3E0,9E0,4E0,4E0,3E0,2.4E1,8E0,9E0,2E0,1E0],"tree_param":{"num_deleted":"0","num_feature":"15","num_nodes":"35","size_leaf_vector":"1"}},{"base_weights":[1.3851874E2,-3.119366E1,5.2968594E3,3.0713217E2,-1.2645232E3,3.7449493E2,2.2769526E1,5.7654995E1,3.054524E2,1.1662746E1,-2.5418755E3,-4.0665323E2,1.0443267E3,-7.435473E2,7.6492896E2,-1.2459679E1,-2.7689297E3,-1.0433971E3,4.2223227E2,-3.8493692E2,1.4627296E3,-5.57937E1,7.374827E-1,-1.7478189E2,8.814503E1,-1.5626598E2,-5.0718838E1,-9.275542E0,-1.1761782E2,1.0498417E2,2.3430946E0,3.084194E1,-7.961628E1,1.8854352E2,2.6695648E1,3.8993776E0,-3.8440664E0,-3.609393E1,3.66627E1],"categories":[],"categories_nodes":[],"categories_segments":[],"categories_sizes":[],"default_left":[1,1,0,0,0,0,0,0,0,0,0,1,0,0,0,0,1,0,0,0,0,0,0,0,0,0,0,0,0,0,0,0,0,0,0,0,0,0,0],"id":38,"left_children":[1,3,5,7,9,-1,-1,11,-1,13,15,17,19,21,23,-1,25,27,29,31,33,-1,35,37,-1,-1,-1,-1,-1,-1,-1,-1,-1,-1,-1,-1,-1,-1,-1],"loss_changes":[8.2456056E7,3.8776964E7,2.8441768E7,1.05311304E8,3.2632424E7,0E0,0E0,3.295118E7,0E0,6.826377E6,4.515636E6,2.6302152E7,1.4317248E7,1.6635258E6,5.934951E6,0E0,2.457488E6,3.1005882E7,1.3754244E7,8.2394045E6,3.6575796E7,0E0,2.398396E4,2.5164542E6,0E0,0E0,0E0,0E0,0E0,0E0,0E0,0E0,0E0,0E0,0E0,0E0,0E0,0E0,0E0],"parents":[2147483647,0,0,1,1,2,2,3,3,4,4,7,7,9,9,10,10,11,11,12,12,13,13,14,14,16,16,17,17,18,18,19,19,20,20,22,22,23,23],"right_children":[2,4,6,8,10,-1,-1,12,-1,14,16,18,20,22,24,-1,26,28,30,32,34,-1,36,38,-1,-1,-1,-1,-1,-1,-1,-1,-1,-1,-1,-1,-1,-1,-1],"split_conditions":[7.015886E4,2.962081E4,2.943E0,4.7E1,2.476398E4,3.7449493E2,2.2769526E1,7.866E0,3.054524E2,3.222938E4,2.548E0,2.1501857E4,2.725E0,2.169524E4,2.8757328E4,-1.2459679E1,7.934015E4,1.798945E4,1.619554E4,2.627E0,3.355E0,-5.57937E1,3.112E0,2.854E0,8.814503E1,-1.5626598E2,-5.0718838E1,-9.275542E0,-1.1761782E2,1.0498417E2,2.3430946E0,3.084194E1,-7.961628E1,1.8854352E2,2.6695648E1,3.8993776E0,-3.8440664E0,-3.609393E1,3.66627E1],"split_indices":[11,9,2,6,11,0,0,4,0,9,2,14,2,11,14,0,10,9,10,2,2,0,2,2,0,0,0,0,0,0,0,0,0,0,0,0,0,0,0],"split_type":[0,0,0,0,0,0,0,0,0,0,0,0,0,0,0,0,0,0,0,0,0,0,0,0,0,0,0,0,0,0,0,0,0,0,0,0,0,0,0],"sum_hessian":[9.3E1,9.1E1,2E0,7.2E1,1.9E1,1E0,1E0,7E1,2E0,1E1,9E0,4.8E1,2.2E1,5E0,5E0,1E0,8E0,2.7E1,2.1E1,5E0,1.7E1,3E0,2E0,3E0,2E0,6E0,2E0,1.7E1,1E1,3E0,1.8E1,3E0,2E0,4E0,1.3E1,1E0,1E0,2E0,1E0],"tree_param":{"num_deleted":"0","num_feature":"15","num_nodes":"39","size_leaf_vector":"1"}},{"base_weights":[2.3715369E2,3.6730475E2,-1.4078044E2,2.1084322E2,3.6513257E2,3.0090141E1,2.082395E3,1.3858041E3,-2.3765755E2,-1.7617952E2,2.9527063E2,3.039738E3,4.2025668E2,-3.8651697E2,1.4394058E3,-1.3575071E3,7.288253E1,9.486533E0,1.8524037E2,9.403322E1,-8.996413E0,-3.1997168E1,4.6939587E1,-3.636114E1,1.00908806E2,-1.1973602E1,-8.2518074E1],"categories":[],"categories_nodes":[],"categories_segments":[],"categories_sizes":[],"default_left":[1,1,0,0,0,0,0,0,0,0,0,0,0,1,0,0,0,0,0,0,0,0,0,0,0,0,0],"id":39,"left_children":[1,3,-1,5,-1,7,9,11,13,15,-1,17,19,21,23,25,-1,-1,-1,-1,-1,-1,-1,-1,-1,-1,-1],"loss_changes":[3.8779612E7,9.829085E7,0E0,3.072162E7,0E0,3.0820446E7,7.011698E7,2.1079854E7,1.828127E7,1.3559302E7,0E0,8.774344E6,9.103531E6,2.2768074E7,8.991545E6,9.144705E5,0E0,0E0,0E0,0E0,0E0,0E0,0E0,0E0,0E0,0E0,0E0],"parents":[2147483647,0,0,1,1,3,3,5,5,6,6,7,7,8,8,9,9,11,11,12,12,13,13,14,14,15,15],"right_children":[2,4,-1,6,-1,8,10,12,14,16,-1,18,20,22,24,26,-1,-1,-1,-1,-1,-1,-1,-1,-1,-1,-1],"split_conditions":[6.148382E4,5.958948E4,-1.4078044E2,4.7E1,3.6513257E2,2.1121564E2,1E0,6.586E1,8.783E1,4.34797E4,2.9527063E2,4.383E1,1.619554E4,2.962081E4,3.524E0,2.854E0,7.288253E1,9.486533E0,1.8524037E2,9.403322E1,-8.996413E0,-3.1997168E1,4.6939587E1,-3.636114E1,1.00908806E2,-1.1973602E1,-8.2518074E1],"split_indices":[9,9,0,6,0,3,0,1,1,9,0,1,10,10,2,2,0,0,0,0,0,0,0,0,0,0,0],"split_type":[0,0,0,0,0,0,0,0,0,0,0,0,0,0,0,0,0,0,0,0,0,0,0,0,0,0,0],"sum_hessian":[9.4E1,9.1E1,3E0,9E1,1E0,8.3E1,7E0,1.3E1,7E1,5E0,2E0,4E0,9E0,6.5E1,5E0,3E0,2E0,1E0,3E0,2E0,7E0,5.5E1,1E1,1E0,4E0,1E0,2E0],"tree_param":{"num_deleted":"0","num_feature":"15","num_nodes":"27","size_leaf_vector":"1"}},{"base_weights":[1.3432996E2,-6.534564E1,4.443692E3,1.4045128E2,-1.8645247E3,5.8909954E1,3.5600424E2,-1.3676064E2,1.6996145E3,-2.4202031E2,-2.293523E3,2.3080124E2,-1.8712828E3,2.4424153E2,9.5116936E1,9.249369E0,-2.7400892E1,-1.585197E2,-8.432711E2,2.3343298E3,-1.6352072E1,-2.7738633E3,-5.063919E2,9.8350775E2,-1.0047503E2,-1.1674262E1,-4.8435238E1,-6.264336E1,1.6511713E2,2.333663E1,-2.58694E1,-1.7341571E2,3.4821064E1,2.1877446E0,-5.3556183E1,-1.3321677E1,6.1811848E1],"categories":[],"categories_nodes":[],"categories_segments":[],"categories_sizes":[],"default_left":[1,0,0,0,0,0,0,0,0,0,1,1,0,0,0,0,0,0,0,0,0,0,0,0,0,0,0,0,0,0,0,0,0,0,0,0,0],"id":40,"left_children":[1,3,5,7,9,-1,-1,11,13,15,17,19,21,-1,23,-1,-1,-1,25,27,29,31,33,35,-1,-1,-1,-1,-1,-1,-1,-1,-1,-1,-1,-1,-1],"loss_changes":[7.773308E7,3.2474976E7,2.657008E7,3.437771E7,5.709384E6,0E0,0E0,4.3784904E7,6.0863428E7,4.933662E5,6.228284E6,2.9672132E7,1.3378424E7,0E0,1.8803866E7,0E0,0E0,0E0,7.9772E4,2.4972114E7,1.2827706E7,1.9285008E7,1.9109794E6,2.5406515E6,0E0,0E0,0E0,0E0,0E0,0E0,0E0,0E0,0E0,0E0,0E0,0E0,0E0],"parents":[2147483647,0,0,1,1,2,2,3,3,4,4,7,7,8,8,9,9,10,10,11,11,12,12,14,14,18,18,19,19,20,20,21,21,22,22,23,23],"right_children":[2,4,6,8,10,-1,-1,12,14,16,18,20,22,-1,24,-1,-1,-1,26,28,30,32,34,36,-1,-1,-1,-1,-1,-1,-1,-1,-1,-1,-1,-1,-1],"split_conditions":[7.015886E4,3.897189E4,4.827E1,3.035206E4,2.1110039E2,5.8909954E1,3.5600424E2,2.370437E4,3.128062E4,4.383E1,7.015886E4,1.6777055E4,2.387031E4,2.4424153E2,2.1799808E2,9.249369E0,-2.7400892E1,-1.585197E2,2.854E0,1.2E1,1.9195023E4,7.127E1,4.6E1,2.548E0,-1.0047503E2,-1.1674262E1,-4.8435238E1,-6.264336E1,1.6511713E2,2.333663E1,-2.58694E1,-1.7341571E2,3.4821064E1,2.1877446E0,-5.3556183E1,-1.3321677E1,6.1811848E1],"split_indices":[11,10,1,10,3,0,0,10,10,1,10,14,9,0,3,0,0,0,2,6,13,1,6,2,0,0,0,0,0,0,0,0,0,0,0,0,0],"split_type":[0,0,0,0,0,0,0,0,0,0,0,0,0,0,0,0,0,0,0,0,0,0,0,0,0,0,0,0,0,0,0,0,0,0,0,0,0],"sum_hessian":[8.9E1,8.6E1,3E0,7.8E1,8E0,2E0,1E0,6.7E1,1.1E1,2E0,6E0,5.6E1,1.1E1,3E0,8E0,1E0,1E0,3E0,3E0,5E0,5.1E1,6E0,5E0,6E0,2E0,1E0,2E0,1E0,4E0,2.6E1,2.5E1,5E0,1E0,3E0,2E0,1E0,5E0],"tree_param":{"num_deleted":"0","num_feature":"15","num_nodes":"37","size_leaf_vector":"1"}},{"base_weights":[4.9815193E1,2.3384543E2,-1.8887291E3,4.5719727E1,2.2966968E3,-5.8076294E2,-1.5257523E2,1.760264E2,-1.8919629E3,-1.6608931E2,2.8178873E2,9.018134E0,-8.16135E2,-1.7774222E2,8.765225E2,-1.16746315E2,-3.002729E0,-8.228185E1,6.844108E1,-4.6820732E1,-1.1382403E1,3.3988094E1,-1.3105688E2,2.3314468E3,5.4708363E1,2.176647E1,-3.1840117E1,6.682659E1,1.9378831E2,-6.805412E1,2.9751749E1],"categories":[],"categories_nodes":[],"categories_segments":[],"categories_sizes":[],"default_left":[0,0,0,0,0,0,0,0,0,0,0,0,0,0,0,0,0,0,0,0,0,0,0,0,0,0,0,0,0,0,0],"id":41,"left_children":[1,3,5,7,9,11,-1,13,15,17,-1,-1,19,21,23,-1,-1,-1,-1,-1,-1,25,-1,27,29,-1,-1,-1,-1,-1,-1],"loss_changes":[3.2905988E7,3.2493322E7,1.0394768E7,2.0027488E7,5.8500076E7,1.042939E6,0E0,1.8493996E7,3.917118E6,1.3607454E7,0E0,0E0,6.9959E4,2.5956134E7,2.9764386E7,0E0,0E0,0E0,0E0,0E0,0E0,1.2930366E7,0E0,8.648112E6,1.3814712E7,0E0,0E0,0E0,0E0,0E0,0E0],"parents":[2147483647,0,0,1,1,2,2,3,3,4,4,5,5,7,7,8,8,9,9,12,12,13,13,14,14,21,21,23,23,24,24],"right_children":[2,4,6,8,10,12,-1,14,16,18,-1,-1,20,22,24,-1,-1,-1,-1,-1,-1,26,-1,28,30,-1,-1,-1,-1,-1,-1],"split_conditions":[4.34797E4,4.7E1,1E0,4.5E1,1E0,4.383E1,-1.5257523E2,2.200641E4,3.109262E4,3.270034E4,2.8178873E2,9.018134E0,3.270034E4,2.308214E4,2.308214E4,-1.16746315E2,-3.002729E0,-8.228185E1,6.844108E1,-4.6820732E1,-1.1382403E1,1.9195023E4,-1.3105688E2,7.838E0,2.387031E4,2.176647E1,-3.1840117E1,6.682659E1,1.9378831E2,-6.805412E1,2.9751749E1],"split_indices":[10,6,0,6,0,1,0,9,9,10,0,0,9,10,9,0,0,0,0,0,0,13,0,4,9,0,0,0,0,0,0],"split_type":[0,0,0,0,0,0,0,0,0,0,0,0,0,0,0,0,0,0,0,0,0,0,0,0,0,0,0,0,0,0,0],"sum_hessian":[9E1,8.3E1,7E0,7.7E1,6E0,4E0,3E0,7.3E1,4E0,4E0,2E0,1E0,3E0,4.9E1,2.4E1,3E0,1E0,2E0,2E0,2E0,1E0,4.6E1,3E0,8E0,1.6E1,2.9E1,1.7E1,6E0,2E0,4E0,1.2E1],"tree_param":{"num_deleted":"0","num_feature":"15","num_nodes":"31","size_leaf_vector":"1"}},{"base_weights":[9.197717E1,-9.42163E1,5.4609287E3,4.9608803E1,-2.4628699E3,6.2180946E1,3.4738873E2,-1.7619499E2,1.4002975E3,-3.440263E1,-1.3672806E2,1.833377E2,-1.8220233E3,4.0877473E3,-4.5439575E2,1.7895709E3,-9.818991E1,-3.5283208E3,-6.716332E2,1.0929543E2,2.9237753E2,1.454782E2,-7.513392E1,1.946992E2,3.1601328E1,-3.67026E1,1.6108149E1,-1.9793823E2,-4.5163647E1,1.391912E0,-7.76466E1,-2.6144968E1,4.9407776E1],"categories":[],"categories_nodes":[],"categories_segments":[],"categories_sizes":[],"default_left":[1,1,0,1,0,0,0,0,0,0,0,0,0,0,0,1,1,0,1,0,0,0,0,0,0,0,0,0,0,0,0,0,0],"id":42,"left_children":[1,3,5,7,9,-1,-1,11,13,-1,-1,15,17,19,21,23,25,27,29,-1,-1,31,-1,-1,-1,-1,-1,-1,-1,-1,-1,-1,-1],"loss_changes":[8.9484584E7,2.9760628E7,1.017108E7,2.5560948E7,5.2949E5,0E0,0E0,4.293854E7,6.167019E7,0E0,0E0,2.7307658E7,2.3148064E7,3.952104E6,5.249306E6,1.9462468E7,1.4135379E7,2.073836E6,5.591221E6,0E0,0E0,3.8960655E6,0E0,0E0,0E0,0E0,0E0,0E0,0E0,0E0,0E0,0E0,0E0],"parents":[2147483647,0,0,1,1,2,2,3,3,4,4,7,7,8,8,11,11,12,12,13,13,14,14,15,15,16,16,17,17,18,18,21,21],"right_children":[2,4,6,8,10,-1,-1,12,14,-1,-1,16,18,20,22,24,26,28,30,-1,-1,32,-1,-1,-1,-1,-1,-1,-1,-1,-1,-1,-1],"split_conditions":[7.015886E4,3.257227E4,4.827E1,3.035206E4,2.1140494E2,6.2180946E1,3.4738873E2,2.370437E4,2.890237E4,-3.440263E1,-1.3672806E2,2.1121564E2,2.370437E4,1E0,2.1353561E2,1.8912973E4,1.867085E4,7.866E0,3.222938E4,1.0929543E2,2.9237753E2,3.666765E4,-7.513392E1,1.946992E2,3.1601328E1,-3.67026E1,1.6108149E1,-1.9793823E2,-4.5163647E1,1.391912E0,-7.76466E1,-2.6144968E1,4.9407776E1],"split_indices":[11,11,1,10,3,0,0,10,9,0,0,3,9,0,3,13,13,4,9,0,0,9,0,0,0,0,0,0,0,0,0,0,0],"split_type":[0,0,0,0,0,0,0,0,0,0,0,0,0,0,0,0,0,0,0,0,0,0,0,0,0,0,0,0,0,0,0,0,0],"sum_hessian":[8.8E1,8.6E1,2E0,8.2E1,4E0,1E0,1E0,7.1E1,1.1E1,1E0,3E0,5.9E1,1.2E1,4E0,7E0,8E0,5.1E1,4E0,8E0,3E0,1E0,5E0,2E0,2E0,6E0,2E1,3.1E1,3E0,1E0,5E0,3E0,3E0,2E0],"tree_param":{"num_deleted":"0","num_feature":"15","num_nodes":"33","size_leaf_vector":"1"}},{"base_weights":[6.7486305E1,-1.2333571E2,4.2009937E3,1.6972601E2,-1.1135789E3,3.38704E2,5.4263577E1,2.0693214E0,2.850681E2,-2.8498241E1,-1.9987812E3,-6.2120496E2,4.383096E2,4.6712463E2,-1.3406598E3,-6.043091E2,-2.7092927E3,-1.7659503E2,-2.6310918E3,1.270856E3,-1.1205244E2,-3.354257E1,7.255285E2,-7.980971E1,-2.073978E1,-1.1136206E3,3.5823425E1,-1.4750572E2,-3.1609083E1,-6.0210773E1,2.6012913E1,-4.6508877E1,-1.7274876E2,-7.7303576E0,9.664245E1,8.688493E1,-1.7422625E1,-2.8806174E0,5.251537E1,-6.727856E1,-1.0444217E1],"categories":[],"categories_nodes":[],"categories_segments":[],"categories_sizes":[],"default_left":[1,0,0,0,0,0,0,1,0,0,0,0,0,0,0,0,0,0,0,0,0,0,0,0,0,0,0,0,0,0,0,0,0,0,0,0,0,0,0,0,0],"id":43,"left_children":[1,3,5,7,9,-1,-1,11,-1,13,15,17,19,21,23,25,27,29,31,33,35,-1,37,-1,-1,39,-1,-1,-1,-1,-1,-1,-1,-1,-1,-1,-1,-1,-1,-1,-1],"loss_changes":[7.150691E7,2.5436608E7,2.4716368E7,6.305248E7,1.9153356E7,0E0,0E0,1.8489404E7,0E0,7.1296275E6,9.26142E6,2.4556602E7,1.8470478E7,2.8391812E6,4.7676E4,4.1613098E6,1.636484E6,1.7812918E7,3.793036E6,1.5397176E7,1.1537536E7,0E0,1.840943E6,0E0,0E0,5.58348E5,0E0,0E0,0E0,0E0,0E0,0E0,0E0,0E0,0E0,0E0,0E0,0E0,0E0,0E0,0E0],"parents":[2147483647,0,0,1,1,2,2,3,3,4,4,7,7,9,9,10,10,11,11,12,12,13,13,14,14,15,15,16,16,17,17,18,18,19,19,20,20,22,22,25,25],"right_children":[2,4,6,8,10,-1,-1,12,-1,14,16,18,20,22,24,26,28,30,32,34,36,-1,38,-1,-1,40,-1,-1,-1,-1,-1,-1,-1,-1,-1,-1,-1,-1,-1,-1,-1],"split_conditions":[7.015886E4,2.7540291E4,2.943E0,2.1846762E2,1E1,3.38704E2,5.4263577E1,1.8936998E4,2.850681E2,1E0,2.886E0,2.268569E4,1.933153E4,2E0,2.561E0,2.854E0,7.015886E4,1.740668E4,2.771E0,7.808E0,1.8936475E4,-3.354257E1,2.1131964E2,-7.980971E1,-2.073978E1,2.725E0,3.5823425E1,-1.4750572E2,-3.1609083E1,-6.0210773E1,2.6012913E1,-4.6508877E1,-1.7274876E2,-7.7303576E0,9.664245E1,8.688493E1,-1.7422625E1,-2.8806174E0,5.251537E1,-6.727856E1,-1.0444217E1],"split_indices":[11,13,2,3,6,0,0,14,0,0,2,10,11,6,2,2,10,10,2,4,13,0,3,0,0,2,0,0,0,0,0,0,0,0,0,0,0,0,0,0,0],"split_type":[0,0,0,0,0,0,0,0,0,0,0,0,0,0,0,0,0,0,0,0,0,0,0,0,0,0,0,0,0,0,0,0,0,0,0,0,0,0,0,0,0],"sum_hessian":[8.9E1,8.6E1,3E0,6.7E1,1.9E1,1E0,2E0,6.6E1,1E0,9E0,1E1,2.7E1,3.9E1,7E0,2E0,4E0,6E0,2.3E1,4E0,1.5E1,2.4E1,1E0,6E0,1E0,1E0,3E0,1E0,5E0,1E0,9E0,1.4E1,2E0,2E0,5E0,1E1,2E0,2.2E1,2E0,4E0,2E0,1E0],"tree_param":{"num_deleted":"0","num_feature":"15","num_nodes":"41","size_leaf_vector":"1"}},{"base_weights":[1.9689304E2,1.9746235E1,4.089186E3,1.630108E2,-2.4197007E3,5.2454784E1,3.3023642E2,-1.9450889E0,2.802694E3,-3.1070387E1,-1.3569609E2,1.472056E3,-2.546032E2,-2.7334646E1,2.608925E2,2.7392346E3,4.9606235E2,-4.4707892E2,8.184101E2,8.829895E0,1.6678722E2,8.499035E1,-9.42435E0,8.228832E0,-6.003767E1,9.708708E1,-2.2066156E1],"categories":[],"categories_nodes":[],"categories_segments":[],"categories_sizes":[],"default_left":[1,1,0,0,0,0,0,0,0,0,0,0,1,0,0,0,0,0,0,0,0,0,0,0,0,0,0],"id":44,"left_children":[1,3,5,7,9,-1,-1,11,13,-1,-1,15,17,-1,-1,19,21,23,25,-1,-1,-1,-1,-1,-1,-1,-1],"loss_changes":[6.335392E7,3.1498718E7,2.366092E7,3.701711E7,9.59028E5,0E0,0E0,3.0540676E7,4.3299012E7,0E0,0E0,1.348227E7,1.4822922E7,0E0,0E0,7.0541E6,6.912572E6,2.7856972E7,1.6423012E7,0E0,0E0,0E0,0E0,0E0,0E0,0E0,0E0],"parents":[2147483647,0,0,1,1,2,2,3,3,4,4,7,7,8,8,11,11,12,12,15,15,16,16,17,17,18,18],"right_children":[2,4,6,8,10,-1,-1,12,14,-1,-1,16,18,-1,-1,20,22,24,26,-1,-1,-1,-1,-1,-1,-1,-1],"split_conditions":[7.015886E4,4.178213E4,4.827E1,4.7E1,2.716E0,5.2454784E1,3.3023642E2,2.1121564E2,1E0,-3.1070387E1,-1.3569609E2,6.586E1,2.962081E4,-2.7334646E1,2.608925E2,4.383E1,1.619554E4,1.938623E4,2.733937E4,8.829895E0,1.6678722E2,8.499035E1,-9.42435E0,8.228832E0,-6.003767E1,9.708708E1,-2.2066156E1],"split_indices":[11,9,1,6,2,0,0,3,0,0,0,1,10,0,0,1,10,11,9,0,0,0,0,0,0,0,0],"split_type":[0,0,0,0,0,0,0,0,0,0,0,0,0,0,0,0,0,0,0,0,0,0,0,0,0,0,0],"sum_hessian":[9.1E1,8.8E1,3E0,8.4E1,4E0,2E0,1E0,8E1,4E0,1E0,3E0,1.1E1,6.9E1,2E0,2E0,4E0,7E0,5.9E1,1E1,1E0,3E0,2E0,5E0,3.3E1,2.6E1,5E0,5E0],"tree_param":{"num_deleted":"0","num_feature":"15","num_nodes":"27","size_leaf_vector":"1"}},{"base_weights":[2.0392319E1,-1.3199504E2,4.53442E3,1.4583357E2,-1.2359764E3,3.2198053E2,1.8100983E1,-6.61678E1,2.5219608E2,-2.728194E2,-2.1688203E3,-2.1639621E2,1.5723346E3,-5.460544E1,6.851655E1,-2.4325527E3,-4.152523E1,5.6493195E1,-1.7229373E3,-1.2455136E1,9.9322136E1,-2.6528915E1,3.5664456E2,-3.1074E1,-1.3154091E2,8.007145E0,-1.4110602E2,3.8792904E1,-1.2223092E2,-9.12404E0,4.7829845E1],"categories":[],"categories_nodes":[],"categories_segments":[],"categories_sizes":[],"default_left":[1,1,0,0,0,0,0,1,0,0,1,0,0,0,0,0,0,1,0,0,0,0,0,0,0,0,0,0,0,0,0],"id":45,"left_children":[1,3,5,7,9,-1,-1,11,-1,13,15,17,19,-1,21,23,-1,25,27,-1,-1,-1,29,-1,-1,-1,-1,-1,-1,-1,-1],"loss_changes":[6.319567E7,2.7478116E7,2.1516384E7,7.509864E7,1.5580856E7,0E0,0E0,1.757072E7,0E0,2.871357E6,1.156368E6,2.6820076E7,5.02046E6,0E0,1.570156E6,8.78512E5,0E0,1.7160522E7,1.993001E7,0E0,0E0,0E0,2.1152575E6,0E0,0E0,0E0,0E0,0E0,0E0,0E0,0E0],"parents":[2147483647,0,0,1,1,2,2,3,3,4,4,7,7,9,9,10,10,11,11,12,12,14,14,15,15,17,17,18,18,22,22],"right_children":[2,4,6,8,10,-1,-1,12,-1,14,16,18,20,-1,22,24,-1,26,28,-1,-1,-1,30,-1,-1,-1,-1,-1,-1,-1,-1],"split_conditions":[7.015886E4,2.996792E4,2.943E0,4.7E1,2.476398E4,3.2198053E2,1.8100983E1,3.035206E4,2.5219608E2,3.100265E4,7.934015E4,3.9E1,2.548E0,-5.460544E1,2.854E0,2.890237E4,-4.152523E1,2.996792E4,1.731346E4,-1.2455136E1,9.9322136E1,-2.6528915E1,3.222938E4,-3.1074E1,-1.3154091E2,8.007145E0,-1.4110602E2,3.8792904E1,-1.2223092E2,-9.12404E0,4.7829845E1],"split_indices":[11,9,2,6,11,0,0,10,0,9,10,6,2,0,2,10,0,10,9,0,0,0,9,0,0,0,0,0,0,0,0],"split_type":[0,0,0,0,0,0,0,0,0,0,0,0,0,0,0,0,0,0,0,0,0,0,0,0,0,0,0,0,0,0,0],"sum_hessian":[9E1,8.8E1,2E0,7.1E1,1.7E1,1E0,1E0,6.9E1,2E0,9E0,8E0,6.4E1,5E0,2E0,7E0,6E0,2E0,5.5E1,9E0,1E0,4E0,2E0,5E0,1E0,5E0,5.4E1,1E0,2E0,7E0,3E0,2E0],"tree_param":{"num_deleted":"0","num_feature":"15","num_nodes":"31","size_leaf_vector":"1"}},{"base_weights":[1.5934932E2,-8.265871E0,3.890854E3,1.5780066E2,-1.5203981E3,5.010293E1,3.13931E2,-7.134745E1,1.8148019E3,-5.6454474E2,-1.2870393E2,1.9448724E2,-1.4388811E3,2.0792715E2,2.1626389E2,8.408966E0,-7.447254E2,2.1347202E3,-1.3159856E1,4.3645042E1,-1.9885276E3,6.3447365E1,-8.0514824E1,-8.836524E0,-4.2127075E1,1.4964343E2,-5.3900562E1,-5.600223E0,9.0168884E1,-1.7954263E2,-3.944189E1],"categories":[],"categories_nodes":[],"categories_segments":[],"categories_sizes":[],"default_left":[1,0,0,0,0,0,0,0,0,0,0,1,1,0,0,0,0,0,0,0,0,0,0,0,0,0,0,0,0,0,0],"id":46,"left_children":[1,3,5,7,9,-1,-1,11,13,15,-1,17,19,-1,21,-1,23,25,27,-1,29,-1,-1,-1,-1,-1,-1,-1,-1,-1,-1],"loss_changes":[5.819965E7,2.2840228E7,2.1299528E7,3.1264774E7,7.611294E6,0E0,0E0,2.681811E7,3.656625E7,9.173835E5,0E0,2.5006886E7,1.6983742E7,0E0,1.550291E7,0E0,1.288925E5,1.976835E7,1.0436618E7,0E0,1.6390328E7,0E0,0E0,0E0,0E0,0E0,0E0,0E0,0E0,0E0,0E0],"parents":[2147483647,0,0,1,1,2,2,3,3,4,4,7,7,8,8,9,9,11,11,12,12,14,14,16,16,17,17,18,18,20,20],"right_children":[2,4,6,8,10,-1,-1,12,14,16,-1,18,20,-1,22,-1,24,26,28,-1,30,-1,-1,-1,-1,-1,-1,-1,-1,-1,-1],"split_conditions":[7.015886E4,3.666765E4,4.827E1,3.035206E4,1E0,5.010293E1,3.13931E2,2.370437E4,3.128062E4,4.383E1,-1.2870393E2,1.6777055E4,1.952585E4,2.0792715E2,2.1799808E2,8.408966E0,2.8757328E4,2.268569E4,2.359855E4,4.3645042E1,2.390381E4,6.3447365E1,-8.0514824E1,-8.836524E0,-4.2127075E1,1.4964343E2,-5.3900562E1,-5.600223E0,9.0168884E1,-1.7954263E2,-3.944189E1],"split_indices":[11,10,1,10,0,0,0,10,10,1,0,14,11,0,3,0,14,10,10,0,11,0,0,0,0,0,0,0,0,0,0],"split_type":[0,0,0,0,0,0,0,0,0,0,0,0,0,0,0,0,0,0,0,0,0,0,0,0,0,0,0,0,0,0,0],"sum_hessian":[9.2E1,8.9E1,3E0,8.1E1,8E0,2E0,1E0,7.2E1,9E0,5E0,3E0,6.1E1,1.1E1,3E0,6E0,1E0,4E0,5E0,5.6E1,2E0,9E0,4E0,2E0,1E0,3E0,4E0,1E0,5.4E1,2E0,3E0,6E0],"tree_param":{"num_deleted":"0","num_feature":"15","num_nodes":"31","size_leaf_vector":"1"}},{"base_weights":[2.4244257E2,7.855677E1,3.7873196E3,2.5104572E2,-1.4634069E3,4.8432827E1,3.0608273E2,2.7070347E1,1.403298E3,-1.6873264E3,8.198743E0,1.3991857E3,-2.3362514E2,2.9385664E3,-3.3244156E2,-5.9649194E2,-2.2225288E3,1.7990868E2,5.1072458E2,2.5108598E2,-8.3984985E2,8.47777E1,2.5991602E2,7.2299164E2,-1.3047644E3,-3.402239E1,-8.61561E0,-3.006104E1,-1.23877525E2,7.884568E1,-3.288047E1,-1.2091717E1,7.962054E1,-5.9152016E1,4.190791E1,4.520867E1,4.486159E0,-1.3729942E1,-7.7831E1],"categories":[],"categories_nodes":[],"categories_segments":[],"categories_sizes":[],"default_left":[1,0,0,0,0,0,0,0,0,0,0,1,0,0,0,0,0,0,0,0,0,0,0,0,0,0,0,0,0,0,0,0,0,0,0,0,0,0,0],"id":47,"left_children":[1,3,5,7,9,-1,-1,11,13,15,-1,17,19,21,23,25,27,-1,29,31,33,-1,-1,35,37,-1,-1,-1,-1,-1,-1,-1,-1,-1,-1,-1,-1,-1,-1],"loss_changes":[5.2569384E7,2.3772892E7,2.0389036E7,2.0608104E7,3.556302E6,0E0,0E0,2.4650778E7,3.561964E7,3.344818E6,0E0,1.9653186E7,1.725382E7,1.084828E7,8.126886E6,2.52E4,5.77786E5,0E0,1.2247978E7,2.2203582E7,1.5964358E7,0E0,0E0,3.778215E5,6.10366E5,0E0,0E0,0E0,0E0,0E0,0E0,0E0,0E0,0E0,0E0,0E0,0E0,0E0,0E0],"parents":[2147483647,0,0,1,1,2,2,3,3,4,4,7,7,8,8,9,9,11,11,12,12,13,13,14,14,15,15,16,16,18,18,19,19,20,20,23,23,24,24],"right_children":[2,4,6,8,10,-1,-1,12,14,16,-1,18,20,22,24,26,28,-1,30,32,34,-1,-1,36,38,-1,-1,-1,-1,-1,-1,-1,-1,-1,-1,-1,-1,-1,-1],"split_conditions":[7.015886E4,3.897189E4,4.827E1,2.962081E4,1.7135219E5,4.8432827E1,3.0608273E2,2.1121564E2,2.890237E4,3.109262E4,8.198743E0,1.9332707E4,1.938623E4,2.1799808E2,7.866E0,3.270034E4,7.787E0,1.7990868E2,7.299E1,2.1554462E2,7.994E1,8.47777E1,2.5991602E2,5.779E1,4.227E1,-3.402239E1,-8.61561E0,-3.006104E1,-1.23877525E2,7.884568E1,-3.288047E1,-1.2091717E1,7.962054E1,-5.9152016E1,4.190791E1,4.520867E1,4.486159E0,-1.3729942E1,-7.7831E1],"split_indices":[11,10,1,10,9,0,0,3,9,11,0,13,11,3,4,9,4,0,1,3,1,0,0,1,1,0,0,0,0,0,0,0,0,0,0,0,0,0,0],"split_type":[0,0,0,0,0,0,0,0,0,0,0,0,0,0,0,0,0,0,0,0,0,0,0,0,0,0,0,0,0,0,0,0,0,0,0,0,0,0,0],"sum_hessian":[9E1,8.7E1,3E0,7.9E1,8E0,2E0,1E0,6.7E1,1.2E1,7E0,1E0,1E1,5.7E1,6E0,6E0,3E0,4E0,2E0,8E0,3.2E1,2.5E1,5E0,1E0,3E0,3E0,2E0,1E0,1E0,3E0,4E0,4E0,2.4E1,8E0,2.1E1,4E0,2E0,1E0,1E0,2E0],"tree_param":{"num_deleted":"0","num_feature":"15","num_nodes":"39","size_leaf_vector":"1"}},{"base_weights":[2.6865002E2,4.2904324E1,1.6759852E3,-8.1451584E1,9.1252426E1,-6.563174E2,6.50467E3,-8.3769635E2,1.6752765E2,-1.01356976E3,5.504254E1,3.678992E2,9.861822E1,7.1050156E1,-1.7543374E3,1.1618728E3,-5.227624E1,-1.1576782E1,-1.6124502E3,-5.2903553E1,4.8558932E2,-1.0820815E2,-3.505073E1,-4.1449686E2,1.1409344E2,-8.086377E2,4.6283603E2,-2.3710516E1,3.4408092E1,-3.6683952E1,-9.76869E1,-6.0671167E0,5.614283E1,-5.5595565E0,-2.3126276E1,-1.9136894E1,-1.1550387E2,1.1312604E2,3.4308434E0],"categories":[],"categories_nodes":[],"categories_segments":[],"categories_sizes":[],"default_left":[0,0,0,0,0,0,0,0,0,0,0,0,0,0,0,0,0,0,0,0,0,0,0,0,0,0,0,0,0,0,0,0,0,0,0,0,0,0,0],"id":48,"left_children":[1,3,5,7,-1,9,11,13,15,17,-1,-1,-1,19,21,23,25,27,29,-1,31,-1,-1,33,-1,35,37,-1,-1,-1,-1,-1,-1,-1,-1,-1,-1,-1,-1],"loss_changes":[2.7567984E7,1.6991784E7,1.3941258E8,1.3697163E7,0E0,6.7655615E6,9.57296E5,1.5118544E7,1.2081591E7,4.7819245E6,0E0,0E0,0E0,5.194438E6,2.367998E6,1.8601104E7,1.8296374E7,1.6212236E6,6.6153E4,0E0,3.2304715E6,0E0,0E0,2.1408062E4,0E0,1.1265639E7,1.9709916E7,0E0,0E0,0E0,0E0,0E0,0E0,0E0,0E0,0E0,0E0,0E0,0E0],"parents":[2147483647,0,0,1,1,2,2,3,3,5,5,6,6,7,7,8,8,9,9,13,13,14,14,15,15,16,16,17,17,18,18,20,20,23,23,25,25,26,26],"right_children":[2,4,6,8,-1,10,12,14,16,18,-1,-1,-1,20,22,24,26,28,30,-1,32,-1,-1,34,-1,36,38,-1,-1,-1,-1,-1,-1,-1,-1,-1,-1,-1,-1],"split_conditions":[4.7E1,8.716E1,5.233E1,1.8936998E4,9.1252426E1,2.1935773E2,6.225E1,1.851645E4,1.8968902E4,3.3325875E4,5.504254E1,3.678992E2,9.861822E1,2.1150467E2,2.1504352E2,7.742E0,2.200641E4,4.984E1,5E1,-5.2903553E1,1.703938E4,-1.0820815E2,-3.505073E1,1.558778E4,1.1409344E2,7.838E0,2.268569E4,-2.3710516E1,3.4408092E1,-3.6683952E1,-9.76869E1,-6.0671167E0,5.614283E1,-5.5595565E0,-2.3126276E1,-1.9136894E1,-1.1550387E2,1.1312604E2,3.4308434E0],"split_indices":[6,1,1,14,0,3,1,9,12,13,0,0,0,3,3,4,9,1,6,0,9,0,0,9,0,4,9,0,0,0,0,0,0,0,0,0,0,0,0],"split_type":[0,0,0,0,0,0,0,0,0,0,0,0,0,0,0,0,0,0,0,0,0,0,0,0,0,0,0,0,0,0,0,0,0,0,0,0,0,0,0],"sum_hessian":[8.6E1,7.5E1,1.1E1,7.1E1,4E0,8E0,3E0,1.7E1,5.4E1,7E0,1E0,2E0,1E0,9E0,8E0,9E0,4.5E1,3E0,4E0,2E0,7E0,5E0,3E0,4E0,5E0,1.8E1,2.7E1,2E0,1E0,2E0,2E0,4E0,3E0,1E0,3E0,1.5E1,3E0,4E0,2.3E1],"tree_param":{"num_deleted":"0","num_feature":"15","num_nodes":"39","size_leaf_vector":"1"}},{"base_weights":[7.158142E1,-6.5381134E1,4.065289E3,6.898011E1,-1.6299869E3,1.5663483E1,2.8923322E2,-1.2293361E2,1.3188717E3,-4.7763818E2,-1.1874194E2,1.3776166E2,-1.4378901E3,1.9007697E2,-8.7321045E1,7.9080048E0,-3.7114548E1,1.5057355E3,-1.2795948E2,-2.839191E3,-3.136231E1,8.5205444E2,-1.2397101E3,1.7012474E2,3.0311691E1,1.3564528E1,-3.651236E1,-5.6130062E1,-1.7084178E2,1.9199835E1,-3.5658657E1,5.1109283E1,4.2882338E0,-1.34724655E1,-7.36657E1],"categories":[],"categories_nodes":[],"categories_segments":[],"categories_sizes":[],"default_left":[1,0,0,0,0,0,0,0,0,0,0,0,0,0,0,0,0,1,0,0,0,0,0,0,0,0,0,0,0,0,0,0,0,0,0],"id":49,"left_children":[1,3,5,7,9,-1,-1,11,13,15,-1,17,19,-1,21,-1,-1,23,25,27,29,31,33,-1,-1,-1,-1,-1,-1,-1,-1,-1,-1,-1,-1],"loss_changes":[4.9494748E7,1.8612006E7,1.7541224E7,1.9831586E7,4.87399E6,0E0,0E0,2.4879898E7,3.873416E7,7.9046394E5,0E0,2.2366146E7,2.3562576E7,0E0,9.716508E6,0E0,0E0,1.4998672E7,1.2702205E7,2.113728E6,2.25623E6,5.6418225E5,5.09643E5,0E0,0E0,0E0,0E0,0E0,0E0,0E0,0E0,0E0,0E0,0E0,0E0],"parents":[2147483647,0,0,1,1,2,2,3,3,4,4,7,7,8,8,9,9,11,11,12,12,14,14,17,17,18,18,19,19,20,20,21,21,22,22],"right_children":[2,4,6,8,10,-1,-1,12,14,16,-1,18,20,-1,22,-1,-1,24,26,28,30,32,34,-1,-1,-1,-1,-1,-1,-1,-1,-1,-1,-1,-1],"split_conditions":[7.015886E4,3.897189E4,4.455E1,3.035206E4,1E0,1.5663483E1,2.8923322E2,2.370437E4,3.128062E4,4.383E1,-1.1874194E2,2.1121564E2,2.387031E4,1.9007697E2,7.866E0,7.9080048E0,-3.7114548E1,1.8912973E4,1.923986E4,1.2E1,4.6E1,5.779E1,4.227E1,1.7012474E2,3.0311691E1,1.3564528E1,-3.651236E1,-5.6130062E1,-1.7084178E2,1.9199835E1,-3.5658657E1,5.1109283E1,4.2882338E0,-1.34724655E1,-7.36657E1],"split_indices":[11,10,1,10,0,0,0,10,10,1,0,3,9,0,4,0,0,13,11,6,6,1,1,0,0,0,0,0,0,0,0,0,0,0,0],"split_type":[0,0,0,0,0,0,0,0,0,0,0,0,0,0,0,0,0,0,0,0,0,0,0,0,0,0,0,0,0,0,0,0,0,0,0],"sum_hessian":[8.9E1,8.7E1,2E0,8.1E1,6E0,1E0,1E0,7.1E1,1E1,3E0,3E0,6E1,1.1E1,3E0,7E0,1E0,2E0,9E0,5.1E1,5E0,6E0,4E0,3E0,2E0,7E0,3.1E1,2E1,2E0,3E0,4E0,2E0,3E0,1E0,1E0,2E0],"tree_param":{"num_deleted":"0","num_feature":"15","num_nodes":"35","size_leaf_vector":"1"}},{"base_weights":[1.0737675E2,-4.0164646E1,3.4370994E3,1.0192087E2,-1.3460461E3,4.113836E1,2.820024E2,-6.6215393E2,4.239539E2,-4.952142E2,-1.1428912E2,9.200189E2,-9.197238E2,8.17805E2,-3.8494592E2,7.7103057E0,-6.5593945E2,5.827546E1,4.5887027E0,-1.3868652E3,7.113196E1,5.4346387E2,3.1510088E3,8.869191E1,-7.2335736E2,-6.879593E0,-3.7556423E1,-7.906815E1,-2.2832788E1,4.0411007E1,-1.5463373E1,7.242437E1,-3.5553855E-1,-2.0181494E1,2.2352159E2,-1.0701882E2,-1.48630905E1],"categories":[],"categories_nodes":[],"categories_segments":[],"categories_sizes":[],"default_left":[1,0,0,0,0,0,0,0,0,0,0,0,0,0,0,0,0,0,0,0,0,0,0,0,0,0,0,0,0,0,0,0,0,0,0,0,0],"id":50,"left_children":[1,3,5,7,9,-1,-1,11,13,15,-1,17,19,21,23,-1,25,-1,-1,27,29,31,33,-1,35,-1,-1,-1,-1,-1,-1,-1,-1,-1,-1,-1,-1],"loss_changes":[4.631761E7,1.7021952E7,1.8396508E7,2.0703482E7,6.064066E6,0E0,0E0,1.1034164E7,1.9111388E7,7.274195E5,0E0,7.0634075E5,1.0281788E7,2.3891286E7,1.5894264E7,0E0,1.433555E5,0E0,0E0,1.991714E6,2.4930592E6,1.8446768E7,2.0564688E7,0E0,1.0231887E7,0E0,0E0,0E0,0E0,0E0,0E0,0E0,0E0,0E0,0E0,0E0,0E0],"parents":[2147483647,0,0,1,1,2,2,3,3,4,4,7,7,8,8,9,9,11,11,12,12,13,13,14,14,16,16,19,19,20,20,21,21,22,22,24,24],"right_children":[2,4,6,8,10,-1,-1,12,14,16,-1,18,20,22,24,-1,26,-1,-1,28,30,32,34,-1,36,-1,-1,-1,-1,-1,-1,-1,-1,-1,-1,-1,-1],"split_conditions":[7.015886E4,3.897189E4,4.827E1,1.8936998E4,1E0,4.113836E1,2.820024E2,1.547826E4,3.355E0,4.383E1,-1.1428912E2,2.608E0,2.1504352E2,1E0,1.9044469E4,7.7103057E0,2.8757328E4,5.827546E1,4.5887027E0,8.665E1,1.8407615E4,2.169524E4,3.851E1,8.869191E1,1.9185594E4,-6.879593E0,-3.7556423E1,-7.906815E1,-2.2832788E1,4.0411007E1,-1.5463373E1,7.242437E1,-3.5553855E-1,-2.0181494E1,2.2352159E2,-1.0701882E2,-1.48630905E1],"split_indices":[11,10,1,14,0,0,0,11,2,1,0,2,3,0,14,0,14,0,0,1,12,10,1,0,14,0,0,0,0,0,0,0,0,0,0,0,0],"split_type":[0,0,0,0,0,0,0,0,0,0,0,0,0,0,0,0,0,0,0,0,0,0,0,0,0,0,0,0,0,0,0,0,0,0,0,0,0],"sum_hessian":[9.3E1,9E1,3E0,8.2E1,8E0,2E0,1E0,2.4E1,5.8E1,5E0,3E0,3E0,2.1E1,3.9E1,1.9E1,1E0,4E0,2E0,1E0,1.4E1,7E0,3.6E1,3E0,2E0,1.7E1,1E0,3E0,1.1E1,3E0,2E0,5E0,1.3E1,2.3E1,1E0,2E0,3E0,1.4E1],"tree_param":{"num_deleted":"0","num_feature":"15","num_nodes":"37","size_leaf_vector":"1"}},{"base_weights":[1.7511206E2,2.572777E0,1.3395378E3,1.7930417E2,-7.376507E2,-8.7643243E2,5.9905864E3,-1.206005E2,6.87968E2,-1.8115846E3,5.627313E2,-2.1806395E2,-1.0602407E2,3.3922205E2,9.0225586E1,4.6897865E1,-1.18477234E2,1.9139155E3,1.04882E2,8.129376E0,-2.0786797E3,9.009553E1,-5.4115826E2,7.0978625E2,-5.4569912E1,-1.4511E2,1.1911287E3,5.8697994E1,1.7734013E2,7.174114E1,-1.5103702E2,-1.0556233E3,-2.4813887E3,-6.838826E1,4.658347E2,-6.707602E0,5.179082E1,-1.4735008E1,7.993077E1,-3.9029503E1,8.707952E1,-2.2125927E1,6.2977783E1,-6.0065582E1,-1.546395E1,-1.3911032E2,-3.1952967E1,4.612638E0,3.0324965E1],"categories":[],"categories_nodes":[],"categories_segments":[],"categories_sizes":[],"default_left":[0,0,0,0,0,0,0,0,0,0,0,0,0,0,0,0,0,0,0,0,0,0,0,0,0,0,0,0,0,0,1,0,0,0,0,0,0,0,0,0,0,0,0,0,0,0,0,0,0],"id":51,"left_children":[1,3,5,7,9,11,13,15,17,19,21,23,-1,-1,-1,25,-1,27,29,-1,31,-1,33,35,-1,37,39,-1,-1,-1,41,43,45,-1,47,-1,-1,-1,-1,-1,-1,-1,-1,-1,-1,-1,-1,-1,-1],"loss_changes":[1.8681106E7,1.0859563E7,1.2892936E8,1.0303863E7,2.3363828E7,6.9089835E6,1.049936E6,1.6308989E7,1.7670084E7,5.083588E6,1.1918454E7,6.446923E6,0E0,0E0,0E0,9.180599E6,0E0,5.502312E6,6.343141E6,0E0,6.76544E5,0E0,4.799089E6,1.2395542E6,0E0,9.861502E6,7.871602E6,0E0,0E0,0E0,7.135964E6,6.33945E4,9.9303E5,0E0,1.01698E5,0E0,0E0,0E0,0E0,0E0,0E0,0E0,0E0,0E0,0E0,0E0,0E0,0E0,0E0],"parents":[2147483647,0,0,1,1,2,2,3,3,4,4,5,5,6,6,7,7,8,8,9,9,10,10,11,11,15,15,17,17,18,18,20,20,22,22,23,23,25,25,26,26,30,30,31,31,32,32,34,34],"right_children":[2,4,6,8,10,12,14,16,18,20,22,24,-1,-1,-1,26,-1,28,30,-1,32,-1,34,36,-1,38,40,-1,-1,-1,42,44,46,-1,48,-1,-1,-1,-1,-1,-1,-1,-1,-1,-1,-1,-1,-1,-1],"split_conditions":[4.7E1,3.9E1,5.233E1,2.200641E4,2.1704536E2,5.2E1,6.225E1,2.308214E4,2.308214E4,1.638537E4,2.646827E4,3.129E0,-1.0602407E2,3.3922205E2,9.0225586E1,8.783E1,-1.18477234E2,7.838E0,2.5655006E4,8.129376E0,2.056237E4,9.009553E1,3.109262E4,4.65E1,-5.4569912E1,2.1604105E2,3.524E0,5.8697994E1,1.7734013E2,7.174114E1,3.666765E4,6.986E1,2.370437E4,-6.838826E1,5.917E1,-6.707602E0,5.179082E1,-1.4735008E1,7.993077E1,-3.9029503E1,8.707952E1,-2.2125927E1,6.2977783E1,-6.0065582E1,-1.546395E1,-1.3911032E2,-3.1952967E1,4.612638E0,3.0324965E1],"split_indices":[6,6,1,9,3,6,1,10,9,9,9,2,0,0,0,1,0,4,13,0,9,0,9,1,0,3,2,0,0,0,9,1,9,0,1,0,0,0,0,0,0,0,0,0,0,0,0,0,0],"split_type":[0,0,0,0,0,0,0,0,0,0,0,0,0,0,0,0,0,0,0,0,0,0,0,0,0,0,0,0,0,0,0,0,0,0,0,0,0,0,0,0,0,0,0,0,0,0,0,0,0],"sum_hessian":[9.2E1,8.1E1,1.1E1,6.6E1,1.5E1,8E0,3E0,4.2E1,2.4E1,8E0,7E0,6E0,2E0,2E0,1E0,4E1,2E0,7E0,1.7E1,1E0,7E0,3E0,4E0,3E0,3E0,3.5E1,5E0,6E0,1E0,2E0,1.5E1,3E0,4E0,2E0,2E0,1E0,2E0,3.3E1,2E0,1E0,4E0,1.3E1,2E0,2E0,1E0,3E0,1E0,1E0,1E0],"tree_param":{"num_deleted":"0","num_feature":"15","num_nodes":"49","size_leaf_vector":"1"}},{"base_weights":[2.0916359E2,7.311579E1,3.25196E3,1.0086416E3,-9.573648E1,3.9149487E1,2.6647177E2,2.3382366E3,2.4297989E2,-1.9434142E2,1.7770403E3,8.070697E0,1.4210445E2,6.9100945E1,-2.1453217E2,2.3989676E2,-5.602925E2,-3.1797413E1,2.2540015E2,2.1858963E2,-5.0463253E1,-1.0353092E2,1.4119065E3,-7.013122E2,7.298638E1,-1.9804682E1,2.1037252E1,-1.4512076E1,7.7456894E1,9.695608E1,-5.657949E0,-8.367408E1,-1.54187565E1],"categories":[],"categories_nodes":[],"categories_segments":[],"categories_sizes":[],"default_left":[1,0,0,0,0,0,0,0,0,0,0,0,0,0,0,0,0,0,0,0,0,0,0,1,0,0,0,0,0,0,0,0,0],"id":52,"left_children":[1,3,5,7,9,-1,-1,11,13,15,17,-1,-1,-1,19,21,23,-1,-1,25,-1,27,29,31,-1,-1,-1,-1,-1,-1,-1,-1,-1],"loss_changes":[3.8675012E7,1.4471438E7,1.6344012E7,1.3684138E7,1.4749226E7,0E0,0E0,5.025228E6,5.5077275E6,1.2052657E7,2.9225984E7,0E0,0E0,0E0,2.974344E6,1.4233696E7,1.2703093E7,0E0,0E0,9.1222356E5,0E0,9.089605E6,6.651726E6,1.4381994E7,0E0,0E0,0E0,0E0,0E0,0E0,0E0,0E0,0E0],"parents":[2147483647,0,0,1,1,2,2,3,3,4,4,7,7,8,8,9,9,10,10,14,14,15,15,16,16,19,19,21,21,22,22,23,23],"right_children":[2,4,6,8,10,-1,-1,12,14,16,18,-1,-1,-1,20,22,24,-1,-1,26,-1,28,30,32,-1,-1,-1,-1,-1,-1,-1,-1,-1],"split_conditions":[7.015886E4,2.1121564E2,4.827E1,6.586E1,2.1846762E2,3.9149487E1,2.6647177E2,4.383E1,1.619554E4,1.923986E4,1E0,8.070697E0,1.4210445E2,6.9100945E1,2.200641E4,2.1554462E2,8.783E1,-3.1797413E1,2.2540015E2,6.632E1,-5.0463253E1,2.359855E4,2.118342E4,2.169524E4,7.298638E1,-1.9804682E1,2.1037252E1,-1.4512076E1,7.7456894E1,9.695608E1,-5.657949E0,-8.367408E1,-1.54187565E1],"split_indices":[11,3,1,1,3,0,0,1,10,11,0,0,0,0,11,3,1,0,0,1,0,10,10,11,0,0,0,0,0,0,0,0,0],"split_type":[0,0,0,0,0,0,0,0,0,0,0,0,0,0,0,0,0,0,0,0,0,0,0,0,0,0,0,0,0,0,0,0,0],"sum_hessian":[9.3E1,9E1,3E0,1.3E1,7.7E1,2E0,1E0,4E0,9E0,7.4E1,3E0,1E0,3E0,2E0,7E0,3.4E1,4E1,2E0,1E0,5E0,2E0,2.7E1,7E0,3.8E1,2E0,1E0,4E0,2.5E1,2E0,5E0,2E0,1E1,2.8E1],"tree_param":{"num_deleted":"0","num_feature":"15","num_nodes":"33","size_leaf_vector":"1"}},{"base_weights":[9.449481E1,-4.3056126E1,3.165767E3,4.30474E1,-1.5154255E3,3.7844505E1,2.5980997E2,-5.9865047E1,2.1976514E2,-3.0737486E1,-9.554798E1,-2.1329343E2,6.7035364E2,-3.3212387E2,9.2060254E2,1.6935402E2,2.3436743E2,-2.5746855E-1,-3.5671124E1,-2.6258863E1,8.0197495E1,-5.349304E1,2.7044693E1],"categories":[],"categories_nodes":[],"categories_segments":[],"categories_sizes":[],"default_left":[1,0,0,0,0,0,0,1,0,0,0,0,0,1,0,0,0,0,0,0,0,0,0],"id":53,"left_children":[1,3,5,7,9,-1,-1,11,-1,-1,-1,13,15,17,19,-1,21,-1,-1,-1,-1,-1,-1],"loss_changes":[3.942475E7,1.1475094E7,1.5631292E7,3.878263E7,6.06478E5,0E0,0E0,9.666065E6,0E0,0E0,0E0,9.87239E6,1.697301E7,8.100197E6,7.758146E6,0E0,6.1756065E6,0E0,0E0,0E0,0E0,0E0,0E0],"parents":[2147483647,0,0,1,1,2,2,3,3,4,4,7,7,11,11,12,12,13,13,14,14,16,16],"right_children":[2,4,6,8,10,-1,-1,12,-1,-1,-1,14,16,18,20,-1,22,-1,-1,-1,-1,-1,-1],"split_conditions":[7.015886E4,2.1871474E2,4.827E1,2.182205E2,2.1917946E2,3.7844505E1,2.5980997E2,2.410189E4,2.1976514E2,-3.0737486E1,-9.554798E1,8.783E1,2.471649E4,1.938623E4,1.791822E4,1.6935402E2,2.725E0,-2.5746855E-1,-3.5671124E1,-2.6258863E1,8.0197495E1,-5.349304E1,2.7044693E1],"split_indices":[11,3,1,3,3,0,0,11,0,0,0,1,11,11,11,0,2,0,0,0,0,0,0],"split_type":[0,0,0,0,0,0,0,0,0,0,0,0,0,0,0,0,0,0,0,0,0,0,0],"sum_hessian":[9.2E1,8.9E1,3E0,8.5E1,4E0,2E0,1E0,8.4E1,1E0,2E0,2E0,7E1,1.4E1,6.4E1,6E0,1E0,1.3E1,3.5E1,2.9E1,2E0,4E0,2E0,1.1E1],"tree_param":{"num_deleted":"0","num_feature":"15","num_nodes":"23","size_leaf_vector":"1"}},{"base_weights":[9.309945E1,-7.936399E1,2.5783027E3,1.7369125E1,-1.669261E3,1.0674457E3,2.533147E2,-1.680362E2,1.0286313E3,-1.0437654E2,9.546814E-2,6.0371876E1,1.2686963E1,7.62542E1,-1.1680939E3,-2.0802591E2,3.0488882E3,2.1403376E3,-1.5885439E2,-2.0705496E3,-2.3243333E2,2.621261E2,-8.6124744E2,8.3420006E1,2.14271E2,2.07481E1,1.4496426E2,-1.2890033E1,7.880917E1,-1.3119882E2,3.1250269E1,2.424382E1,-5.3548107E1,-1.5786967E1,3.1499683E1,-1.0475329E1,-5.0432945E1],"categories":[],"categories_nodes":[],"categories_segments":[],"categories_sizes":[],"default_left":[1,1,0,1,0,0,0,0,0,0,0,0,0,0,0,0,0,0,0,0,1,0,0,0,0,0,0,0,0,0,0,0,0,0,0,0,0],"id":54,"left_children":[1,3,5,7,9,11,-1,13,15,-1,-1,-1,-1,17,19,21,23,25,27,29,31,33,35,-1,-1,-1,-1,-1,-1,-1,-1,-1,-1,-1,-1,-1,-1],"loss_changes":[3.9636436E7,1.3409218E7,1.7146004E7,1.5734798E7,3.498988E6,2.631865E5,0E0,1.743469E7,3.3112992E7,0E0,0E0,0E0,0E0,2.8486462E7,1.1340226E7,2.989776E6,1.385292E6,6.653722E6,9.505143E6,1.2082546E7,5.3311635E6,1.4743815E6,1.729755E5,0E0,0E0,